svm_type c_svc
kernel_type rbf
gamma 0.09
nr_class 2
total_sv 43
rho -1.06989
label 130860101 130860102
probA -3.81578
probB -1.27456
nr_sv 38 5
SV
0.4731410840686022 1:0.61733389 2:0.52308065 3:0.36640087 4:0.12775311 5:0.27208444 6:0.562105 7:0.49831617 8:0.45455515 9:0.41175213 10:0.50066072 11:0.78116024 12:0.55617362 13:0.58405864 14:0.28402418 15:0.50897223 16:0.31600341 17:0.8254081 18:0.47945607 19:0.43595237 20:0.6145882 21:0.45750409 22:0.28931642 23:0.66572958 24:0.33068085 25:0.79664606 26:0.60819662 27:0.27845791 28:0.66370469 29:0.61071622 30:0.22939666 31:0.43650222 32:0.4636623 33:0.58749843 34:0.43442768 35:0.46801335 36:0.73554534 37:0.29795426 38:0.50259417 39:0.13195413 40:0.46910962 41:0.62566906 42:0.34028429 43:0.24061175 
0.01097942034094802 1:0.54683739 2:0.77142 3:0.78307509 4:0.51002276 5:0.40780655 6:0.32726735 7:0.49143055 8:0.15654425 9:0.79943311 10:0.51296037 11:0.57419294 12:0.68871015 13:0.81516391 14:0.73169446 15:0.44204095 16:0.34530029 17:0.55086946 18:0.42587009 19:0.54357278 20:0.50850034 21:0.42302778 22:0.6383158 23:0.065745331 24:0.47504792 25:0.55175638 26:0.77052128 27:0.63239831 28:0.72071612 29:0.27236742 30:0.3125343 31:0.50742614 32:0.44157809 33:0.29484561 34:0.63228381 35:0.72679973 36:0.45643857 37:0.33459538 38:0.37881255 39:0.33543989 40:0.72404033 41:0.73919094 42:0.19598049 43:0.28529039 
0.1315389442332444 1:0.73999798 2:0.76523393 3:0.76669109 4:0.49141863 5:0.34400669 6:0.41181654 7:0.37370396 8:0.3364152 9:0.58569789 10:0.58547044 11:0.5668568 12:0.36114353 13:0.83122408 14:0.62790596 15:0.15854706 16:0.32755336 17:0.9643786 18:0.30382729 19:0.50586337 20:0.50707889 21:0.39290872 22:0.84986603 23:0.57923859 24:0.58384562 25:0.71676952 26:0.48902583 27:0.46426246 28:0.54065633 29:0.3899717 30:0.39534357 31:0.54569638 32:0.30147469 33:0.057775002 34:0.41697371 35:0.47502714 36:0.38683474 37:0.4279601 38:0.47683227 39:0.26189521 40:0.66798747 41:0.91827518 42:0.26163599 43:0.24088126 
1.097248877649056 1:0.53407907 2:0.34941176 3:0.33816704 4:0.45074239 5:0.49029452 6:0.32097623 7:0.26393336 8:0.19299921 9:0.35631719 10:0.56645495 11:0.39613849 12:0.42147556 13:0.65466809 14:0.50108254 15:0.49971291 16:0.10335686 17:0.47373214 18:0.66834307 19:0.66899002 20:0.34102008 21:0.44651738 22:0.67382461 23:0.58600372 24:0.63405228 25:0.66705477 26:0.55881172 27:0.25702432 28:0.56311876 29:0.44688773 30:0.25963199 31:0.70723128 32:0.43306768 33:0.21337985 34:0.6110943 35:0.37444964 36:0.41868174 37:0.35069838 38:0.48051292 39:0.2111862 40:0.61669683 41:0.96916997 42:0.24889298 43:0.2210438 
0.2825826121174404 1:0.62391698 2:0.4529433 3:0.381082 4:0.64715773 5:0.24562179 6:0.5548591 7:0.31435531 8:0.44578913 9:0.67475367 10:0.43488035 11:0.58187914 12:0.57659763 13:0.50182092 14:0.86257005 15:0.66524071 16:0.24513279 17:0.18271542 18:0.30690345 19:0.63936663 20:0.81204754 21:0.70555627 22:0.40870431 23:0.58818501 24:0.45119688 25:0.36239538 26:0.3277716 27:0 28:0.35593179 29:0.49585685 30:0.34993425 31:0.43424788 32:0.81159306 33:0.39676389 34:0.62272263 35:0.21582258 36:0.6875127 37:0.44032693 38:0.26754054 39:0.42147052 40:0.52083039 41:0.86653358 42:0.13629134 43:0.32268137 
0.2203370364115838 1:0.46451196 2:0.23594271 3:0.3716895 4:0.34922147 5:0.58954972 6:0.41865206 7:0.72094655 8:0.42377684 9:0.23518378 10:0.55124921 11:0.31567711 12:0.36214352 13:0.94248086 14:0.56875658 15:0.45060581 16:0.52816039 17:0.22828008 18:0.3590278 19:0.54640007 20:0.79946005 21:0.54623801 22:0.312002 23:0.39083311 24:0.39345142 25:0.24296422 26:0 27:0.11304968 28:0.68085963 29:0.68032575 30:0.49905318 31:0.48941475 32:0.90663099 33:0.32316867 34:0.5621686 35:0.036731545 36:0.68004501 37:0.65360504 38:0.21974315 39:0.4203741 40:0.49336696 41:0.85756385 42:0.12637153 43:0.29638305 
0.2076626031759495 1:0.85413206 2:0.33230129 3:0.45398653 4:0.5228619 5:0.45959103 6:0.5264644 7:0.49931648 8:0.44700027 9:0.38362542 10:0.79867721 11:0.30494928 12:0.29156527 13:0.51373154 14:0.56297898 15:0.22619237 16:0.18964985 17:0.40423512 18:0 19:0.38602105 20:0.94003075 21:0.4262186 22:0.74214715 23:0.46333563 24:0.54042292 25:0.59185392 26:0.50884777 27:0.26947883 28:0.44043967 29:0.2024131 30:0.27000374 31:0.67129189 32:0.98966694 33:0.37052965 34:0.5287587 35:0.42272395 36:0.74082679 37:0.71948665 38:0.34754118 39:0.56741738 40:0.50938708 41:1 42:0 43:0.33289224 
0.6945666686988675 1:0.60038328 2:0.57314157 3:0.30846477 4:0.45898217 5:0.11650186 6:0.73344797 7:0.61301219 8:0.5539313 9:0.67305386 10:0.55909431 11:0.69310749 12:0.44763693 13:0.27954456 14:0.37941164 15:0.60422939 16:0.55447811 17:0.28348622 18:0.61459374 19:0.52664089 20:0.52594328 21:0.39903232 22:0.86120909 23:0.51927286 24:0.61331546 25:0.61985403 26:0.53271228 27:0.62513417 28:0.66311449 29:0.61962348 30:0.36886641 31:0.50186902 32:0.36821097 33:0.1757513 34:0.40014753 35:0.5199402 36:0.42090282 37:0.56289554 38:0.47024307 39:0.30096439 40:0.67742801 41:0.94431287 42:0.30496857 43:0.20374592 
0.8524461571844172 1:0.055067938 2:0.40259373 3:0.50435424 4:0.18071014 5:0.27814141 6:0.46235865 7:0.53523529 8:0.53004289 9:0.30324787 10:0.55283189 11:0.49860585 12:0.3708784 13:0.68617713 14:0.38808805 15:0.46149531 16:0.31060103 17:0.35378981 18:0.63276702 19:0.56923455 20:0.39071339 21:0.59111232 22:0.50352526 23:0.090834364 24:0.41498673 25:0.77230197 26:0.51275808 27:0.086626813 28:0.51694822 29:0.52555484 30:0.15274809 31:0.68859404 32:0.57445812 33:0.12232983 34:0.46637532 35:0.78265232 36:0.41321921 37:0.45345044 38:0.60314727 39:0.41158494 40:0.58958554 41:0.54337245 42:0.85433245 43:0.10851869 
0.05957244492862615 1:0.62645274 2:0.54879415 3:0.4785749 4:0.46641624 5:0.94624311 6:0.56712526 7:0.65129888 8:0.54699558 9:0.49659497 10:0.35966194 11:0.63637686 12:1.3518863e-16 13:0.4363541 14:1 15:0.56302285 16:0.53452295 17:0.35187832 18:0.94936526 19:0.7243306 20:0.57489091 21:0.49871847 22:0.54273969 23:0.36260289 24:0.65232873 25:0.9217816 26:0.73728162 27:0.21711396 28:0.54827708 29:0.55650711 30:0.30416521 31:0.45261517 32:0.53273356 33:0.2801933 34:0.53740275 35:0.24182667 36:0.60696846 37:0.3016943 38:0.41057301 39:0.32889333 40:0.57741684 41:0.63420027 42:0.90580446 43:0.1790708 
0.249325974692151 1:0.053166166 2:0.37285712 3:0.37060377 4:0.44460955 5:0.27885789 6:0.43669042 7:0.80037993 8:0.62173688 9:0.82732588 10:0.42963246 11:0.54551297 12:0.32699022 13:0.088010199 14:0.43496266 15:0.39854905 16:0.29718402 17:0.3182241 18:0.44556847 19:0.70472282 20:0.60431558 21:0.13836543 22:0.62740093 23:0.36637422 24:0 25:0.56499833 26:0.61224121 27:0.40691176 28:0.61425489 29:0.40548369 30:0.44955179 31:0.72359002 32:0.19937065 33:0.68257916 34:0.71444076 35:0.97127908 36:0.081510112 37:0.4308272 38:0.47935221 39:0.2310112 40:0.20634329 41:0.56426102 42:0.65097523 43:0.16077349 
0.8249933458080613 1:0.19577591 2:0.79859132 3:0.43627468 4:0.4064965 5:0.60991365 6:0.56895095 7:1 8:0.45281288 9:0.38869488 10:0.48566946 11:0.60193318 12:0.65796107 13:0.45254472 14:0.76124233 15:0.61205536 16:0.19554059 17:0.51558954 18:0.84622639 19:0.72443038 20:0.67454469 21:0.34197876 22:0.94410563 23:0.4115712 24:0.33413693 25:0.40997529 26:0.65759391 27:0.78344315 28:0.4471454 29:0.28980118 30:0.43481725 31:0.26083502 32:0.35874948 33:0.43682453 34:0.61738342 35:0.55038542 36:0.69754267 37:0.27745864 38:0.23150258 39:0.24813037 40:0.75386369 41:0.69361824 42:0.79509461 43:0.16820534 
0.4275656112697627 1:0.41041902 2:0.31250891 3:0.53541529 4:0.48230237 5:0.54508048 6:0.35209814 7:0.71315742 8:0.29778385 9:0.29086071 10:0.38479525 11:0.36816633 12:0.78741944 13:0.35567325 14:0.48759753 15:0.3765389 16:0.26387307 17:0.43456012 18:0.43949175 19:0.48707891 20:0.6213426 21:0.28460595 22:0.53065729 23:0.99694651 24:0.818376 25:0.47662389 26:0.75222683 27:0.27182466 28:0.79392463 29:0.052731596 30:0.40048945 31:0.29598913 32:0.32360053 33:0.11955153 34:0.69837892 35:0.58471531 36:0.64085245 37:0.42834747 38:0.34351295 39:0.32285058 40:0.34386998 41:0.51917237 42:0.99062634 43:0.21101917 
0.376458264239299 1:0.35567245 2:0.40520015 3:0.57082069 4:0.48232868 5:0.52094239 6:0.39818001 7:0.7802211 8:1 9:0.90175587 10:0.28577965 11:0.63490415 12:0.73529035 13:0.67869574 14:0.53309584 15:0.33821407 16:0.51767218 17:0.56875479 18:0.60204792 19:0.45728678 20:0.45674866 21:0.59386092 22:0.47998825 23:0.48517939 24:0.83192515 25:0.67309445 26:0.56992185 27:0.37629566 28:0.61476934 29:0.3325865 30:0.16124916 31:0.62962282 32:0.58090025 33:0.43887305 34:0.69861883 35:0.30408615 36:0.26893669 37:0.57164943 38:0.44948032 39:0.26279959 40:0.34083745 41:0.6451745 42:0.78988969 43:0.10255188 
0.1960045534638036 1:0.55456704 2:0.26007986 3:0.54838747 4:0.15947898 5:0.40537921 6:0.4670569 7:0.64192951 8:0.67050898 9:0.69312131 10:0.60086644 11:0.34951887 12:0.45002449 13:0.39163044 14:0.25193673 15:0.51735663 16:0.49818176 17:0.78675967 18:0.47041181 19:0.49113733 20:4.2717296e-16 21:0.63197035 22:0.45247358 23:0.86045313 24:0.30999142 25:0.43853533 26:0.69096524 27:0.53281397 28:0.65283763 29:0.29511446 30:0.2726818 31:0.72071296 32:0.75958276 33:0.30383733 34:0.68341309 35:0.71227998 36:0.40948883 37:0.3334702 38:0.070801288 39:0.20378947 40:0.78810126 41:0.56101859 42:0.64967769 43:0.18246165 
0.5145793050155896 1:0.38867697 2:0.57060039 3:0.73859543 4:0.41774112 5:0.41131258 6:0.45232767 7:0.53595966 8:0.022895219 9:0.18421057 10:0.31940043 11:0.64581692 12:0.86612827 13:0.30404028 14:0.55917674 15:0.47123003 16:0.44097927 17:0.42537117 18:0.087515227 19:0.25367728 20:0.62346119 21:0.56669784 22:0.59492034 23:0.68819439 24:0.61818701 25:0.62992156 26:0.50045151 27:0.446612 28:0.5219602 29:0.50557607 30:0.22114164 31:0.97027689 32:0.42975974 33:0.50525063 34:0.41570586 35:0.52125645 36:0.25895369 37:0.22452308 38:0.20489845 39:0.30768889 40:0.810552 41:0.35538712 42:0.58539486 43:0.19445719 
0.1440849640748203 1:0.88777661 2:0.37489337 3:0.35613596 4:0.44349873 5:0.37195316 6:0.11199166 7:0.12116221 8:0.77633488 9:0.24759118 10:0.4878872 11:0.75006521 12:0.63420624 13:0.28607601 14:0.23176879 15:0.39124167 16:0.56339538 17:0.60091305 18:0.44118437 19:0.57775468 20:0.23404337 21:0.56038463 22:0.73222065 23:0.36713776 24:0.4494428 25:0.51759118 26:0.75096339 27:0.34028053 28:0.53904688 29:0.30740574 30:0.53015107 31:0.48301312 32:0.30245826 33:0.54932642 34:0.50946814 35:0.50009418 36:0.44138741 37:0.48828533 38:0 39:0.26736474 40:0.86586362 41:0.55493575 42:0.62408119 43:0.1863458 
1.318548245679578 1:0.47124481 2:0.35714605 3:0.54138952 4:0.24025439 5:0.39622086 6:0.49002352 7:0.37090901 8:0.29807335 9:0.62143153 10:0.78289801 11:0.56181699 12:0.89040357 13:0.47134101 14:0.57796395 15:0.46822274 16:0.49939045 17:0.67385787 18:0.55003202 19:0.56216472 20:0.86825037 21:8.9702496e-17 22:0.40134853 23:0.23095004 24:0.66932422 25:0.25169903 26:0.43388847 27:0.24333879 28:0.68676919 29:0.6171912 30:0.43662217 31:0.34167999 32:0.55904144 33:0.23756588 34:0.24434818 35:0.83086193 36:0.37922564 37:0.39757693 38:0.38065967 39:0.24920739 40:0.7990576 41:0.47882426 42:0.80716544 43:0.13155788 
0.0553593148271055 1:0.87622178 2:0.23127788 3:0.57622695 4:0.20031446 5:0.45179313 6:0.46380588 7:0.44818726 8:0.45799115 9:0.43447489 10:0.41104257 11:0.51195252 12:0.62726235 13:0.60105354 14:0.34228489 15:0.4093771 16:0.58067894 17:0.14530973 18:0.4894318 19:0.43336847 20:0.69594628 21:0.60302389 22:0.65003109 23:0.30622983 24:0.39154449 25:0.77274811 26:0.21575758 27:0.68286377 28:0.6529761 29:0.34370998 30:0.58695948 31:0.51050287 32:0.53001076 33:0.53723383 34:0.63617551 35:0.57581753 36:0.14154826 37:0.050819878 38:0.32913426 39:0.15347148 40:0.34655133 41:0.94271731 42:0.83525211 43:0.13034035 
0.5320357672483297 1:0.7379424 2:0.58234304 3:0.65810674 4:0.45206296 5:0.2058028 6:0.30898041 7:0.67087042 8:0.17007543 9:0.75656503 10:0.6228323 11:0.61480498 12:0.58012229 13:0.81650823 14:0.62519741 15:0.048978861 16:0.44752777 17:0.59988368 18:0.61808711 19:0.7398085 20:0.29759958 21:0.54226542 22:0.60666758 23:0.45870161 24:0.58187395 25:0.68800515 26:0.25368798 27:0.5343374 28:0.64256167 29:0.34844995 30:0.54941916 31:0.64368254 32:0.55797321 33:0.34435993 34:0.58023244 35:0.64503807 36:0.39707232 37:0.090435103 38:0.41696635 39:0.16998638 40:0.41360408 41:0.97003222 42:0.85502088 43:0.18118691 
0.1194090164537091 1:1 2:0.64377689 3:0.83012235 4:0.605501 5:0.091404408 6:0.46700028 7:0.24956551 8:0.40406266 9:0.48848397 10:0.34582558 11:0.75396985 12:0.8069042 13:0.40354106 14:0.68954653 15:0.69072706 16:0.69116372 17:0.38674006 18:0.18233901 19:0.61940479 20:0.42033064 21:0.58561462 22:0.3148337 23:0.48688856 24:0.52059436 25:0.42994401 26:1 27:0.23179705 28:0.60074615 29:0.38921535 30:0.24554123 31:0.66557276 32:0.47013795 33:0.053561714 34:0.67605448 35:0.65953308 36:0.38551641 37:0.5968439 38:0.18666334 39:0.36111599 40:0.67574042 41:0.36759731 42:0.74262255 43:0.1741038 
1.554200398037186 1:0.34161031 2:0.19467098 3:0.34823427 4:0.7005471 5:0.26689211 6:0.75568777 7:0.54859155 8:0.51803923 9:0.40156463 10:0.46459544 11:0.34582379 12:0.52511394 13:0.5973382 14:0.5429914 15:0.24345504 16:0.5624398 17:0.40316331 18:0.84610754 19:0.39564934 20:0.68002796 21:0.32829273 22:0.27494442 23:0.57989746 24:0.54098159 25:0.55267972 26:0.29345253 27:0.77805829 28:0.86123562 29:0.65253502 30:0.24708784 31:0.48641634 32:0.41502318 33:0.2346254 34:0.55671507 35:0.65703434 36:0.50891751 37:0.33014864 38:0.048769768 39:0.29279053 40:0.61197734 41:0.64277846 42:0.88821793 43:0.15177706 
0.3913454908994857 1:0.64122015 2:0.67462528 3:0.55201256 4:0.28778332 5:0.16076915 6:0.66587275 7:0.68118942 8:0.39113119 9:0.79019451 10:0.35428834 11:0.53804928 12:0.64458537 13:0.71833104 14:0.42169055 15:0.36771578 16:0.37242609 17:0.13557699 18:0.56664157 19:0.77771366 20:0.80268085 21:0.77051246 22:0.41702822 23:0.48469871 24:0.79585391 25:0.63438326 26:0.66235113 27:0.61596137 28:0.56746292 29:0.34893262 30:0.53234607 31:0.69932908 32:0.24672587 33:0.81896359 34:0.42219067 35:0.82910818 36:0.43624762 37:1 38:0.35367692 39:0.35303482 40:0.76751202 41:0.52534747 42:0.64404809 43:0.077800877 
0.9710076380929785 1:0.68895197 2:0.53889233 3:0.25802463 4:0.62396181 5:0.31812879 6:0.4614858 7:0.45399773 8:0.48487338 9:0.26748744 10:0.50313348 11:0.59563738 12:0.43954572 13:0.45457736 14:0.17519045 15:0.27274314 16:0.32283205 17:0.65471488 18:0.51029038 19:0.56148237 20:0.71087724 21:0.57238299 22:0.38471872 23:0.64313668 24:0.66845191 25:0.79355443 26:0.56369895 27:0.67546207 28:0.67799222 29:0.70429409 30:0.82815331 31:0.5463568 32:0.64801425 33:0.3614096 34:0.95408404 35:0.68220395 36:0.53301018 37:0.064925939 38:0.94544935 39:0.85592186 40:1 41:0.091569923 42:0.35183716 43:0.58373487 
0.1517590902231574 1:0.28536281 2:0.5837146 3:0.15539615 4:0.75156838 5:0.83254522 6:0.79914647 7:0.31189185 8:0.79037654 9:0.037281051 10:0.89680123 11:0.77578235 12:0.37445682 13:0.45794928 14:0.68746036 15:0.46187523 16:0.027139595 17:0.85679919 18:0.29132664 19:0.51974809 20:0.501535 21:0.4010208 22:0.36140993 23:0.58502358 24:0.46747398 25:0.60214913 26:0.96174836 27:0.63061613 28:0.5697726 29:0.20828633 30:0.3394706 31:0.64175844 32:0.63374221 33:0.57763547 34:0.63152957 35:0.70017999 36:0 37:0.5651024 38:0.65965718 39:3.6976127e-16 40:0.37530822 41:0.61960179 42:0.30050296 43:0.23892386 
0.194867014486074 1:0 2:0.52193141 3:0.24849641 4:0.69691676 5:6.6901547e-16 6:0.77444106 7:0.26578519 8:0.2907373 9:1 10:0.085509323 11:0.46469086 12:0.57904845 13:0.47892353 14:0.69719207 15:0.76851422 16:0.4833124 17:0.76381212 18:0.51445389 19:0.43027121 20:0.29218706 21:0.81451619 22:0.59347999 23:0.82493365 24:0.56910849 25:0.46487656 26:0.42762116 27:0.69856924 28:0.47531104 29:0.27880669 30:0.50085825 31:0.36610341 32:0.77431279 33:0.40198267 34:0.5813809 35:0.34370786 36:0.22051743 37:0.78179139 38:0.57528698 39:0.12261127 40:0.58634186 41:0.48019087 42:0.40828425 43:0.15244223 
0.6402123337086327 1:0.71871597 2:0.51401693 3:0.30288714 4:0.3854185 5:0.23572846 6:0.44383603 7:0.45136699 8:0.45360747 9:0.60375112 10:0.21232559 11:0.72656989 12:0.79344064 13:0.3882592 14:0.67980075 15:0.68571174 16:0.13994585 17:0.44823727 18:0.78895283 19:0.42456374 20:0.12662938 21:0.11483652 22:0.43134505 23:0.32618511 24:0.56826687 25:0.95290041 26:0.34268603 27:0.69990623 28:0.8703537 29:0.16018853 30:0.28773794 31:0.72080737 32:0.68112195 33:0.35308847 34:0.40948656 35:0.51469803 36:0.40968117 37:0.61800629 38:0.20349863 39:0.62275994 40:0.33281812 41:0.63144433 42:0.42673403 43:0.43505865 
0.2973687058909165 1:0.54205966 2:0.70374781 3:0.67806911 4:5.4767929e-17 5:0.31796598 6:0.4786438 7:0.48796827 8:0.42725331 9:0.30478799 10:0.91914523 11:0.74323648 12:0.77774054 13:0.41358474 14:0.74972785 15:0.55557191 16:0.6066156 17:0.59836656 18:0.71289271 19:1 20:0.30359423 21:0.39339164 22:0.65526873 23:0.56039894 24:0.41679618 25:0.45240408 26:0.1170889 27:0.47508487 28:0.56673551 29:0.35524741 30:0.39675519 31:0.42117104 32:0.4992027 33:0.3711153 34:0.66077322 35:0.32891259 36:0.52447772 37:0.7713213 38:0.25788182 39:0.52565604 40:0.14971745 41:0.47829604 42:0.39506599 43:0.41169018 
1.819742411366783 1:0.70523828 2:0.62157768 3:5.2517536e-16 4:0.653925 5:0.54052168 6:0.2989248 7:0.70952016 8:0.38015655 9:0.73737639 10:0.87981498 11:0.50508147 12:0.48464426 13:0.39190489 14:0.42599151 15:0.62731993 16:1 17:0.10672259 18:0.47331604 19:0.88948447 20:0.24631068 21:0.46526554 22:0.45001638 23:0.50673831 24:0.16001865 25:0.6900332 26:0.29815498 27:0.70550472 28:0.6701951 29:0.19257098 30:0.4714646 31:0.28696027 32:0.52490669 33:0.19328213 34:0.48994067 35:0.48088467 36:0.61134839 37:0.31961781 38:0.36512703 39:0.28041679 40:0.50145274 41:0.13742904 42:0.41081834 43:0.56180072 
0.3552914334156889 1:0.35821617 2:0.66537642 3:0.3615852 4:0.39708015 5:0.22348224 6:0.25129908 7:0 8:0.83103812 9:0.53473771 10:0.44351885 11:3.5403497e-16 12:0.24859026 13:0.081075475 14:0.86003697 15:0.58978069 16:0.59668207 17:0.75257289 18:0.64337903 19:0.45827276 20:0.93781996 21:0.24043356 22:0.78532141 23:0.37116766 24:0.62263799 25:0.54169291 26:0.72224939 27:0.33440277 28:0.41860643 29:0.59238046 30:0.40433717 31:0.98012888 32:0.5022344 33:0.65839249 34:0.476926 35:0.56373084 36:0.68393165 37:0.23007523 38:0.13710214 39:0.58903557 40:0.18418039 41:0.77414811 42:0.77221012 43:0.29751262 
0.003400620108828672 1:0.60795397 2:0.7254287 3:0.23337696 4:0.30039647 5:0.54050583 6:0.50597566 7:0.36313114 8:0.098986626 9:0.53157163 10:0.58984298 11:0.27001676 12:0.37433806 13:0.79441911 14:0.25972208 15:0.40552416 16:0.80352926 17:0.36522341 18:0.47704422 19:0.63457811 20:0.83357209 21:0.60833752 22:0.71756399 23:0.72532487 24:0.43412584 25:0.31094351 26:0.50852919 27:0.25155586 28:0.5296495 29:0.39267939 30:0.36484951 31:0.56893164 32:0.42979461 33:0.28797284 34:0.20013823 35:0.68307555 36:0.073786348 37:0.21542145 38:0.40046537 39:0.48511437 40:0.18162927 41:0.44954696 42:0.42856249 43:0.51188976 
0.4177766187485967 1:0.81985778 2:0.26193354 3:0.65254116 4:0.79749936 5:0.42568508 6:0.31375173 7:0.9054634 8:0.48846647 9:0.40852174 10:0.70668089 11:0.87351531 12:0.14412601 13:0.64218771 14:0.42563421 15:0.049750343 16:0.40250254 17:0.4087441 18:0.44254866 19:0.73585236 20:0.5890761 21:0.30697 22:0.46116796 23:0.45880532 24:0.39432311 25:0.45695755 26:0.50590694 27:0.32126245 28:0.79761797 29:0.46348 30:0.3252441 31:0.42562822 32:0.7615459 33:0.38003945 34:0.19183913 35:0.4330321 36:0.46735114 37:0.5314728 38:0.3389028 39:0.54590601 40:0.41079965 41:0.72861701 42:0.18612634 43:0.51069659 
1.555512799098653 1:0.6938023 2:0.50833505 3:0.37758383 4:0.4337804 5:0.50320446 6:0.58694839 7:0.77446669 8:0.50700533 9:0.10663933 10:0.31514868 11:0.55334383 12:0.1442733 13:0.8048265 14:0.52002066 15:0.58034885 16:0.10935603 17:0.79238808 18:0.37494749 19:0.58849359 20:0.18531853 21:0.62803328 22:0.44235367 23:0.15024725 24:0.83353484 25:0.39085674 26:0.28124267 27:0.48142427 28:0.72650582 29:0.3177928 30:0.37749633 31:0.37992659 32:0.4084869 33:0.5503484 34:0.073351108 35:0.59890479 36:0.38708538 37:0.17774153 38:0.2182316 39:0.41401115 40:0.64355254 41:0.55445105 42:0.4606719 43:0.51160419 
0.4030877430137089 1:0.52575254 2:0.76155508 3:0.17482227 4:0.32735512 5:0.48718616 6:0.056562908 7:0.15173616 8:0.48336089 9:0.39754388 10:0.68122876 11:0.57661867 12:0.31547648 13:0.84860766 14:0.21964158 15:0.45611393 16:0.74011916 17:0.51601642 18:0.52519792 19:0.57489383 20:0.7174052 21:0.50896889 22:0.60311675 23:0.84500664 24:0.32135233 25:0.074036017 26:0.6654672 27:0.76305127 28:0.31642777 29:0.26089382 30:0.34646016 31:0.22536431 32:0.40140074 33:0.27314895 34:0.36964402 35:0.35157782 36:0.21206802 37:0.47866476 38:0.45896479 39:0.48179406 40:0.057409935 41:0.3278701 42:0.57324308 43:0.49670053 
0.5950195214390758 1:0.06329035 2:0.26428908 3:0.23837121 4:0.55385882 5:0.30141324 6:0.32578599 7:0.36962309 8:0.020833142 9:0.93448043 10:0.73727006 11:1 12:0.32532439 13:0.79059023 14:0.3124634 15:0.31091559 16:0.27231067 17:0.14431915 18:0.56633681 19:0.58922666 20:0.59417093 21:0.6668855 22:0.46124208 23:0.63068438 24:0.52394241 25:0 26:0.62478864 27:0.54029906 28:0.52260488 29:0.28462344 30:0.27720189 31:0.43118796 32:0.55679989 33:0.20039904 34:0.56198436 35:0.50122333 36:0.31303778 37:0.49300838 38:0.3137275 39:0.55446047 40:0.27344778 41:0.32611904 42:0.3331807 43:0.52749842 
0.8007965483019274 1:0.7363565 2:0.50441289 3:0.49878481 4:0.4236469 5:0.051024165 6:0.45498842 7:0.65903676 8:0.62153572 9:0.64043355 10:0.40778485 11:0.33270422 12:0.53434932 13:0.049770143 14:0.52686101 15:0.30777934 16:0.34767342 17:0.78948897 18:0.4971427 19:0.39069113 20:0.60984099 21:1 22:0.42643285 23:0.22944082 24:0.98910362 25:0.28734446 26:0.70408255 27:0.72225577 28:0.66903037 29:0.23847781 30:0.29866868 31:0.25818485 32:0.29162675 33:0.45579162 34:0.22438467 35:0.63377959 36:0.25314337 37:0.14452493 38:0.11081345 39:0.51480699 40:0.46550247 41:0.59925151 42:0.3178499 43:0.53850543 
1.18399439448787 1:0.3575345 2:0.71013039 3:0.42186445 4:0.44747031 5:0.61093712 6:0.44360247 7:0.55596036 8:0.89415514 9:0.32154888 10:0.70752692 11:0.70620346 12:0.42338493 13:0.9375217 14:0.40098917 15:0.53619754 16:0.20287867 17:0.54274666 18:0.77375281 19:0.62711716 20:0.14859697 21:0.66331077 22:0.57556307 23:0.63878977 24:0.47510135 25:0.59903622 26:0.62101066 27:0.41700906 28:0.67778784 29:0.70612526 30:0.30357075 31:0.29774016 32:0.4203887 33:0.47494984 34:0.24767667 35:0.75453305 36:0.18603778 37:0.16770463 38:0.19353899 39:0.41669208 40:0.53724945 41:0.57314861 42:0.4243257 43:0.49762279 
0.1219598252971779 1:0.027290173 2:0.30819717 3:0.33884513 4:0.48855227 5:0.19059654 6:0.45019403 7:0.33749694 8:0.62740344 9:0.25417551 10:0.46847716 11:0.78377306 12:0.57854491 13:0.36630189 14:0.29405594 15:0.28297371 16:0.06320142 17:0.12918662 18:0.92417526 19:0.5096857 20:0.73416042 21:0.37056425 22:0.47764611 23:0.86473584 24:0.65960479 25:0.5222348 26:0.71408975 27:0.84963965 28:0.44946626 29:0.40440592 30:0.2484355 31:0.57037038 32:0.38577992 33:0.29635134 34:0.29322484 35:0.54487246 36:0.34360719 37:0.22392978 38:0.21482801 39:0.50894833 40:0.45560199 41:0.74424452 42:0.33458462 43:0.48431596 
-0.001922896763913912 1:0.45413837 2:0.5504216 3:0.32300222 4:0.5792011 5:0.33436814 6:0.45496729 7:0.55090821 8:0.45128688 9:0.44873828 10:0.5783447 11:0.49484351 12:0.49982864 13:0.31715068 14:0.25568846 15:0.48267901 16:0.36622331 17:0.76689845 18:0.54777789 19:0.70261765 20:0.8568536 21:0.7068252 22:0.63553703 23:0.34597439 24:0.54124993 25:0.86529666 26:0.37586543 27:0.22525494 28:1 29:0.39449921 30:0.30554113 31:0.50778717 32:0.53390622 33:0.22033744 34:0.55451238 35:0.60419345 36:0.30987349 37:0.62713534 38:0.24849412 39:0.1354537 40:0.68718392 41:0.62868911 42:0.68608081 43:0.96708107 
-7.222921822559299 1:0.45413837 2:0.5504216 3:0.32300222 4:0.5792011 5:0.33436814 6:0.45496729 7:0.55090821 8:0.45128688 9:0.44873828 10:0.5783447 11:0.49484351 12:0.49982864 13:0.31715068 14:0.25568846 15:0.48267901 16:0.36622331 17:0.76689845 18:0.54777789 19:0.70261765 20:0.8568536 21:0.7068252 22:0.63553703 23:0.34597439 24:0.54124993 25:0.86529666 26:0.37586543 27:0.22525494 28:1 29:0.39449921 30:0.30554113 31:0.50778717 32:0.53390622 33:0.22033744 34:0.55451238 35:0.60419345 36:0.30987349 37:0.62713534 38:0.24849412 39:0.1354537 40:0.68718392 41:0.62868911 42:0.68608081 43:0.96708107 
-6.737475242368957 1:0.46140882 2:0.5183087 3:0.44522235 4:0.32956541 5:0.32343733 6:0.40470338 7:0.44934747 8:0.58966208 9:0.6119141 10:0.47747889 11:0.5994041 12:0.48004651 13:0.80036408 14:0.81306088 15:0.38160178 16:0.46178502 17:0.13128716 18:0.56918722 19:0.35901341 20:0.23142138 21:0.29611233 22:0.64107466 23:0.73542744 24:0.5716669 25:0.3349483 26:0.5094437 27:0.34610331 28:0.81133413 29:0.44443935 30:0.33960286 31:0.36712587 32:0.60347658 33:0.61973321 34:0.56768805 35:0.75459856 36:0.48073724 37:0.39769828 38:0.44572026 39:0.096025184 40:0.80082625 41:0.7892248 42:0.72701848 43:1 
-0.001696128621001831 1:0.57364929 2:0.41903549 3:0.47615311 4:0.39049563 5:0.43424964 6:0.47604138 7:0.66741121 8:0.29654747 9:0.38142249 10:0.55441058 11:0.5235275 12:0.5087918 13:0.48216504 14:0.42053947 15:0.51249009 16:0.38835606 17:0.55391729 18:0.60086691 19:0.4812988 20:0.54688048 21:0.38151413 22:0.27142149 23:0.25612894 24:0.47032428 25:0.41680187 26:0.46957737 27:0.86196154 28:6.0307909e-16 29:0.58991557 30:0.2231272 31:0.63869113 32:0.30362073 33:0.28452861 34:0.59095496 35:0.38935766 36:0.4611975 37:0.56497175 38:0.43256068 39:0.11479319 40:0.61288011 41:0.60062885 42:0.75940824 43:0.98114032 
-6.281766707884515 1:0.57364929 2:0.41903549 3:0.47615311 4:0.39049563 5:0.43424964 6:0.47604138 7:0.66741121 8:0.29654747 9:0.38142249 10:0.55441058 11:0.5235275 12:0.5087918 13:0.48216504 14:0.42053947 15:0.51249009 16:0.38835606 17:0.55391729 18:0.60086691 19:0.4812988 20:0.54688048 21:0.38151413 22:0.27142149 23:0.25612894 24:0.47032428 25:0.41680187 26:0.46957737 27:0.86196154 28:6.0307909e-16 29:0.58991557 30:0.2231272 31:0.63869113 32:0.30362073 33:0.28452861 34:0.59095496 35:0.38935766 36:0.4611975 37:0.56497175 38:0.43256068 39:0.11479319 40:0.61288011 41:0.60062885 42:0.75940824 43:0.98114032 
