svm_type c_svc
kernel_type rbf
gamma 0.09
nr_class 2
total_sv 27
rho 0.376697
label 130040101 130040201
probA -3.45988
probB 0.331
nr_sv 14 13
SV
2.717117541115623 1:0.33051062 2:0.1552799 3:0.83591461 4:0.30544677 5:0.66937792 6:0.52590984 7:0.34002751 8:0.24629879 9:0.72449142 10:0.55624539 11:0.6162138 12:0.1669845 13:0.47384799 14:0.37509021 15:0.44987288 16:0.8374396 17:0.83929479 18:5.7186445e-16 19:0.71370715 
2.404948021473617 1:0.59669733 2:0.6961301 3:0.35628796 4:0.61487174 5:0.40685523 6:0.50157881 7:0.55472422 8:0.86203021 9:0.6369521 10:0.66896915 11:0.49611506 12:0.026168538 13:0.32726878 14:6.578861e-16 15:1 16:3.4444468e-16 17:0.47295523 18:0.35786778 19:0.5914861 
6.247423514195153 1:0.67306262 2:0.62050289 3:0.36516693 4:0.74616975 5:0.70836234 6:0.59939075 7:0.12083021 8:0.53850996 9:0.4722591 10:0.56081825 11:0.48415828 12:0.18718448 13:0.91535765 14:0.33591884 15:0.063157238 16:0.70003796 17:0.80660635 18:0.091195159 19:0.75307548 
7.609170877945887 1:0.70193827 2:0.03524553 3:0.61236602 4:0.54970515 5:0.6600123 6:0.52818519 7:0.662745 8:0.2508823 9:0.59273362 10:0.37467259 11:0.11246815 12:0.65897959 13:0.20889002 14:0.44430473 15:0.25929874 16:0.59864122 17:0.5499934 18:0.50499332 19:0.87020206 
3.059111075469607 1:0.64721555 2:0.35099897 3:0.48515478 4:0.66863549 5:0.61235446 6:0.71013629 7:0.55610693 8:0.71985 9:0.5019995 10:0.54369467 11:0.26348329 12:1 13:0.17507249 14:0.52061361 15:0.30331317 16:0.63742012 17:0.57559741 18:0.40010068 19:0.85354 
10 1:0.68689722 2:0.61374933 3:0.55330151 4:0 5:0.64224809 6:0.61090076 7:0.6978327 8:0.31675273 9:0.53410542 10:9.2509392e-16 11:0.53998035 12:0.56950355 13:0.52303904 14:0.5887475 15:0.2417869 16:0.45619613 17:0.72281945 18:0.27907237 19:0.64921534 
0.9034114162511715 1:0.1775147 2:0.06650874 3:0.57532054 4:0.66926122 5:0.86815161 6:0.45698464 7:0.34300712 8:0.53574646 9:0.33452901 10:0.39923561 11:0.51594794 12:0.034869887 13:0.48872066 14:0.78476125 15:0.2176623 16:0.33167228 17:0.61016405 18:0.52247095 19:0.75966918 
9.442323268122404 1:0.76891828 2:0.26063973 3:0.4031828 4:0.37678331 5:0.4119643 6:0.3140046 7:0.39661166 8:0.5519861 9:0.54935032 10:1 11:0.4325304 12:0.28978962 13:0.6508978 14:0.99895054 15:0.3237578 16:0.60014874 17:0.6954357 18:0.48910341 19:0.71387702 
3.770777920661599 1:0.10709779 2:0.16040182 3:0.30089706 4:0.96348268 5:0.67092764 6:0.57978451 7:0.26160914 8:0.33884811 9:0.61850774 10:0.33864227 11:0.69594699 12:0.25584751 13:0.2042259 14:0.6641295 15:0.05412494 16:0.31271064 17:0.61117715 18:0.47296602 19:0.76012933 
2.89620194338875 1:0.088485181 2:0.90208149 3:1 4:0.98697221 5:0.27981687 6:0.6601702 7:0.49026537 8:0.20380443 9:0.25427449 10:0.24657349 11:0.81146771 12:0.52957815 13:0.47776571 14:0.68551064 15:0.15673335 16:0.37420005 17:0.6235379 18:0.37653312 19:0.68978792 
6.479634592607432 1:0.18454391 2:0.90845454 3:0.18522219 4:0.73129433 5:0.28360277 6:6.2039975e-16 7:0.55072695 8:0.43570983 9:0.48399708 10:0.10007147 11:0.37801391 12:0.69131655 13:0.86183822 14:0.55472732 15:0.64613658 16:1 17:0.48039237 18:0.41453323 19:0.71074289 
5.583232452729708 1:0.53731805 2:0.7120257 3:0.69835991 4:0.41968068 5:0.72991806 6:0.5834555 7:0.38890284 8:0.75509983 9:0.35541457 10:0.40361145 11:0.77867091 12:0.26266241 13:0.52070022 14:0.45901081 15:0.45906481 16:0.92825919 17:0.22589631 18:0.78632188 19:1 
8.100436844494077 1:0.098340936 2:8.5044321e-16 3:0.48904011 4:0.41407478 5:0.757581 6:0.68161225 7:0.34318978 8:0.81104952 9:1 10:0.63806027 11:1 12:0.19827691 13:0.50828713 14:0.36742038 15:0.24479835 16:0.80804056 17:0.12867248 18:0.8689943 19:0.97881997 
0.8976519011849236 1:0.6471166 2:0.60256732 3:0.63428879 4:0.071416065 5:0.70867586 6:0.64893389 7:0.63349372 8:0.3772842 9:9.7093968e-16 10:0.49474621 11:0.49586138 12:0.28698009 13:0.78858596 14:0.50430393 15:0.24881527 16:0.53242803 17:0.70132947 18:0.30448133 19:0.70883572 
-4.690601537677281 1:0.52799755 2:0.073061436 3:0.40321022 4:0.45091194 5:0.66995192 6:0.80778551 7:0.55517375 8:0.077280618 9:0.52911967 10:0.64259368 11:0.65902126 12:0.82003802 13:1 14:0.3810122 15:0.71541005 16:0.72582525 17:0.89443463 18:0.552405 19:0.50783652 
-2.088830342501943 1:0.54460335 2:0.91315454 3:0.26616845 4:0.2357561 5:0.72244829 6:0.84349751 7:0.19986579 8:0.40114513 9:0.572689 10:0.31568509 11:0.42231989 12:0.37747359 13:0.21235871 14:0.67624658 15:0.44813079 16:0.66302663 17:0.84269804 18:0.84120005 19:0.63860995 
-10 1:0.58319199 2:0.40504366 3:0.81653255 4:1 5:0.71542466 6:0.68323559 7:0.044858612 8:0.42740506 9:0.6888938 10:0.57100481 11:0.73859632 12:0.90610373 13:0.86510098 14:0.4709653 15:0.5967871 16:0.72670656 17:0.83662939 18:0.44960958 19:0.53199357 
-1.582480163785415 1:0.45148885 2:0.38317886 3:0.51811057 4:0.71435881 5:0.39166421 6:0.64964169 7:0.33609539 8:2.1787825e-16 9:0.64434874 10:0.29014772 11:0.20037605 12:0 13:0.21841776 14:0.58897841 15:0.45965981 16:0.75041306 17:0.85701072 18:0.98080379 19:0.73566037 
-10 1:0.36467966 2:0.28245729 3:0.59569794 4:0.61399955 5:0.59582657 6:0.55082875 7:0.65605843 8:0.88504124 9:0.31249562 10:0.37701708 11:0.31231743 12:0.15876624 13:0.91499245 14:0.55850834 15:0.39919189 16:0.71300662 17:0.81082898 18:0.87735134 19:0.65492678 
-1.690052011253006 1:0.23132206 2:0.14407113 3:0.36097437 4:0.46482748 5:0.67784685 6:0.64758623 7:0.77258354 8:1 9:0.39821094 10:0.31880844 11:0.26836097 12:0.2655904 13:0.91223782 14:0.59123015 15:0.39823028 16:0.73768616 17:0.78400642 18:0.87306643 19:0.61475229 
-2.94074482824201 1:0.038986646 2:0.13231169 3:0.51081944 4:0.18691637 5:0.41510496 6:0.84383273 7:0.15421572 8:0.39036819 9:0.037283573 10:0.7875489 11:0.29847473 12:0.50251347 13:0.35385725 14:0.38387764 15:0.18899672 16:0.75807947 17:0 18:0.54878807 19:0 
-9.170500864915526 1:1 2:0.56143689 3:0.48323104 4:0.90343195 5:0.80932027 6:0.28701991 7:0.65835214 8:0.50924385 9:0.82830125 10:0.28282946 11:0.51228064 12:0.057828583 13:0.27424586 14:0.53100717 15:0.068388999 16:0.8533029 17:0.052292138 18:0.56069499 19:0.019496331 
-0.5112905972947777 1:0.14089212 2:0.45195866 3:0.35338938 4:0.50078005 5:0.60779887 6:0.55372095 7:0.83410376 8:0.27435747 9:0.87832445 10:0.68747616 11:0.1941953 12:0.090293966 13:0.30242085 14:0.3985205 15:0.25891617 16:0.75824606 17:0.96612531 18:0.83893937 19:0.70239431 
-9.804178743541545 1:0.45001334 2:0.52055633 3:0.23334768 4:0.04774414 5:0.77317715 6:0.41226909 7:0.54322135 8:0.26339024 9:0.18566507 10:0.60205096 11:0.69308388 12:0.44779408 13:0.074156746 14:0.32725638 15:0.16824713 16:0.67907542 17:1 18:0.65371925 19:0.67209828 
-10 1:0.65131599 2:0.25116888 3:0.57981658 4:0.25240862 5:4.9118191e-16 6:0.45999554 7:0.32320988 8:0.55589145 9:0.91744202 10:0.35363278 11:0.60192764 12:0.34434551 13:0.414536 14:0.3666628 15:0.034109879 16:0.61966807 17:0.788504 18:0.82068336 19:0.71466392 
-1.286227975478524 1:0.16909425 2:1 3:0.51464021 4:0.51188791 5:0.52902216 6:0.57916266 7:0.37552071 8:0.26706114 9:0.62624788 10:0.84832138 11:0.63671577 12:0.41711575 13:0.46384174 14:0.33528745 15:0.13052237 16:0.81300539 17:0.89163023 18:0.74907726 19:0.70531017 
-6.346534304949933 1:8.7136456e-17 2:0.73069 3:0.56831074 4:0.16034821 5:0.93203211 6:0.2329215 7:0.24510019 8:0.78822285 9:0.72676927 10:0.21184723 11:0.43984136 12:0.68475705 13:0.37893683 14:0.57579714 15:0.27931294 16:0.58004832 17:0.82496285 18:0.62669468 19:0.53580481 
