svm_type c_svc
kernel_type rbf
gamma 0.09
nr_class 3
total_sv 85
rho 0.604027 0.510794 -0.0835329
label 130640102 130640103 130640104
probA -4.84104 -4.36023 -4.30907
probB -0.0207052 -0.536916 -0.246266
nr_sv 53 13 19
SV
1.256140294809023 0 1:0.57389712 2:0.7082991 3:0.64174515 4:0.57151639 5:0.38957947 6:0.47051147 7:0.55190957 8:0.37015504 9:0.53526938 10:0.48967096 11:0.66923565 12:0.53814119 13:0.361341 14:0.63960713 15:0.44952378 16:0.86109978 17:0.62516904 18:0.36041451 19:0.58683944 20:0.29273838 21:0.71664429 22:0.53135866 23:0.46701974 24:0.60452569 25:0.66872174 26:0.2793119 27:0.21131139 28:0.83613884 29:0.59869403 30:0.41546658 31:0.95582044 32:0.59873021 33:0.46622658 34:0.70257515 35:0.51990128 36:0.41409957 37:0.74736536 38:0.95559233 39:0.61369973 40:0.3235333 41:0.44957814 42:0.60918289 43:0.43165162 44:0.43385983 45:0.1378302 46:0.54274827 
0 2.663169071580028 1:0.36875218 2:0.52086598 3:0.59907627 4:0.59805542 5:0.30761561 6:0.74033821 7:0.79239869 8:0.55368501 9:0.64766634 10:0.55841756 11:0.75626642 12:0.62848949 13:0.73281026 14:0.62742132 15:0.34878081 16:0.59607059 17:0.70348537 18:0.42496613 19:0.54695809 20:0.42014772 21:0.65888458 22:0.5237987 23:0.54521644 24:0.57859933 25:0.69241112 26:0.43387005 27:0.58443159 28:0.48578548 29:0.42309165 30:0.4404794 31:0.71893209 32:0.50531119 33:0.58150631 34:0.51540476 35:0.43432233 36:0.52246583 37:0.62276018 38:0.62338519 39:0.58270687 40:0.51656342 41:0.29809874 42:0.47311464 43:0.32975525 44:0.32442358 45:0.10951022 46:0.55217808 
0 1.038496206060063 1:0.66614139 2:0.46805477 3:0.3081364 4:0.45487005 5:0.64087224 6:0.34046885 7:0.76240247 8:0.74601573 9:0.54425126 10:0.58551097 11:0.68926048 12:0.58881414 13:0.54237419 14:0.4045597 15:0.4838483 16:0.80667454 17:0.5230661 18:0.54694384 19:0.45912537 20:0.49748462 21:0.74468881 22:0.47101772 23:0.34347701 24:0.33177525 25:0.4988305 26:0.17431565 27:0.47284716 28:0.62157661 29:0.39711279 30:0.35759038 31:0.39511538 32:0.61306065 33:0.47871473 34:0.59195465 35:0.45433637 36:0.51136404 37:0.72389585 38:0.65286249 39:0.50562155 40:0.25170416 41:0.89309132 42:0.28174999 43:0.41157731 44:0.37345737 45:0.15822379 46:0.31294504 
1.131053156275783 0 1:0.55563486 2:0.6145007 3:0.3461636 4:0.36898878 5:0.48529819 6:0.49990064 7:0.56650996 8:0.47551352 9:0.54253995 10:0.38010895 11:0.57938111 12:0.43804938 13:0.54360682 14:0.57917035 15:0.51131034 16:0.63229322 17:0.69438481 18:0.30303624 19:0.7325272 20:0.59116328 21:0.50922978 22:0.91854805 23:0.37760222 24:0.69743955 25:0.56007397 26:0.34573057 27:0.52712518 28:0.51400852 29:0.60970223 30:0.53358865 31:0.49797088 32:0.64247161 33:0.61601001 34:0.43419439 35:0.35398492 36:0.73494446 37:0.50267291 38:0.29411697 39:0.15953264 40:0.50223893 41:0.52877277 42:0.39692414 43:0.44945884 44:0.27943343 45:0.0063782111 46:0.42526391 
0 0.1431178427501127 1:0.6179089 2:0.29329342 3:0.39738268 4:0.4553673 5:0.24444973 6:0.64899439 7:0.58214903 8:0.63478512 9:0.39839527 10:0.5137161 11:0.5651986 12:0.61016572 13:0.51567787 14:0.41412464 15:0.68485659 16:0.43029359 17:0.59584701 18:0.39027154 19:0.76309305 20:0.80707902 21:0.49281108 22:0.82966095 23:0.46089992 24:0.67335701 25:0.70330203 26:0.33424225 27:0.53582978 28:0.54277456 29:0.54172021 30:0.58839583 31:0.42827666 32:0.58501345 33:0.53194183 34:0.57918668 35:0.23516822 36:0.75605428 37:0.62796456 38:0.38918146 39:0.45123351 40:0.51324683 41:0.5562529 42:0.4021965 43:0.42838654 44:0.26905912 45:0.033194348 46:0.44049835 
0.7536832278581205 0 1:0.64081502 2:0.61411595 3:0.44776773 4:0.52902991 5:0.51456839 6:0.67677897 7:0.54554808 8:0.52374899 9:0.50404519 10:0.38843891 11:0.57704395 12:0.41952845 13:0.60577071 14:0.58652556 15:0.40010059 16:0.65176177 17:0.78486109 18:0.35388824 19:0.69717789 20:0.58231354 21:0.53114867 22:0.82325339 23:0.42944351 24:0.62348014 25:0.54047132 26:0.45972461 27:0.59280741 28:0.54202354 29:0.5956099 30:0.52646476 31:0.47187236 32:0.67082334 33:0.61164773 34:0.31462643 35:0.36169335 36:0.67279768 37:0.46745938 38:0.30343276 39:0.29602101 40:0.49330482 41:0.61576891 42:0.45766717 43:0.41674593 44:0.27235222 45:0.0070470227 46:0.42292938 
1.187149551812047 0 1:0.5882352 2:0.33296245 3:0.28243175 4:0.66238821 5:0.56549382 6:0.54663092 7:0.52058911 8:0.58174723 9:0.58399588 10:0.40041471 11:0.85287911 12:0.51135659 13:0.44606045 14:0.54690307 15:0.53714693 16:0.67464715 17:0.7618736 18:0.53961259 19:0.38856122 20:0.43461296 21:0.80988961 22:0.51793504 23:0.47174588 24:0.44615495 25:0.24704939 26:0.49618956 27:0.40628117 28:0.087217361 29:0.28413129 30:0.51395512 31:0.42480788 32:0.5305981 33:0.39942771 34:0.12837744 35:0.21760134 36:0.6202625 37:0.92440104 38:0.3461118 39:0.7621488 40:0.060448334 41:0.3551231 42:0.51036865 43:0.4193776 44:0.69722778 45:0.69351029 46:0.14024223 
0 0.08053356455290334 1:0.41042718 2:0.53290099 3:0.31249705 4:0.4357917 5:0.24319021 6:0.41744339 7:0.46967879 8:0.76412785 9:0.45051521 10:0.30735999 11:0.7528646 12:0.42888042 13:0.68416029 14:0.87568831 15:0.59257519 16:0.45638466 17:0.70576262 18:0.33254075 19:0.47344851 20:0.48219913 21:0.32549226 22:0.54738599 23:0.43038779 24:0.47052768 25:0.41202718 26:0.39307383 27:0.49957651 28:0.39353633 29:0.46835712 30:0.29779217 31:0.27750531 32:0.66153407 33:0.27520826 34:0.38866624 35:0.29833108 36:0.53021085 37:0.80529988 38:0.5517782 39:0.63397247 40:0.064972937 41:0.57098091 42:0.37758026 43:0.3840175 44:0.71608162 45:0.6261723 46:0.12523708 
0 0.6528558267981649 1:0.63292855 2:0.13162398 3:0.50880563 4:0.41105098 5:0.61696881 6:0.42260212 7:0.81352854 8:0.57562524 9:0.85374755 10:0.41444659 11:0 12:0.4105002 13:0.51419765 14:0.497765 15:0.60032827 16:0.37840408 17:0.61114252 18:0.35306889 19:0.48808676 20:0.93432921 21:0.75732452 22:0.45677719 23:0.3919273 24:0.72717625 25:0.30964449 26:0.37262306 27:0.56267983 28:0.4199231 29:0.30659822 30:0.39966798 31:0.50099999 32:0.55077291 33:0.35885882 34:0.37473315 35:0.53405482 36:0.62277365 37:0.91561139 38:0.28394014 39:0.59569699 40:0.078993484 41:0.42005494 42:0.39402792 43:0.46929014 44:0.64565903 45:0.62477773 46:0.14294626 
0.8354307188824349 0 1:0.60116178 2:0.47163782 3:0.43573406 4:0.43376401 5:0.60497701 6:0.62119657 7:0.70214486 8:0.38803089 9:0.36356169 10:0.6874252 11:0.56245345 12:0.3807171 13:0.50273764 14:0.51186299 15:0.41693866 16:1 17:0.53876251 18:0.33698717 19:0.74030763 20:0.31725612 21:0.37913162 22:0.65034682 23:0.096181095 24:0.62536108 25:0.71736306 26:0.27510914 27:0.58192438 28:0.71830344 29:0.45515385 30:0.31429577 31:0.45295706 32:0.66979027 33:0.36482301 34:0.22183491 35:0.18580963 36:0.89547628 37:0.94256753 38:0.60902619 39:0.5777908 40:0.32258549 41:0.31429091 42:0.60198295 43:0.26483339 44:0.52213562 45:0.82716775 46:0.16480431 
0 1.601856288318732 1:0.99307901 2:0.060160786 3:0.435164 4:0.55973166 5:0.35494766 6:0.14194001 7:0.64991409 8:0.43747509 9:0.27114007 10:0.54048085 11:0.37866226 12:0.18765777 13:0.25276232 14:0.48079184 15:0.52964091 16:0.80767971 17:0.31430572 18:0.4121221 19:0.38300022 20:0.41162255 21:0.71634877 22:0.71509641 23:0.26379499 24:0.70522952 25:0.82920289 26:0.55349612 27:0.26683748 28:0.59011316 29:0.84443885 30:0.38436541 31:0.65724397 32:0.34512895 33:0.36196029 34:0.57722282 35:0.19481395 36:0.57009453 37:0.5453853 38:0.7548486 39:0.46534047 40:0.40095451 41:0.55606073 42:0.22683997 43:0.2529414 44:0.38424456 45:0.6906268 46:0.12693913 
0.3892372262270609 0 1:0.6701473 2:0.39559424 3:0.41150466 4:0.5194962 5:0.54109132 6:0.65101069 7:0.79951161 8:0.32133296 9:0.23603737 10:0.45117143 11:0.54203862 12:0.53227162 13:0.48444214 14:0.7995159 15:0.69166863 16:0.55825168 17:0.55642754 18:0.50176716 19:0.5359202 20:0.47013745 21:0.53822321 22:0.54535407 23:0.21028449 24:0.6778056 25:0.32398573 26:0.56538779 27:0.54519176 28:0.55502582 29:0.086550906 30:0.29567736 31:0.45854136 32:0.44498715 33:0.67404103 34:0.54258257 35:0.37991884 36:0.61550462 37:0.90245831 38:0.78044504 39:0.36394903 40:0.55980039 41:0.57170665 42:0.47728673 43:0.60898238 44:0.22397493 45:0.70400453 46:0.11435102 
0.007051608317907467 0 1:0.60567528 2:0.62932932 3:0.77708036 4:0.69700491 5:0.29555181 6:0.62524664 7:0.34511089 8:0.57076019 9:0.68002468 10:0.48863104 11:0.6251176 12:0.40866739 13:0.30250767 14:0.37097567 15:0.63155431 16:0.68812358 17:0.75209385 18:0.51838565 19:0.538037 20:0.69889104 21:0.4800646 22:0.39602157 23:0.62583977 24:0.58127165 25:0.73673427 26:0.56330818 27:0.76875311 28:0.42605135 29:0.5561583 30:0.65832454 31:0.66700304 32:0.21439683 33:0.62838191 34:0.65415561 35:0.27854848 36:0.62398493 37:0.46167919 38:0.58586729 39:0.39756596 40:0.65429002 41:0.38984796 42:0.35606843 43:0.60848182 44:0.096521311 45:0.69713593 46:0.11275198 
0.9021793561167351 0.8983334381723921 1:0.34335133 2:0.52580047 3:0.61332804 4:0.56483537 5:0.74828488 6:0.98395938 7:0.63446057 8:0.47638208 9:0.14299336 10:0.4116666 11:0.67867917 12:0.36133695 13:0.52606475 14:0.46560007 15:0.66473615 16:0.78199565 17:0.52100044 18:0.70329791 19:0.4125033 20:0.56732863 21:0.48057288 22:0.25923908 23:0.35450685 24:0.6124438 25:0.49014342 26:0.41252157 27:0.39840531 28:0.48969182 29:0.67663562 30:0.63223749 31:0.38007626 32:0.10944647 33:0.47945011 34:0.47532392 35:0.27033758 36:0.666008 37:0.42129299 38:0.75578034 39:0.64667052 40:0.57804316 41:0.71957964 42:0.36795706 43:0.55997723 44:0.0996553 45:0.62898284 46:0.15001847 
0 0.4235327267126596 1:0.63109457 2:0.31167614 3:0.44946575 4:0.56998122 5:0.62115562 6:0.73317242 7:0.52922958 8:0.47300234 9:0.72353083 10:0.50657415 11:0.51730067 12:0.47101918 13:0.42054072 14:0.6616298 15:0.66128933 16:0.72323346 17:0.88465548 18:0.28860369 19:0.75805855 20:0.65192384 21:0.17611559 22:0.44016844 23:0.30759877 24:0.75572973 25:0.49119079 26:0.5095768 27:0.52618974 28:0.54412591 29:0.39604479 30:0.64849555 31:0.58399236 32:0.29511315 33:0.61786503 34:0.48158139 35:0.17670588 36:0.55367064 37:0.57902962 38:0.93071294 39:0.51879305 40:0.48773107 41:0.49658275 42:0.38315225 43:0.53159946 44:0.18391003 45:0.71135193 46:0.097807534 
0 0.618801005096007 1:0.59023911 2:0.36312363 3:0.19673966 4:0.53491038 5:0.51795119 6:0.083021186 7:0.56862092 8:0.54493386 9:0.53482646 10:0.46012002 11:0.73218077 12:0.23280804 13:0.45238557 14:0.12738548 15:0.51432049 16:0.48346999 17:0.83932626 18:0.44251961 19:0.51096845 20:0.24287821 21:0.3453235 22:0.27271396 23:0.39992896 24:0.47698069 25:0.17969799 26:0.53802329 27:0.43311727 28:0.60580271 29:0.50310421 30:0.47571403 31:0.57635045 32:0.18570259 33:0.37158647 34:0.68811637 35:0.24513756 36:0.66076577 37:0.38933745 38:0.55284423 39:0.74607933 40:0.306209 41:0.54560018 42:0.27657539 43:0.65179437 44:0.25908488 45:0.5251534 46:0.11653289 
0.4810910234259603 0.1573117922680043 1:0.20885751 2:0.37355283 3:0.7498796 4:0.87419289 5:0.51471919 6:0.61939079 7:0.74247903 8:0.44137695 9:0.29502037 10:0.55074888 11:0.60597676 12:0.41885546 13:0.18344152 14:0.37295976 15:1 16:0.66567904 17:0.41450486 18:0.21667872 19:0.62750602 20:0.37389705 21:0.80926895 22:0.64776617 23:0.37435004 24:0.29204038 25:0.3218005 26:0.25529033 27:0.43325883 28:0.28127608 29:0.54047203 30:0.60775769 31:0.59258831 32:0.29578871 33:0.44734225 34:0.27689052 35:0.54670185 36:0.34652555 37:0.72120357 38:0.74089462 39:0.35250679 40:0.48787352 41:0.43571481 42:0.41148371 43:0.13476473 44:0.7675547 45:0.17487344 46:0.52023697 
0 0.6435134468963717 1:0.39172614 2:0.74672437 3:0.090589508 4:0.37428534 5:0.56556225 6:0.54768825 7:0.88678813 8:0.2056428 9:0.37099403 10:0.59127718 11:0.36872932 12:0.47107565 13:0.62976533 14:0.67179751 15:0.58967066 16:0.39584231 17:0.69991207 18:0.42968363 19:0.21443915 20:0.5472374 21:0.50347865 22:0.4641988 23:0.62092763 24:0.46005118 25:0.38576671 26:0.35126907 27:0.65267015 28:0.40144065 29:0.55514228 30:0.5496425 31:0.50525254 32:0.32406729 33:0.51748508 34:0.46352792 35:0.49265805 36:0.2733618 37:0.63943458 38:0.54426622 39:0.23101251 40:0.49875501 41:0.50540841 42:0.33278224 43:0.24802141 44:0.69599104 45:0.21714339 46:0.44466186 
0.831135743187576 1.749286577625797 1:0.98873699 2:0.46006468 3:0.81492686 4:0.43142512 5:0.57773608 6:0.59407896 7:0.63004786 8:0.45736358 9:0.52869344 10:0.57164699 11:0.61847049 12:0.29213896 13:0.49288592 14:0.70838171 15:0.78314722 16:0.47340521 17:0.52343404 18:0.62975466 19:0.62026221 20:0.42950463 21:0.69731259 22:0.71260011 23:0.42736888 24:0.60812229 25:0.71766406 26:0.36734289 27:0.71193075 28:0.31873539 29:0.34598821 30:0.51734936 31:0.77200168 32:0.35961866 33:0.45816112 34:0.43450856 35:0.41428384 36:0.44870067 37:0.85236025 38:0.62095022 39:0.34690002 40:0.54757488 41:0.22716293 42:0.43650526 43:0.19411992 44:0.76283944 45:0.24297184 46:0.54095936 
0 0.7409644469043444 1:0.62346464 2:0.64161646 3:0.47800076 4:0.45472452 5:0.36687213 6:0.5498637 7:0.494611 8:0.64938176 9:0.41810316 10:0.47599664 11:0.72181499 12:0.50767356 13:0.21999851 14:0.45084226 15:0.67494053 16:0.39320317 17:0.37428617 18:0.43257508 19:0.66075671 20:0.71971464 21:0.74421239 22:0.0066151982 23:0.42833531 24:0.44672954 25:0.40078631 26:0.50257981 27:0.47858363 28:0.61635792 29:0.77925962 30:0.31612983 31:0.29900211 32:0.6358791 33:0.44275525 34:0.32767636 35:0.42958885 36:0.62367827 37:0.7184751 38:0.53323734 39:0.55780488 40:0.52921915 41:0.68942034 42:0.41801402 43:0.41817656 44:0.27608731 45:0.045199696 46:0.39001411 
1.283988537627766 1.522512663010871 1:0.2261858 2:0.63213861 3:0.27864158 4:0.52046001 5:0.45166841 6:0.55485409 7:0.58780968 8:0.49342075 9:0.27015212 10:0.40217933 11:0.63379067 12:0.55885977 13:0.36869571 14:0.56526166 15:0.56867057 16:0.41116941 17:0.66487294 18:0.38791612 19:0.35986388 20:0.55347973 21:0.60126662 22:0.55053192 23:0.50724375 24:0.84845436 25:0.4876039 26:0.61241007 27:0.29265431 28:0.6941697 29:0.2775726 30:0.49818444 31:0.68391019 32:0.61360645 33:0.37142015 34:0.72427124 35:0.51759619 36:0.61697274 37:0.40741819 38:0.25656834 39:0.29226029 40:0.8212961 41:0.77138412 42:0.47287703 43:0.019567484 44:0.32625401 45:0.72548246 46:0.080530867 
0 0.5280587417512023 1:0.92703265 2:0.46306628 3:0.66276085 4:0.57714784 5:0.96934372 6:0.45072919 7:0.65469772 8:0.35695007 9:0.62489188 10:0.48579463 11:0.49038798 12:0.28463277 13:0.36936301 14:0.50419658 15:0.40520388 16:0.62351441 17:0.38204944 18:0.51414174 19:0.86505938 20:0.67536259 21:0.38488227 22:0.53061032 23:0.34198555 24:0.52511239 25:0.4400067 26:0.49454045 27:0.54091561 28:0.36232662 29:1 30:0.40000945 31:0.6345194 32:0.54805946 33:0.43040442 34:0.54997426 35:0.48837522 36:0.37649912 37:0.5868662 38:0.48920399 39:0.73798567 40:0.42722037 41:0.72530252 42:0.69174349 43:0.075934924 44:0.46079969 45:0.69349986 46:0.14431596 
0 0.3381132474805131 1:0.46532232 2:0.25383374 3:0.23445682 4:0.4488371 5:0.50555342 6:0.32537746 7:0.91601455 8:0.40357092 9:0.61741078 10:0.37798473 11:0.74538362 12:0.52769428 13:0.34417546 14:0.30279505 15:0.58488792 16:0.32587698 17:0.54991299 18:0.36636001 19:0.71589839 20:0.22098577 21:0.51250821 22:0.58116269 23:0.2508159 24:0.50117236 25:0.69566697 26:0.64320379 27:0.7056973 28:0.37884143 29:0.52249569 30:0.33790928 31:0.6967628 32:0.62766153 33:0.3114638 34:0.637335 35:0.42045045 36:0.62907213 37:0.56085986 38:0.23448381 39:0.49325967 40:0.78448248 41:0.38020867 42:0.5160448 43:0.040090788 44:0.26122722 45:0.73420751 46:0.14261089 
1.261113889133966 0 1:0.55639136 2:0.5367825 3:0.41415757 4:0.46344653 5:0.31124982 6:0.60421616 7:0.49943805 8:0.51540339 9:0.55453736 10:0.30571774 11:0.5168348 12:0.48855996 13:0.94948649 14:0.56004632 15:0.51358896 16:0.31166354 17:0.41746509 18:0.370774 19:0.51412851 20:0.44229892 21:0.54825258 22:0.93210858 23:0.46919316 24:0.55104494 25:0.47794667 26:0.75777954 27:0.44286257 28:0.58555186 29:0.91208428 30:0.30448803 31:0.71710807 32:0.48845673 33:3.6412406e-16 34:0.48977941 35:0.35724199 36:0.29297963 37:0.43294668 38:0.40636128 39:0.5249716 40:0.36303338 41:0.42350796 42:0.35777164 43:0.2262388 44:0.51096225 45:0.539258 46:0.20953207 
0.131069451247656 0 1:0.47180232 2:0.41559848 3:0.49722522 4:0.64667583 5:0.46976137 6:0.58077574 7:0.71000141 8:0.5182879 9:0.2465419 10:0.48412699 11:0.72445661 12:0.46452451 13:0.24515562 14:0.56479436 15:0.42290261 16:0.48535669 17:0.44607428 18:0.034050819 19:0.36382967 20:0.59055245 21:0.65938783 22:0.53241622 23:0.28738102 24:0.60962009 25:0.54465008 26:0.3998743 27:0.046635173 28:0.53520828 29:0.27024943 30:0.45992979 31:0.62320709 32:0.61374664 33:0.43743083 34:0.80656588 35:0.46212631 36:0.55902553 37:0.4398312 38:0.34173241 39:0.36047304 40:0.80541855 41:0.78288597 42:0.53217685 43:0.069111109 44:0.3480202 45:0.73517078 46:0.073192261 
1.772624607281241 0 1:0.60574305 2:0.52025908 3:0.47523782 4:0.48642805 5:0.33209315 6:0.65115011 7:0.7008785 8:0.70367849 9:0.65800482 10:0.32265708 11:0.48861611 12:0.52216184 13:0.78193539 14:0.53572989 15:0.85764718 16:0.70493555 17:0.28498679 18:0.80514365 19:0.52774715 20:0.63133699 21:0.86537379 22:0.33262974 23:0.58289176 24:0.30762666 25:0.45615622 26:0.520401 27:0.60346377 28:0.3209694 29:0.71791363 30:0.51509649 31:0.40311807 32:0.54726779 33:0.41135204 34:0.54453158 35:0.56612986 36:0.52057791 37:0.43762016 38:0.3951858 39:0.28442517 40:0.47053206 41:0.34555301 42:0.37214985 43:0.20075546 44:0.47718629 45:0.62588859 46:0.10919853 
0 0.6012076960289724 1:0.5992412 2:0.55991596 3:0.54145277 4:0.51356673 5:0.6515401 6:0.62499291 7:0.72645944 8:0.078419127 9:0 10:0.31073537 11:0.68719858 12:0.23734018 13:0.52272916 14:0.65224934 15:0.57558745 16:0.68604702 17:0.67874211 18:0.63146079 19:0.50245142 20:0.45537075 21:0.44450083 22:0.60814887 23:0.39726821 24:0.21073292 25:0.14212899 26:0.62319493 27:0.72417456 28:1 29:0.63868278 30:0.35823402 31:0.49968711 32:0.98820889 33:0.41622818 34:0.49971667 35:0.21781172 36:9.3428094e-16 37:0.68752468 38:0.46204647 39:0.61623001 40:0.39454666 41:0.26515037 42:0.72589338 43:0.46292278 44:0.055295333 45:0.59390563 46:0.26092753 
0 0.3731544161533215 1:0.7557053 2:0.90749377 3:0.27758566 4:0.86529595 5:0.59494156 6:0.69156671 7:0.48594058 8:0.42794383 9:0.23062439 10:0.37409964 11:0.57950282 12:0.66161668 13:0.32469293 14:0.52323431 15:0.58526176 16:0.67577684 17:0.56444257 18:0.46408188 19:0.65046787 20:0.75715131 21:0.57117516 22:0.40332383 23:0.34745446 24:0.14596994 25:0.4278219 26:0.37947312 27:0.49288923 28:0.3742955 29:0.0023310268 30:0.36500347 31:0.73418212 32:0.42130253 33:0.35497734 34:0.93183893 35:0.44545153 36:0.55470866 37:0.58328956 38:0.65379483 39:0.64593804 40:0.20217031 41:0.71476597 42:0.33132866 43:0.73043728 44:0.37797087 45:0.46661109 46:0.1599967 
0 0.6463927116244118 1:0.40499404 2:0.58647424 3:0.52545738 4:0.48359165 5:0.5748449 6:0.3090511 7:0.65567005 8:0.71491581 9:0.77712291 10:0.38670421 11:0.50176185 12:0.4283348 13:0.35770744 14:0.5737009 15:0.76010096 16:0.95533049 17:0.52632636 18:0.36098248 19:0.4490898 20:0.47837198 21:0.66936117 22:0.4774009 23:0.39251164 24:0.71595567 25:0.3925209 26:0.60334444 27:0.64275765 28:0.40148428 29:0.37042049 30:0.54707772 31:0.51894897 32:0.4417983 33:0.36408663 34:0.40882164 35:0.56603944 36:0.44421443 37:0.51316315 38:0.53457314 39:0.88769829 40:0.66649109 41:0.87176228 42:0.4429307 43:0.41891092 44:0.11758378 45:0.63336223 46:0.14151815 
0 0.2496896770075609 1:0.2806932 2:0.36224309 3:0.14521897 4:0.45328796 5:0.51227349 6:0.37002203 7:0.52211285 8:0.69589359 9:0.33708963 10:0.68867403 11:0.47486526 12:0.68942654 13:0.71062106 14:0.44476995 15:0.51004243 16:0.62550688 17:0.62070775 18:0.54692018 19:0.64960217 20:0.26426807 21:0.65287256 22:0.15909576 23:0.40644142 24:0.37000415 25:0.5417006 26:0.71949679 27:0.42577925 28:0.36275366 29:0.46237132 30:0.27406681 31:0.9477824 32:0.68275541 33:0.78253919 34:0.50891554 35:0.78007466 36:0.43183294 37:0.84560466 38:0.36830366 39:0.35119861 40:0.48449668 41:0.45029992 42:0.47498903 43:0.62761551 44:0.18468177 45:0.59426332 46:0.17445934 
0 0.03040549274951491 1:0.95670497 2:0.68939227 3:0.89018983 4:0.5802182 5:0.090444423 6:0.56447095 7:0.74059331 8:0.56752276 9:0.17714706 10:1 11:0.57783836 12:0.48164296 13:0.48375851 14:0.56163055 15:0.33619761 16:0.47546792 17:0.5728991 18:0.58352274 19:0.63672584 20:0.75610977 21:0.5712353 22:0.48767698 23:0.37003371 24:0.89798748 25:0.25254968 26:0.60278171 27:0.39332187 28:0.3007375 29:0.11688967 30:0.69157577 31:0.49641997 32:0.83641869 33:0.41574383 34:0.27276754 35:0.49793622 36:0.29571387 37:0.48277876 38:0.35830116 39:0.82718414 40:0.6436817 41:0.6860683 42:0.4261153 43:0.53363222 44:0.2036057 45:0.60977173 46:0.11675324 
0 0.758070132677342 1:0.35710564 2:0.2503871 3:0.21437198 4:0.49823329 5:0.24790296 6:0.77399743 7:0.67005384 8:0.61388767 9:0.23754027 10:0.57245195 11:0.48604959 12:0.2235619 13:0.79843229 14:0.22744398 15:0.38099962 16:0.50446391 17:0.67145807 18:0.47408396 19:0.67973185 20:0.51918894 21:0.55326903 22:0.48955575 23:0.40660366 24:0.52646112 25:0.59766352 26:0.52420217 27:0.45706645 28:0.73159099 29:0.43774375 30:0.53880692 31:0.68229365 32:0.73266119 33:0.83605492 34:0.50788784 35:0.51040226 36:0.4173668 37:0.76766646 38:0.46832395 39:0.57654566 40:0 41:0.63892525 42:0.47638601 43:0.58021832 44:0.24096401 45:0.68217635 46:0.12980346 
0 0.6578830981723203 1:0.42021543 2:0.45219254 3:0.34416547 4:0.4012655 5:0.21906726 6:0.069809973 7:0.65160018 8:0.58670866 9:0.23337878 10:0.50453478 11:0.46540651 12:0.40253076 13:0.30134735 14:0.79265583 15:0.34029287 16:0.71822244 17:0.66829163 18:0.58953226 19:0.67825788 20:0.72581464 21:0.5221799 22:0.75325149 23:0.51544267 24:0.45442516 25:0.86786115 26:0.29494691 27:0.67050719 28:0.21129355 29:0.33554167 30:0.58425981 31:0.31006134 32:0.83005339 33:0.47477397 34:0.23029737 35:0.61722338 36:0.30164558 37:0.49564037 38:0.31741685 39:0.88543802 40:0.61080456 41:0.68719202 42:0.56914067 43:0.44945753 44:0.16298835 45:0.6983152 46:0.12991475 
2.325529690954315 0 1:0.34872785 2:0.15764603 3:0.17358354 4:0.47115213 5:0.35810527 6:0.9952845 7:0.59007353 8:0.53136295 9:0.22549467 10:0.47863239 11:0.45072594 12:0.28012508 13:0.7353521 14:0.13430396 15:0.39125422 16:0.51980984 17:0.58582234 18:0.49665502 19:0.67723554 20:0.40193939 21:0.45445618 22:0.47162825 23:0.35148504 24:0.46160576 25:0.60687828 26:0.50078309 27:0.57350671 28:0.71330953 29:0.37775609 30:0.45683905 31:0.74101025 32:0.6208958 33:0.84334737 34:0.4964242 35:0.63639152 36:0.43778041 37:0.7891975 38:0.47979894 39:0.60216367 40:0.13160898 41:0.75894713 42:0.551651 43:0.59224302 44:0.23379236 45:0.65817952 46:0.11729934 
0 0.0352495128383125 1:0.39591458 2:0.30408928 3:0.54423136 4:0.66679353 5:8.8590678e-16 6:0.60643405 7:0.75406432 8:0.086708359 9:0.54067516 10:0.41627717 11:0.81196982 12:0.36005232 13:0.47378364 14:0.65801531 15:0.58068615 16:0.61596626 17:0.71605724 18:0.70842552 19:0.67717922 20:0.56458098 21:0.7933591 22:0.65018451 23:0.41766781 24:0.46112418 25:0.11575341 26:0.68932563 27:0.56854743 28:0.93611908 29:0.44395068 30:0.47454551 31:0.62121248 32:0.9511503 33:0.53816354 34:0.46619451 35:0.32603562 36:0.057012361 37:0.87956923 38:0.38032392 39:0.38010988 40:0.43394092 41:0.26666793 42:0.5984602 43:0.44680482 44:0 45:0.6871866 46:0.12463729 
0 0.3681583573127121 1:0.46356773 2:0.53044993 3:0.3412751 4:0.238895 5:0.53002447 6:0.72701013 7:0.66412944 8:0.73735249 9:0.42065746 10:0.48366794 11:0.48187703 12:0.57121956 13:0.62523574 14:0.49429631 15:0.33805197 16:0.5885188 17:0.42116982 18:1 19:0.57035673 20:0.53709829 21:0.390082 22:0.659136 23:0.41946927 24:0.79310918 25:0.51202244 26:0.66960007 27:0.69169718 28:0.53519392 29:0.27118477 30:0.30188045 31:0.48527592 32:0.48772788 33:0.44995007 34:0.51225454 35:0.2965425 36:0.38087162 37:0.67142087 38:0.52195209 39:0.6056636 40:0.70153552 41:0.55970228 42:0.39640155 43:0.49313921 44:0.93772811 45:0.38559017 46:0.41371635 
0 0.03317571352128687 1:0.43848261 2:0.34412107 3:0.37459075 4:0.43042943 5:0.75496745 6:0.86941177 7:0.65609694 8:0.4436149 9:0.085648313 10:0.34096813 11:0.44469589 12:0.74228323 13:0.38667998 14:0.18659709 15:0.45240629 16:0.816145 17:0.51998329 18:0.902399 19:0.60906994 20:0.61644226 21:0.27148068 22:0.45226929 23:0.39930934 24:0.90991002 25:0.4418788 26:0.59067184 27:0.60296333 28:0.58971822 29:0.34593561 30:0.5144372 31:0.36588073 32:0.73612815 33:0.42242795 34:0.60896522 35:0.30901694 36:0.34349003 37:0.62431568 38:0.5477373 39:0.64542037 40:0.69281834 41:0.51127797 42:0.47750905 43:0.49854961 44:0.98104173 45:0.4087691 46:0.42487088 
1.143960763717358 0 1:0.70301527 2:0.21364152 3:0.10562744 4:0.38356584 5:0.5419476 6:0.65434301 7:0.51291609 8:0.8303715 9:0.42940465 10:0.29972097 11:0.58251965 12:0.52888983 13:0.22304316 14:0.87808383 15:0.72571087 16:0.76212138 17:0.47541705 18:0.26400721 19:0.42616752 20:0.31961074 21:0.6728549 22:0.56485784 23:0.2525377 24:0.43071887 25:0.4666307 26:0.28116021 27:0.59530735 28:0.59577566 29:0.38371882 30:0.31401944 31:0.46495959 32:0.73466104 33:0.494692 34:0.45213333 35:0.52735275 36:0.44348502 37:0.53316218 38:0.49862042 39:0.34029973 40:0.52214974 41:0.99117041 42:0.2347724 43:0.60903358 44:0.97353703 45:0.69103312 46:0.14909908 
0.1985465190459101 0 1:0.67773539 2:0.6691916 3:0.34964475 4:0.51923954 5:0.45597354 6:0.25850523 7:0.86364067 8:0.62763673 9:0.42869699 10:0.28309679 11:0.60100931 12:0.23331049 13:0.62903428 14:0.44504556 15:0.44293541 16:0.51667756 17:0.4496156 18:0.68114865 19:0.37596813 20:0.96747613 21:0.36165628 22:0.28377783 23:0.8205477 24:0.2862941 25:0.36441594 26:0.35533819 27:0.39819592 28:0.6723063 29:0.62458408 30:0.37193605 31:0.84224731 32:0.77298683 33:0.21901311 34:0.13506523 35:0.31061924 36:0.57064688 37:0.75249362 38:0.72342807 39:0.39404428 40:0.87822551 41:0.60954291 42:0.49652794 43:0.84180665 44:0.29546475 45:0.68808776 46:0.27462515 
0.3860971734473476 0 1:0.7014665 2:0.47771218 3:0.27482077 4:0.37258491 5:0.73779905 6:0.39063987 7:0.84412801 8:0.47758839 9:0.49756587 10:0.31070828 11:0.71720821 12:0.3338958 13:0.67833483 14:0.2838957 15:0.45291311 16:0.46190342 17:0.59721392 18:0.43890968 19:0.46711117 20:0.98345917 21:0.2742033 22:0.38464153 23:0.64599562 24:0.35139021 25:0.32959396 26:0.2801412 27:0.27760103 28:0.52001858 29:0.55796003 30:0.3719722 31:0.87195194 32:0.91567111 33:0.18606685 34:0.1086975 35:0.27038729 36:0.59961939 37:0.77953833 38:0.63359565 39:0.39469665 40:0.938519 41:0.56124818 42:0.54431933 43:0.83681202 44:0.25053418 45:0.70574665 46:0.28373548 
0.463179820023887 1.119614490863994 1:0.67576069 2:0.36095613 3:0.57680768 4:0.26698241 5:0.6673829 6:0.37471086 7:0.55849504 8:0.36517248 9:0.43471164 10:0.30819514 11:0.62597406 12:0.39686903 13:0.352846 14:0.43301463 15:0.58295417 16:0.49723381 17:0.77427834 18:0.71343333 19:0.62468898 20:0.78372234 21:0.459977 22:0.51516998 23:0.49040976 24:0.27520028 25:0.13037513 26:0.27518916 27:0.093817174 28:0.36086237 29:0.67321223 30:0.36284536 31:0.7694459 32:0.58440554 33:0.38022366 34:0.18463853 35:0.30179691 36:0.63090289 37:0.80462575 38:0.68166518 39:0.28268793 40:1 41:0.57955962 42:0.50338703 43:0.72368377 44:0.32587701 45:0.6589005 46:0.24388114 
1.145951945209754 0.888963693083974 1:0.57494205 2:0.36300457 3:0.54302454 4:0.43031147 5:0.36256644 6:0.70665675 7:0.82760978 8:0.63841933 9:0.45112678 10:0.34688959 11:0.60919458 12:0.46374094 13:0.16958661 14:0.60802704 15:0.45884407 16:0.69394505 17:0.56988066 18:0.0021248737 19:0.40771747 20:0.8079254 21:0.90884495 22:0.40878946 23:0.48432878 24:0.20974277 25:0.57361811 26:0.59810036 27:1 28:0.79018706 29:0.61709404 30:0.54732263 31:0.62763333 32:0.58361965 33:0.67347342 34:0.40081161 35:0.47069889 36:0.79234546 37:0.25839546 38:0.64554536 39:0.88275903 40:0.60714829 41:0.089184873 42:0.58661479 43:0.5106613 44:0.82018501 45:0.70114803 46:0.48960969 
0 0.299439908396585 1:0.47529471 2:0.424959 3:0.36263591 4:0.38152596 5:0.43229696 6:0.78830433 7:0.75233126 8:0.46298179 9:0.35741505 10:0.4207316 11:0.55843794 12:0.46077827 13:0.20841576 14:0.48007247 15:0.52048379 16:0.62125784 17:0.72225142 18:0.062327985 19:0.3291108 20:0.80599564 21:0.83640885 22:0.43314922 23:0.52440137 24:0.20850424 25:0.60764128 26:0.62535071 27:0.98792189 28:0.83163339 29:0.60050428 30:0.61634874 31:0.65397239 32:0.64523262 33:0.66365945 34:0.28163996 35:0.50001943 36:0.79845983 37:0.26168403 38:0.5761736 39:0.89365691 40:0.61719656 41:0.057670247 42:0.55563968 43:0.49557588 44:0.83027136 45:0.69472963 46:0.48011467 
0 1.513818025742702 1:0.62315464 2:0.36991832 3:0.51654309 4:0.56495357 5:0.55619943 6:0.54929334 7:0.60242295 8:0.20768058 9:0.68601251 10:0.5175969 11:0.57064277 12:0.4702968 13:0.79486662 14:0.62507737 15:0.44762886 16:0.46138576 17:0.4879933 18:0.58469695 19:0.58677632 20:0.32501563 21:0.39686483 22:0.33246878 23:0.14313024 24:0.82996231 25:0.44548541 26:0.19246946 27:0.31914678 28:0.62651563 29:0.41687703 30:0.39920947 31:0.84010911 32:0.79750419 33:0.49664491 34:0.2596744 35:0.52543592 36:0.64492798 37:0.074390709 38:0.57337511 39:1 40:0.62968296 41:0.2777732 42:0.47569278 43:0.74575257 44:0.5504154 45:0.52207059 46:0.46213654 
0.2729666233085911 0 1:0.63450134 2:0.38444951 3:0.35205832 4:0.5922761 5:0.50034952 6:0.46700591 7:0.53654432 8:0.28978905 9:0.65743876 10:0.47436368 11:0.61589515 12:0.48267713 13:0.82046378 14:0.78139257 15:0.84539264 16:0.44228718 17:0.51546389 18:0.8291474 19:0.51065058 20:0.19118591 21:0.51410288 22:0.45180094 23:0.04380187 24:0.70375347 25:0.51594275 26:0.12192439 27:0.39107898 28:0.37380782 29:0.51181895 30:0.48453131 31:0.82177293 32:0.88499391 33:0.56372464 34:0.30012643 35:0.42415285 36:0.65787584 37:0.016338117 38:0.49050853 39:0.93256712 40:0.6094436 41:0.24760647 42:0.45987076 43:0.72593826 44:0.61994207 45:0.50822389 46:0.43949887 
2.730412601744373 1.843243259982228 1:0.19819345 2:0.98206848 3:0.19356389 4:0.85888302 5:0.33796471 6:0.40361995 7:0.63184029 8:0.34963349 9:0.14521065 10:0.43245843 11:0.36862022 12:0.45366275 13:0.53040957 14:0.11005602 15:0.66014421 16:0.54065579 17:0.53671098 18:0.45149451 19:0.94775909 20:0.55931282 21:0.99973506 22:0.9464246 23:0.31259957 24:0.40061861 25:0.45254302 26:0.40654773 27:0.75180805 28:0.7594654 29:0.40802506 30:0.34323809 31:0.7811588 32:0.71726 33:0.20179372 34:1.0932023e-15 35:0.020886298 36:0.5376572 37:0.82506937 38:0.91826892 39:0.47411576 40:0.76087344 41:0.70216388 42:0.44123068 43:0.79748166 44:0.35323244 45:0.75883996 46:0.34169793 
0.714063922314911 0 1:0.50592774 2:0.43015566 3:0.28283644 4:0.67847764 5:0.43281108 6:0.55513924 7:0.54612124 8:0.58513111 9:0.3251701 10:0.48136556 11:0.59530288 12:0.22495182 13:0.44872814 14:0.40354341 15:0.57372832 16:0.78794467 17:0.35609031 18:0.28641057 19:0.39641201 20:0.5936892 21:0.56451231 22:0.51973325 23:0.44207522 24:0.87830716 25:0.46847963 26:0.50498819 27:0.24651562 28:0.34808454 29:0.68670297 30:0.44929531 31:0.88992774 32:0.37304536 33:0.40926239 34:0.59730518 35:0.60832846 36:0.5387668 37:0.84380311 38:0.33737609 39:0.57192898 40:0.82538855 41:0.29207388 42:0.64914209 43:0.73502672 44:0.57411408 45:0.32633311 46:0.50302494 
0 0.009928939230803071 1:0.61771077 2:0.63644284 3:0.51681489 4:0.68691295 5:0.57997108 6:0.21341385 7:0.51834333 8:0.33468518 9:0.60691631 10:0.36509004 11:0.69609493 12:0.32322893 13:0.73142183 14:0.45349017 15:0.49158731 16:0.33880994 17:0.70318496 18:0.23571081 19:0.67112023 20:0.73928708 21:0.72552645 22:0.67503595 23:0.19952878 24:0.6368441 25:0.70662665 26:0.77014887 27:0.18449481 28:0.65575063 29:0.49086815 30:0.34334478 31:7.8589734e-16 32:0.35266453 33:0.6387465 34:0.64259237 35:0.51329744 36:0.40207499 37:0.7918942 38:0.51531059 39:0.62429738 40:0.67238486 41:0.39569682 42:0.62606829 43:0.57577145 44:0.96730435 45:0.50586122 46:0.37686387 
0 0.2120012184281491 1:0.50296384 2:0.59412783 3:0.56951463 4:0.55837065 5:0.49210557 6:0.22519952 7:0.52826476 8:0.38908881 9:0.60040039 10:0.33344525 11:0.69727826 12:0.32574093 13:0.72700238 14:0.42700091 15:0.48671201 16:0.43053544 17:0.76708162 18:0.25250715 19:0.57921338 20:0.69963336 21:0.75708646 22:0.65154737 23:0.25585178 24:0.56089056 25:0.70788074 26:0.78003055 27:0.16850863 28:0.60224324 29:0.42289874 30:0.39843976 31:0.048881516 32:0.35404521 33:0.68038779 34:0.66000289 35:0.5018459 36:0.39385295 37:0.78341252 38:0.50609505 39:0.63098264 40:0.70919311 41:0.36930478 42:0.59324998 43:0.5554499 44:1 45:0.49597454 46:0.40519339 
0.2214928737622947 0 1:0.52561671 2:0.59751505 3:0.55632246 4:0.56073785 5:0.49894887 6:0.23333281 7:0.51654196 8:0.36217847 9:0.57584876 10:0.37162632 11:0.72037256 12:0.33286414 13:0.74808306 14:0.48914924 15:0.52365106 16:0.37631425 17:0.77340406 18:0.27194947 19:0.56144834 20:0.70832062 21:0.74661076 22:0.64174014 23:0.25758266 24:0.56951416 25:0.73451316 26:0.80539483 27:0.18120828 28:0.62584448 29:0.47920683 30:0.41259813 31:0.037315801 32:0.35120073 33:0.68467736 34:0.64033937 35:0.51341641 36:0.40048522 37:0.78325301 38:0.48664674 39:0.63212961 40:0.71117765 41:0.37113646 42:0.61740124 43:0.57005852 44:0.9932121 45:0.50144124 46:0.39420319 
1.953514079059317 1.525031366319337 1:0.77487099 2:0.46627229 3:0.519503 4:0.25492617 5:0.44041494 6:0.52258909 7:0.75674111 8:0.20330219 9:0.42153931 10:0.54090291 11:0.59846455 12:0.39242578 13:0.57909113 14:0.15642928 15:0.60534835 16:0.66747648 17:0.7809121 18:0.26890445 19:0.41346183 20:0.55734503 21:0.74370426 22:0.5564695 23:0.0197431 24:0.51255167 25:0.50013816 26:0.18896119 27:0.5329262 28:0.38904601 29:0.60458356 30:0.42936689 31:0.27946123 32:0.59704709 33:0.78283089 34:0.50378197 35:0.46551704 36:0.4974083 37:0.55464113 38:0.42661387 39:0.55957878 40:0.58002126 41:0.56313157 42:0.54309654 43:0.65401655 44:0.99851781 45:0.65237951 46:0.45855808 
0.7812882925882931 0.3096876227099307 1:0.48954952 2:0.39276496 3:0.31953511 4:0.3620258 5:0.55659199 6:0.52080405 7:0.58344972 8:0.36611402 9:0.53568804 10:0.45234442 11:0.32836947 12:0.45260701 13:0.484559 14:0.21840729 15:0.61732334 16:0.61596823 17:0.58493698 18:0.35165888 19:0.31007782 20:0.46896085 21:0.93861848 22:0.62520492 23:0.10771047 24:0.74600655 25:0.42229617 26:0.41486356 27:0.67405629 28:0.53192449 29:0.70033252 30:0.34855178 31:0.9169873 32:0.73926687 33:0.4317176 34:0.60988075 35:0.48961303 36:0.7062692 37:0.62457567 38:0.37402081 39:0.73189318 40:0.55693704 41:0.36998361 42:0.60136235 43:0.83121759 44:0.64542729 45:0.55666083 46:0.53362381 
2.102103968722416 1.687754207601124 1:0.73459804 2:0.63796711 3:0.40053847 4:0.47278732 5:0.73143327 6:0.15709607 7:0.90991575 8:0.39670527 9:0.64330721 10:0.55014616 11:0.92214948 12:0.85771996 13:0.283205 14:0.32281271 15:0.2759251 16:0.7299127 17:0.68921667 18:0.3604615 19:0.40461737 20:0.49402452 21:0.33793983 22:0.50865364 23:0.55677205 24:0.63213813 25:0.30582282 26:0.44931924 27:0.76622248 28:0.53943294 29:0.92966318 30:0.81865054 31:0.30997124 32:0.75071245 33:0.46983433 34:0.49031726 35:0.54134935 36:0.55986249 37:0.64067924 38:0.2453327 39:0.23649557 40:0.52026856 41:0.62264854 42:0.25108013 43:0.77258694 44:0.5540458 45:0.63947386 46:0.23115048 
-2.752789374833038 1.634322001024578 1:0.5910973 2:0.20808318 3:0.34240183 4:0.55130899 5:0.16165976 6:0.65589213 7:0.31767696 8:0.32220984 9:0.62568641 10:0.62895977 11:0.75816661 12:1 13:0.52997226 14:0.68971527 15:0.51869148 16:0.75045586 17:0.21484332 18:0.68628496 19:0.36042097 20:0.83611238 21:0.67922711 22:0.84109604 23:0.41479805 24:0.26894802 25:0.87108928 26:0.56755781 27:0.297566 28:0.9447099 29:0.51025838 30:0.15653154 31:0.50183314 32:0 33:0.26918954 34:0.072580911 35:0.64855003 36:0.54225719 37:0.46844691 38:0.21302155 39:0.30076638 40:0.42549148 41:0.77240741 42:0.8309269 43:0.72395051 44:0.48865524 45:0.94983357 46:0.47675812 
-2.051822401360909 1.128498884136531 1:0.8303538 2:0.67613465 3:0.46725398 4:0.7771107 5:0.36512297 6:0.80890054 7:0.82607013 8:0.38301778 9:0.76010484 10:0.52151358 11:0.55009848 12:0.69023108 13:0.787844 14:0.13462329 15:0.97721714 16:0.80755287 17:0.31834927 18:0.37207726 19:0.55064493 20:0.43763438 21:0 22:0.5857141 23:0.61850697 24:0.24908511 25:0.88004833 26:0.71456432 27:0.21465048 28:0.8532055 29:0.8180843 30:0.59194291 31:0.4425762 32:0.18994075 33:0.68051153 34:0.06372115 35:0.47026828 36:0.37102455 37:0.73492593 38:2.1432557e-16 39:0.44415841 40:0.42113379 41:0.7287575 42:0.84458745 43:0.89361268 44:0.61947936 45:0.9647128 46:0.46897283 
-2.780537299102559 0.9376984116031168 1:0.48886976 2:0.66140372 3:0.20221196 4:0.50197488 5:0.54133976 6:0.50824481 7:0.66343713 8:0.35734695 9:0.78232133 10:0.50755411 11:0.69375938 12:0.25071141 13:0.30850583 14:0.48224342 15:0.43313852 16:0.59386331 17:0.55604905 18:0.46483982 19:7.9647334e-16 20:0.2996175 21:0.73460609 22:0.52986735 23:0.37426332 24:0.76180136 25:0.44286764 26:1 27:0.65084666 28:0.1054472 29:0.54662836 30:0.75036877 31:0.51728576 32:0.91853744 33:0.39109552 34:0.38958839 35:0.11510739 36:0.59820414 37:0.54782826 38:0.93605828 39:0.078604564 40:0.079446644 41:0.76629782 42:0.53242099 43:0.30560035 44:0.41921237 45:0.69552356 46:0.71490109 
-2.998319512002705 0.5558370034051432 1:0.1966394 2:0.35256642 3:0.29843491 4:0.87258327 5:0.85894507 6:0.66811919 7:0.66146052 8:0.39883885 9:0.64412004 10:0.37147909 11:0.47352174 12:0.3595252 13:0.30342376 14:0.18838416 15:0.80656242 16:0.46209943 17:0.63140291 18:0.45206037 19:0.72647947 20:0.63606697 21:0.58895642 22:0.78192949 23:0.097363293 24:0.29115087 25:0.62761867 26:0.10431805 27:0.53855395 28:0.56946307 29:0.58477604 30:0.39774439 31:0.4723846 32:0.53830332 33:0.45687962 34:0.50945145 35:0.35909691 36:0.51680756 37:0.50169855 38:0.6814059 39:0 40:0.4770675 41:0.72142875 42:0.98707861 43:0.55786055 44:0.44075155 45:0.79717505 46:0.74072671 
-0.9053668934973311 1.013398664865909 1:0.43301049 2:0.58263826 3:0.52747023 4:0.77751219 5:0.52687341 6:0.40016827 7:0.6387586 8:0.67917019 9:0.55515772 10:0.50130206 11:0.63250732 12:0.35986808 13:0.42354953 14:0.39960203 15:0.51739055 16:0.52317423 17:0.65404534 18:0.49628109 19:0.57918692 20:0.82731128 21:0.75627983 22:0.77918285 23:0.68373978 24:0.81218386 25:0.61138701 26:0.31428272 27:0.57947952 28:0.32709071 29:0.31080025 30:0.062943041 31:0.3952361 32:0.75603461 33:0.56127423 34:0.4751716 35:0.28174043 36:0.62266809 37:0.12219597 38:0.79480714 39:0.16676928 40:0.27706084 41:0.48625359 42:0.90445954 43:0.50842518 44:0.38686493 45:0.89526659 46:0.7484017 
-1.565824994412445 2.368460101930391 1:0.5115487 2:0.33924001 3:0.33618492 4:0.44548416 5:0.72154212 6:0.42753014 7:0.73493713 8:0.57531387 9:0.38155046 10:0.5315482 11:0.29121944 12:0.2507278 13:0.4213599 14:0.84307265 15:0.67653698 16:0.6173048 17:0.15413514 18:0.099816635 19:0.70437288 20:0.38095605 21:0.24249789 22:0.62516999 23:0.85607463 24:0.44260448 25:0.15744367 26:0.45261347 27:0.26378301 28:0.57681578 29:0.60872996 30:0.78453541 31:0.35345459 32:0.59319079 33:0.63507253 34:0.45686287 35:0.57299387 36:0.67886323 37:0.26191142 38:0.94239694 39:0.18662171 40:0.26709992 41:0.54382753 42:0.73486465 43:0.56116271 44:0.38266292 45:0.80953407 46:0.72411335 
-3.634985457834182 2.246457398354635 1:0.56197476 2:0.56240892 3:0.33559814 4:0.17250852 5:0.14193316 6:0.8685264 7:0.56275254 8:0.42094448 9:0.75795907 10:0.10249354 11:0.65519404 12:0.33300868 13:0.36061311 14:0.57258117 15:0.53521633 16:0.80712765 17:0.37579259 18:0.58456135 19:0.28628168 20:0.35940298 21:0.25080228 22:1 23:0.27192777 24:0.098588333 25:0.31018648 26:0.44899526 27:0.16417463 28:0.3457588 29:0.39370796 30:0.87359226 31:0.75013906 32:0.90050107 33:0.60723072 34:0.63285172 35:0.63406402 36:0.69926518 37:0.6858266 38:0.59718239 39:0.23382448 40:0.31603321 41:0.38272676 42:0.7523824 43:0.40992361 44:0.5026533 45:0.65902096 46:0.68157667 
-1.423650730763707 1.777193919914715 1:0.61057937 2:0.1864441 3:0.53381592 4:0.57447028 5:0.45034483 6:0.18898955 7:0.55671036 8:0.61536759 9:0.096753642 10:0.4684518 11:0.71976024 12:0.51006407 13:0.6467613 14:0.51776522 15:0.70397252 16:0.32175362 17:0.66479164 18:0.57252991 19:0.47524071 20:0.60128707 21:0.86212623 22:0.37853745 23:0.44816679 24:0.88274992 25:0.35544682 26:0.37267813 27:0.90148556 28:0.7656365 29:0.50096691 30:0.23984857 31:0.30580363 32:0.35072738 33:0.34499094 34:0.41917261 35:0.53971791 36:0.56366801 37:0.309836 38:0.52258706 39:0.2201297 40:0.22531652 41:0.92301506 42:0.87739867 43:0.74426949 44:0.42394763 45:0.8384968 46:0.786883 
-2.087873176483714 1.771429033486928 1:0.53726786 2:0.66667539 3:0.28997913 4:0.38101953 5:0.43888831 6:0.81797081 7:0.79372501 8:0.58637136 9:0.35867715 10:0.47836354 11:0.80476958 12:0.2180358 13:0.32299492 14:0.36190283 15:0.41256207 16:0.69989526 17:0.72450012 18:0.6580897 19:0.60480368 20:0.70259202 21:0.81983274 22:0.64291835 23:0.23386902 24:0.68211043 25:0.6275906 26:0.44288117 27:0.66060495 28:0.28836909 29:7.3026284e-16 30:0.3434259 31:0.76272291 32:0.56109494 33:0.26288924 34:0.58789039 35:0.27716416 36:0.66121113 37:0.38749951 38:0.58935529 39:0.071430445 40:0.53297877 41:0.76378101 42:0.77051073 43:0.59502655 44:0.51817364 45:0.7968716 46:0.78675312 
-0.09911849095073674 0.5418470845251603 1:0.80559987 2:0.30607563 3:0.47122455 4:0.3815133 5:0.35231701 6:0.67821503 7:0.9883095 8:0.70946693 9:0.2338493 10:0.44532061 11:0.32673222 12:0.74725854 13:0.46513289 14:0.80182123 15:0.33138764 16:0.49933526 17:0.94637769 18:0.41922018 19:0.31399617 20:0.17952853 21:0.35848105 22:0.21765785 23:0.14081573 24:0.27935928 25:0.64445263 26:0.31070709 27:0.42556217 28:0.36836889 29:0.58285111 30:0.56228238 31:0.60682535 32:0.50322455 33:0.47835875 34:0.55220366 35:0.60429293 36:0.47347111 37:0.89482844 38:0.46554351 39:0.018255323 40:0.47273201 41:0.53054541 42:0.99428904 43:0.59930778 44:0.46748817 45:0.85141122 46:0.68943477 
-0.8910242324167201 1.343563050317645 1:0.63101721 2:0.14952318 3:0.48764998 4:0.44860443 5:0.41032308 6:0.1333742 7:0 8:0.36307845 9:0.26928535 10:0.49263367 11:0.63773972 12:0.36840177 13:0.74544507 14:0.5181585 15:0.19349143 16:0.39487663 17:0.31284374 18:0.054119058 19:0.52477127 20:0.5461843 21:0.61498845 22:8.2480352e-16 23:0.20339099 24:0.66381139 25:0.27676603 26:0.4291808 27:0.92002469 28:0.29213423 29:0.33281481 30:1 31:0.71996027 32:0.20924617 33:0.19299459 34:0.562536 35:0.4557299 36:0.59085649 37:0.57875055 38:0.24795456 39:0.23574862 40:0.18518947 41:0.72066516 42:1 43:0.7214793 44:0.36677825 45:0.8423661 46:0.84497654 
-0 0.6434584309797783 1:0.63379222 2:0.73680425 3:0.43677881 4:0.46132556 5:0.23010768 6:0.54557472 7:0.84921378 8:0.2324736 9:1 10:0.5537079 11:0.54102284 12:0.56234401 13:0.44003916 14:0.52764493 15:0 16:0.51833433 17:0.37307358 18:0.77514857 19:0.47820306 20:0.7294423 21:0.74635559 22:0.62268788 23:0.44304818 24:0.70233423 25:0.54482162 26:0.56037176 27:0.73693895 28:0.41859519 29:0.29211459 30:0.045238174 31:0.38992286 32:0.42514899 33:0.47961116 34:0.48708975 35:0.57447243 36:0.68578231 37:0.31282043 38:0.74660158 39:0.21463676 40:0.29110801 41:0.77304435 42:0.88116604 43:0.5322395 44:0.41902933 45:0.86464715 46:0.72765195 
-5.470744102443995 5.14171791224587 1:0.72854537 2:0.76835203 3:0.56473017 4:0.38413259 5:0.44353938 6:0.62055111 7:0.95140046 8:1 9:0.014816767 10:0.34687543 11:0.58050823 12:0.71608752 13:0.75175184 14:0.36339486 15:0.60072774 16:0.63731331 17:0.9228577 18:0.31952831 19:0.93828338 20:4.9528822e-16 21:0.96727997 22:0.58137327 23:0.38633865 24:0.82207781 25:0.44522035 26:0.69271195 27:0.51470733 28:0.46390283 29:0.79698265 30:0.55242163 31:0.60082221 32:0.56508899 33:0.38626829 34:0.30353475 35:0.33024815 36:0.70628095 37:0.66220361 38:0.3868112 39:0.45531443 40:0.52217829 41:0.53361839 42:0.73009944 43:0.62224394 44:0.4280633 45:0.81769937 46:0.7412774 
-0 -0.3615895082455314 1:0.62388569 2:0.33282104 3:0.20927568 4:0.51197094 5:0.26585785 6:0.55756497 7:0.53605288 8:0.31302816 9:0.58092523 10:0.44883412 11:0.56706518 12:0.39891544 13:0.24995251 14:0.36548981 15:0.40653169 16:0.57392514 17:0.26855001 18:0.53883564 19:0.82236642 20:0.44600534 21:0.73525643 22:0.71293318 23:0.35538298 24:0.55079335 25:0.13238609 26:0.35351297 27:0.6999985 28:0.66950405 29:0.31460118 30:0.14345858 31:0.30676359 32:0.5670687 33:0.73928124 34:0.43121183 35:0.56116939 36:0.85160899 37:0.68170124 38:0.68349349 39:0.68823743 40:0.67870432 41:0.6688953 42:0.24715136 43:0.37214041 44:0.3686474 45:0.90900916 46:0.9312194 
-2.009641882892127 -0.7361127576211912 1:0.40277547 2:0.88599807 3:0.92809516 4:0.29499179 5:0.58831477 6:0.30629474 7:0.73011386 8:0.81615829 9:0.82026088 10:0.33040479 11:0.64449161 12:0.53259349 13:0.34357935 14:0.30060944 15:0.55877358 16:0.36273366 17:0.72553962 18:0.53003246 19:0.48643091 20:0.45007113 21:0.37059194 22:0.78215265 23:0.31093678 24:0.74112332 25:0.43824071 26:0.039707281 27:0.65292835 28:0.85023421 29:0.33977258 30:0.6768561 31:0.4896248 32:0.16032764 33:0.56578696 34:0.46447918 35:0.6243543 36:0.48424938 37:0.82651836 38:0.48086765 39:0.79990906 40:0.40201434 41:0.59600621 42:0.19138962 43:0.38303599 44:0.21766566 45:0.61349612 46:0.87448984 
-2.279703440341478 -1.924627620158448 1:0.75056076 2:0.22663391 3:0.39691433 4:0.79840863 5:0.62694597 6:0.20445772 7:0.66766983 8:0.80152237 9:0.064010575 10:0.64126116 11:0.32577285 12:0.51538664 13:0.73504424 14:0.40111503 15:0.40752044 16:0.61438531 17:0.22909497 18:0.082384378 19:0.8584671 20:0.37622285 21:0.3168346 22:0.67912978 23:0.84927624 24:0.6600771 25:0.53741175 26:0.75275499 27:0.57055223 28:0.44901091 29:0.70763832 30:0.17193986 31:0.57960606 32:0.77709067 33:0.79781723 34:0.58028042 35:0.13588779 36:0.71277636 37:0.57508445 38:0.70696014 39:0.68816537 40:0.48756218 41:0.38393509 42:0.20327091 43:0.34126365 44:0.31719008 45:0.88455665 46:0.88014972 
-0.2587297898296 -0 1:0.625139 2:0.50976574 3:0.31169245 4:0.6960206 5:0.54170674 6:0.56769115 7:0.52469075 8:0.43134934 9:0.31293795 10:0.60255075 11:0.64735711 12:0.70548052 13:0.41758227 14:0.54542339 15:0.64096624 16:0.5494979 17:0.42768562 18:0.23169003 19:0.6184538 20:0.5951032 21:0.55655879 22:0.87224847 23:0.56040072 24:0.49800885 25:0.45406035 26:0.51816714 27:0.64977401 28:0.45879966 29:0.34730935 30:0.4808782 31:0.69540811 32:0.64982343 33:0.50875878 34:0.51843363 35:0.72718787 36:0.71870452 37:0.81238467 38:0.62334949 39:0.7073372 40:0.52209914 41:0.40009496 42:0.25954911 43:0.24721153 44:0.23005788 45:0.78415614 46:0.88774556 
-2.179689124071193 -0 1:0.4814381 2:0.082066707 3:0.37593469 4:0.61219281 5:0.15733455 6:0.59650046 7:0.55876088 8:0.31750083 9:0.79022151 10:0.29582289 11:0.57256508 12:0.4688603 13:0.43296465 14:0.62562215 15:0.43254599 16:0.6851359 17:0.64016753 18:0.4133296 19:0.11567358 20:0.69559962 21:0.41886207 22:0.43709263 23:0.45260578 24:0.71259952 25:1 26:0.57521868 27:0.59264958 28:0.35302806 29:0.65262455 30:0.15978053 31:0.94519639 32:0.66872239 33:0.68990272 34:0.63722545 35:0.058001582 36:0.53576308 37:0.69278288 38:0.50399101 39:0.49056897 40:0.39852548 41:0.55572349 42:0.095046945 43:0.19948511 44:0.13841549 45:0.69350141 46:0.86978376 
-0.0009474741909026212 -2.788968689763939 1:0.76835895 2:0.53635502 3:0.6749894 4:0.92784226 5:0.37087336 6:0.55582398 7:0.85249609 8:0.68594462 9:0.16270486 10:0.32144743 11:0.39915353 12:0.70433325 13:0.76605999 14:0.5217095 15:0.51335418 16:0.82902837 17:0.83446401 18:0.72271675 19:0.33614823 20:0.50041866 21:0.52417356 22:0.57265931 23:0.26680878 24:0.70140427 25:0.54994059 26:0.36812237 27:0.28908637 28:0.27587697 29:0.91196626 30:0.089596942 31:0.58033133 32:0.5584684 33:0.51403052 34:0.47250801 35:0.56975615 36:0.52808535 37:0.58856452 38:0.16556786 39:0.57753932 40:0.44821024 41:0.49566936 42:0.35416743 43:0.46111628 44:0.19115256 45:0.96097511 46:0.91519642 
-2.520835729031694 -2.526890789238298 1:0.98694205 2:0.43957439 3:0.24783899 4:0.51915324 5:0.66264564 6:0.52665854 7:0.77488732 8:0.58721781 9:0.40320942 10:0.48251328 11:0.61835808 12:0.54001981 13:0.30474922 14:0.3893657 15:0.6970284 16:0 17:0.78437245 18:0.50705719 19:0.42900908 20:0.36599922 21:0.54860926 22:0.73666519 23:0.055817839 24:0.2268489 25:0.065252893 26:0.85033691 27:0.33488354 28:0.63601708 29:0.22987145 30:0.52730227 31:0.63776606 32:0.6132288 33:0.54555869 34:0.44201639 35:0.670129 36:0.6970076 37:0.77575511 38:0.78296506 39:0.77864522 40:0.57238042 41:0.67410976 42:0.25612682 43:0.30142552 44:0.33926195 45:0.7173292 46:0.84992838 
-2.611389967590511 -1.255484483842672 1:0.47975972 2:0.44210988 3:0.48687461 4:0.41294357 5:0.1408162 6:0.62759769 7:0.58235878 8:0.35855082 9:0.49505374 10:0.71861321 11:0.43562186 12:0.26667622 13:0.5995512 14:0.22099258 15:0.68663704 16:0.72505802 17:1 18:0.41879854 19:0.74200785 20:0.57022029 21:0.51527053 22:0.43544394 23:0.36013111 24:0.31282887 25:0.37930039 26:0.5074501 27:0.65771639 28:0.33944556 29:0.70755553 30:0.23900628 31:0.14699996 32:0.59405518 33:0.23478954 34:0.60401964 35:0.92805749 36:0.51630872 37:0.53890216 38:0.8417421 39:0.42537025 40:0.70158911 41:0.57986647 42:0.14891137 43:0.36538878 44:0.28704646 45:0.73286927 46:0.86926639 
-1.611141887568684 -1.346043942829443 1:0.53060186 2:0.48755965 3:0.16853043 4:0.12343198 5:0.74630666 6:0.5553171 7:0.54693103 8:0.17635509 9:0.52726889 10:0.41148692 11:0.90723753 12:0.32350281 13:0.51922572 14:1 15:0.19777219 16:0.86135888 17:0.53594822 18:0.67263967 19:1 20:0.53591573 21:0.79415083 22:0.27027211 23:0.43107903 24:0.62789923 25:0.55095041 26:0.33378842 27:0.69445807 28:0.57361573 29:0.45175979 30:0.60905826 31:0.92245853 32:0.089710645 33:0.44244054 34:0.39820802 35:0.3351652 36:0.2581864 37:0.69270539 38:0.040634509 39:0.26771176 40:0.67472535 41:0.63097018 42:0.1969035 43:0.54852784 44:0.4580577 45:0.83257771 46:0.9639231 
-1.500075200999315 -0 1:0.67779452 2:0.77507406 3:0.52837205 4:0.48365533 5:0.42013401 6:0.3091031 7:0.51477695 8:0.44239435 9:0.56835306 10:0.57539099 11:0.49064165 12:0.56535017 13:0.78044683 14:0.22736728 15:0.55471104 16:0.51983875 17:0 18:0.39350832 19:0.42963171 20:0.91861045 21:0.61452132 22:0.72342139 23:0.1250239 24:0.47962019 25:0.39501145 26:0.40398225 27:0.46662131 28:0.85549843 29:0.27427977 30:0.68928587 31:0.41869348 32:0.69010633 33:0.37304434 34:0.43644869 35:0.66572022 36:0.72710377 37:0.79865193 38:0.60743946 39:0.76168418 40:0.37450257 41:0.59100306 42:0.10484345 43:0.22541067 44:0.32665992 45:0.71306807 46:0.84713483 
-0.2531676376005825 -1.53545498496987 1:0.24826574 2:0.34752297 3:0.35620829 4:0.43965086 5:0.64501506 6:0.76186603 7:0.3598491 8:0.66079187 9:0.42626518 10:0.59804595 11:0.83615875 12:0.2931456 13:1 14:0.73518908 15:0.61966443 16:0.88605177 17:0.52773517 18:0.37811267 19:0.71599013 20:0.74101311 21:0.31669167 22:0.63256782 23:0.90094697 24:0.55373299 25:0.17445177 26:0.25421208 27:0.58661765 28:0.54710835 29:0.53848922 30:0.31070465 31:0.35666904 32:0.6243639 33:0.51940948 34:0.57608145 35:0.93948877 36:0.58259869 37:0.54788637 38:0.73716855 39:0.47905925 40:0.67295784 41:0.4820191 42:0.27575245 43:0.28127551 44:0.27111039 45:0.7712341 46:0.87046576 
-2.149075820166493 -0.9415194688751503 1:0.38700962 2:0.4194712 3:0.21633463 4:0.46206111 5:0.73912185 6:0.3981097 7:0.62348288 8:0.26753438 9:0.44334286 10:0.72749358 11:0.42586046 12:0.66430736 13:0.55948186 14:0.77983594 15:0.66623122 16:0.92885876 17:0.90696698 18:0.68588865 19:0.34164643 20:0.85266542 21:0.95046937 22:0.43040231 23:0.032620817 24:0.35245028 25:0.7005806 26:0.87117714 27:0.15227009 28:0.74749452 29:0.75803983 30:0.57938778 31:0.61122948 32:0.79539329 33:0.30602935 34:0.43160617 35:0.15043283 36:0.70256317 37:0.5209716 38:0.59455639 39:0.4487676 40:0.61652458 41:0.95853466 42:0.093942642 43:0.20963325 44:0.32067022 45:0.89584535 46:0.80653679 
-0.1413811897913574 -0.9830134363754037 1:0.41207054 2:1 3:0.38889405 4:0.23815812 5:0.67737061 6:0.15188964 7:0.85664046 8:0.43225864 9:0.16085 10:0.49208295 11:0.63087732 12:0.54008859 13:0.35028172 14:0.68946636 15:0.87076002 16:0.57314897 17:0.25651711 18:0.48254612 19:0.16180186 20:0.45902693 21:0.63826632 22:0.75406402 23:0.59464282 24:0.606857 25:0.26759294 26:0.20988065 27:0.26194996 28:0.75862706 29:0.37509397 30:0.45598429 31:0.70460027 32:0.2846415 33:1 34:0.39371297 35:0.23435751 36:0.46053854 37:0.78284454 38:0.050671894 39:0.6624108 40:0.3539674 41:0.66359323 42:0.21183947 43:0.45259479 44:0.34065244 45:0.98141098 46:0.85650438 
-2.040975466170078 -2.214769147025186 1:1 2:0.65221751 3:0.19740596 4:0.50385207 5:0.79111135 6:0.51277906 7:0.42864922 8:0.2573843 9:0.11221953 10:0.44572872 11:1 12:0.6699537 13:0.4803268 14:0.50539929 15:0.21803753 16:0.62292939 17:0.53070599 18:0.55622059 19:0.99183977 20:0.46154058 21:0.83569318 22:0.5185616 23:0.51028407 24:0.63697982 25:0.36409134 26:0.45308134 27:0.6730144 28:0.54810315 29:0.45716414 30:0.92668396 31:0.36592767 32:0.43215701 33:0.41126341 34:0.42008698 35:0.47765929 36:0.5038771 37:0.63600624 38:0.5345577 39:0.56274706 40:0.4575114 41:0.56447071 42:0.221237 43:0.37212753 44:0.35111624 45:0.77439994 46:0.9115386 
-2.335513605036345 -0 1:0.14759132 2:0.30793285 3:0.25074118 4:0.87697309 5:0.53576607 6:0.42517462 7:0.70233041 8:0.66386199 9:0.60802484 10:0.47326484 11:0.70758331 12:0.37864554 13:0.29424819 14:0.47877088 15:0.46287075 16:0.55226308 17:0.73631358 18:0.83271366 19:0.38255292 20:0.49245039 21:0.23544161 22:0.55722642 23:0.22176138 24:0.61074209 25:0.20572621 26:0.018863697 27:0.43505856 28:0.59853911 29:0.63036197 30:0.43696728 31:0.49575245 32:0.33787808 33:0.40935239 34:0.46713278 35:1 36:0.40419644 37:0.67312914 38:0.39873183 39:0.62144685 40:0.45191398 41:0.31418315 42:0.23580547 43:0.35106179 44:0.32808006 45:0.68377858 46:0.85626978 
-1.693918264741961 -0 1:0.43236616 2:0.57094026 3:0.50623184 4:0.46049851 5:0.37448055 6:0.61775196 7:0.55327564 8:0.39354879 9:0.42410934 10:0.75978673 11:0.59328634 12:0.40707907 13:0.10440066 14:0.65676892 15:0.43657249 16:0.26212281 17:0.60471791 18:0.48598325 19:0.43438962 20:0.48099586 21:0.68737787 22:0.33479509 23:0.681732 24:0.76901442 25:0.28407753 26:0.20338702 27:0.5449118 28:0.2915113 29:0.50693369 30:0 31:0.34959188 32:0.66829401 33:0.81161064 34:0.48836386 35:0 36:0.44834751 37:0.6832757 38:0.36500973 39:0.85938442 40:0.39403999 41:0.5544129 42:0.32262456 43:0.35625601 44:0.51109058 45:0.91306823 46:0.8610509 
-1.665960961526486 -1.463929608100862 1:0.5165087 2:0.51635122 3:0.73488235 4:0.66547161 5:0.37601814 6:0.78177768 7:0.79717493 8:0.73617148 9:0.62605828 10:0.34195295 11:0.44761372 12:0.4469215 13:0.54053032 14:0.45475861 15:0.49614179 16:0.37579113 17:0.67327422 18:0.090883918 19:0.69695967 20:0.68669355 21:0.58458102 22:0.26955992 23:0.3050904 24:0.73475343 25:0.79425263 26:0 27:0.91844136 28:0.70413411 29:0.49356064 30:0.44617206 31:0.89488405 32:0.40430468 33:0.26429141 34:0.33132109 35:0.011691513 36:0.24940589 37:0.70570111 38:0.21058941 39:0.57781142 40:0.51604939 41:0.66070479 42:0.1235759 43:0.56488955 44:0.42947188 45:0.8862229 46:0.99633276 
-0 -1.272790080944655 1:0.72602803 2:0.26246029 3:0.68905681 4:0.3858715 5:0.17217338 6:0.67177111 7:0.54748344 8:0.48157004 9:0.46514046 10:0.051303212 11:0.33585569 12:0.32660776 13:0.56419563 14:0.68731046 15:0.29323584 16:0.7437582 17:0.63214594 18:0 19:0.70779109 20:0.46491891 21:0.64639539 22:0.50305659 23:0.060186125 24:0.35229751 25:0.60166627 26:0.35883507 27:0.52394748 28:0.50055051 29:0.49943182 30:0.59136361 31:0.83037561 32:0.44586042 33:0.16049315 34:0.4382022 35:0.50869596 36:0.33237401 37:0.77389669 38:0.3598704 39:0.28395417 40:0.60771042 41:0.71258128 42:1.9985139e-16 43:0.54087394 44:0.46147552 45:0.87605965 46:1 
-1.711178984873939 -1.752687378799749 1:0.73527551 2:0.5031293 3:0.87218875 4:0.12085525 5:0.42151493 6:0.41261807 7:0.6304273 8:0.015284512 9:0.16803688 10:9.2709567e-16 11:0.69172502 12:0.45787233 13:0.54242605 14:0.27144146 15:0.80560392 16:0.98312151 17:0.62553424 18:0.60525334 19:0.48590502 20:0.73881149 21:0.91228604 22:0.47915685 23:0.69087291 24:0.51067412 25:0.48999554 26:0.2535156 27:0.20517702 28:0.19403642 29:0.37833273 30:0.097622119 31:0.40732789 32:0.55472451 33:0.7362408 34:0.6893186 35:0.28504628 36:0.69318599 37:0.54478854 38:0.44697127 39:0.46914962 40:0.38640702 41:0.65137947 42:0.37915784 43:0.36902377 44:0.28500029 45:1 46:0.86202765 
