svm_type c_svc
kernel_type rbf
gamma 0.09
nr_class 2
total_sv 19
rho -1.3583
label 130050101 130050105
probA -4.3087
probB 0.11121
nr_sv 16 3
SV
4.024360075746818 1:0.17352116 2:0.57651764 3:0.41022784 4:0.57789302 5:0.74304038 6:0.50420249 7:0.45482188 8:0.52998567 9:0.39281991 10:0.22350106 11:0.3416113 12:0.71742886 13:0.48790008 14:0.5504595 15:0.62309915 16:0.40864629 17:0.81216669 18:0.27012983 19:0.38791701 
2.52369420854995 1:0.66030103 2:0.67800593 3:0.4744308 4:0.19404073 5:0.42066798 6:0.60581112 7:0.74965221 8:0.45638436 9:0.60261559 10:0.35852236 11:0.46419698 12:0 13:0.69617862 14:0.58225095 15:0.76080459 16:0.20636083 17:0.66372532 18:0.376403 19:0.40676668 
1.979172318170439 1:0.31386134 2:0.64639872 3:0.22998439 4:0.58618599 5:0.27872089 6:0.43402174 7:0.63411063 8:0.32645014 9:0.59986401 10:0.60384828 11:0.18193126 12:0.70315003 13:0.5489406 14:0.37988514 15:0.72310811 16:0.27817577 17:0.966717 18:0.032607544 19:0.41916364 
1.830703277391355 1:0.52006459 2:0.45967421 3:0.32078391 4:0 5:0.29663819 6:0.25192887 7:0.76089066 8:0.46697515 9:0.58648306 10:0.57500124 11:0.2551944 12:0.59439313 13:0.17270504 14:0.59375995 15:0.55660689 16:0.32849514 17:0.73441792 18:0.083680287 19:0.44115266 
0.575174594717667 1:0.55632919 2:0.41246659 3:0.44619665 4:0.43391001 5:0.44775161 6:0.5069651 7:0.65553093 8:0.21494226 9:0.50740576 10:0.50398737 11:0.51500529 12:0.62914854 13:0.59627789 14:0.7930308 15:0.2507273 16:0.11750422 17:0.5215593 18:0.79794788 19:0.16670564 
2.357091639254865 1:0.65875888 2:0.66253453 3:0.45373499 4:0.23788109 5:0.38984257 6:0.24777521 7:0.52778542 8:0.48051351 9:0.57678515 10:0.44885963 11:0.47757766 12:0.47870755 13:0.40447432 14:0.61488265 15:0.496346 16:0.25125134 17:0.46507215 18:0.96600932 19:0.16840789 
0.4543598421919197 1:0.28003514 2:0.22059901 3:0.65943402 4:0.21591334 5:0.35899565 6:0.55303144 7:0.29266864 8:0.060764618 9:0.37571183 10:0.57873404 11:0.71373022 12:0.55620563 13:0.37593967 14:8.3618643e-17 15:0.5010705 16:0.53587377 17:0.7099281 18:0.52145064 19:0.2536535 
1.761527472163231 1:0.66668522 2:0.99085563 3:0.39745235 4:0.32731715 5:0.40590408 6:0.73049277 7:0.16506279 8:0.05754051 9:0.67159408 10:0.39968118 11:0.13820472 12:0.38963333 13:0.20339552 14:0.68292189 15:0.48518991 16:0.16462755 17:0.25708878 18:0.84123212 19:0.31091672 
0.4266773127770379 1:0.33754423 2:0.5356003 3:0.96919012 4:0.31053165 5:0.28538835 6:0.45484155 7:0.27721211 8:0.39784303 9:1 10:0.62084907 11:0.39821354 12:0.58357406 13:0.1579745 14:0.75332683 15:0.51311719 16:0.1247014 17:0.44809833 18:0.82007772 19:0.26042315 
1.531598572540067 1:0.52414227 2:0.58885878 3:0.62578696 4:0.16913056 5:0.57146478 6:0.68706149 7:0.3956576 8:0.30243659 9:0.37758017 10:0.60513073 11:0.14045872 12:0.77366024 13:0.83616257 14:0.69324541 15:0.30159509 16:0.15976135 17:0.19961335 18:0.15754983 19:0.38215649 
1.04627854546698 1:0.35797936 2:0.76257473 3:0.47601792 4:0.6973592 5:0.62838829 6:0.84699833 7:0.72042781 8:0.38563335 9:0.11157581 10:0.32671198 11:0.50447583 12:0.60683084 13:0 14:0.58419043 15:0.62214673 16:0.51010448 17:0.16748869 18:0.66374153 19:0.37160891 
2.28575503731353 1:0.50565237 2:0.51059777 3:0.53020531 4:0.27685452 5:0.36870056 6:0.72531849 7:0.66103292 8:0.88736266 9:0.59473544 10:0.63550317 11:0.28927675 12:0.60619032 13:0.30809644 14:0.59492087 15:0.57503623 16:0.97942001 17:0.14145708 18:0.13011889 19:0.47792619 
0.1280376636718358 1:8.1601259e-16 2:1 3:0.39465693 4:0.18706399 5:0.10627703 6:0.58627516 7:0.5440262 8:0.43568552 9:0.39107272 10:0.42998588 11:0.24232142 12:0.65126252 13:0.66293329 14:0.54781598 15:0.24008404 16:0.7461555 17:0.76317334 18:0.90432107 19:0.11774343 
0.1488198009870112 1:0.76788908 2:0.81174213 3:0.48642808 4:0.077090107 5:0.93055195 6:0.55565447 7:0.67958069 8:0.33608854 9:0.43412715 10:0.86976278 11:0.41111124 12:0.60855353 13:0.56944531 14:0.61678457 15:0.65255761 16:0.16967805 17:0.62165642 18:1 19:0.1691321 
1.6484195153205 1:0.45794356 2:0.43752217 3:0.39341232 4:0.67937189 5:0.57615441 6:0.4955565 7:0.74044615 8:0.509525 9:0.73301286 10:0.27279344 11:0.35320124 12:0.7262733 13:0.55089694 14:0.69814473 15:0.55622703 16:0.16730705 17:0.62258196 18:0.95547926 19:0.15532158 
0.3100583640436996 1:0.40215132 2:0.63496768 3:0.1367936 4:0.20668255 5:0.22015814 6:0.20643492 7:0.60970294 8:0.2727108 9:0.54940122 10:0.23821051 11:1 12:0.97549564 13:0.63353461 14:0.92544591 15:0.66515845 16:0.9107995 17:0.0099916775 18:0.17726402 19:0.39545724 
-3.032073252374463 1:0.48735729 2:0.57606268 3:0.43814459 4:0.36717218 5:0.42316887 6:0.50642395 7:0.56040817 8:0.44255468 9:0.51530838 10:0.45476544 11:0.35075551 12:0.63738853 13:0.52120358 14:0.57209557 15:0.52498019 16:0.37259173 17:0.59960234 18:0.65767229 19:1 
-10 1:0.48735729 2:0.57606268 3:0.43814459 4:0.36717218 5:0.42316887 6:0.50642395 7:0.56040817 8:0.44255468 9:0.51530838 10:0.45476544 11:0.35075551 12:0.63738853 13:0.52120358 14:0.57209557 15:0.52498019 16:0.37259173 17:0.59960234 18:0.65767229 19:1 
-9.999654987932445 1:0.48735729 2:0.57606268 3:0.43814459 4:0.36717218 5:0.42316887 6:0.50642395 7:0.56040817 8:0.44255468 9:0.51530838 10:0.45476544 11:0.35075551 12:0.63738853 13:0.52120358 14:0.57209557 15:0.52498019 16:0.37259173 17:0.59960234 18:0.65767229 19:1 
