svm_type c_svc
kernel_type rbf
gamma 0.09
nr_class 2
total_sv 5
rho -0.0970548
label 130060101 130060102
probA -3.62151
probB 0.169894
nr_sv 3 2
SV
2.813089370103731 1:0.68851173 2:0.85800511 
9.998615325841044 1:0.68851173 2:0.85800511 
2.838371505095802 1:6.423206e-16 2:0.86312872 
-5.961074184584119 1:0.57096702 2:0 
-9.68900201645646 1:0.57096702 2:0 
