svm_type c_svc
kernel_type rbf
gamma 0.09
nr_class 3
total_sv 53
rho -0.502785 -0.61218 -0.434774
label 130090101 130090102 130090103
probA -3.3552 -3.72119 -3.67483
probB -0.0280419 -0.0769549 -0.0844972
nr_sv 20 11 22
SV
5.029790373822407 2.894209595821039 1:1 2:0.32858533 3:0.61532599 4:0.33296549 5:0.4667258 6:0.54953742 7:0.054337762 8:0.84784627 9:0.047085371 10:0.42746663 11:0.36654493 12:0.017327765 13:0.33671525 14:0.58176976 15:0.32164419 16:0.025043825 17:0.45524061 18:0.88581246 19:0.54237235 20:0.36053374 21:0.19951993 22:0.4776012 23:0.2670449 24:0.53763092 25:0.49662048 26:0.66653174 27:0.096632458 28:0.25184661 
2.257571202431979 0.7799267808686668 1:0.41763583 2:0.73898637 3:0.75504792 4:0.22044471 5:0.19247285 6:0.4170191 7:0.46698457 8:0.29926312 9:0.3195045 10:0.44508153 11:0.63393849 12:0.38725221 13:0 14:0.78221041 15:0.31961578 16:0.45505926 17:0.55672246 18:0 19:0.63403046 20:0.88439304 21:0.13182764 22:0.50537848 23:0.48949051 24:0.014115464 25:0.33969623 26:0.63232356 27:0.38343707 28:0.26707372 
3.894711804186159 0 1:0.42836338 2:0.47687387 3:0.31248263 4:0.50893456 5:0.52389956 6:0.62899226 7:0.54036802 8:0.7781142 9:0.40321383 10:0.65531212 11:0.35636142 12:0.47121102 13:0.34286809 14:0.6719225 15:0.24759279 16:0.62917471 17:0.22952209 18:0.36523965 19:0.59626633 20:0.2293237 21:0.20889325 22:0.31565428 23:0.41361618 24:0.76657379 25:0.52136719 26:0.35893014 27:0.081502065 28:0.092552722 
0 2.064102944387644 1:0.66178864 2:0.47945294 3:0.20430526 4:0.13258354 5:0.53152972 6:0.71629131 7:0 8:0.27886704 9:0.46204609 10:0.74021596 11:0.6854865 12:0.45855686 13:0.53025055 14:0.57431102 15:0.58112919 16:0.38049322 17:0.35241905 18:0.41950941 19:0.17509493 20:0.19418971 21:0.44751289 22:0.25912169 23:0.32698196 24:0.61884171 25:0.55225533 26:0.5239473 27:0.11428924 28:0.13466346 
0 1.012736038076289 1:0.75082648 2:0.67860079 3:0.51438367 4:0.60352319 5:0.67902923 6:0.87575352 7:0.20893857 8:0.15705514 9:0.71605903 10:0.69336879 11:0.27741832 12:0.24521954 13:0.14190601 14:0.50129604 15:0.28413883 16:0.49270746 17:0.73842037 18:0.66933596 19:0.67149383 20:0.45907605 21:0.30250436 22:0.23417023 23:0.59419751 24:0.76308322 25:0.31798777 26:0.37497979 27:0.16558285 28:0.15572338 
3.286092666613254 1.036043095221067 1:0.83898103 2:0 3:0.63177556 4:0.052375048 5:0.2079688 6:0.75376648 7:0.33794352 8:0.3995598 9:0.29084507 10:0.75811285 11:0.74249411 12:0.67056125 13:0.47656572 14:0.3556014 15:0.40764579 16:0.49207303 17:0.11683771 18:0.31558779 19:0.47931024 20:0.35333538 21:0.3116076 22:0.40844679 23:0.4435873 24:0.6669758 25:0.50582677 26:0.42860198 27:0.23446764 28:0.13406138 
0.1847481894937974 0 1:0.55546302 2:0.63635623 3:0.30922341 4:0.48408458 5:0.19637173 6:0.76373696 7:0.44665363 8:0.64680016 9:0.74242926 10:0.70252603 11:0.38095358 12:0.32574409 13:0.080920331 14:0.29033124 15:0.29647598 16:0.77722567 17:0.59793043 18:0.75125289 19:0.66400588 20:0.36473089 21:0.3915675 22:0.23833038 23:0.51015729 24:0.62141967 25:0.44180998 26:0.37489673 27:0.16106513 28:0.12954168 
1.811790992656244 0 1:0.5787133 2:0.37280318 3:0.70496595 4:0.47730693 5:0.67930961 6:0.69692057 7:0.62721121 8:0.3125608 9:0.65536344 10:0.31359163 11:0.22053979 12:0.38249892 13:1 14:0.30986923 15:0.087043859 16:0.85914415 17:0.26273534 18:0.61197609 19:0.21544217 20:0.41026053 21:0.56493473 22:0.57080835 23:0.34612247 24:0.35007408 25:0.6683479 26:0.12623943 27:0.59973121 28:0.15057352 
0 1.446547756461704 1:0.13908567 2:0.56930274 3:0.2067119 4:0.25352302 5:0.37295407 6:0.69679779 7:0.72167772 8:0.36912343 9:0.27370355 10:0.66510832 11:0.61197388 12:0.31906706 13:0.4495106 14:0.23552488 15:0.32541302 16:0.13608828 17:0.026686626 18:0.42334288 19:0.32404718 20:0.77845556 21:0.52329999 22:0.56816328 23:0.5156402 24:0.53608787 25:0.62007266 26:0.10437991 27:0.49104252 28:0.18173622 
0 0.5766498833525221 1:0.51742584 2:0.53193235 3:0.54919153 4:0.35807139 5:0.49347281 6:0.60129344 7:0.45938259 8:0.26625979 9:0.54224515 10:0.35722673 11:0.24152699 12:0.17009741 13:0.80273819 14:0.56486213 15:0 16:0.56579345 17:0.32532737 18:0.48044813 19:0 20:0.48007739 21:0.64611346 22:0.48841989 23:0.34433165 24:0.44059694 25:0.80824727 26:0.093540937 27:0.56673789 28:0.15541261 
4.713925521203366 1.624897965197635 1:0.75640368 2:0.64501578 3:0.4590199 4:0.39458171 5:0.13476528 6:0.74445277 7:0.24690518 8:0.16896333 9:0.52499408 10:0.31747881 11:0.70346004 12:0.32816058 13:0.15467538 14:0.23287597 15:0.31869644 16:0.59819359 17:0.52668941 18:0.7877751 19:0.33259669 20:0.71960366 21:0.88646203 22:0.50452942 23:0.62327313 24:0.34311607 25:0.42909169 26:0 27:0.48444405 28:0.17269337 
6.073716859138755 0.8247093410852184 1:0.68005109 2:0.60303754 3:0.28444362 4:0.31864396 5:0.63741636 6:0.60226035 7:0.35740039 8:0.33818838 9:0.47530252 10:0.70790017 11:0.42171377 12:0.52950978 13:0.57987934 14:0.47673637 15:0.20615736 16:0.3888348 17:0.53853649 18:0.44340044 19:0.99979514 20:0.47970629 21:0.90826494 22:0.62438691 23:0.73395002 24:0.4027693 25:0.91600782 26:0.75011373 27:0.30847591 28:0.068065964 
0 1.178711298594275 1:0.43288648 2:0.56300324 3:0.49512216 4:0.5946061 5:0.2771239 6:0.62033349 7:0.43748021 8:0.28407079 9:0.48174384 10:0.63491756 11:0.54794621 12:0.42306525 13:0.39037728 14:0.44503483 15:0.41735435 16:0.76634347 17:0.29389787 18:0.85925567 19:0.399894 20:0.80328888 21:0.38493216 22:0.42201057 23:0.62348324 24:0.64231598 25:0.79079384 26:0.95255679 27:0.30810785 28:0.22618118 
0.9450464205783216 0 1:0.56018955 2:0.65360254 3:0.43910915 4:0.24990761 5:0.44958007 6:0.654966 7:0.42893189 8:0.29990131 9:0.30399173 10:0.69409621 11:0.37542862 12:0.59157479 13:0.39084157 14:0.27791882 15:0.30685672 16:0.6701088 17:0.45946887 18:1 19:0.4577122 20:0.19264919 21:0.034472227 22:1 23:0.12812859 24:0.21984105 25:0.49662408 26:0.84418482 27:0.4337945 28:0.31428689 
1.529271312141692 5.365769489162609 1:0.29832423 2:0.55066931 3:0.47278437 4:0.21116108 5:0.43625107 6:0.72072136 7:0.37480688 8:0.30510688 9:0.39567143 10:0.66080076 11:0.40914702 12:0.53695595 13:0.29987025 14:0.32720771 15:0.26451734 16:0.56723595 17:0.53605396 18:0.93134266 19:0.47977805 20:0.25197527 21:0.16425717 22:0.92488778 23:0.18069686 24:0.21088488 25:0.41371444 26:0.77194107 27:0.44305956 28:0.32593998 
0 3.777484076195476 1:0.47001034 2:0.59735292 3:0.52315462 4:0.17973813 5:0.49902043 6:0.71474236 7:0.48507205 8:0.53946227 9:0.35579264 10:0.58558983 11:0.35186586 12:0.36978301 13:0.62593752 14:0.56624013 15:0.60361862 16:0.91661859 17:0.20848601 18:0.79972833 19:0.24635988 20:0.91016543 21:0.38063028 22:0.36687282 23:0.93377447 24:0.78700161 25:0.77550107 26:0.89260101 27:0.36181647 28:0.20913698 
3.782555813149262 0 1:0.41223505 2:0.52021497 3:0.55005479 4:0.33359909 5:0.56487989 6:0.65076172 7:0.43994263 8:0.3168326 9:0.25074261 10:0.58358568 11:0.43410262 12:0.44287384 13:0.56108481 14:0.51299596 15:0.52515596 16:0.85120493 17:0.24346264 18:0.75460416 19:0.2965371 20:0.85120028 21:0.43596247 22:0.35130382 23:0.8619014 24:0.72396231 25:0.65208316 26:0.88966346 27:0.39151466 28:0.18938695 
3.635122252328971 3.272558307381823 1:0.37245208 2:0.55934459 3:0.37589663 4:0.53815663 5:0.48116362 6:1 7:0.47377664 8:0.5740999 9:0.31184655 10:0.64487022 11:0.57697308 12:0.64204681 13:0.22552678 14:0.79838884 15:0.90467668 16:0.64358073 17:0.64050019 18:0.73011148 19:0.83727282 20:0.16277285 21:0.46983105 22:0.41284347 23:0.63214505 24:0.11545981 25:1 26:0.11877999 27:0.94945514 28:0.36853117 
0 1.171433676499143 1:0.71521109 2:0.40925077 3:0.65858716 4:0.34817922 5:0.70032728 6:0.57807875 7:0.44663277 8:0.50971925 9:0.53697199 10:0.65926373 11:0 12:0.43736807 13:0.37718871 14:0.45295495 15:1 16:0.31446686 17:0.34793052 18:0.64626938 19:0.72076273 20:0.19244346 21:0.30822816 22:0.27971452 23:0.47193804 24:0.108977 25:0.99711013 26:0.18656643 27:0.91458094 28:0.37861913 
7.886192574388557 3.489561086033458 1:0.42870104 2:0.555691 3:0.19009651 4:0.10506175 5:0.62843603 6:0.49313316 7:0.57424164 8:0.16392712 9:0.77644205 10:0.21095115 11:0.62585276 12:0.40393224 13:0.61039782 14:0.74701726 15:0.51419312 16:0.49867928 17:0.66497523 18:0.6884051 19:0.53093362 20:0.13376985 21:0.53735262 22:0.45455977 23:0.38042879 24:0.56849819 25:0.50089544 26:0.71053869 27:0.023526214 28:0.1934751 
-7.770709923361871 5.441206519381324 1:0.78269058 2:0.10370477 3:0.56233817 4:0.14709042 5:0.32656416 6:0.40927035 7:0.63449228 8:0.69454348 9:1 10:0.93375325 11:0.51264012 12:0.32373726 13:0.46406251 14:0.90923035 15:0.45770052 16:0.41513333 17:0.6014663 18:0.5186727 19:0.56518286 20:0.53577143 21:0.45126691 22:0.64182484 23:0.52845192 24:0.42323509 25:0.29691973 26:0.74623954 27:0.42440689 28:0.35155818 
-5.715990952248882 4.443864355092201 1:0.96727175 2:0.48890802 3:0 4:1 5:0.65016365 6:0.55400628 7:0.21142621 8:0.33559889 9:0.26029491 10:0.40951073 11:0.57070124 12:0.3037203 13:0.89426363 14:1 15:0.54715312 16:0.50171053 17:0.14611989 18:0.78093654 19:0.70150894 20:0.46037969 21:0.26752275 22:0.51584345 23:0.46202335 24:0.46441466 25:0.17983259 26:0.72182977 27:0.26852643 28:0.40579724 
-0.8013927847823042 0 1:0.57295686 2:0.70457083 3:0.49851525 4:0.32572016 5:0.462262 6:0.72818053 7:0.52472395 8:0.78042424 9:0.39191934 10:0.47539693 11:0.62566906 12:0.8166061 13:0.55809027 14:0.61508685 15:0.34912771 16:0.77128983 17:0.73507726 18:0.69082052 19:0.80285329 20:0.3335492 21:0.38971356 22:0.4317168 23:0.49304527 24:0.76245952 25:0.11386911 26:0.29769921 27:0.32545784 28:0.10993207 
-10 3.93651607851072 1:0.49690038 2:0.7842434 3:0.71649206 4:0.20526259 5:0.35184866 6:0.58100677 7:0.31896409 8:0.41496924 9:0.32430157 10:0.66056752 11:0.50105679 12:1 13:0.55999368 14:0.54519451 15:0.28966615 16:0.69184786 17:0.60613012 18:0.75241476 19:0.71335518 20:0.34051558 21:0.71237749 22:0.37874755 23:0.41891485 24:0.74502546 25:0.19238095 26:0.38418418 27:0.31959373 28:0.16945142 
-8.862449170158957 0.8519931916942098 1:0.70140946 2:0.68682963 3:0.097232975 4:0.10699777 5:0.48219684 6:0.43502882 7:0.56132638 8:0.67903054 9:0.31453434 10:0.24823095 11:0.71104091 12:0.35742596 13:0.54812044 14:0.66158688 15:0.46637297 16:0.28962311 17:0.3701793 18:0.75690055 19:0.68493104 20:0.5880003 21:0.8079986 22:0.75167179 23:0.51683992 24:0.55845976 25:0.50275123 26:0.19192992 27:0.68948442 28:0.19743273 
-0 2.202162866302115 1:0.65838927 2:0.61456287 3:0.22300808 4:0.2354342 5:0.41806674 6:0.28544706 7:0.068255112 8:0.42961839 9:0.38404864 10:0.59050226 11:0.77578032 12:0.73153156 13:0.52570015 14:0.41180754 15:0.4477663 16:0.58650243 17:0.48865467 18:0.88974762 19:0.41173103 20:0.64317214 21:0.84162277 22:0.43312526 23:0.671332 24:0.48549148 25:0.17880459 26:0.1164779 27:0.60475934 28:0.22822087 
-0.1470433864382809 0 1:0.49250925 2:0.53068388 3:0.47224355 4:0.35952494 5:0.54832858 6:0.75150812 7:0.39270702 8:0.34809878 9:0.3994939 10:0.53993011 11:0.31297985 12:0.30400297 13:0.3783997 14:0.46584222 15:0.506724 16:0.42980742 17:0.51098877 18:0.36088577 19:0.5373593 20:0.24135777 21:0.66982639 22:0.76102948 23:0.73815215 24:0.88615465 25:1.9176556e-16 26:0.70186794 27:0.74070132 28:0.25290284 
-6.720290672290192 0 1:0.58030635 2:0.45628178 3:0.43010893 4:0.29345772 5:0.46356201 6:0.66656041 7:0.41075292 8:0.45871601 9:0.35993236 10:0.52366245 11:0.5145337 12:0.3524034 13:0.40189326 14:0.35500827 15:0.18825197 16:0.60914922 17:0.39348787 18:0.65406382 19:0.80728698 20:0.40688941 21:0.6351735 22:0 23:0.21641843 24:0.5187999 25:0.38199681 26:0.88787007 27:0.82142007 28:0.5031997 
-0 6.351811393064084 1:0.41378319 2:0.42624334 3:0.35571358 4:0.28917167 5:0.44676694 6:0.67180759 7:0.46618924 8:0.53500074 9:0.38363492 10:0.53107876 11:0.66528738 12:0.37261042 13:0.44102672 14:0.33414266 15:0.25349677 16:0.54255253 17:0.35085252 18:0.65945315 19:0.89310408 20:0.38703763 21:0.64288557 22:0.11911301 23:0.21964112 24:0.47761562 25:0.37960622 26:0.85978639 27:0.85301751 28:0.49911958 
-1.604501673574908 4.369228582692793 1:0.72235525 2:1 3:0.40173969 4:0.36730024 5:0.54646355 6:0.74171263 7:0.21645917 8:0.65219122 9:0.81665874 10:0.49231046 11:0.60414869 12:0.55837715 13:0.92552781 14:0.42117763 15:0.47854021 16:0.31522837 17:0.40900412 18:0.17871262 19:0.26497602 20:0.51846695 21:0.28673291 22:0.27890995 23:0.052404601 24:0.23505104 25:0.59520954 26:1 27:1 28:0.61012876 
-3.408157419277374 2.935123176409626 1:0.49250925 2:0.53068388 3:0.47224355 4:0.35952494 5:0.54832858 6:0.75150812 7:0.39270702 8:0.34809878 9:0.3994939 10:0.53993011 11:0.31297985 12:0.30400297 13:0.3783997 14:0.46584222 15:0.506724 16:0.42980742 17:0.51098877 18:0.36088577 19:0.5373593 20:0.24135777 21:0.66982639 22:0.76102948 23:0.73815215 24:0.88615465 25:1.9176556e-16 26:0.70186794 27:0.74070132 28:0.25290284 
-0.8291504204269016 -0 1:0.46175119 2:0.3795349 3:0.618963 4:0.46433651 5:0.68136424 6:0.94501364 7:0.20980319 8:0.16758218 9:0.42134145 10:0.68204385 11:0.91434854 12:0.57430243 13:0.71187443 14:0.29186437 15:0.39878651 16:0.31163684 17:0.13012271 18:0.68942928 19:0.63577652 20:0.52742529 21:0.39989868 22:0.57890511 23:0.34106028 24:0.53859299 25:0.43824619 26:0.55502033 27:0.36454713 28:0.85795563 
-0 -1.329326980728127 1:0.54262024 2:0.70877212 3:0.29821563 4:0.38493541 5:0.23615636 6:0.61508363 7:0.3430602 8:0.53025717 9:0.5208323 10:0.24951729 11:0.49269313 12:0.39744088 13:0.52029151 14:0.57043588 15:0.32433519 16:0.15824276 17:0 18:0.67608905 19:0.80680639 20:0.32014048 21:0.20774855 22:0.44943866 23:0.75832373 24:0.44202963 25:0.46708086 26:0.54788721 27:0.32265267 28:0.94876677 
-0 -3.127801323960931 1:0.71650648 2:0.53319591 3:0.19817865 4:0.51232702 5:0.28927231 6:0.64843798 7:0.60731006 8:0.8192907 9:0.32691634 10:0.82076728 11:0.50442994 12:0.5441702 13:0.35576066 14:0.4730756 15:0.45316556 16:0.39395925 17:0.53390181 18:0.51729846 19:0.13233604 20:0.58530354 21:0.87459707 22:0.5396679 23:0.38778946 24:0.50761998 25:0.42487854 26:0.66798097 27:0.35045576 28:0.88848305 
-1.265366554353084 -2.610526037614999 1:0.64435083 2:0.44023785 3:0.6626091 4:0.3951253 5:0.81659591 6:0.26436371 7:0.4270035 8:0.2526159 9:0.45517346 10:0.40428516 11:0.63803118 12:0.37717611 13:0.20145291 14:0.44787845 15:0.54534841 16:0.44876915 17:0.13371263 18:0.56635624 19:0.48555034 20:0.49409968 21:0.57615817 22:0.70840937 23:0.16801433 24:1 25:0.72670841 26:0.49570873 27:0.48828796 28:0.79699951 
-0 -2.986789029262621 1:0.89395803 2:0.76345634 3:0.4868744 4:0.27156612 5:0.30930558 6:0.9538821 7:0.59165323 8:0.49615738 9:0.29308558 10:0.22017764 11:0.30746478 12:0.62359047 13:0.76269794 14:0.26429278 15:0.57583296 16:0.68360496 17:0.66296524 18:0.25723845 19:0.68149114 20:0.79414678 21:0.61197263 22:0.67519331 23:0.11348976 24:0.59766412 25:0.54869491 26:0.65975773 27:0.23625958 28:0.8829456 
-5.868714179558178 -9.076252102432944 1:0.0936305 2:0.43347883 3:0.28997263 4:0.25711167 5:0.4222396 6:0.73811352 7:0.24604188 8:0.37711319 9:0.605398 10:0.90360749 11:0.52225298 12:0.49623787 13:0.61535418 14:0.69350064 15:0.41935328 16:0.25957978 17:0.30496308 18:0.71920848 19:0.55878061 20:0.56320983 21:0.58131903 22:0.37956488 23:0.54835761 24:0.31998029 25:0.183507 26:0.60416543 27:0.31265241 28:0.86298996 
-2.570948664658681 -1.789815485800276 1:0.75417078 2:0.31407335 3:0.38912904 4:0.53421634 5:0.058892865 6:0.71641791 7:0.37370023 8:0.40717331 9:0.58962399 10:0.62637472 11:1 12:0.31254044 13:0.5100944 14:0.4627845 15:0.3974207 16:0.61583304 17:0.40179613 18:0.31296122 19:0.0716234 20:0.054090533 21:0.47173691 22:0.81345969 23:0.64596236 24:0.54923379 25:0.83561862 26:0.68705225 27:0.57402539 28:0.79387355 
-0.916061188049395 -0 1:0.3347151 2:0.47391212 3:0.38452226 4:0 5:0.79941744 6:0.53375638 7:0.068838947 8:0.19506836 9:0.50291258 10:0.18895774 11:0.27381766 12:0.39102349 13:0.29209876 14:0.26286149 15:0.38380468 16:0.3311902 17:0.45422792 18:0.62942374 19:0.54403061 20:0.54494065 21:0.43468571 22:0.33282793 23:0.73896331 24:0.40522507 25:0.57647961 26:0.54182303 27:0.33271831 28:0.92761165 
-1.512373750053415 -0 1:0.33434322 2:0.43375427 3:0.35623997 4:0.49567044 5:0.073675148 6:0.94989389 7:0.34862888 8:0.32795805 9:0.39175552 10:0.41176432 11:0.51449639 12:0.30733162 13:0.69153994 14:0.31721401 15:0.391271 16:0.38726485 17:0.86449307 18:0.5387041 19:0.43644279 20:0.50328445 21:0.31489784 22:0.48958182 23:0.73400891 24:0.53934598 25:0.61279547 26:0.60988849 27:0.4075453 28:0.85743827 
-7.674386790241358 -1.40987277550901 1:0.7506907 2:0.59041005 3:0.55368239 4:0.17402761 5:0.60883397 6:0.59500152 7:0.27718803 8:0.58323771 9:0.47015935 10:0.47854242 11:0.47471368 12:0.35384569 13:0.17056257 14:0.52194512 15:0.50857228 16:0.99194211 17:0.39401701 18:0.56468755 19:0.62917483 20:0.45043069 21:0.44882661 22:0.76608682 23:0.20465121 24:0.81241751 25:0.83258212 26:0.48306686 27:0.46356529 28:0.78895772 
-0.7315971792919038 -0 1:0.37092254 2:0.51127601 3:0.080869347 4:0.23967673 5:0.5213756 6:0.99582398 7:0.023827197 8:0.87057549 9:0.57037896 10:0.30139121 11:0.21623074 12:0.73732883 13:0.11174822 14:0.5591265 15:0.48227128 16:0.57927227 17:0.12810841 18:0.51537961 19:0.41739881 20:0.68677789 21:0.80463141 22:0.60604435 23:0.18150729 24:0.41249093 25:0.47126216 26:0.73767036 27:0.31825119 28:0.87264299 
-3.406412451152084 -0 1:0.63822818 2:0.41071248 3:0.38986894 4:0.38830462 5:0.60053277 6:0.75765181 7:0.48417893 8:0.17314149 9:0.28971896 10:0.39498559 11:0.56471097 12:0.62144583 13:0.45560464 14:0.27300486 15:0.55142635 16:0.45651272 17:0.62232888 18:0.74987656 19:0.71951967 20:0.64719999 21:0.50189966 22:0.42370662 23:0.64742255 24:0.48760632 25:0.36639732 26:0.58251727 27:0.24159527 28:0.90566075 
-2.881917261772437 -0.5120958648036197 1:0.73305309 2:0.94900757 3:0.65451938 4:0.27355531 5:0.42208344 6:0.65007538 7:0.41436699 8:0.78805703 9:0.29457411 10:0.45986205 11:0.25610802 12:0.36632183 13:0.53674251 14:0.50699764 15:0.36537024 16:0.42804539 17:0.61856687 18:0.67456955 19:0.40725926 20:2.8042609e-16 21:0.34741077 22:0.38837016 23:0.95546752 24:0.41508844 25:0.66447979 26:0.6151402 27:0.36391291 28:0.91057259 
-0.1235804667441802 -0 1:0.72689211 2:0.40139663 3:0.2375479 4:0.40910697 5:0.22093616 6:0.84940004 7:0.39026639 8:0 9:0.36149788 10:0.32170653 11:0.41651154 12:0.61175853 13:0.19472232 14:0.53060317 15:0.47540152 16:0.71814227 17:0.61963445 18:0.55033898 19:0.55373281 20:0.24918196 21:0.42193487 22:0.33294365 23:0.74786329 24:0.48227337 25:0.66824329 26:0.61720002 27:0.4205429 28:0.94788289 
-0 -3.364574120052632 1:0.63678575 2:0.56178141 3:0.41618854 4:0.45486984 5:0.73799378 6:0.43844956 7:0.50755727 8:0.34039056 9:0.36043504 10:0.55934131 11:0.60312712 12:0.75298691 13:0.63591903 14:0.75245774 15:0.15137632 16:0.60888815 17:0.46262181 18:0.49448258 19:0.495271 20:0.17803097 21:0.27096844 22:0.43664315 23:0.71552587 24:0.63064682 25:0.68032926 26:0.57716125 27:0.55328274 28:0.93545097 
-0 -0.6572392228109923 1:0.48640248 2:0.68923599 3:0.6550476 4:0.30343303 5:0.80061001 6:0.65610492 7:0.475133 8:0.37587997 9:0.62625366 10:0.57850415 11:0.72799003 12:0.40727845 13:0.29710367 14:0.73042184 15:0.2626234 16:0.35564172 17:0.37305075 18:0.6350596 19:0.9224003 20:0.71296585 21:9.0143957e-16 22:0.46225366 23:0.40206242 24:0.93539184 25:0.89274645 26:0.54349309 27:0.62404954 28:0.92274517 
-0 -0.3806837089265543 1:0.42345271 2:0.41112283 3:0.35721859 4:0.50234443 5:0.66845721 6:0.44146892 7:0.57716954 8:0.63225031 9:0.38633165 10:0.60480857 11:0.59408796 12:0.49176279 13:0.72540885 14:0.32420987 15:0.52744061 16:0.81473047 17:0.80765462 18:0.58577311 19:0.75826788 20:0.69805741 21:0.62425244 22:0.52082068 23:0.32781181 24:0.52564126 25:0.36420152 26:0.49155134 27:0.26610634 28:0.95083284 
-0.0303920229437253 -0.3867648291318114 1:0.51804256 2:0.42948472 3:0.40326065 4:0.29647264 5:8.0237716e-16 6:0.64372706 7:0.6836006 8:0.36744457 9:0.32720262 10:0.48806223 11:0.6413902 12:0.22035652 13:0.66039318 14:0.58394134 15:0.5256955 16:0.82722723 17:0.3085303 18:0.60833198 19:0.76309538 20:0.22963493 21:0.70192826 22:0.55326807 23:0.2829299 24:0.37177938 25:0.41078326 26:0.5411883 27:0.20185038 28:0.89571238 
-0 -1.796631105158805 1:0.8112368 2:0.53204381 3:0.2395283 4:0.16331463 5:0.63993007 6:0.48609489 7:0.29162154 8:0.25824788 9:0.40239063 10:0.44657898 11:0.57283193 12:0.14226133 13:0.50049418 14:0.23248754 15:0.49076876 16:1 17:0.46951857 18:0.42235714 19:0.77409989 20:0.39085758 21:0.43139204 22:0.48115095 23:0.46534711 24:0.39671582 25:0.40991896 26:0.53400213 27:0.25336754 28:0.9104057 
-2.704440405093228 -0 1:0.44894004 2:0.70847535 3:0.28790599 4:0.13266905 5:0.27268934 6:0.70790678 7:0.44527149 8:0.19447573 9:0.20196693 10:0.75961566 11:0.35873851 12:0.059479389 13:0.73210371 14:0.67389572 15:0.22715615 16:0 17:0.79991567 18:0.74425542 19:0.22248016 20:0.23802891 21:0.59603655 22:0.34391883 23:0.42869264 24:0.61773068 25:0.72275513 26:0.55240858 27:0.38755384 28:0.87065339 
-0 -0.9096990479288422 1:0.5656355 2:0.71299046 3:0.60429299 4:0.52655464 5:0.43944496 6:0.58260715 7:0.1033321 8:0.29596397 9:0.42538375 10:0.59579974 11:0.59932017 12:0.21258284 13:0.75528169 14:0.48955914 15:0.35263035 16:0.92396486 17:1 18:0.40142182 19:0.57437754 20:0.59911293 21:0.39054838 22:0.43496728 23:0.38317984 24:0.58530235 25:0.56109571 26:0.51322639 27:0.36809719 28:0.91429287 
-0 -0.1938345290249012 1:0.68578494 2:0.75491905 3:0.95671254 4:0.24848722 5:0.223453 6:0.80394435 7:0.45534179 8:0.46720394 9:0.51614237 10:0.47278515 11:0.7106719 12:0.5051446 13:0.44235101 14:0.58483946 15:0.38489464 16:0.43833315 17:0.11636334 18:0.59615839 19:0.60714179 20:0.2741181 21:0.70388657 22:0.39032596 23:0.89050257 24:0.3193408 25:0.25954217 26:0.62081498 27:0.28212616 28:0.98765433 
