svm_type c_svc
kernel_type rbf
gamma 0.09
nr_class 3
total_sv 107
rho 0.454718 -0.868268 -1.16187
label 130280101 130280102 130280103
probA -2.72096 -4.18047 -4.18554
probB -0.178916 -0.337429 -0.146158
nr_sv 37 52 18
SV
9.492208155074472 0 1:0.52768314 2:0.50803214 3:0.44771561 4:0.31197214 5:0.51169479 6:0.50759387 7:0.25101957 8:0.46615458 9:0.45049271 10:0.5336557 11:0.44920009 12:0.35181177 13:0.82418096 14:0.56985664 15:0.25077203 16:0.71828824 17:0.6880917 18:0.4661606 19:0.65343362 20:0.48105583 21:0.45440814 22:0.18386766 23:0.80702478 24:0.4376803 25:0.40623561 26:0.74681908 27:0.78885859 28:0.6289165 29:0.37127665 30:0.39129639 31:0.4572258 32:0.16868599 33:0.66265219 34:0.41315722 35:0.44478559 36:0.44096813 37:0.2686508 38:0.57838553 39:0.59355837 40:0.19022864 
0.7314157427202855 0.7582738658011039 1:0.48588699 2:0.36180016 3:0.49200463 4:0.39394635 5:0.20404817 6:0.42570812 7:0.14074883 8:0.46530971 9:0.77059895 10:0.46963632 11:0.23457918 12:0.53093737 13:0.72204852 14:0.47082946 15:0.24465868 16:0.61555833 17:0.56711519 18:0.46777058 19:0.61873406 20:0.41276532 21:0.73400909 22:0.29361722 23:0.81989944 24:0.493527 25:0.58664376 26:0.69405806 27:0.7685461 28:0.5324713 29:0.47418508 30:0.58193266 31:0.41512704 32:0.23294808 33:0.7015546 34:0.33980039 35:0.46276963 36:0.42635676 37:0.40123826 38:0.50684565 39:0.58633608 40:0.18650644 
0.7932493527960537 1.890737141870213 1:0.54174715 2:0.54726434 3:0.24988478 4:0.46663967 5:0.2735917 6:0.57656884 7:0.27816847 8:0.42594105 9:0.53764218 10:0.67269528 11:0.33859783 12:0.442561 13:0.43540752 14:0.52467114 15:0.36848399 16:0.37479827 17:0.45204079 18:0.3652308 19:0.75234538 20:0.47808465 21:0.33608952 22:0.23640613 23:0.21705852 24:0.27205133 25:0.74593306 26:0.30574152 27:0.61300141 28:0.58943874 29:0.57491505 30:0.40905473 31:0.36787841 32:0.33337757 33:0.81361711 34:0.67233735 35:0.68460631 36:0.22356059 37:0.40423244 38:0.55437624 39:0.68262196 40:0.13503805 
2.737564138168059 1.800819234640265 1:0.76250207 2:0.33900952 3:0.47665012 4:0.40988147 5:0.20397787 6:0.58092141 7:0.53965867 8:0.37948093 9:0.32074592 10:0.5797587 11:0.55977118 12:0.25241807 13:0.64430285 14:0.62359744 15:0.34582523 16:0.63769197 17:0.58865994 18:0.44392884 19:0.84057546 20:0.29359472 21:0.36036518 22:0.007066587 23:0.43813992 24:0.61827183 25:0.80985457 26:0.12776914 27:0.68056232 28:0.53158361 29:0.53477859 30:0.33019951 31:0.31642696 32:0.42677349 33:0.80590957 34:0.67993808 35:0.72183383 36:0.17689492 37:0.49964523 38:0.62396544 39:0.69234794 40:0.13029894 
0 3.514266645443906 1:0.34131896 2:0.32669345 3:0.56589204 4:0.33853516 5:0.42790905 6:0.40009138 7:0.23378347 8:0.50516945 9:0.43602252 10:0.56637412 11:0.47753814 12:0.52070808 13:0.74279451 14:0.554313 15:0.33067036 16:0.64586711 17:0.66978109 18:0.49542913 19:0.60654795 20:0.39235842 21:0.55593276 22:0.34594837 23:0.83180851 24:0.44596648 25:0.39338571 26:0.79715186 27:0.78165942 28:0.63903344 29:0.33625197 30:0.33524019 31:0.53724158 32:0.05655257 33:0.65798092 34:0.4427135 35:0.41004741 36:0.46163806 37:0.34179705 38:0.58949679 39:0.56639069 40:0.20303671 
4.178357510085419 0 1:0.77375466 2:0.30430797 3:0.47232229 4:0.39633814 5:0.28572556 6:0.54764956 7:0.48034012 8:0.44801578 9:0.30490372 10:0.53638232 11:0.56875324 12:0.30315682 13:0.6465494 14:0.6297859 15:0.28676793 16:0.54527372 17:0.54980785 18:0.47037286 19:0.8279925 20:0.28269991 21:0.40588307 22:0.048757367 23:0.36256769 24:0.63299984 25:0.83330113 26:0.16413026 27:0.64126563 28:0.59453297 29:0.52118945 30:0.32293522 31:0.29663429 32:0.4286029 33:0.7972343 34:0.68372107 35:0.69646269 36:0.18654415 37:0.48772603 38:0.62965566 39:0.68531871 40:0.13441896 
0 0.2687986211998017 1:0.48961455 2:0.49680856 3:0.31679443 4:0.66754204 5:0.26218265 6:0.70048821 7:0.38659877 8:0.35460868 9:0.55123812 10:0.54534507 11:0.58444065 12:0.25809675 13:0.3148703 14:0.58585215 15:0.54397696 16:0.29615706 17:0.38903195 18:0.41578618 19:0.48215419 20:0.65654641 21:0.3638497 22:0.59653747 23:0.45509547 24:0.33923042 25:0.6329391 26:0.85769695 27:0.46720648 28:0.59201592 29:0.36123398 30:0.60488158 31:0.46301261 32:0.18901491 33:0.67710042 34:0.49564412 35:0.26818836 36:0.94192934 37:0.54121846 38:0.65710819 39:0.56009138 40:0.025617326 
4.249000181191101 0 1:0.55277807 2:0.43130413 3:0.53749043 4:0.34759894 5:0.56648254 6:0.57049787 7:0.53769988 8:0.31200337 9:0.67590773 10:0.29607657 11:0.42469588 12:0.45505422 13:0.60309404 14:0.59492052 15:0.54121673 16:0.75089115 17:1 18:0.32574835 19:0.34152779 20:0.52281308 21:0.33504167 22:0.21031162 23:0.33338192 24:0.4284279 25:0.66829789 26:0.50095391 27:0.35030323 28:0.70142704 29:0.43261763 30:0.52572608 31:0.51201135 32:0.45165816 33:0.61750376 34:0.57644504 35:0.29078627 36:0.9660846 37:0.54560935 38:0.70249355 39:0.51013094 40:0.059925307 
0 3.765512368431587 1:0.48164883 2:0.34538287 3:0.46157098 4:0.31499973 5:0.43307927 6:0.52202332 7:0.61010569 8:0.30368418 9:0.63353497 10:0.3096033 11:0.38278222 12:0.36625814 13:0.53823143 14:0.50968701 15:0.31682628 16:0.77988201 17:0.98079824 18:0.43779784 19:0.40443504 20:0.54390091 21:0.3684468 22:0.15380095 23:0.34100384 24:0.4228147 25:0.83189493 26:0.34532809 27:0.41202268 28:0.71035415 29:0.38640934 30:0.47421157 31:0.53843063 32:0.50721794 33:0.64160198 34:0.60662454 35:0.3398616 36:0.84204262 37:0.61284602 38:0.69426918 39:0.48662314 40:0.069724977 
10 0 1:0.49750561 2:0.28768137 3:0.4498778 4:0.45314461 5:0.71546876 6:0.52519238 7:0.3491368 8:0.45141292 9:0.64377999 10:0.43122464 11:0.53332567 12:0.62795919 13:0.36191761 14:0.46484885 15:0.55102181 16:0.40082058 17:0.88211739 18:0.53506231 19:0.44995391 20:0.37270495 21:0.35992974 22:0.46502608 23:0.55261219 24:0.51343876 25:0.82820737 26:0.78402299 27:0.51049644 28:0.78845018 29:0.458545 30:0.58705556 31:0.49430874 32:0.17730595 33:0.84545493 34:0.4955422 35:0.49962074 36:0.64197773 37:0.6512785 38:0.63356483 39:0.5774098 40:0.05804326 
3.379752604878149 0 1:0.3747344 2:0.56821752 3:0.59257585 4:0.36927086 5:0.40925744 6:0.58469534 7:0.43638459 8:0.37978616 9:0.96163088 10:0.23494214 11:0.66192186 12:0.53611672 13:0.31875762 14:0.56056643 15:0.52191693 16:0.42798945 17:0.34220636 18:0.64646327 19:0.47826535 20:0.63573611 21:0.42170098 22:0.26236227 23:0.48798558 24:0.52847999 25:0.12945406 26:0.59302366 27:0.46475697 28:0.63918912 29:0.49034306 30:0.4347662 31:0.25339973 32:0.73182338 33:0.88973367 34:0.24797428 35:0.59835047 36:0.17558438 37:0.24830121 38:0.7673347 39:0.69490439 40:0.49731356 
7.348891368305194 0 1:0.47276261 2:0.043484729 3:0.28500852 4:0.64105511 5:0.26600498 6:0.56625229 7:0.3304936 8:0.38600743 9:0.55437928 10:0.3347899 11:0.50101721 12:0.47601575 13:0.62137789 14:0.48072216 15:0.46443561 16:0.48685673 17:0.64146006 18:0.42488688 19:0.62703615 20:0.50182611 21:0.54340756 22:0.59322828 23:0.51948452 24:0.89600676 25:0 26:0.63623798 27:0.32785526 28:0.57105416 29:0.56203592 30:0.44499719 31:0.28586954 32:1 33:0.77396899 34:0 35:0.62794536 36:0.47103661 37:0.34899384 38:0.81190813 39:0.65905374 40:0.37704951 
0 2.464944408761927 1:0.34253412 2:0.53638154 3:0.28103694 4:0.66573626 5:0.64651144 6:0.88236099 7:0.42169583 8:0.31117931 9:0.40000114 10:0.41665444 11:0.3871702 12:0.71788055 13:0.39947557 14:0.63918853 15:0.35237187 16:0.89224994 17:0.49613836 18:0.39680389 19:0.62631357 20:0.8020975 21:0.55752826 22:0.31860247 23:0.52754176 24:0.97852534 25:0.52059329 26:0.68237072 27:0.19462155 28:0.75424463 29:0.56227928 30:0.61424243 31:0.31169596 32:0.54276431 33:0.7965703 34:0.56010973 35:0.44469792 36:0.15691461 37:0.30628824 38:0.69075954 39:0.52375191 40:0.29549673 
0.4537388127288416 3.289657124057827 1:0.44324261 2:0.49170718 3:0.38101771 4:0.33653498 5:0.32096648 6:0.59245723 7:0.54635769 8:0.2001822 9:0.59245056 10:0.49682495 11:0.41072544 12:0.38343868 13:0.46520546 14:0.62079906 15:0.57818002 16:0.79044002 17:0.46808812 18:0.60242635 19:0.20156108 20:0.63457239 21:0.62199712 22:0.35514686 23:0.29131934 24:0.38697949 25:0.44965163 26:0.56933379 27:0.32519329 28:0.60023069 29:0.47568825 30:0.38973436 31:0.22422482 32:0.64768714 33:0.88365185 34:0.47432065 35:0.52312887 36:0.15253197 37:0.28168198 38:0.82814872 39:0.65742648 40:0.46180037 
10 5.458062338458723 1:0.43393058 2:0.44427362 3:0.3690564 4:0.52575094 5:0.26163912 6:0.46051431 7:0.36760277 8:0.18068738 9:0.74572945 10:0.70930022 11:0.48896885 12:0.66897452 13:0.46343249 14:0.96327865 15:0.54748869 16:0.7060141 17:2.0347815e-16 18:0.47571909 19:0.49343804 20:0.52558887 21:0.50173479 22:0.43093765 23:0.75605184 24:0.72051424 25:0.7074573 26:0.33924744 27:0.78021878 28:0.59608078 29:0.37097958 30:0.12448574 31:0.71413118 32:0.5117687 33:0.68201452 34:0.4298797 35:0.39340904 36:0.60060924 37:0.41143802 38:0.84071481 39:0.66501188 40:0.78762263 
10 0.8288639141933672 1:0.46300912 2:0.41151565 3:0.32856855 4:0.5327844 5:0.027678018 6:0.48297387 7:0.46106362 8:0.44031438 9:0.5029459 10:0.23677173 11:0.50785273 12:0.55019027 13:0.69923323 14:0.88051134 15:0.44598013 16:0.3781279 17:0.3835389 18:0.50891513 19:0.47972149 20:0.83655828 21:0.55001992 22:0.26457775 23:0.31928653 24:0.58824831 25:0.81686312 26:0.66574454 27:0.36848101 28:0.61594903 29:0.45435986 30:0.49014506 31:0.90361243 32:0.32060137 33:0.79164994 34:0.47420576 35:0.42438978 36:0.49785006 37:0.079724267 38:0.63395005 39:0.65432435 40:0.72732067 
4.606446572783067 2.534128321870702 1:0.12214169 2:0.27967668 3:0.39123842 4:0.47995517 5:0.26361531 6:0.64612323 7:0.1728057 8:0.36618736 9:0.3496215 10:0.55200535 11:0.47514349 12:0.2777116 13:0.68065339 14:1 15:0.56912196 16:0.22857533 17:0.29241967 18:0.55026984 19:0.34688547 20:0.22322316 21:0.12090882 22:0.35999995 23:0.46080098 24:0.23474029 25:0.44472253 26:0.28753722 27:0.18120167 28:0.33710754 29:0.43960077 30:0.70100117 31:0.90924323 32:0.44505462 33:0.62486017 34:0.27976874 35:0.65475678 36:0.23598915 37:0.85644692 38:0.69714749 39:0.88341194 40:0.55633843 
10 2.029577527095699 1:0.59393609 2:0.49475801 3:0.54823214 4:0.64601946 5:0.39723796 6:0.5869388 7:0.33175024 8:0.57260478 9:0.57846707 10:0.5201472 11:0.7568025 12:0.43098149 13:1 14:0.92988175 15:0.48714232 16:0.31458864 17:0.82688141 18:0.16857968 19:0.58025575 20:0.48096651 21:0.71864039 22:0.46711814 23:0.47220585 24:0.13791932 25:0.55540222 26:0.52017152 27:0.14375432 28:0.4401525 29:0.46870461 30:0.47676256 31:0.21278232 32:0.35898229 33:0.56816638 34:0.57246542 35:0.71186292 36:0.75458032 37:0.63371974 38:0.69774628 39:0.81490988 40:0.86667979 
6.831001736464503 1.085208588238551 1:0.56972134 2:0.38798061 3:0.54349744 4:0.62507242 5:0.64557612 6:0.56511897 7:0.34683013 8:0.54507256 9:0.5406667 10:0.31871128 11:0.27742153 12:0.35086936 13:0.77396268 14:0.54247659 15:0.53729385 16:0.67047781 17:0.54608935 18:0.58015883 19:0.57885385 20:0.26203626 21:0.65584743 22:0.11737428 23:0.45757896 24:0.094649687 25:0.5979237 26:0.88990843 27:0 28:0.87397391 29:0.1287223 30:0.50732976 31:0.5698536 32:0.70878547 33:0.7231943 34:0.23131661 35:0.67020804 36:0.21116787 37:0.59082121 38:0.71074682 39:0.79645932 40:0.65271598 
4.997925932672637 0 1:0.61396837 2:0.53671438 3:0.43835345 4:0.49233153 5:1 6:0.75087625 7:0.41527241 8:0.36833203 9:0.38528058 10:0.16395946 11:0.13945499 12:0.71764487 13:0.71459442 14:0.51424593 15:0.39660254 16:0.36903042 17:0.39047691 18:0.47538915 19:0.62179691 20:0.48881137 21:0.69056219 22:0.35048798 23:0.2188178 24:0.043363959 25:0.82135832 26:0.93162191 27:0.17117164 28:0.56471771 29:0.39167908 30:0.69778973 31:0.32550448 32:0.41574854 33:0.50284231 34:0.2074088 35:0.51563609 36:0.24910356 37:0.36671224 38:0.64826643 39:0.66421694 40:0.6726734 
10 0.7894429864444537 1:0.35322341 2:0.52674025 3:0.27830687 4:0.51575649 5:0.79124272 6:0.59140295 7:0.47476804 8:0.29796493 9:0.32097051 10:0.6660074 11:0.61925852 12:0.40558869 13:0.31045568 14:0.90794039 15:0.82220745 16:0.30813292 17:0.38438174 18:0.48228145 19:0.89149934 20:0.55909193 21:0.58478379 22:0.31305757 23:0.34705108 24:0.6123184 25:0.50668061 26:0.60533696 27:0.83759117 28:0.60597801 29:0.22195597 30:0.83162874 31:0.38646534 32:0.48821881 33:0.55480373 34:0.34521675 35:0.44278181 36:0.50694764 37:0.14728022 38:0.6569255 39:0.72842062 40:0.71014923 
10 0.5610516176248896 1:0.21176521 2:0.66633373 3:0.12737906 4:0.45215169 5:0.24045765 6:0.53735924 7:0.3585057 8:0.41130063 9:0.43866408 10:0.55002409 11:0.4218446 12:0.59773451 13:0.60181308 14:0.48280764 15:0.35013953 16:0.36948672 17:0.55337363 18:0.59545308 19:0.37062711 20:0.98508918 21:0.5074749 22:0.25482622 23:0.31964454 24:0.58591712 25:0.33643842 26:0.32738516 27:0.32189596 28:0.53149509 29:0.28303242 30:0.51994687 31:0.31516662 32:0.17574492 33:0.40994051 34:0.44367126 35:0.5368048 36:0.72321844 37:0.32379493 38:0.71620291 39:0.74674064 40:0.84404886 
7.564787720996477 1.922858109299666 1:0.71212453 2:0.3471137 3:0.55849808 4:0.22730926 5:0.48188114 6:0.46395048 7:0.65433919 8:0.33141947 9:0.26314035 10:0.001624497 11:0.53886741 12:0.0028273715 13:0.43007234 14:0.52089292 15:0.37358412 16:0.27868912 17:0.13988051 18:0.27237004 19:0.62793279 20:0.40520573 21:0.52318454 22:0.50333637 23:0.38987264 24:0.24532907 25:0.66905105 26:0.42823377 27:0.37113786 28:0.61945117 29:0.49619997 30:0.45855165 31:0.11419404 32:0.34398678 33:0.38993528 34:0.39926106 35:0.69115996 36:0.49345112 37:0.11244689 38:0.58831823 39:0.47072947 40:0.61106902 
10 0.6154618708603047 1:0 2:0.29148152 3:0.49254131 4:0.86555737 5:0.39021239 6:0.52435964 7:0.51804435 8:0.36892909 9:0.29684672 10:0.21270163 11:0.49754292 12:0.54678655 13:0.68948889 14:0.5528639 15:0.38790035 16:0.23272623 17:0.37982613 18:0.1878982 19:0.31348515 20:0.52580225 21:0.41065854 22:0.50760251 23:0.4518061 24:0.27819994 25:1 26:0.54071105 27:0.50099605 28:0.60782653 29:0.61853623 30:0.21478415 31:0.55890775 32:0.53574544 33:0.71968079 34:0.72350669 35:0.68991947 36:0.10072223 37:0.144354 38:0.59645498 39:0.48878884 40:0.4802964 
10 0 1:0.71811974 2:0.34050342 3:0.60862184 4:0.23579271 5:0.56545633 6:0.65626383 7:0.63593608 8:0.35432956 9:0.52162677 10:0.50846636 11:0.79612553 12:0.59997463 13:0.64914387 14:0.41145867 15:0.15726273 16:0.56613415 17:0.39736664 18:0.44500345 19:0.60017872 20:0.60881156 21:0.46625909 22:0.22460257 23:0.51896477 24:0.52329379 25:0.51806414 26:0.11365346 27:0.31100321 28:0.48976803 29:0.52374977 30:0.80347311 31:0.97585326 32:0.16932139 33:0.37235993 34:0.462134 35:0.46043345 36:0.34953791 37:0.62839979 38:0.51795107 39:0.85510886 40:0.55912232 
0.3222966879217908 0.07594543245524353 1:0.52892804 2:0.29618105 3:0.53123325 4:0.016445687 5:0.086344205 6:1 7:0.57311898 8:0.61181319 9:0.60140854 10:0.21549308 11:0.31077617 12:0.7009393 13:0.3896822 14:0.86329323 15:0.59380627 16:0.053658001 17:0.36636198 18:0.32068759 19:0.62807709 20:0.70398366 21:0.53111565 22:0.19449092 23:0.37699199 24:1 25:0.62157965 26:0.46751726 27:0.57797033 28:0.52560198 29:0.64764035 30:0.46106139 31:0.46811026 32:0.17009263 33:0.16680603 34:0.45672643 35:0.61204779 36:0.51905018 37:0.73451126 38:0.6303966 39:0.84148419 40:0.75324875 
1.04603528596739 0 1:0.012208223 2:0.25453693 3:0.71846688 4:0.32620668 5:0.096085042 6:0.31461805 7:0.37959105 8:0.12544093 9:0.62743247 10:0 11:0.27162588 12:0.35162619 13:0.72269052 14:0.55166507 15:0.42494056 16:0.62141466 17:0.4814716 18:0.26321903 19:0.64124107 20:0.83759302 21:0.66620451 22:0.43174529 23:0.42437035 24:0.6147694 25:0.83235496 26:0.33346325 27:0.32694015 28:0.60631734 29:0.45554176 30:0.757101 31:0.61509037 32:0.38911653 33:0.74579984 34:0.45512694 35:0.60102886 36:0.25800449 37:0.14736235 38:0.44752538 39:0.62715352 40:0.53088409 
10 0 1:0.46817186 2:0.70808613 3:0.34345075 4:0.1219082 5:0.14730093 6:0.58654451 7:0.16634998 8:0.30409062 9:0.39133883 10:0.33748952 11:0.19636099 12:0.78818101 13:0.32380465 14:0.64722639 15:0.69538975 16:0.41022646 17:0.44713613 18:0.29427209 19:0.79194385 20:0.27326149 21:0.7599836 22:0.31456476 23:0.45459166 24:0.13362725 25:0.78629047 26:0.84382141 27:0.38880947 28:0.7667833 29:0.62117964 30:0.42523268 31:0.26020268 32:0.55107194 33:0.43764198 34:0.43050069 35:0.48028326 36:0.34649897 37:0.32513902 38:0.7868914 39:0.64915472 40:0.75233668 
5.024137977631421 2.777166375083271 1:0.29221347 2:0.29668152 3:0.43603617 4:0.44482741 5:0.30662715 6:0.40042961 7:0.34466344 8:0.85505211 9:0.52818197 10:0.61566985 11:0.1939763 12:0.38476837 13:0.29308102 14:0.54586244 15:0.52344155 16:0.74153733 17:0.85895401 18:0.54485148 19:0.60592902 20:0.87655282 21:0.56153244 22:0.52537167 23:0.21856421 24:0.20468137 25:0.60513365 26:0.65410489 27:0.25887665 28:0.46958172 29:0.68089557 30:0.28068665 31:0.80713135 32:0.1819379 33:0.23774312 34:0.45917839 35:0.49550688 36:0.09206897 37:0.70666569 38:0.62576461 39:0.74068582 40:0.6114682 
10 5.479374660868203 1:0.76784837 2:0.4421196 3:0.36350888 4:0.58173525 5:0.5207091 6:0.58930153 7:0.46648514 8:0.46516746 9:0.54778868 10:0.31175655 11:0.6231631 12:0.68070173 13:0.51253939 14:0.41416007 15:0.4607428 16:3.8950678e-16 17:0.5199452 18:0.47677416 19:0.48139223 20:0.42699194 21:0.51101774 22:0.49649394 23:0.5256232 24:0.4534452 25:0.90114409 26:1 27:0.47060117 28:0.54718244 29:0.7381174 30:0.54589897 31:0.50796759 32:0.52439529 33:0.36519623 34:0.33484536 35:0.66246682 36:0.39202836 37:0.42699027 38:0.7521202 39:0.6403538 40:0.77349657 
3.751979813987484 0 1:0.62508303 2:0.20794882 3:0.31031084 4:1 5:0.43051943 6:0.9250105 7:0.18679497 8:0.26624903 9:0.5762673 10:0.63206875 11:0.61477995 12:0.60457593 13:0.39654619 14:0.35620815 15:0.6231035 16:0.28578079 17:0.82964742 18:0.22249548 19:0.48146448 20:0.75734025 21:0.67185229 22:0.086373828 23:0.63652211 24:0.47547704 25:0.9419964 26:0.091521516 27:0.48687381 28:0.81512713 29:0.5010348 30:0.36088675 31:1 32:0.35557887 33:1.2122525e-15 34:0.40814403 35:0.7256645 36:0.14641955 37:0.89542335 38:0.60612625 39:0.75306094 40:0.46491441 
0.9532409193249082 3.102499437570604 1:0.52798504 2:0.42299542 3:0.46999544 4:0.4224866 5:0.41835967 6:0 7:0.43015209 8:0.23041685 9:0 10:0.27744317 11:0.40269393 12:0.13924316 13:0.43913066 14:0.62647802 15:0.23813288 16:0.52627331 17:0.49007437 18:0.093595535 19:0.40988672 20:0.66114056 21:0.794348 22:0.33338025 23:0.75899673 24:0.24209307 25:0.43927014 26:0.28042358 27:0.20700043 28:0.57628453 29:0.38963234 30:0.90546685 31:0.32695144 32:0.39524025 33:0.78802657 34:0.35811684 35:0.64530444 36:0.2168553 37:0.19674562 38:0.60854995 39:0.62889791 40:0.56625724 
9.890984473894878 3.044317022830772 1:0.68097442 2:0.29122296 3:0.37981004 4:0.66383809 5:0.24766207 6:0.55172884 7:0.54375225 8:0.44850278 9:0.54641491 10:0.1139233 11:0.30018863 12:0.27477062 13:0.64566767 14:0.48596191 15:0.5795911 16:0.45660943 17:0.58646363 18:0.67546546 19:0.54968488 20:0.60788834 21:0.7161631 22:0.23646902 23:0.63058269 24:0.58446449 25:0.61257273 26:0.45954016 27:0.4196339 28:0.87930465 29:0.47776136 30:0.44157907 31:0.54047018 32:0.1426612 33:0.29672837 34:0.4490127 35:0.847826 36:0.72931349 37:0.95614755 38:0.5842675 39:0.81607729 40:0.75949419 
10 0.01247514185150213 1:0.68539762 2:0.18781716 3:0.20199838 4:0.087718338 5:0.36176321 6:0.97658914 7:0.5228802 8:0.12076031 9:0.68431127 10:0.39894518 11:0.42338541 12:0.33175924 13:0.46346438 14:0.78133243 15:0.27642179 16:0.61764747 17:0.32436883 18:0.48036987 19:0.62621009 20:0.54761523 21:0.71080327 22:0.42601833 23:0.58727634 24:0.25512469 25:0.48292628 26:0.22889295 27:0.39205053 28:0.72104084 29:0.31699038 30:0.40267664 31:0.59003341 32:0.42747864 33:0.52794665 34:0.45635191 35:0.33113059 36:0.50689161 37:0.27488267 38:0.74581635 39:0.70657867 40:0.80245751 
0 2.477950690379191 1:0.31377026 2:0.4829191 3:0.19850402 4:0.75168675 5:0.79726118 6:0.46486437 7:0.33339792 8:0.28021544 9:0.50293559 10:0.31684235 11:0.61523193 12:0.24664144 13:0.2917701 14:0.45133939 15:0.17338 16:0.40630955 17:0.40643775 18:0.40667436 19:0.26097107 20:0.79013205 21:0.6572628 22:0.085017115 23:0.85003132 24:0.26952174 25:0.63783532 26:0.58792108 27:0.53811419 28:0.75665408 29:0.66226423 30:0.31937194 31:0.85087126 32:0.42124748 33:0.16492184 34:0.26244187 35:0.76342666 36:0.28669912 37:1 38:0.57326692 39:0.71242404 40:0.57065934 
10 2.489420730655919 1:0.083365239 2:0.55173749 3:0.35396111 4:0.5674665 5:0.21620138 6:0.71337849 7:0.22756979 8:0.42836973 9:0.51864564 10:0.35095787 11:0.70547557 12:0.2979027 13:0.49328476 14:0.29401034 15:0.7402339 16:0.12885027 17:0.6701116 18:0.48104176 19:0.64817274 20:0.34672365 21:0.51251298 22:0.35304028 23:0.4858326 24:0.39974409 25:0.70612705 26:0.33576936 27:0.48554119 28:0.6700294 29:0.72258824 30:0.48607919 31:0.43580043 32:0.581505 33:0.53484094 34:0.35338196 35:0.73672193 36:0.54248232 37:0.062926389 38:0.59570765 39:0.4048554 40:0.60447943 
10 1.839714494153785 1:0.41988745 2:0.44433266 3:0.30207512 4:0.39637262 5:0.29282951 6:0.40264976 7:0.29511717 8:0.34585431 9:0.35705316 10:0.40238288 11:0.53554696 12:0.37398472 13:0.63925403 14:0.58784473 15:0.73162931 16:0.54146689 17:0.6735031 18:0.29084384 19:0.6844188 20:0.27898318 21:0.47888824 22:0.43349555 23:0.52280754 24:0.45396927 25:0.59327346 26:0.47821802 27:0.71003914 28:0.61113316 29:0.34149095 30:0.55070525 31:0.048922416 32:0.37170151 33:0.50634438 34:0.30657575 35:0.76957923 36:0.82587898 37:0.36657017 38:0.7227897 39:0.69672751 40:0.91464251 
-10 4.654029652634192 1:0.45473918 2:0.31286585 3:0.33326465 4:0.52194428 5:0.5455144 6:0.85991091 7:0.31791291 8:0.41832593 9:0.48044029 10:0.19812346 11:0.47369316 12:0.51574439 13:0.53601623 14:0.52517378 15:0.54075259 16:0.59133673 17:0.49128461 18:0.51860064 19:0.41079217 20:0.58181942 21:0.51434451 22:0.3628124 23:0.53151661 24:0.36906645 25:0.31688932 26:0.84677142 27:0.72951651 28:0.57502991 29:0.73518503 30:0.67520505 31:0.47699875 32:0.38226771 33:0.22090997 34:0.61671054 35:0.59403366 36:0.40526575 37:0.44093901 38:0.22164753 39:0.56483638 40:0.57902038 
-3.624298557921464 1.596928409914692 1:0.58559895 2:0.13967077 3:0.20343731 4:0.89325017 5:0.28148013 6:0.44568214 7:0.54852694 8:1 9:0.64306056 10:0.50406301 11:0.61524111 12:0.44079384 13:0.59915733 14:0.68165392 15:0.83297271 16:0.49156204 17:0.11044523 18:0.36627692 19:0.54827511 20:0.41613698 21:0.34546563 22:0.021630082 23:0.66153473 24:1.4414201e-16 25:0.57063013 26:0.52978438 27:0.58749622 28:0.79246187 29:0.50585824 30:0.82922333 31:0.26856869 32:0.54220068 33:0.67256576 34:0.54805326 35:0.64658916 36:0.48278242 37:0.6168682 38:0.31469098 39:0.57235014 40:0.55284828 
-7.586369400631646 0 1:0.39294955 2:0.55267274 3:0.2488098 4:0.34440506 5:0.31521237 6:0.49495766 7:0.27142704 8:0.50393063 9:0.69540805 10:0.29291698 11:0.44667339 12:0.42176953 13:0.6295287 14:0.66269511 15:0.40884185 16:0.46952084 17:0.86742049 18:0.45806345 19:0.79566729 20:0.79876751 21:0.12753776 22:0.32367301 23:0.65720552 24:0.39605051 25:0.4070645 26:0.56444615 27:0.55157077 28:0.67816842 29:0.66536832 30:0.7003637 31:0.33828458 32:0.52498835 33:0.34151453 34:0.60412371 35:0.50668728 36:0.35467109 37:0.43533808 38:0.21440962 39:0.56929469 40:0.60619402 
-0 1.866037420911534 1:0.23715165 2:0.38946581 3:0.35376808 4:0.40023589 5:0.57391763 6:0.57796061 7:0.27240872 8:0.53157187 9:0.59001952 10:0.33809635 11:0.39892143 12:0.32920456 13:0.45685512 14:0.56028408 15:0.54809153 16:0.39777982 17:0.5118553 18:0.3875978 19:0.60377163 20:0.62939876 21:0.30458578 22:0.34274679 23:0.8026827 24:0.39653856 25:0.5455361 26:0.5236187 27:0.58548468 28:0.64728862 29:0.67640191 30:0.66203773 31:0.34853053 32:0.52084452 33:0.34999192 34:0.56812155 35:0.45806673 36:0.31698418 37:0.3626155 38:0.16300984 39:0.40109402 40:0.64015377 
-2.964955633280234 0 1:0.38169569 2:0.54209089 3:0.2363506 4:0.64724183 5:0.090768822 6:0.40264642 7:0.63080215 8:0.12428978 9:0.54475212 10:0.33083689 11:0.68125719 12:0.67536187 13:0.88479465 14:0.7122857 15:0.46493846 16:0.5166443 17:0.5315631 18:0.14034262 19:0.51003838 20:0.34971035 21:0.77231646 22:0.3933326 23:0.60365552 24:0.73043501 25:0.76454914 26:0.45217431 27:0.39037767 28:0.76415187 29:0.27674973 30:0.30652747 31:0.51926458 32:0.369093 33:0.76071543 34:0.63955492 35:0.420616 36:0.55398881 37:0.58874816 38:0.02987528 39:0.73362339 40:0.79760921 
-0 0.3207965582929733 1:0.67300123 2:0.62866449 3:0.37083817 4:0.33254477 5:0.39381409 6:0.40201959 7:0.49776721 8:0.77938211 9:0.56351322 10:0.34795183 11:0.7883814 12:0.39270267 13:0.5324471 14:0.54867172 15:0.41043574 16:0.92723298 17:0.65153575 18:0.45690182 19:0.68525428 20:0.54792851 21:0.34704253 22:0.045440651 23:0.45927864 24:0.43527505 25:0.64350998 26:0.77190316 27:0.57578856 28:0.68235546 29:0.16686891 30:0.50435477 31:0.39348927 32:0.57749528 33:0.9617092 34:0.40132657 35:0.67844445 36:0.66687638 37:0.77421016 38:0.19916792 39:0.81525773 40:0.81859165 
-5.54685440779826 0 1:0.56774962 2:0.43357632 3:0.3124969 4:0.62918389 5:0.52792126 6:0.3294633 7:0.62689066 8:0.39305165 9:0.08353775 10:0.26476887 11:0.43317807 12:0.45103875 13:0.59766668 14:0.57225603 15:0.29348162 16:0.2504493 17:0.86115253 18:0.37153339 19:0.56686449 20:0.43229768 21:0.57789069 22:0.4221192 23:0.54263139 24:0.40147477 25:0.42529792 26:0.72815949 27:0.68953925 28:0.46387392 29:0.37988904 30:6.1113315e-17 31:0.48260367 32:0.51444232 33:0.76146942 34:0.56074518 35:0.40740904 36:0.49657443 37:0.74440551 38:0.20173329 39:0.89937127 40:0.84770346 
-2.151147696825086 1.554670287455447 1:0.53592223 2:0.59827363 3:0.58430725 4:0.62678254 5:0.39929479 6:0.7486186 7:0.27969992 8:0.26533774 9:0.56442553 10:0.29632768 11:0.81867582 12:0.43152097 13:0.27033132 14:0.45269915 15:0.48952284 16:0.16504601 17:0.21089236 18:0.52563465 19:0.31191102 20:0.48685876 21:0.58689243 22:0.14758834 23:0.2511842 24:0.29860041 25:0.41802317 26:0.88928145 27:0.5583508 28:0.59462303 29:0.29520023 30:0.1952561 31:0.43419236 32:0.47572339 33:0.8669306 34:0.4791517 35:0.57404709 36:0.65758502 37:0.80281723 38:0.0075833844 39:0.78857547 40:0.80658954 
-1.682488457083142 0 1:0.75510877 2:0.37711948 3:1 4:0.32021102 5:0.73367035 6:0.16526015 7:0.21615066 8:0.36401668 9:0.3647424 10:0.75634348 11:0.61809605 12:0.1657877 13:0.94707066 14:0.89968699 15:0.60720795 16:0.12272222 17:0.68410856 18:0.50815642 19:0.47678149 20:0.98741227 21:0.38248897 22:1 23:0.20233086 24:0.8127411 25:0.64631182 26:0.50455064 27:0.65877491 28:0.55616456 29:1 30:0.47394893 31:0.52388465 32:0.9143877 33:0.47970352 34:0.72053111 35:0.4928945 36:0.51135433 37:0.62790263 38:0.26294392 39:0.77449298 40:0.58937758 
-0 0.8105323730592837 1:0.75816512 2:0.59399164 3:0.39287677 4:0.27872249 5:0.30151886 6:0.62677896 7:0.66012734 8:0.27945769 9:0.34845203 10:0.5325892 11:0.20916182 12:0.53269792 13:0.39961115 14:0.69057024 15:0.36012384 16:0.53838921 17:0.72541678 18:0.37506241 19:0.54206771 20:0.46678558 21:0.63424689 22:0.4817138 23:0.511374 24:0.57607228 25:0.65036529 26:0.67290843 27:0.46571627 28:0.67260599 29:0.45708424 30:0.26827919 31:0.47476241 32:0.580001 33:0.7738775 34:0.67478144 35:0.26577431 36:0.63383102 37:0.84826803 38:0.25433877 39:0.85267305 40:0.92446274 
-3.05654307803071 0 1:0.50947213 2:0.754004 3:0.53441411 4:0.3381235 5:0.44691417 6:0.84001625 7:0.3182486 8:0.12379371 9:0.52619576 10:0.7604093 11:0.65471011 12:0.31485099 13:0.70166463 14:0.63074929 15:0.5272603 16:0.72897124 17:0.56267887 18:0.46470898 19:0.68368238 20:0.82375336 21:0.89887351 22:0.36419576 23:0.26302099 24:0.52888858 25:0.79693437 26:0.65855068 27:0.56722873 28:0.39972401 29:0.60241944 30:0.33215478 31:0.33755541 32:0.45527485 33:0.6500271 34:0.30538484 35:0.54872262 36:0.66237044 37:0.44766834 38:0.0078018727 39:0.77894169 40:0.82825351 
-1.759281998756094 0 1:0.55394477 2:0.47829643 3:0.52389365 4:0.7754432 5:0.48231894 6:0.45130798 7:0.38101256 8:0.26532841 9:0.71145427 10:0.54556507 11:0.41576338 12:0.61422849 13:0.72053164 14:0.73071361 15:0.26296252 16:0.46968257 17:0.33362862 18:0.3574408 19:0.55311489 20:0.23577045 21:0.34339282 22:0.22714026 23:0.33728269 24:0.77224016 25:0.52543503 26:0.81109655 27:0.61841738 28:0.95515102 29:0.20406196 30:0.7507996 31:0.37367752 32:0.54903978 33:0.1663305 34:0.74771291 35:0.35474765 36:0.21932109 37:0.68263316 38:0.77324468 39:0.80997062 40:0.67366046 
-0 3.287499484185623 1:0.40729994 2:0.46438792 3:0.38213468 4:0.6252321 5:0.7165302 6:0.31327978 7:0.43698907 8:0.38957366 9:0.60146111 10:0.53160632 11:0.24259545 12:0.46358019 13:0.52023041 14:0.49632058 15:0.13962567 16:0.58209062 17:0.44117919 18:0.43680525 19:0.37601489 20:0.22036152 21:0.42654485 22:0.27700344 23:0.18861404 24:0.64785099 25:0.49395815 26:0.84478891 27:0.70577484 28:0.92026031 29:0.25709721 30:0.69946671 31:0.34366125 32:0.49561164 33:0.16469912 34:0.82686508 35:0.3520655 36:0.15654333 37:0.75982642 38:0.76424098 39:0.76858807 40:0.67884725 
-0 0.8587038196682819 1:0.75003761 2:0.59040123 3:0.21012364 4:0.41219249 5:0.61856979 6:0.69022495 7:0.17506692 8:0.37120289 9:0.6089316 10:0.42218128 11:0.14232005 12:0.75029373 13:0.46633849 14:0.44223028 15:0.34661469 16:0.54708189 17:0.47858268 18:0.17267895 19:0.74112558 20:0.21746212 21:0.43398178 22:0.58511382 23:0.53902256 24:0.38054514 25:0.28071827 26:0.024666423 27:0.36183685 28:6.24984e-16 29:0.4269532 30:0.83798003 31:0.768713 32:0.2458521 33:0.8760637 34:0.7029947 35:0.41341606 36:0.42818838 37:0.57358938 38:0.65103608 39:1 40:0.65993738 
-2.75535999264243 2.439935503463912 1:0.44385138 2:0.22251941 3:0.41358826 4:0.16945612 5:0.35778421 6:0.71252471 7:0.33772364 8:0.34930789 9:0.39639872 10:0.69253719 11:0.71613836 12:0.36580688 13:0.25256753 14:0.86224866 15:0.82881415 16:0.27366856 17:0.92089403 18:0.27661923 19:0.35015529 20:0.59091675 21:0.76857299 22:0.1946048 23:0.4843502 24:0.31077838 25:0.69097239 26:0.26489958 27:0.93140268 28:0.63982815 29:0.20842184 30:0.71798635 31:0.46660781 32:0.62340659 33:0.67281538 34:0.46040103 35:0.62341064 36:0.43675053 37:0.08220388 38:0.61950022 39:0.59900904 40:0.68494499 
-0 0.8308647784714732 1:0.42913061 2:0.31617472 3:0.17318049 4:0.44476044 5:0.24480537 6:0.4810999 7:0.17587127 8:0.48079899 9:0.78570455 10:0.17519462 11:0.60351491 12:0.56765187 13:0.4126499 14:0.45978215 15:0.41569546 16:0.42419922 17:0.76592004 18:0.33887744 19:0.62580162 20:0.42734042 21:0.48687676 22:0.31957155 23:0.21929814 24:0.70762986 25:0.62385523 26:0.43199185 27:0.94301182 28:0.85819209 29:0.52939254 30:0.53133833 31:0.63783693 32:0.40297908 33:0.73349988 34:0.015837008 35:0.73623163 36:0.66545004 37:0.32767379 38:0.67769533 39:0.57432461 40:0.63066906 
-0 3.083573328381026 1:1 2:0.40062007 3:0.44061822 4:0.93483621 5:0.31604528 6:0.43510067 7:0.2218193 8:0.33704039 9:0.40374726 10:0.54229265 11:0.52626246 12:0.69817567 13:0.61103129 14:0.45073238 15:0.49918047 16:0.5079419 17:0.84676397 18:0.12991045 19:0.79352731 20:0.50716627 21:0.2107389 22:0.50283521 23:0.24236274 24:0.51477796 25:0.57238066 26:0.58425891 27:0.66883153 28:0.85334456 29:0.43151367 30:0.82949352 31:0.51666558 32:0.60041583 33:0.66258138 34:0.15812792 35:0.86987251 36:0.60810006 37:0.35983804 38:0.72499192 39:0.57275486 40:0.4964627 
-1.202910244046414 0 1:0.38891125 2:0.38730145 3:0.45135573 4:0.61324579 5:0.62566507 6:0.24667589 7:0.45106259 8:0.34416401 9:0.79840291 10:0.55593967 11:0.43819049 12:0.66259235 13:0.23606604 14:0.48990422 15:0.56132632 16:0.37271085 17:0.45055544 18:0.5967508 19:0.40666741 20:0.66410643 21:0.53218198 22:0.091020502 23:0.29514697 24:0.39251924 25:0.72651404 26:0.61029977 27:0.62814313 28:0.39863241 29:0.64483392 30:0.55244839 31:0.44195187 32:0.51444632 33:0.73128039 34:0.2499218 35:0.54974926 36:0.51859993 37:0.1477937 38:0.61378461 39:0.65356958 40:0.74300939 
-9.08240329659168 0 1:0.39321774 2:0.37766251 3:0.50562507 4:0.58765835 5:0.17373501 6:0.65987629 7:0.43155199 8:0.39933276 9:0.71569669 10:0.35573724 11:0.34916592 12:0 13:0.56214732 14:0.37202445 15:0.68874711 16:0.55258149 17:0.53350097 18:0.47515833 19:0.3888604 20:0.34511879 21:0.60020477 22:0.59795439 23:0.45692903 24:0.41395393 25:0.51777208 26:0.06645865 27:0.25308421 28:0.52149534 29:0.35741946 30:0.91059679 31:0.051582675 32:0.17391016 33:0.69010925 34:0.60401553 35:0.90249258 36:0.8654896 37:0.82606071 38:0.60983193 39:0.87335294 40:0.74779844 
-10 3.408083934017909 1:0.47892392 2:0.27371722 3:0.44439459 4:0.27580842 5:0.44089332 6:0.3671602 7:0.43951049 8:0.1714772 9:0.45923612 10:0.14265229 11:0.7418018 12:0.55633116 13:0.35648671 14:0.45310178 15:0.29678762 16:0.32815376 17:0.60963809 18:0.45093217 19:0.69800079 20:0.45093668 21:0.47165373 22:0.080362514 23:0.71616358 24:0.53461885 25:0.71854192 26:0.64389586 27:0.31800815 28:0.63774443 29:0.51994133 30:0.64453131 31:0.45066422 32:0.37057397 33:0.81707537 34:0.47965097 35:0.49673572 36:0.45525041 37:0.24138038 38:0.61780041 39:0.64664608 40:0.75670248 
-10 1.286782225925239 1:0.91480595 2:0.56232351 3:0.37958303 4:0.62053049 5:0.16224802 6:0.52852917 7:0 8:0.42581576 9:0.097164869 10:0.4500196 11:0.65936589 12:0.52427018 13:0.43408763 14:0.6144489 15:0.40724221 16:0.46985888 17:0.44359446 18:0.36429074 19:0.63470864 20:0.22500393 21:0.32259613 22:0.44861981 23:0.32447684 24:0.61486971 25:0.31350365 26:0.32941526 27:0.36535424 28:1 29:0.58814055 30:0.27290434 31:0.93323213 32:0.49618697 33:0.38419846 34:0.091977268 35:0.686248 36:0.56541699 37:0.355358 38:0.81825697 39:0.46443966 40:0.46821499 
-10 0 1:0.22194776 2:0.12575629 3:0.51426166 4:0.35198408 5:0.7005949 6:0.78842711 7:0.11674026 8:0.32662994 9:0.24404743 10:0.63208377 11:0.86103648 12:0.67325777 13:0.61570954 14:0.59793895 15:0.044584926 16:0.54955262 17:0.78378284 18:0.51922452 19:0.65892148 20:0.44446731 21:0.64307278 22:0.50007379 23:0.51122224 24:0.34476015 25:0.9108724 26:0.43086585 27:0.43544325 28:0.88076127 29:0.13644814 30:0.63300735 31:0.60854143 32:0.58222121 33:0.77492553 34:0.26222751 35:0.80016577 36:0.53499937 37:0.61493731 38:0.87552327 39:0.73187357 40:0.69640118 
-4.546627249055216 0 1:0.33958647 2:0.31541371 3:0.17815432 4:0.35236007 5:0.31178674 6:0.49486589 7:0.54929984 8:0.39380166 9:0.52301997 10:0.39140087 11:0.32712194 12:0.53672719 13:0.64659363 14:0.59778655 15:0.43908432 16:0.19019377 17:0.12803127 18:0.71466351 19:0.38813627 20:0.37666529 21:0.37448487 22:0.21873222 23:0.61235303 24:0.76576549 25:0.76180881 26:0.50581914 27:0.39041311 28:0.65383869 29:0.5307973 30:0.58934212 31:0.43294311 32:0.26456231 33:0.64629942 34:0.4083775 35:0.56266183 36:0.66209579 37:0.29750645 38:0.59899801 39:0.56689519 40:0.91366822 
-8.601586252668907 0 1:0.81643736 2:0.61632901 3:0.51985842 4:0.25434425 5:0.45367417 6:0.45966274 7:0.75666088 8:0.41443971 9:0.86972374 10:0.36615545 11:0.28911704 12:0.69896173 13:0.58634579 14:0.5944702 15:0.6327458 16:0.39709273 17:0.53066206 18:0.68035883 19:0.70545465 20:0.54128551 21:0.51119894 22:0.33895561 23:0.48569274 24:0.23055504 25:0.66142935 26:0.42355275 27:0.51673573 28:0.96728629 29:0.38567066 30:0.52562344 31:0.69783419 32:0.55944359 33:0.69427913 34:0.47676727 35:0.34206221 36:0.4936595 37:0.095451735 38:0.48427695 39:0.6524049 40:0.74982446 
-7.375909604176877 0.6658177729981398 1:0.24345782 2:0.40394643 3:0 4:0.073352031 5:0.065681465 6:0.61016428 7:0.41394129 8:0.40261799 9:0.34764299 10:0.6601997 11:0.4078503 12:0.52908671 13:0.71454901 14:0.53101736 15:0.33697075 16:0.45318931 17:0.64949876 18:0.22939175 19:0.37397146 20:0.58687598 21:0.09122961 22:0.36554453 23:0.37954751 24:0.75226742 25:0.6890617 26:0.36029154 27:0.37939465 28:0.79498541 29:0.50842023 30:0.565862 31:0.13228279 32:0.28510794 33:0.37312615 34:0.023230108 35:0.81580311 36:0.58455932 37:0.53166306 38:0.7345078 39:0.55456263 40:0.61326897 
-4.847295841075925 0 1:0.46481827 2:0.10918436 3:0.34060827 4:0.56058413 5:0.0096236402 6:0.53420532 7:0.26957712 8:0.25034952 9:0.53271574 10:0.60828155 11:0.52763277 12:0.79595011 13:0.58774531 14:0.61113256 15:0.500561 16:0.62533331 17:0.510427 18:0.063717566 19:0.54392147 20:0.69013047 21:0.32100499 22:0.22442783 23:0.37721685 24:0.3737345 25:0.88272744 26:0.60591364 27:0.50112927 28:0.42256093 29:0.33054125 30:0.17865022 31:0.26311404 32:0.34778205 33:0.28934363 34:0.53935277 35:0.44570738 36:0.51589245 37:0.65834928 38:1 39:0.76609302 40:0.89280266 
-4.884725336365157 0 1:0.19202851 2:0.42111847 3:0.25927702 4:0.50279778 5:0.38199076 6:0.41515693 7:0.38140371 8:0.42089537 9:0.28477818 10:0.5473628 11:1 12:0.46020553 13:0.63145143 14:0.52483207 15:0.65273219 16:0.52773356 17:0.70261341 18:0.36597043 19:0.34677047 20:0.33417669 21:0.60182232 22:0.11588692 23:0.54839534 24:0.54352343 25:0.55614787 26:0.33816454 27:0.3907128 28:0.41479701 29:0.28721172 30:0.58727902 31:0.39513046 32:0.1686694 33:0.48859113 34:0.56940287 35:0.54210025 36:0.49458444 37:0.054232128 38:0.66844076 39:0.73970705 40:0.7150262 
-6.082863146879936 0 1:0.57919812 2:0.74396569 3:0.67782629 4:0.46961972 5:0.27897349 6:0.65972507 7:0.18215813 8:0.46910805 9:0.33489099 10:0.33198965 11:0.39626837 12:0.84182078 13:0.26499563 14:0.74655879 15:0.57423979 16:0.30663568 17:0.51134616 18:0.53338701 19:0.56197345 20:0.11498146 21:0.48636255 22:0.15459055 23:0.71650112 24:0.57281423 25:0.9420563 26:0.61429203 27:0.4719989 28:0.64556241 29:0.71189737 30:0.50816578 31:0.73022228 32:0.52202743 33:0.60868448 34:0.43085349 35:0.51265198 36:0.43750337 37:0.11321406 38:0.5859623 39:0.56279689 40:0.69487143 
-4.953550016864868 1.694482694179164 1:0.45247352 2:5.4714707e-16 3:0.36657214 4:0.38221663 5:0.731273 6:0.42338482 7:0.19703485 8:0.38193411 9:0.78390187 10:0.81720877 11:0.46479347 12:0.23886389 13:0.35708341 14:0.73531461 15:0.64877611 16:0.53558892 17:0.30677295 18:0.28031385 19:0.19655031 20:0.63419467 21:0.24263041 22:0 23:0.44313401 24:0.34787139 25:0.15684202 26:0.17365609 27:0.46946722 28:0.454831 29:0.45190135 30:0.1128249 31:0.79797143 32:0.33075792 33:0.67667592 34:0.31894273 35:0.37330231 36:0.4716346 37:0.17351006 38:0.61905587 39:0.61099648 40:0.69064194 
-0 10 1:0.72402573 2:0.51561129 3:0.41936156 4:0.41281179 5:0.21204272 6:0.58155519 7:0.39878774 8:0.21557298 9:0.49252009 10:0.3645778 11:0.47832093 12:0.59962744 13:0.58583289 14:0.53682041 15:0.41681525 16:0.27899304 17:0.63718581 18:0.55513984 19:0.40886316 20:0.20869204 21:0.42940417 22:0.1369675 23:0.62446028 24:0.73222405 25:0.51360124 26:0.53328204 27:0.35606286 28:0.63757235 29:0.61659402 30:0.41118231 31:0.31590638 32:0.38070604 33:0.65436083 34:0.30211043 35:0.80589938 36:0.76709837 37:0.46181884 38:0.52938527 39:0.55756217 40:0.82309228 
-5.542743701847082 0 1:0.46571672 2:0.44040203 3:0.47164613 4:0.70491886 5:0.27810353 6:0.69504964 7:0.43870395 8:0.38084316 9:0.80559725 10:0.19788645 11:0.6701057 12:0.42744574 13:0.68974233 14:0.25664708 15:0.46771663 16:0.58589327 17:0.67090309 18:0.57615852 19:0.82001472 20:0.54960346 21:0.58871281 22:0.50765091 23:0.26013008 24:0.49787655 25:0.67570621 26:0.632613 27:0.4776814 28:0.43736288 29:0.47379261 30:0.53241158 31:0.50136906 32:0.33690134 33:0.51412386 34:0.5087083 35:0.5218395 36:0.59403461 37:0.54734969 38:0.85008937 39:0.79161966 40:0.90865338 
-0.8986348016462054 0 1:0.43353346 2:0.56336236 3:0.47889754 4:0.62626642 5:0.33306694 6:0.13001345 7:0.55880427 8:0.39805952 9:0.68571448 10:0.5624215 11:0.59678215 12:0.60418874 13:0.38437542 14:0.52624601 15:0.57227594 16:0.92879301 17:0.74200159 18:0.39273542 19:0.75754023 20:0.28006274 21:0.51906097 22:0.29294458 23:0.53565276 24:0.1901764 25:0.71344501 26:0.67157054 27:0.32191211 28:0.5507887 29:0.69790047 30:0.40526929 31:0.61844301 32:0.40741989 33:0.74506634 34:0.35052854 35:0.41561309 36:0.43811721 37:0.25249314 38:0.77204013 39:0.70309919 40:0.77418488 
-10 0 1:0.70172656 2:0.31685627 3:0.40582711 4:0.67248625 5:0.48205057 6:0.54317898 7:0.3121357 8:0.24275061 9:0.84609151 10:0.43103781 11:0.34910396 12:0.44522667 13:0.47022304 14:0.61286056 15:0.55621207 16:0.093662076 17:0.65921575 18:0.5175972 19:0.56883252 20:0.57875967 21:0.64356238 22:0.33829984 23:0.55110008 24:0.37402451 25:0.72930342 26:0.51724184 27:0.74013984 28:0.41001859 29:0.28784519 30:0.66451669 31:0.30846956 32:0.42932275 33:0.55476785 34:0.28688207 35:0.49611461 36:0.54923266 37:0.19705603 38:0.74846095 39:0.8153888 40:0.80620509 
-4.243936070581132 5.346264122653222 1:0.53589475 2:0.023514897 3:0.46128005 4:0.78217101 5:0.33679131 6:0.48026299 7:0.70199639 8:0.55868483 9:0.7696358 10:0.18121515 11:0.81959993 12:0.57921702 13:0.54662812 14:0.80626732 15:0.21411911 16:0.5338515 17:0.59064764 18:0.59032476 19:0.29876432 20:0.43067396 21:0.50949252 22:0.35768679 23:0.27541167 24:0.39640695 25:0.70254052 26:0.62989444 27:0.51017356 28:0.40305087 29:0.55156273 30:0.45445487 31:0.59038049 32:0.31440669 33:0.92770064 34:0.53313506 35:0.6050362 36:0.67287916 37:0.4378123 38:0.7161262 39:0.73629636 40:0.78292453 
-2.757815339458711 1.867492108176961 1:0.74343723 2:0.65491861 3:0.67748296 4:0.75297362 5:0.52074671 6:0.70425904 7:0.35708386 8:0.25999257 9:0.61308086 10:0.61240613 11:0.46605331 12:0.64057875 13:0.50953567 14:0.81544733 15:0.32165763 16:0.47474495 17:0.56189525 18:0.32001251 19:0.56847662 20:0.59449601 21:0.35006467 22:0.10948732 23:0.24139434 24:0.44446787 25:0.46886662 26:0.61080074 27:0.43769848 28:0.7002458 29:0.67861587 30:0.51145434 31:0.19639541 32:0.19531371 33:0.51877671 34:0.12838085 35:0.86082691 36:0.91130239 37:0.3868987 38:0.65485507 39:0.56442255 40:0.80998272 
-6.206890663388376 0.8721370359179619 1:0.49471959 2:0.47337827 3:0.41015866 4:0.036072388 5:0.18300872 6:0.75947911 7:0.41202655 8:0.36534443 9:0.54130256 10:0.50132525 11:0.091543064 12:0.34972215 13:0.71181816 14:0.68306482 15:0.19246204 16:0.55603021 17:0.43946975 18:1 19:0.27726492 20:0.66112971 21:0.33507207 22:0.40438554 23:0.46243122 24:0.47124413 25:0.65005744 26:0.43157569 27:0.62610537 28:0.79684579 29:0.3845554 30:0.86810428 31:0.55535996 32:0.61440492 33:0.69219792 34:0.27528596 35:0.68288797 36:0.47120109 37:0.51603556 38:0.62216443 39:0.7420662 40:0.71571851 
-0.2463862405033379 0 1:0.39458916 2:0.37345645 3:0.42520005 4:0.60481852 5:0.30790782 6:0.52367997 7:0.36252204 8:0.60270572 9:1 10:0.70840925 11:0.59041834 12:0.24270982 13:0.6875909 14:0.16217352 15:0.68383557 16:0.39952302 17:0.088511609 18:0.38908747 19:0.79202342 20:0.15583287 21:0.58215696 22:0.31871819 23:0.48419651 24:0.76841605 25:0.85135984 26:0.76310176 27:0.31614906 28:0.65354568 29:0.63663751 30:0.64980227 31:0.64641601 32:0.36790904 33:0.50684518 34:0.35785308 35:0.38814741 36:0.2246509 37:0.25493893 38:0.57481813 39:0.58621389 40:0.70317602 
-10 1.760861726608469 1:0.21943407 2:0.36670738 3:0.25005734 4:0.46426436 5:0.29726353 6:0.76626658 7:0.33910471 8:0.71359384 9:0.47365654 10:0.34143782 11:0.50984478 12:0.50766474 13:0.50165117 14:0.61222035 15:0.18820868 16:0.41154459 17:0.51368868 18:0.10788953 19:0.53835809 20:0 21:0.33969599 22:0.72769183 23:0.23232372 24:0.39196485 25:0.66652042 26:0.46871355 27:0.53096867 28:0.84565049 29:0.48328421 30:0.48408908 31:0.38516766 32:0.34059474 33:0.56988782 34:0.17607854 35:0.57198203 36:0.2545473 37:0.43031129 38:0.67521465 39:0.5398789 40:0.44750705 
-5.452962068096728 0 1:0.93431801 2:0.02990976 3:0.78687 4:0.24196196 5:0.52781785 6:0.44072622 7:0.38199446 8:0.28209704 9:0.40390193 10:0.50549006 11:0.39865762 12:0.52105504 13:0.44314852 14:0.27201509 15:0.52995777 16:0.12268938 17:0.48109284 18:0.18072595 19:0.41203418 20:0.50900322 21:0.54258674 22:0.43571088 23:0.43590286 24:0.29204124 25:0.46584859 26:0.61924714 27:0.33666354 28:0.61571759 29:0.53684902 30:0.40693995 31:0.5659644 32:0.38200003 33:0.64171708 34:0.38343289 35:0.25956044 36:0.12403245 37:0 38:0.54264557 39:0.63312137 40:0.65785134 
-0 0.3593984428138363 1:0.62973046 2:0.26140144 3:0.22929394 4:0.63888955 5:0.3827458 6:0.65555042 7:0.3760415 8:0.59484321 9:0.42294693 10:1 11:0 12:0.59816903 13:0.61021334 14:0.55736488 15:0.76017064 16:0.84462202 17:0.67694694 18:0.4146786 19:0.30513403 20:0.19746688 21:0.86430418 22:0.29357776 23:0.465406 24:0.35617051 25:0.62649256 26:0.71457785 27:0.4122068 28:0.73800784 29:0.74990594 30:0.481619 31:0.17832656 32:0.23561004 33:0.59211177 34:0.48894909 35:0.52705669 36:0.65283096 37:0.23956548 38:0.58519155 39:0.56114703 40:0.79227573 
-8.162236269021315 0 1:0.55464375 2:0.59607077 3:0.32647142 4:0.81513363 5:0.59598643 6:0.59588897 7:0.37302694 8:0.38196141 9:0.490881 10:0.3421692 11:0.61733371 12:0.45490542 13:0.71615112 14:0.62769181 15:0.7449857 16:0.49272573 17:0.37299371 18:0.26261267 19:1 20:0.32841519 21:0.3012774 22:0.26547685 23:0.7331357 24:0.46435726 25:0.91245443 26:0.63075155 27:0.4781287 28:0.42646083 29:0.31751406 30:0.60739303 31:0.60868555 32:0.46662652 33:0.59150857 34:0.44879425 35:0.37919873 36:0.39070833 37:0.32305396 38:0.89560562 39:0.67148077 40:0.8660984 
-10 5.300613244976329 1:0.38401043 2:0.5263961 3:0.39947626 4:0.50774074 5:0.42349896 6:0.54938906 7:0.41732132 8:0.58833158 9:0.25830713 10:0.50997794 11:0.4636704 12:0.21657522 13:0.68754858 14:0.34883842 15:0.69920063 16:0.7884115 17:0.41232595 18:0.44186381 19:0.93947715 20:0.63913476 21:0.51654005 22:0.40758282 23:0.50571221 24:0.54050225 25:0.80809259 26:0.6841749 27:0.2443134 28:0.50459284 29:0.41079879 30:0.39400226 31:0.67709327 32:0.455428 33:0.36126435 34:0.4806715 35:0.37657741 36:0.24994449 37:0.38504636 38:0.88841629 39:0.6651932 40:0.84303385 
-1.900756699768433 0.4240155892544632 1:0.49562553 2:0.36561298 3:0.27181622 4:0.38974983 5:0.72203159 6:0.57929337 7:0.53943551 8:0.4841215 9:0.4117837 10:0.2233361 11:0.13799046 12:0.13570514 13:0.35992992 14:0.49981377 15:0.52778727 16:0.63621068 17:0.29463896 18:0.5938015 19:0.43133524 20:0.49151111 21:0.44858277 22:0.74293488 23:0.51378381 24:0.6789161 25:0.86929667 26:0.46238345 27:0.90743488 28:0.5039022 29:0.44387281 30:0.30200431 31:0.51226473 32:0.36074811 33:0.55234277 34:0.59963232 35:0.48625603 36:0.40136355 37:0.37396547 38:0.84835804 39:0.66212779 40:0.81298441 
-0 2.162273100260922 1:0.76893187 2:0.45914063 3:0.78901529 4:0.33003294 5:0.15146814 6:0.92394406 7:0.15704098 8:0.33812648 9:0.72438121 10:0.41459736 11:0.34601539 12:0.57081389 13:0.42984897 14:0.47573739 15:0.41283768 16:0.23070152 17:0.66775441 18:0.33407 19:0.41616637 20:0.72991061 21:0.20493783 22:0.23914225 23:0.66772568 24:0.39219055 25:0.50408453 26:0.55445027 27:0.6656757 28:0.71063954 29:0.26601613 30:0.23435114 31:0.3525973 32:0.49575296 33:0.68815655 34:0.82160133 35:0.3498809 36:0.40599281 37:0.40679798 38:0.8807016 39:0.73167682 40:0.84933496 
-2.913179810627972 0.972747129700841 1:0.41978937 2:0.028977549 3:0.65464067 4:0.61026007 5:0.75996095 6:0.52561355 7:0.087572776 8:0.16301909 9:0.40177256 10:0.22212097 11:0.72807139 12:0.4464902 13:0.83777165 14:0.51929909 15:0.95795995 16:0.88916242 17:0.44880959 18:0.37872225 19:0.79120529 20:0.43986249 21:0.58132589 22:0.39635172 23:0.28176245 24:0.35082614 25:0.63733423 26:0.75442773 27:0.54077786 28:0.6359995 29:0.49364853 30:0.26638675 31:0.42286125 32:0.40952772 33:0.667714 34:0.69995284 35:0.40676701 36:0.50664359 37:0.41582277 38:0.96800882 39:0.66450745 40:0.83282262 
-0 3.620730289492213 1:0.65282321 2:0.33925241 3:0.48898688 4:0.86808622 5:0.35640061 6:0.72998214 7:0.17037319 8:0.45021522 9:0.45295274 10:0.29241779 11:0.11290779 12:0.12977363 13:0.42815682 14:0.48029879 15:0.58364427 16:0.73042107 17:0.77348512 18:0.45052591 19:0.86327404 20:0.71485579 21:0.51502824 22:0.35411739 23:0.63323426 24:0.5623492 25:0.45121607 26:0.39295065 27:0.67016912 28:0.79760504 29:0.39817163 30:0.25129664 31:0.48012453 32:0.45910898 33:0.71652621 34:0.6863575 35:0.5723542 36:0.8358888 37:0.43015599 38:0.87151307 39:0.65238118 40:0.94816643 
-1.49129412258785 0 1:0.46627274 2:0.20850851 3:0.26227528 4:0.38439581 5:0.058268972 6:0.51315773 7:0.20112514 8:0.47999981 9:0.44368464 10:0.27853259 11:0.10742639 12:0.74153435 13:0.65381998 14:0.57561201 15:0.72675693 16:0.73882592 17:0.63806152 18:0.41135412 19:0.31905383 20:0.67892283 21:0.68335503 22:0.31775182 23:4.3441085e-16 24:0.41653326 25:0.78548324 26:0.62280989 27:0.67906666 28:0.4889724 29:0.22817874 30:0.78245717 31:0.3067418 32:0.44900778 33:0.50979859 34:0.35897407 35:0.66134965 36:0.41169864 37:0.32767424 38:0.73388463 39:0.78084558 40:0.71719986 
-7.972012823378287 0 1:0.5137918 2:0.5353359 3:0.45843098 4:0.3307192 5:0.61786044 6:0.54023707 7:0.41047317 8:0.54705101 9:0.30505994 10:0.48231703 11:0.11231722 12:0.61618799 13:0.77543414 14:0.49535942 15:0.41497475 16:0.41496813 17:0.60600626 18:0.34820181 19:0.23667406 20:0.81782347 21:0.365181 22:0.24815568 23:0.31413519 24:0.38719851 25:0.68890351 26:0.25710857 27:0.42748564 28:0.3612878 29:0.57412511 30:0.14528172 31:0 32:0.37843677 33:0.52679837 34:0.45576525 35:0.48834583 36:0.50603843 37:0.40091223 38:0.74462277 39:0.66382301 40:0.80160964 
-0.5312011402499542 0 1:0.44327474 2:0.66034776 3:0.45304662 4:0.82180047 5:0.64335376 6:0.45370188 7:0.64276046 8:0.44364393 9:0.73316073 10:0.37760141 11:0.6302495 12:0.39486659 13:0.5564279 14:0.68443477 15:0.64086342 16:0.56988049 17:0.47436473 18:0.44526589 19:0.62757045 20:0.81591922 21:0.38310489 22:0.25820512 23:0.27643058 24:0.68390429 25:0.594423 26:4.1861411e-16 27:0.61550164 28:0.84810209 29:0.37421146 30:0.6444363 31:0.83988684 32:0.23277718 33:0.82029521 34:0.53546131 35:0.46426117 36:0.65517366 37:0.028070157 38:0.65165937 39:0.68686688 40:0.70917195 
-0 0.3951808190624874 1:0.68311113 2:0.1268221 3:0.45226428 4:0.55210924 5:0.55362391 6:0.42632195 7:0.51121533 8:0.52967781 9:0.65720862 10:0.33599734 11:0.36938959 12:0.70392382 13:0.42738956 14:0.4959783 15:0.42226908 16:0.73358291 17:0.50426942 18:0.27825007 19:0.2036458 20:0.55544412 21:0.35244417 22:0.21836041 23:0.17928521 24:0.44540027 25:0.42293814 26:0.36811548 27:0.66478896 28:0.66533297 29:0.69221151 30:0.41340053 31:0.63324136 32:0 33:0.72291076 34:0.432226 35:0.41324428 36:0.46504903 37:0.093066208 38:0.56204844 39:0.55141348 40:0.69120228 
-7.327795025742703 0 1:0.63766658 2:0.51691252 3:0.27906531 4:0.71329403 5:0.38762799 6:0.68612254 7:0.45827019 8:0.35415325 9:0.6548481 10:0.63158536 11:0.55610263 12:0.4511328 13:0.63173062 14:0.74168515 15:0.64780605 16:0.58663929 17:0.52756613 18:0.52372038 19:0.22707671 20:0.1255658 21:1 22:0.6043793 23:0.46820045 24:0.28660417 25:0.67215246 26:0.38226986 27:0.47882387 28:0.93787503 29:0.5894962 30:0.44344282 31:0.60511601 32:0.39269385 33:0.72691792 34:0.72607696 35:0.59852397 36:0.50805819 37:0.0016462306 38:0.60371435 39:0.6051383 40:0.66813689 
-0 0.3495970355763782 1:0.28952983 2:0.68872452 3:0.52456307 4:0.16929038 5:0.3007943 6:0.87006176 7:0.48853543 8:0.80642408 9:0.19400586 10:0.46935722 11:0.69063443 12:0.49559835 13:0.73248029 14:0.17968386 15:1 16:0.3770887 17:0.66144049 18:0.47073543 19:0.34190801 20:0.27044949 21:0.33801731 22:0.19530195 23:0.36038515 24:0.76605463 25:0.34098741 26:0.46775517 27:0.52577662 28:0.51980567 29:0.47809875 30:0.19203241 31:0.7307272 32:0.30357233 33:0.29070929 34:0.47695869 35:0.16088742 36:0.19990242 37:0.20940012 38:0.53881651 39:0.42436415 40:0.70082378 
-0.02477178984995286 -0 1:0.45874476 2:0.43018702 3:0.41553193 4:0.59593391 5:0.35176414 6:0.61037374 7:0.32243347 8:0.35380542 9:0.445932 10:0.40161204 11:0.5220356 12:0.45624012 13:0.58846611 14:0.56283891 15:0.50453132 16:0.43986547 17:0.53644878 18:0.43722349 19:0.51529276 20:0.46638164 21:0.59914529 22:0.25910562 23:0.42684832 24:0.43155095 25:0.61366266 26:0.28959402 27:0.62118 28:0.69773656 29:0.65718746 30:0.61973113 31:0.33104849 32:0.37646845 33:0.82399762 34:0.33346212 35:3.03929e-16 36:0.31348467 37:0.91665858 38:0.71552706 39:0.23008469 40:0.90419853 
-1.844090950209617 -6.939795229504573 1:0.661255 2:0.30911463 3:0.48377767 4:0.54125929 5:0.49613056 6:0.72954762 7:0.50787044 8:0.30433521 9:0.49961373 10:0.27635884 11:0.82104129 12:0.88088977 13:0.49050567 14:0.5009914 15:0.70522016 16:0.36030734 17:0.57505208 18:0.53759378 19:0.58057225 20:0.63033056 21:0.55692297 22:0.28957447 23:0.46411172 24:0.39038473 25:0.3445386 26:0.43073827 27:0.51647741 28:0.38688782 29:0.14206903 30:0.46790358 31:0.3777658 32:0.41628039 33:0.46769944 34:0.67928118 35:0.64537913 36:0.36749399 37:0.4310796 38:0.50036949 39:0.12788425 40:0.61245614 
-5.732592656167497 -0.2557390610909035 1:0.36788753 2:0.40312895 3:0.66781968 4:0.82444036 5:0.39108214 6:0.47696975 7:0.61629182 8:0.15333119 9:0.51975811 10:0.49579138 11:0.18527842 12:0.20769767 13:0.37798375 14:0.66556758 15:0.68655241 16:0.57381243 17:0.62646717 18:0.40625978 19:0.63945645 20:0.4237487 21:0.44165871 22:0.34882182 23:0.5232892 24:0.52446079 25:0.78587061 26:0.50296062 27:0.53126782 28:0.46654871 29:0.26019081 30:0.36294028 31:0.4755404 32:0.36105353 33:0.55875933 34:0.23696533 35:0.60436833 36:0.094236642 37:0.32995132 38:0.46210876 39:0.09286093 40:0.48006797 
-4.301718674810667 -0 1:0.60829419 2:0.47247586 3:0.38968122 4:0.49478161 5:0.45246017 6:0.50166118 7:0.47515941 8:0.28009808 9:0.7355805 10:0.43914965 11:0.67886525 12:0.61385018 13:0.65549725 14:0.6156193 15:0.50226271 16:0.63128817 17:0.50919652 18:0.48490259 19:0.55431789 20:0.35411128 21:0.41487291 22:0.46161121 23:0.58520961 24:0.40372813 25:0.64133829 26:0.28049284 27:0.5052284 28:0.48118159 29:0.20756897 30:0.49526191 31:0.39766049 32:0.4084931 33:0.51595569 34:0.38987517 35:0.70877063 36:0.33542839 37:0.56389642 38:0.48401427 39:0.084027991 40:0.57783151 
-2.399995487938966 -3.183028115013333 1:0.4522942 2:0.70195848 3:0.69466352 4:0.62918484 5:0.47855982 6:0.60331655 7:0.09336891 8:0.24140306 9:0.51059711 10:0.51913476 11:0.27148423 12:0.69120163 13:0.5337956 14:0.56160849 15:0.55293602 16:0.60238588 17:0.29215014 18:0.43968675 19:0.07837227 20:0.34426504 21:0.45950097 22:0.64349222 23:0.41229635 24:0.52888364 25:0.24006714 26:0.17633046 27:0.47035497 28:0.65843022 29:0.39994115 30:0.34617993 31:0.61060166 32:0.40437058 33:0.49376497 34:0.4268375 35:1 36:0.48710918 37:0.93763739 38:0.60302269 39:0.18986383 40:0.46107244 
-3.742942013645052 -9.311408675198775 1:0.6282323 2:0.55172807 3:0.58353549 4:0.81527221 5:0.3215183 6:0.51743275 7:0.64389724 8:0.30785188 9:0.63845009 10:0.40164912 11:0.31658247 12:0.28254485 13:0.35787687 14:0.66421038 15:0.35307148 16:0.76155686 17:0.73203355 18:0.5488773 19:0.73113567 20:0.3815631 21:0.40639332 22:0.31108999 23:0.5058431 24:0.48466545 25:0.58992684 26:0.65309727 27:0.5081076 28:0.37705261 29:0.43383396 30:0.35269773 31:0.545524 32:0.3375386 33:0.57432336 34:0.074159347 35:0.65765339 36:0.24980769 37:0.42014858 38:0.5703789 39:0.2067672 40:0.66451693 
-2.953557938542847 -0.2536637974242805 1:0.40757611 2:0.78928667 3:0.54350042 4:0.22986555 5:0.58296758 6:0.49169317 7:0.63410854 8:0.40270117 9:0.58207381 10:0.71003324 11:0.67481202 12:0.28869638 13:0.7755366 14:0.60930657 15:0.039057896 16:0.062136002 17:0.46178666 18:0.42656863 19:0.47054294 20:0.4534018 21:0.41641998 22:0.38551688 23:0.64350432 24:0.5372408 25:0.75469279 26:0.75168788 27:0.13623384 28:0.51329505 29:0.55508584 30:0.44025728 31:0.44755277 32:0.3425571 33:0.4870185 34:0.42611006 35:0.91971707 36:0.50564414 37:0.810987 38:0.85208148 39:0.3099623 40:0.78590256 
-2.787458165529896 -0.5417532919267002 1:0.44669053 2:0.19266658 3:0.5938614 4:0.73464066 5:0.37516105 6:0.40783 7:0.52086204 8:0.60049403 9:0.45900059 10:0.59561908 11:0.33437201 12:0.29021958 13:0.16645785 14:0.75014174 15:0.51414078 16:0.041950062 17:0.29334843 18:0.36818692 19:0.74278265 20:0.38230214 21:0.96855569 22:0.28326756 23:0.68314213 24:0.77544951 25:0.45440796 26:0.40045643 27:0.49853238 28:0.39254951 29:0.506293 30:1 31:0.44984633 32:0.40024778 33:0.93142349 34:0.59373599 35:0.95450151 36:0.52033186 37:0.87089247 38:0.76748627 39:0.53104794 40:0.66164154 
-5.113702478138017 -6.947162765535583 1:0.45874476 2:0.43018702 3:0.41553193 4:0.59593391 5:0.35176414 6:0.61037374 7:0.32243347 8:0.35380542 9:0.445932 10:0.40161204 11:0.5220356 12:0.45624012 13:0.58846611 14:0.56283891 15:0.50453132 16:0.43986547 17:0.53644878 18:0.43722349 19:0.51529276 20:0.46638164 21:0.59914529 22:0.25910562 23:0.42684832 24:0.43155095 25:0.61366266 26:0.28959402 27:0.62118 28:0.69773656 29:0.65718746 30:0.61973113 31:0.33104849 32:0.37646845 33:0.82399762 34:0.33346212 35:3.03929e-16 36:0.31348467 37:0.91665858 38:0.71552706 39:0.23008469 40:0.90419853 
-4.807328357853469 -9.98068394216804 1:0.70563865 2:0.19363484 3:0.14986694 4:0.40426087 5:0.27257022 6:0.65104067 7:0.25918004 8:0.45270181 9:0.69593883 10:0.55232048 11:0.26300603 12:0.26027131 13:0.65386999 14:0.56454021 15:0.41581523 16:0.58949518 17:0.8962183 18:0.27935988 19:0.50563776 20:0.28109783 21:0.43475053 22:0.2670618 23:0.29816332 24:0.53896713 25:0.52244657 26:0.89509809 27:0.53756392 28:0.6811921 29:0.6115067 30:0.64271832 31:0.57270533 32:0.32604983 33:0.74399191 34:0.47675705 35:0.77390641 36:0.45278206 37:0.51367348 38:0.60209161 39:0.37135816 40:0.63456351 
-0 -2.958672362767684 1:0.48501706 2:0.26263493 3:0.57504112 4:0.17496221 5:0.12344485 6:0.48196301 7:0.50628769 8:0.16785967 9:0.52434844 10:0.67609566 11:0.47573629 12:0.84680462 13:0.68555117 14:0.27564877 15:0.70500457 16:0.28097558 17:0.55757833 18:0.50856674 19:0.69689041 20:0.50594872 21:0.37230074 22:0.22315116 23:0.61392081 24:0.44026759 25:0.44731799 26:0.88473678 27:0.59068698 28:0.58099025 29:0.42376786 30:0.66996074 31:0.53066093 32:0.47051319 33:0.83850271 34:0.77071899 35:0.87528533 36:0.64342517 37:0.55064076 38:0.83463502 39:0.39503232 40:0.74312222 
-8.37530606168184 -2.136612606217698 1:0.19993611 2:0.18993077 3:0.25150165 4:0.2265304 5:0.22871678 6:0.45896482 7:0.3208417 8:0.3168858 9:0.219909 10:0.57695389 11:0.59542602 12:0.18047081 13:0.44752964 14:0.60293859 15:0.2881923 16:0.6205706 17:0.34606004 18:0.36642429 19:0.48536819 20:0.73877698 21:0.48498514 22:0.25212008 23:0.44151169 24:0.3056581 25:0.4925634 26:0.74307013 27:0.40344974 28:0.41813055 29:0.30282766 30:0.29698336 31:0.79425329 32:0.54567277 33:0.55694056 34:0.84305269 35:0.5371322 36:0.33770871 37:0.52197331 38:0.91674107 39:0.38155279 40:0.70685035 
-0.5654007857593921 -0 1:0.4994534 2:0.59530717 3:0.5648672 4:0.35216442 5:0.38670948 6:0.87326497 7:0.55405825 8:0.54231101 9:0.63885981 10:0.51880944 11:0.39499703 12:0.33361003 13:0.61974645 14:0.67660797 15:0.45366657 16:0.80399877 17:0.63053632 18:0.42459285 19:0.7283296 20:0.56789309 21:0.36150041 22:0.25544277 23:0.28806031 24:0.31375703 25:0.54022044 26:0.96891737 27:0.69638222 28:0.31972882 29:0.64221442 30:0.49050134 31:0.62010592 32:0.46326572 33:0.76215863 34:0.5198276 35:0.61037219 36:0.38316828 37:0.75864941 38:0.89317119 39:0.50593102 40:0.87463188 
-2.933355905873782 -1.138905040167772 1:0.23344301 2:1 3:0.51875383 4:0.20981552 5:0.34718683 6:0.44099677 7:0.27772224 8:0.25106126 9:0.76537865 10:0.33061051 11:0.46241727 12:0.50491631 13:0.59918559 14:0.50223553 15:0.53137916 16:0.35949028 17:0.90390915 18:0.4606463 19:0.72610539 20:0.61148369 21:0.642636 22:0.17873289 23:0.46114054 24:0.19025849 25:0.26850331 26:0.62520593 27:0.56418717 28:0.74146974 29:0.43750089 30:0.4886407 31:0.47722778 32:0.51888067 33:0.68203586 34:0.64548844 35:0.77457577 36:0.5604226 37:0.66775495 38:0.85018867 39:0.37968397 40:0.80349678 
-3.724518746670718 -7.458239056965979 1:0.81668705 2:0.46042427 3:0.16843753 4:0.43724754 5:0.52038938 6:0.58677751 7:0.12054867 8:0.38720262 9:0.42599905 10:0.28173423 11:0.57778871 12:0.34616077 13:0.50800318 14:0.7518934 15:0.38171566 16:0.34447253 17:0.33122131 18:0.40369558 19:0.38501364 20:0.42280823 21:0.5128566 22:0.086322427 23:0.33946574 24:0.72001982 25:0.50412762 26:0.82207364 27:0.56097949 28:0.59524119 29:0.48299739 30:0.59380668 31:0.53035045 32:0.18208314 33:0.74492633 34:0.57552135 35:0.86491251 36:0.6621061 37:0.54806817 38:0.74867398 39:0.37988326 40:0.73884892 
-4.491814246309116 -2.216825785580089 1:0.72881752 2:0.39474979 3:0.26102296 4:0.51269341 5:0.28764448 6:0.36751658 7:0.62191427 8:0.58667266 9:0.5924992 10:0.60568845 11:0.065026067 12:0.60718477 13:0.61277175 14:0.44265315 15:0.25619656 16:0.056139819 17:0.36814237 18:0.30053034 19:0.45321947 20:1 21:0.65906268 22:0.32301 23:0.60051793 24:0.40040541 25:0.69354153 26:0.55860072 27:0.50147444 28:0.94277352 29:0.5024001 30:0.53072494 31:0.68372327 32:0.42509028 33:0.7919277 34:0.76249647 35:0.53109717 36:0.48282811 37:0.47526816 38:0.70367843 39:0.265095 40:0.70713282 
-1.077974411160652 -4.128593662750528 1:0.57805443 2:0.1695811 3:0.51084578 4:0.36694756 5:0.27653784 6:0.62999368 7:0.52138776 8:0.57542628 9:0.26082587 10:0.12860942 11:0.73132277 12:0.2907989 13:0.36799616 14:0.61887556 15:0.31012487 16:0.49037054 17:0.44047728 18:0.39447427 19:0.55626547 20:0.4415153 21:0.69888216 22:0.28411388 23:0.66264319 24:0.45927006 25:0.38723353 26:0.70873415 27:0.65070117 28:0.62176031 29:0.30341703 30:0.35037759 31:0.53683841 32:0.41547498 33:0.81285739 34:0.89082998 35:0.6637392 36:0.64209491 37:0.59602934 38:0.92105621 39:0.3931939 40:0.80571771 
-0 -4.338965495741042 1:0.4582302 2:0.37548909 3:0.49922282 4:0.23383632 5:0.47167671 6:0.50169462 7:0.52775466 8:0.38796604 9:0.53298181 10:0.4196904 11:0.52824855 12:0.39009354 13:0.60528463 14:0.44665 15:0.41015896 16:0.30442408 17:0.43874201 18:0.24805607 19:0.86329246 20:0.75920683 21:0.3935509 22:0.24659833 23:0.61837304 24:0.47103527 25:0.54436153 26:0.57976842 27:0.46406388 28:0.72028494 29:0.55928445 30:0.52517688 31:0.46026176 32:0.20554981 33:0.76461864 34:0.45034227 35:0.53632849 36:0.74624979 37:0.63004267 38:0.81448847 39:0.28230184 40:0.94530118 
