svm_type c_svc
kernel_type rbf
gamma 0.09
nr_class 2
total_sv 28
rho -0.317756
label 130590101 130590102
probA -4.26573
probB -0.182833
nr_sv 15 13
SV
2.170090535330482 1:0.64292395 2:1 3:0.68262964 4:0.58929992 5:0.72981536 6:0.74710119 7:1 8:0.40976265 9:0.27932364 10:0.62242097 11:0.18558438 12:0.61017191 13:0.5740571 14:0.74549621 15:0.66198599 16:0.90059894 17:0.32390571 18:0.90324956 19:0.73279411 20:0.80003422 21:0.66312957 22:0.20093857 23:0.13541135 
2.641326696152864 1:0.2345337 2:0.24139842 3:0.38078403 4:0.30774188 5:0.53998256 6:0.48725283 7:0.64689147 8:0.37350413 9:0.58301938 10:0.47568709 11:0.079803757 12:0.48221716 13:0.60570514 14:0.9272663 15:0.84161192 16:0.62305033 17:0.43232775 18:0.81696659 19:0.33520487 20:0.56452769 21:0.46643674 22:0.035062242 23:0.15049133 
1.916509566444193 1:0.21262927 2:0.50119412 3:0.40447092 4:0.46455973 5:0.52337605 6:5.3504265e-16 7:0.65662563 8:0.29339567 9:0.50111389 10:0.27858728 11:0.39667314 12:0.88706934 13:0.68630999 14:0.46210009 15:0.44527993 16:0.87395006 17:0.48205253 18:0.27561089 19:0.35042074 20:0.56367129 21:0.26962855 22:0.32725704 23:0.10817774 
1.133559161692175 1:0.41772801 2:0.47701299 3:0.38414291 4:0.30246875 5:0.43682575 6:0.06968011 7:0.48500609 8:0.36097541 9:0.46415094 10:0.4666062 11:0.33958769 12:0.32188234 13:0.54574233 14:0.70230842 15:0.89420247 16:0.52685958 17:0.49277592 18:0.76117384 19:0.1091294 20:0.53327996 21:0.37024653 22:0.16841602 23:0.18216784 
1.045083835908375 1:0.60044962 2:0.34980333 3:0.57036805 4:0.4206242 5:0.44858804 6:0.53432113 7:0.47048804 8:0.45178086 9:0.53417134 10:0.49705684 11:0.49554077 12:0.61843747 13:0.73084641 14:0.54441899 15:0.034333941 16:0.73324537 17:0.52763963 18:0.12196941 19:0.039396845 20:0.48286715 21:0.052431986 22:0.23458034 23:0.11135186 
2.422791757681022 1:0.21857336 2:0.33811885 3:0.55358636 4:0.56279546 5:0.64514118 6:0.59367162 7:0.093364269 8:0.61407006 9:0 10:0.056271985 11:0.3849512 12:0.71762896 13:0.52628827 14:0.63208967 15:0.46351638 16:0.35324788 17:0.29202119 18:0.28998032 19:0.71625406 20:0.72482103 21:0.3050572 22:0.68502015 23:0.2336528 
2.031706004314497 1:0.41980547 2:0.5584566 3:0.45992997 4:0.67791784 5:0.42090699 6:0.4474003 7:0.17109129 8:0.41174561 9:0.26334757 10:0.2593073 11:0.44169286 12:0.70590019 13:0.27967343 14:0.89361501 15:0.57705611 16:0.31848058 17:0.2932587 18:0.41064981 19:0.64282495 20:0.71145177 21:0.31552348 22:0.71669549 23:0.21622655 
0.2919484762911286 1:0.46473849 2:0.68497247 3:0.14946562 4:0.5205422 5:0.47284874 6:0.75581241 7:0.057741556 8:0.29788801 9:0.51285976 10:0.38525462 11:0.70207298 12:0.52569461 13:0.76300454 14:0.46234554 15:0.76778793 16:0.91189486 17:0.72263837 18:0.45152909 19:0.30132031 20:0.58474648 21:0.91400206 22:0.65183449 23:0.060702022 
0.2955796644492848 1:0.27810028 2:0.2372418 3:0.34932309 4:0.18249699 5:0.43326244 6:0.25976014 7:0.0260987 8:0.71226388 9:0.5584448 10:0.36569157 11:0.23756662 12:0.2874698 13:0.66698295 14:0.11289959 15:0.61151165 16:0.72709894 17:0.37633538 18:0.40575242 19:1 20:0.011862328 21:0.44678697 22:0.56730688 23:0.24230184 
2.357864602999099 1:0.80332428 2:0.059043843 3:0.45586902 4:0.078601398 5:0.45355323 6:0.91203529 7:0.86467952 8:0.46266401 9:0.58631682 10:0.19036166 11:0.53547525 12:0.74821419 13:0.41804063 14:0.2979463 15:0.65079957 16:0.95315796 17:0.70344818 18:0.79434055 19:0.77229387 20:0.19830112 21:0.66040736 22:0.48345596 23:0.16459711 
1.309201526837022 1:0.38618064 2:0.40178803 3:0.37058452 4:0.36479145 5:0.33406898 6:0.61853766 7:0.68555397 8:0.36552131 9:0.68608582 10:0.26425087 11:0.73488432 12:0.53280288 13:0.22783634 14:0.92582005 15:0.40138289 16:0.20451598 17:0.513798 18:0.22344473 19:0.28608456 20:0.44512197 21:0.74906254 22:0.77676404 23:0.08952231 
1.696737693598411 1:0.48294729 2:0.40035436 3:0.32984072 4:0.44565991 5:0.52614093 6:0.4458847 7:0.9003576 8:0.62616611 9:0.33134258 10:0.68670976 11:7.4729069e-16 12:0.3630276 13:0.34024259 14:0.45671058 15:0.42287731 16:0.49654189 17:0.93592113 18:0.39076492 19:0.12986468 20:0.71198171 21:0.91576779 22:0.72419232 23:0.12164529 
4.179680004182612 1:0.51992577 2:0.61031169 3:0.26111677 4:0.41483775 5:0.38380381 6:0.53440189 7:0.34690228 8:0.55589932 9:0.71880859 10:0.53496867 11:0.52973092 12:0.523395 13:0.78074759 14:0.3152951 15:0.22984841 16:0.37834924 17:0.2096817 18:0.58513123 19:0.20523605 20:0.61319184 21:0.90595037 22:0.82736003 23:0.13156445 
2.747914269932446 1:0.4099091 2:0.47336057 3:0.50340205 4:0.19226895 5:0.64870411 6:0.56962562 7:0.46002325 8:0.37125194 9:0.59225678 10:1 11:0.7162658 12:0.59462559 13:0.56885201 14:0.36221471 15:0.52225626 16:0.6117 17:0.25747839 18:0.60911483 19:0.61553663 20:0.79384601 21:0.38428634 22:0.57422847 23:0.098994844 
6.689751965905486 1:0.37299749 2:0.4165346 3:0.60733241 4:0.31523335 5:0.32618245 6:0.60997826 7:0.54894799 8:0.50353968 9:0.55252826 10:0.62126017 11:0.49607962 12:0.28123337 13:0.58356941 14:0.21718001 15:0.64156878 16:0.67322671 17:0.53042138 18:0.18353949 19:0.73408121 20:0.2744571 21:0.47824639 22:0.92717415 23:0.22128867 
-4.576220179294184 1:0.3306841 2:0.56533259 3:0.37410167 4:0.34829518 5:0.2265953 6:0.45113051 7:0.53382307 8:0.55925429 9:0.36755469 10:0.61364317 11:0.49066466 12:0.60036504 13:0.42877933 14:0.18991363 15:0.7309525 16:0.35685825 17:0.48415816 18:0.3921915 19:0.31712323 20:0.59522432 21:0.44510448 22:0.54519534 23:0.7794072 
-3.552915721152809 1:0.69991785 2:0.016322577 3:0.49956837 4:0.51594561 5:0.54947644 6:0.6812163 7:0.28512421 8:0.30663723 9:0.67277688 10:0.39603016 11:0.37079152 12:0.4494611 13:0.034569778 14:0.31949005 15:0.42018399 16:0.79028481 17:0.372639 18:0.39601883 19:0.32600844 20:0.6903255 21:0.57535094 22:0.56065428 23:0.8269282 
-1.139081338993372 1:0.76572841 2:0.26187956 3:0.55551857 4:0.33963665 5:0.66061026 6:0.79027468 7:0.16729988 8:0.38481468 9:0.42492819 10:0.26505107 11:0.44993338 12:0.054130513 13:0.64776623 14:0.27040419 15:0.54783779 16:0.25417885 17:0.5382179 18:0.37576091 19:0.482068 20:0.72740072 21:0.59355295 22:0.45594671 23:0.88454652 
-5.980757019927059 1:0.37558219 2:0.23667881 3:0.5168578 4:0.46835104 5:0.52535218 6:0.63515127 7:0.50121039 8:0.25743908 9:0.58063745 10:0.58747154 11:0.40716383 12:0.61535531 13:0.52927184 14:0.54824239 15:0.34932503 16:0.8171612 17:0.43155426 18:0.33948463 19:0.69342107 20:0.6216628 21:0.77485639 22:0.24373683 23:0.69712287 
-2.769397225655707 1:0.33827141 2:0.47447446 3:0.38063011 4:0.47430605 5:0.23628256 6:0.64306879 7:0.46720454 8:0.41751868 9:0.45003 10:0.57114917 11:0.52599043 12:0.3927944 13:0.5905351 14:0.79373652 15:0.30125466 16:0.83349282 17:0.41107178 18:0.41155258 19:0.89503521 20:0.63114637 21:0.88352203 22:0.058078513 23:0.67842954 
-1.753046156034357 1:0.42588633 2:0.60625768 3:0.36928958 4:0.47360596 5:0.37432939 6:0.62405574 7:0.54957128 8:0.59583592 9:0.54401833 10:0.52872455 11:0.51938707 12:0.61475331 13:0.67426598 14:0.8817243 15:0.29409441 16:0.63480449 17:0.49183819 18:0.50496191 19:0.89772302 20:0.59493232 21:0.81458944 22:0.13495867 23:0.6723718 
-2.307679662967214 1:0.067087613 2:0.46330985 3:0.58961344 4:0.29325941 5:0.56687719 6:0.70177072 7:0.44579417 8:0.089235492 9:0.54676908 10:0.37150428 11:0.37025696 12:0.31229261 13:1 14:0.78985029 15:0.70867169 16:0.43794525 17:0.5344125 18:0.66016918 19:0.18888091 20:0.43402183 21:0.31988442 22:0.73761034 23:0.86570805 
-3.446627263742301 1:0.28372097 2:0.66115206 3:0.39984736 4:0.11663783 5:0.62844729 6:0.24706955 7:0.47789222 8:0.40815923 9:0.67047077 10:0.44055331 11:0.14951961 12:0.61497509 13:0.75355792 14:0.70593017 15:0.62128472 16:0.45189527 17:0.52115196 18:0.56793183 19:0.38125569 20:0.41836688 21:0.345925 22:0.92078972 23:0.85670269 
-0.4456134673193005 1:0.33692709 2:0.22589622 3:0.47927502 4:0.5493201 5:0.45337927 6:0.83012897 7:0.53098422 8:0.25134432 9:0.65190053 10:0.51132822 11:0.2279034 12:0.57434279 13:0.85092676 14:0.65912974 15:0.4822619 16:0.56703842 17:0.50647295 18:0.63538492 19:0.32073918 20:0.43129018 21:0.37442663 22:0.99060029 23:0.88765293 
-0.04852589250986374 1:0.32674944 2:0.037120037 3:0.30043077 4:0.71934777 5:0.86000329 6:0.43391582 7:0.48135895 8:0.44321695 9:0.702959 10:0.53416204 11:0.13752188 12:0.5897066 13:0.55557948 14:0.69455355 15:0.41178063 16:0.73955768 17:0.43700835 18:0.61068302 19:0.33293536 20:0.48197585 21:0.37942752 22:0.94352543 23:0.90203482 
-0.4294653866302759 1:0.5176999 2:0.45443863 3:0.37304348 4:0.3062456 5:0.3109124 6:0.22311573 7:0.62139112 8:0.46215776 9:0.12582976 10:0.42623127 11:0.67499447 12:0.062636852 13:0.47465628 14:0.928882 15:0.39653045 16:0.95176208 17:0.53650963 18:0.63939923 19:0.24085175 20:0.37411439 21:0.37364939 22:0.93204832 23:0.95989853 
-0.896609997957041 1:0.54221451 2:0.30185038 3:0.24401939 4:0.66610849 5:0.24509211 6:0.66143394 7:0.57831103 8:0.30264655 9:0.54118794 10:0.60217357 11:0.48004314 12:0.56402689 13:0.73629028 14:0.81890249 15:0.37849832 16:0.63636923 17:0.49782997 18:0.6875751 19:0.44143701 20:0.41794068 21:0.37097517 22:0.9152751 23:0.87993091 
-5.583806449535613 1:0.24719058 2:0.97714746 3:0.55521828 4:0.20031513 5:0.63756639 6:0.46530476 7:0.86564273 8:1 9:0.55823642 10:0.65710354 11:0.91944027 12:1 13:0.52509433 14:0.22659107 15:0.57633406 16:0.50769228 17:0.68368363 18:0.43960518 19:0.44433621 20:0.48224553 21:0.67361194 22:0.73611993 23:0.60199314 
