svm_type c_svc
kernel_type rbf
gamma 0.09
nr_class 2
total_sv 24
rho 1.40694
label 130750101 130750102
probA -3.61794
probB 0.481287
nr_sv 6 18
SV
6.321310786587188 1:0.45618051 2:0.4763644 3:0.52326185 4:0.49913979 5:0.43546653 6:0.52080941 7:0.47252184 8:0.56032604 9:0.56846184 10:0.46388507 11:0.64980423 12:0.39180091 13:0.44114524 14:0.53590685 15:0.3576903 16:0.43547729 17:0.58021694 18:0.80080152 19:0.54386139 20:1 21:0.41573143 
10 1:0.45618051 2:0.4763644 3:0.52326185 4:0.49913979 5:0.43546653 6:0.52080941 7:0.47252184 8:0.56032604 9:0.56846184 10:0.46388507 11:0.64980423 12:0.39180091 13:0.44114524 14:0.53590685 15:0.3576903 16:0.43547729 17:0.58021694 18:0.80080152 19:0.54386139 20:1 21:0.41573143 
2.952377371412863 1:0.48022971 2:0.43401423 3:0.57544976 4:0.37868828 5:0.44977787 6:0.39937389 7:0.55348736 8:0.45995077 9:0.5718224 10:0.30910566 11:0.43035308 12:0.58247596 13:0.48019636 14:0.31051266 15:0.74609947 16:0.64194381 17:0.41061476 18:0 19:1 20:0.87559074 21:0.65256023 
9.880766186779223 1:0.48022971 2:0.43401423 3:0.57544976 4:0.37868828 5:0.44977787 6:0.39937389 7:0.55348736 8:0.45995077 9:0.5718224 10:0.30910566 11:0.43035308 12:0.58247596 13:0.48019636 14:0.31051266 15:0.74609947 16:0.64194381 17:0.41061476 18:0 19:1 20:0.87559074 21:0.65256023 
8.914108587582689 1:0.44749847 2:0.51698041 3:0.55186313 4:0.47094089 5:0.45032531 6:0.54052603 7:0.52921778 8:0.59746075 9:0.55933648 10:0.46924388 11:0.60068542 12:0.42255235 13:0.457306 14:0.41063052 15:0.484236 16:0.39380306 17:0.38537726 18:0.53645605 19:0.59936589 20:0 21:1.4936899e-16 
10 1:0.44749847 2:0.51698041 3:0.55186313 4:0.47094089 5:0.45032531 6:0.54052603 7:0.52921778 8:0.59746075 9:0.55933648 10:0.46924388 11:0.60068542 12:0.42255235 13:0.457306 14:0.41063052 15:0.484236 16:0.39380306 17:0.38537726 18:0.53645605 19:0.59936589 20:0 21:1.4936899e-16 
-5.121416686750523 1:0.86179471 2:0.88858467 3:0.80368972 4:0.26371223 5:0.60036731 6:0.27741066 7:0.67783225 8:0.60094732 9:0.45429897 10:0.37602416 11:0.4697628 12:0.80812573 13:0.46783265 14:0.37381539 15:0.61797559 16:0.25632608 17:0.25691235 18:0.59536183 19:0.2336129 20:0.65868759 21:0.59689128 
-2.77916283459367 1:0.29836702 2:0.0083720973 3:7.9975395e-16 4:0.24016966 5:0.41095844 6:0.21039295 7:0.26622081 8:0.3374159 9:0.44226575 10:0.39012864 11:0.809708 12:0.57502872 13:0.67271674 14:0.14618511 15:0.84292531 16:0.37895057 17:0.26664549 18:0.59234458 19:0.22060376 20:0.5577929 21:0.45194864 
-3.247445723735534 1:0.33286974 2:0.69049728 3:0.52746254 4:0.65299791 5:0.4683983 6:0.61056465 7:0.61624652 8:0.3558791 9:0.64768058 10:0.32010511 11:0.3832573 12:1 13:0.29737189 14:0.53993392 15:0.56834757 16:0.21118408 17:0.25243512 18:0.59728652 19:0.37438414 20:0.53968835 21:0.68629247 
-0.6751287650468527 1:0.82730937 2:1 3:0.29532483 4:0.53362703 5:0.53356898 6:0.49290749 7:0.66121113 8:0.41420713 9:0.55093229 10:0.41317841 11:0.55334705 12:0.27057698 13:0.050624538 14:0.2100646 15:0.33775696 16:0.52155071 17:0.4150663 18:0.22012018 19:0.15132101 20:0.58668929 21:0.51992464 
-4.590137296292135 1:0.046348963 2:1.9059039e-16 3:0.57760262 4:0.20096761 5:0 6:0.44143558 7:0.47145078 8:0.50396466 9:0.4781422 10:0.55697203 11:0.24663293 12:0.12583189 13:0.046315446 14:0.34451869 15:0.4801105 16:0.42591909 17:0.30303362 18:0.13177784 19:0.23546447 20:0.64473408 21:0.4855029 
-7.181634651017499 1:0.53611624 2:0.36753964 3:0.53600091 4:0.84918034 5:0.52500713 6:0.69389802 7:0.71576118 8:0.54157734 9:0.52487385 10:0.51451904 11:0.64735955 12:0.4511998 13:0.18739277 14:0.28714207 15:0.59824967 16:0.42258224 17:0.43333918 18:0.18535364 19:0.16614231 20:0.65175372 21:0.53825957 
-2.108537679037509 1:0.79277086 2:0.54357195 3:0.75941217 4:0.10295434 5:0.29355621 6:0.41484275 7:0.60053527 8:0.43837506 9:0.72697574 10:0.27319217 11:0.27136877 12:0.49159715 13:0.71015066 14:0.45605072 15:0.01351626 16:0.58763343 17:0.57619113 18:0.6861279 19:0.46522123 20:0.19688998 21:0.68307537 
-1.150861592049536 1:0.044408072 2:0.45960394 3:0.60428005 4:0.61800224 5:0.31138349 6:0.21658111 7:0.6830734 8:0.18413484 9:0.67286861 10:0.49389443 11:0.55151069 12:0.59929192 13:1 14:0.64359736 15:0.46976626 16:0.66238844 17:0.37110528 18:0.76581687 19:0.45758668 20:0.24016584 21:0.69285375 
-2.644754961607869 1:0.46147698 2:0.42558989 3:0.61877888 4:0.53385121 5:0.59852409 6:0.82666147 7:0.50043547 8:0.49241394 9:0.28665552 10:0.67170429 11:0.37599421 12:0.30831048 13:0.40257663 14:0.95092148 15:0.98434079 16:0.6201905 17:1 18:0.33204624 19:0.38136336 20:0.14292583 21:0.63036478 
-2.116517791272225 1:0.91568011 2:0.71676975 3:0.2471447 4:0.71780676 5:0.59461784 6:0.46516773 7:0.3742035 8:0.8283534 9:1 10:0.4342981 11:0.58803427 12:0.56019467 13:0.55681217 14:0.62676549 15:0.43509284 16:0.40366498 17:0.61037868 18:0.23261206 19:0.58011931 20:0.25898698 21:0.8092382 
-6.477133239442846 1:0.29270723 2:0.41104868 3:0.55668795 4:0.34090132 5:0.32888743 6:0.37673032 7:0.25082505 8:0.29568133 9:0.70250082 10:0.26365131 11:0.65877259 12:0.42407194 13:0.74668211 14:0.55414706 15:0.14799014 16:0.65694445 17:0.48749423 18:0.67543477 19:0.48946679 20:0.10093334 21:0.66138846 
-0.9299523613656594 1:0.34340104 2:0.64168507 3:0.63455588 4:0.71114653 5:0.26444453 6:0.3538976 7:0.69268137 8:0.41018769 9:0.67718589 10:0.3489733 11:0.60108608 12:0.23077497 13:0.35292545 14:5.7646765e-16 15:0.48384729 16:0.4032155 17:0.55346036 18:0.61670113 19:0.59779096 20:0.22360311 21:0.85687381 
-0.2390310185571475 1:0.47715849 2:0.23078045 3:0.76853788 4:0.81369096 5:0.42335716 6:0.39624098 7:0.59264827 8:0.56018358 9:0.87706149 10:0.96786934 11:0.54751724 12:0.33497167 13:0.66693872 14:0.12655875 15:0.6209833 16:0.37027791 17:0.61997312 18:0.70898205 19:0.5514918 20:0.31773669 21:0.88013434 
-4.141829554242331 1:0.66995245 2:0.43699643 3:0.54742569 4:0.24444264 5:0.32216004 6:0.46561697 7:0.27386254 8:0.811571 9:0.46158949 10:0.49913776 11:0.96866554 12:0.31961033 13:0.4193998 14:0.31633765 15:0.83303416 16:0.47121724 17:0.27777395 18:0.43970901 19:0.54342312 20:0.392712 21:0.8024053 
-0.7468589764173771 1:0.3539888 2:0.58510971 3:0.47421974 4:0.22163074 5:0.74863023 6:0.46204466 7:0.82234055 8:0.54022169 9:0.71851116 10:0.38891381 11:0.92724824 12:0.20071536 13:0.62184805 14:0.75660455 15:0.52008396 16:0.33103511 17:0.20393166 18:0.36283898 19:0.5425868 20:0.37750518 21:0.76723063 
-1.634158210703721 1:0.52759564 2:0.36971191 3:0.55530775 4:0.34396219 5:0.069975547 6:0.78592271 7:0.76849806 8:0.50117493 9:0.68235135 10:0.1478785 11:1 12:0.11275087 13:0.71620792 14:0.41255882 15:0.41063949 16:0.071547523 17:0.76951635 18:0.13136704 19:0.48519138 20:0.45155868 21:0.66255665 
-1.720205386102506 1:0.042158872 2:0.66187912 3:0.57876712 4:0.13761501 5:1 6:0.53130543 7:0.65120721 8:0.92246866 9:0.99650472 10:0.18781255 11:0.70551151 12:0.53267378 13:0.59222579 14:0.48405951 15:0.43577927 16:0.49583477 17:0.53076929 18:0.43975112 19:0.40678522 20:0.46291625 21:0.76018417 
-0.5637962041270235 1:0.53304344 2:0.36279738 3:0.50322372 4:0.33428648 5:0.79469264 6:0.71975172 7:0.79954666 8:0.30549145 9:0.4679217 10:0.22502095 11:0.50467378 12:0.34404632 13:0.69273067 14:0.48240238 15:0.44643602 16:0.22631042 17:0.40075263 18:0.59102273 19:0.56087959 20:0.40635061 21:0.84448326 
