svm_type c_svc
kernel_type rbf
gamma 0.09
nr_class 42
total_sv 3238
rho 0.104774 0.364706 0.237266 0.0195475 0.148214 -0.203188 -0.218022 -0.0111441 -0.575822 -0.370594 -0.400331 -0.437037 -0.528499 -0.193349 -0.212335 -0.182275 -0.575862 -0.288974 -0.13304 -0.644651 -0.466489 -0.0798799 0.0289388 0.0218642 0.158847 -0.410858 -0.355452 -0.252102 -0.258938 -0.0719609 -0.391521 -0.0485295 -0.358764 -0.0124207 -0.375394 -0.318257 -0.285965 -0.341554 -0.194782 -0.00459523 -0.0818481 0.579192 0.413796 -0.105318 0.173012 0.0372363 0.0814647 -0.044789 -0.52867 -0.445074 -0.383618 -0.308239 -0.489501 -0.13288 -0.117217 -0.181927 -0.389673 -0.381476 -0.187851 -0.726507 -0.494411 0.162405 0.197178 0.032395 0.15235 -0.337522 -0.349016 -0.228591 -0.247037 -0.0674775 -0.0879579 -0.0206004 -0.313216 0.118746 -0.277592 -0.253653 -0.345833 -0.321937 -0.274162 0.0719975 -0.140417 -0.210479 -0.581092 -0.163408 -0.420774 -0.423185 -0.307017 -0.952513 -1.03173 -0.821823 -0.728153 -0.778327 -0.307363 -0.73543 -0.414087 -0.783849 -0.763825 -0.730754 -1.07328 -0.827568 -0.356341 -0.0666479 -0.445904 -0.0400926 -1.01722 -0.709219 -0.513913 -0.426117 -0.815558 -0.634825 -0.506919 -0.696827 -0.563245 -0.971406 -0.819837 -1.01082 -1.07103 -0.499693 -0.629417 -1.00163 -0.388371 -0.264623 -0.499859 -0.308352 -0.321584 -0.877656 -0.708027 -0.632234 -0.724998 -0.937785 -0.541512 -0.540601 -0.476926 -0.6943 -0.611219 -0.567733 -0.815215 -0.758177 -0.268256 -0.0852789 -0.492057 -0.0937622 -0.665649 -0.613859 -0.511251 -0.52292 -0.422278 -0.56074 -0.415965 -0.704787 -0.267962 -0.799995 -0.66479 -0.838578 -0.675492 -0.566228 -0.769002 -0.554453 0.303499 -0.0628696 0.134559 0.109296 -0.453349 -0.318604 -0.295373 -0.315913 -0.470842 -0.148878 -0.155164 -0.160339 -0.546678 -0.377329 -0.306053 -0.558829 -0.511477 0.0460234 0.140342 0.111796 0.194613 -0.265719 -0.179868 -0.173052 -0.224593 -0.0856729 -0.286977 -0.00877686 -0.4095 0.274849 -0.454545 -0.299135 -0.0694577 -0.465752 -0.261454 0.0880432 -0.0152225 -0.398871 -0.0800959 -0.271009 -0.735864 -0.629573 -0.550053 -0.535332 -0.851918 -0.424101 -0.578717 -0.444055 -0.525926 -0.762223 -0.497331 -0.560547 -0.709644 -0.161904 -0.0789618 0.0283534 0.14337 -0.586442 -0.530308 -0.354176 -0.405278 0.00180785 -0.18551 -0.300224 -0.557669 0.0873113 -0.764999 -0.294982 -0.495074 -0.939246 -0.649424 -0.144085 -0.379505 0.582035 0.00877977 -0.503505 -0.330008 -0.253072 -0.274713 -0.365339 -0.0318845 -0.0614539 -0.322052 -0.32405 -0.262036 -0.134294 -0.459432 -0.297933 0.159421 0.147493 -0.0836769 0.139079 -0.297454 -0.198618 -0.169259 -0.188974 -0.00432306 -0.153455 0.0252779 -0.276016 0.3717 -0.241649 0.039955 0.010493 -0.244508 -0.17576 0.12252 0.0104154 -0.0363792 -0.612615 -0.38649 -0.444266 -0.434451 -0.491306 -0.300656 -0.289019 -0.361036 -0.389748 -0.386288 -0.29449 -0.530737 -0.6116 -0.0393369 0.0997957 -0.204161 0.0342793 -0.403344 -0.374723 -0.319919 -0.337542 -0.0318701 -0.130979 -0.129579 -0.625916 0.0691567 -0.441384 -0.307017 -0.317733 -0.453274 -0.49873 -0.0153346 -0.118488 -0.476029 -0.30633 -0.240379 -0.396636 -0.228893 -0.138643 -0.0363295 -0.160286 -0.315998 -0.256503 -0.0655911 -0.388547 -0.337875 0.0650832 0.185163 -0.0644001 0.162824 -0.168092 -0.362007 -0.189481 -0.233772 0.088222 -0.0123856 -0.15287 -0.30741 0.172516 -0.321067 -0.104037 -0.153866 -0.165415 -0.176968 -0.00617062 0.00236433 0.184945 0.191714 0.163265 0.101775 0.256342 0.334979 0.32335 0.0498596 0.115473 0.234929 -0.0100143 0.0397664 0.464172 0.553267 0.546528 0.527245 0.144857 0.154877 0.169191 0.149179 0.617555 0.613813 0.541101 0.0823155 0.767978 0.099931 0.491462 0.649329 0.310606 0.22466 0.52875 0.537142 0.248148 0.0829348 -0.111403 0.190788 0.233263 0.108973 -0.13381 -0.0465468 0.148309 -0.258492 -0.0973242 0.403942 0.598069 0.322866 0.362311 -0.0708643 0.0179257 0.200284 0.0649346 0.340989 0.274155 0.420749 0.0268073 0.663775 -0.0141009 0.286918 0.226712 0.0234385 0.0813878 0.360488 0.272258 -0.00693663 -0.122063 0.168813 0.102136 -0.00555725 -0.17119 -0.0816998 0.123992 -0.211133 -0.139563 0.189352 0.520423 0.305694 0.439527 0.00316941 0.0699131 0.0642755 0.0624426 0.402861 0.192464 0.348795 -0.0699942 0.609235 -0.120689 0.191639 0.209105 -0.100687 0.0932002 0.399874 0.281481 -0.205401 0.167801 0.17996 0.168137 -0.123665 -0.0316149 0.0439362 -0.239719 -0.163606 0.255182 0.431742 0.311133 0.431245 -0.0689161 0.0399031 0.00348372 0.0922849 0.306184 0.0679052 0.345412 -0.144642 0.787081 -0.175307 0.229127 0.296314 -0.0160884 -0.000381081 0.352792 0.235272 0.154403 0.255454 0.235045 -0.0702221 0.0193671 0.255616 -0.110652 -0.0857642 0.436332 0.506778 0.472796 0.533548 0.0333772 0.108182 0.0979858 0.185588 0.326714 0.194525 0.400468 -0.0471528 0.809187 0.121595 0.389208 0.340652 0.148368 0.147395 0.566978 0.410147 -0.0456799 0.094932 -0.141694 -0.175623 -0.00862046 -0.314728 -0.253396 0.246917 0.291443 0.154668 0.298531 -0.175889 0.000183291 -0.0285029 0.0678898 0.167262 0.00161759 0.0908389 -0.274846 0.463817 -0.190636 0.0457142 -0.107079 -0.114584 -0.0621414 0.162608 -0.00687587 -0.0854703 -0.173675 -0.162276 -0.0361601 -0.272978 -0.114495 0.201386 0.309621 0.166157 0.259056 -0.142915 -0.0382126 -0.0364079 -0.055699 0.143457 0.0867924 0.253038 -0.174476 0.291385 -0.319148 -0.0632221 -0.0194664 0.0500454 -0.00505873 0.39435 0.309475 -0.13322 -0.152966 -0.0337949 -0.230208 -0.253811 0.131426 0.218778 0.109071 0.217929 -0.246903 -0.0880769 -0.100723 -0.0833391 0.131983 0.0880601 0.229982 -0.282406 0.40108 -0.168191 0.024982 0.0768141 0.0339124 -0.128552 0.275366 0.0604293 0.134903 0.156912 -0.0355808 -0.0222174 0.43648 0.432622 0.519409 0.420372 0.125967 0.253246 0.200479 0.117034 0.445559 0.279348 0.391194 0.0939323 0.653359 0.0785133 0.414366 0.282068 0.344996 0.163612 0.420051 0.343596 0.135141 -0.0712229 -0.0384967 0.315096 0.407286 0.267336 0.370497 -0.0581091 0.0334874 0.0821366 0.0593821 0.325371 0.230932 0.258589 -0.099138 0.714113 -0.0189989 0.1606 0.178299 0.0950073 0.13473 0.494155 0.260262 -0.353443 -0.262787 0.261823 0.294033 0.294079 0.323982 -0.161036 -0.102631 -0.0718333 -0.0638629 0.321741 0.171974 0.239956 -0.127284 0.489891 -0.247539 0.146442 0.0586675 -0.0639875 0.0589709 0.217156 0.28769 0.0567823 0.503572 0.485414 0.560735 0.472603 0.240759 0.211928 0.122063 0.175726 0.462888 0.455372 0.514148 0.125013 0.731608 0.0566024 0.370489 0.413257 0.327724 0.217193 0.628519 0.334399 0.367191 0.380546 0.43067 0.495161 0.0262323 0.159987 0.055908 0.165622 0.340936 0.306722 0.334454 0.0727453 0.715323 -0.00520837 0.318242 0.371676 0.245645 0.23273 0.664687 0.437656 0.403452 0.0381389 0.0927848 -0.336585 -0.295056 -0.226141 -0.247935 -0.0399774 0.00020798 -0.0547136 -0.361027 0.175021 -0.339229 -0.162012 -0.185226 -0.491641 -0.266041 -0.0488196 -0.173306 -0.0349431 0.0162549 -0.482107 -0.382242 -0.389639 -0.351308 -0.0124771 -0.0983098 -0.214827 -0.386333 -0.0520891 -0.396768 -0.362433 -0.336984 -0.526224 -0.326688 -0.17167 -0.225948 0.511965 -0.373186 -0.282243 -0.308703 -0.305579 -0.0854971 -0.2104 -0.16251 -0.184276 0.208031 -0.409549 -0.113128 -0.140091 -0.274823 -0.298802 -0.0793857 -0.135067 -0.337191 -0.40387 -0.319811 -0.36543 -0.0879309 -0.11193 -0.179599 -0.364548 0.0106538 -0.4195 -0.164608 -0.435148 -0.327175 -0.246323 -0.191528 -0.126121 -0.00724053 0.0287919 0.13966 0.192726 0.276388 0.372138 -0.025216 0.586027 0.000182976 0.310858 0.391957 0.0895049 0.14715 0.32713 0.362899 0.0499509 0.0752974 0.389621 0.114771 0.361114 -0.020615 0.703278 -0.155536 0.403552 0.188047 0.192328 0.01793 0.409014 0.261881 0.0250199 0.204683 0.114904 0.31252 -0.0462435 0.439639 -0.137098 0.194027 0.0820075 0.0832176 -0.000217678 0.205929 0.188326 0.122833 0.0435999 0.222565 -0.064276 0.415695 -0.121999 0.0545978 0.0679235 -0.00842783 -0.0417284 0.250175 0.186821 -0.162137 -0.0663228 -0.236529 0.0453686 -0.415736 -0.225927 -0.356643 -0.248069 -0.400552 0.257417 -0.114371 0.236218 -0.365231 0.461901 -0.178571 -0.20685 -0.0974395 -0.059488 -0.0716827 0.145964 0.458896 -0.469717 0.229477 -0.348795 -0.19732 -0.187917 -0.284915 -0.448163 0.162037 -0.155659 0.53127 0.00432748 0.246502 0.227382 0.234142 0.0576115 0.5068 0.340774 -0.612743 -0.543288 -0.615867 -0.739193 -0.396433 -0.144573 -0.405235 0.26406 0.246187 0.274002 0.100178 0.472705 0.396381 -0.053114 -0.205688 -0.120784 0.297637 0.437392 -0.192399 -0.0937517 0.459513 0.0666229 -0.0659961 0.446762 0.316566 0.260574 0.250351 0.128037
label 2001 2001657 2004 2004657 20101 20102 2010657 2010658 2011 2011657 20121 20122 2012657 2012658 2021 2021657 20221 20222 20223 2022657 2022658 2022659 20231 20232 2023657 2023658 2024 2024657 2025 2025657 2031 2031657 20411 20412 2041657 2041658 2051 2051657 2060 2060657 2061 2061657
probA -4.83138 -5.39086 -4.85001 -4.41331 -4.41674 -4.46542 -4.5592 -4.55786 -4.92763 -4.64655 -4.45128 -4.61377 -4.41372 -4.68308 -4.5729 -4.44477 -4.41641 -4.60179 -4.29779 -4.51589 -4.55402 -4.68585 -4.8458 -4.73684 -4.83512 -4.67821 -4.55205 -4.7897 -4.63336 -4.9649 -4.92291 -5.00644 -4.57555 -4.9279 -4.57691 -5.00872 -5.03409 -4.72928 -4.32502 -4.60649 -4.70526 -5.29545 -4.83941 -4.48588 -4.50103 -4.52659 -4.52124 -4.66327 -4.84469 -4.61109 -4.50094 -4.62244 -4.50455 -4.57086 -4.63251 -4.27161 -4.56254 -4.53848 -4.40781 -4.39549 -4.53582 -4.7164 -4.83634 -4.70949 -4.877 -4.61989 -4.60892 -4.63098 -4.71987 -5.00387 -4.98364 -4.89346 -4.54822 -4.96519 -4.6009 -5.02962 -4.9323 -4.68779 -4.39886 -4.62872 -4.65762 -4.66227 -4.91762 -4.84803 -5.06096 -4.863 -4.86692 -5.42985 -4.97653 -4.85201 -5.12322 -5.00961 -4.93893 -5.01728 -4.77145 -5.11468 -4.94433 -4.91732 -4.95723 -5.14104 -4.95704 -5.24914 -5.23716 -5.37923 -4.9054 -5.0144 -5.28712 -5.2862 -5.42063 -5.40554 -5.27105 -4.83886 -5.31144 -4.91474 -5.54267 -5.44429 -5.22955 -4.83511 -5.25978 -5.10419 -4.49911 -4.3897 -4.4571 -4.46975 -4.37045 -4.81039 -4.58988 -4.44224 -4.54994 -4.40515 -4.53037 -4.33053 -4.4267 -4.39684 -4.61697 -4.14392 -4.49742 -4.47464 -4.71174 -4.83472 -4.39218 -4.61017 -4.58376 -4.51344 -4.70738 -4.60213 -4.93366 -4.87754 -4.84153 -4.45624 -4.95143 -4.4535 -5.04279 -4.94057 -4.80809 -4.28588 -4.53316 -4.5417 -4.08477 -4.26075 -4.05272 -4.02588 -4.6358 -4.1486 -4.05555 -4.19068 -4.01314 -4.21641 -4.14126 -4.10008 -4.23421 -4.19549 -3.91387 -4.15229 -4.18736 -4.36769 -4.32521 -4.31645 -4.44869 -4.19449 -4.25419 -4.36114 -4.1914 -4.69241 -4.44984 -4.51309 -4.15484 -4.55983 -4.19176 -4.61947 -4.70084 -4.46508 -4.05144 -4.34815 -4.34382 -4.21844 -4.17172 -4.07769 -4.48825 -4.11742 -3.96577 -4.17509 -3.88767 -4.2814 -4.1946 -3.95564 -4.2155 -4.13108 -3.9226 -4.16963 -4.09981 -4.29755 -4.42399 -4.25698 -4.4522 -4.24987 -4.18124 -4.36641 -4.37685 -4.62878 -4.47251 -4.55846 -4.14065 -4.50858 -4.12604 -4.67987 -4.56197 -4.1729 -4.03645 -4.05446 -4.2586 -4.03937 -4.20749 -4.57421 -4.31129 -4.03118 -4.34663 -4.18429 -4.30923 -4.19092 -4.04851 -4.2779 -4.27006 -4.17169 -4.25494 -4.28777 -4.4049 -4.53271 -4.30936 -4.49861 -4.27685 -4.28987 -4.30125 -4.48102 -4.57432 -4.67167 -4.51439 -4.09682 -4.61534 -4.2435 -4.83628 -4.70822 -4.55259 -3.97344 -4.20535 -4.41897 -4.18706 -4.45986 -4.2933 -4.0692 -4.15361 -4.01004 -4.14701 -4.25161 -4.02178 -4.17229 -4.22224 -4.12712 -4.21521 -4.18557 -4.31807 -4.43233 -4.39581 -4.43285 -4.19713 -4.17544 -4.38904 -4.32732 -4.53945 -4.70017 -4.30405 -4.10234 -4.48449 -4.1508 -4.68641 -4.64737 -4.51108 -3.82491 -4.22643 -4.39905 -4.5252 -4.27034 -4.0722 -4.2381 -3.93921 -4.27035 -4.158 -4.10257 -4.22997 -4.17404 -4.00843 -4.20287 -4.25808 -4.22584 -4.4221 -4.22113 -4.33711 -4.22522 -4.28485 -4.33097 -4.3788 -4.59854 -4.533 -4.4868 -4.09652 -4.51037 -4.08759 -4.63498 -4.66739 -4.52534 -4.07353 -4.22224 -4.37501 -4.50874 -4.41699 -4.59739 -4.36042 -4.56854 -4.46761 -4.23962 -4.47874 -4.55473 -4.32535 -4.51535 -4.43635 -4.617 -4.66196 -4.52441 -4.67239 -4.43162 -4.58596 -4.66539 -4.60333 -4.91538 -4.80975 -4.84813 -4.44849 -5.02021 -4.52797 -4.87669 -4.87993 -4.83654 -4.38927 -4.64992 -4.69676 -3.69878 -4.27247 -4.11401 -4.28604 -4.32071 -4.0133 -4.3088 -4.21944 -4.10841 -4.37666 -4.30803 -4.26844 -4.44456 -4.45426 -4.49176 -4.11052 -4.3519 -4.40879 -4.43457 -4.70053 -4.71462 -4.51501 -4.12442 -4.6881 -4.22789 -4.76735 -4.55756 -4.5594 -4.14918 -4.36954 -4.49484 -4.03009 -3.88257 -4.16219 -4.13737 -3.97897 -4.11292 -3.93884 -3.92852 -4.16021 -4.24099 -4.04283 -4.3686 -4.20068 -4.30797 -4.00207 -4.10274 -4.23778 -4.14516 -4.50922 -4.52829 -4.38706 -3.88263 -4.45675 -3.96135 -4.5415 -4.44186 -4.35859 -3.99618 -4.15203 -4.26993 -3.83885 -4.33106 -4.2675 -4.12854 -4.25606 -4.33389 -4.06954 -4.29943 -4.326 -4.35774 -4.53113 -4.29807 -4.38145 -4.32462 -4.13906 -4.34759 -4.3978 -4.74297 -4.62166 -4.64506 -4.0879 -4.61581 -4.27773 -4.5823 -4.72867 -4.53867 -4.11904 -4.38657 -4.50062 -3.98635 -4.14898 -3.95885 -4.11778 -4.20933 -3.89528 -4.11542 -4.08318 -4.1963 -4.2968 -4.10385 -4.27344 -4.12661 -4.12639 -4.19303 -4.13579 -4.53093 -4.47176 -4.47047 -3.9247 -4.51006 -3.97858 -4.47925 -4.56886 -4.39718 -3.94416 -4.18875 -4.33806 -4.23981 -3.97905 -4.18393 -4.16194 -4.05312 -4.30033 -4.25323 -4.31149 -4.45107 -4.41775 -4.41205 -4.15075 -4.37189 -4.30893 -4.37098 -4.53715 -4.72252 -4.52077 -4.08975 -4.70794 -4.26533 -4.77652 -4.73506 -4.54841 -4.1695 -4.14829 -4.49415 -4.16499 -4.32094 -4.29099 -4.00148 -4.26731 -4.14016 -4.35844 -4.47169 -4.24415 -4.43162 -4.42799 -4.22759 -4.42361 -4.35131 -4.68347 -4.47171 -4.64876 -4.19105 -4.55553 -4.19078 -4.69623 -4.74633 -4.52886 -4.15947 -4.24295 -4.3542 -4.09475 -3.95227 -3.86331 -4.02684 -4.10778 -4.05777 -4.33126 -4.22042 -4.30149 -4.00788 -4.11408 -4.15181 -4.22229 -4.43739 -4.5271 -4.33473 -3.94672 -4.48969 -4.11564 -4.53214 -4.515 -4.28485 -3.84798 -4.04637 -4.23561 -4.27337 -3.97123 -4.25395 -4.22893 -4.44578 -4.51238 -4.26193 -4.41412 -4.27373 -4.25991 -4.37452 -4.32627 -4.6039 -4.6354 -4.60558 -4.21102 -4.73215 -4.20235 -4.72703 -4.80209 -4.56119 -4.05326 -4.31028 -4.41835 -4.05368 -4.28136 -4.3304 -4.277 -4.34313 -4.30139 -4.4062 -4.29058 -4.29123 -4.36604 -4.38077 -4.63865 -4.63014 -4.49948 -4.12043 -4.62723 -4.27792 -4.7051 -4.63349 -4.46738 -4.12777 -4.34937 -4.41569 -4.04175 -3.94931 -4.17664 -4.30409 -4.12919 -4.29603 -4.11633 -4.00866 -4.17219 -4.19759 -4.56337 -4.36472 -4.35207 -4.07093 -4.46792 -4.12274 -4.53014 -4.55951 -4.12278 -3.87819 -4.08964 -4.10407 -4.22481 -4.33412 -4.4236 -4.39977 -4.38888 -4.23963 -4.14424 -4.31733 -4.35381 -4.59966 -4.56249 -4.69046 -4.15862 -4.67816 -4.25567 -4.8383 -4.72201 -4.48806 -4.09061 -4.18323 -4.37041 -4.33234 -4.42022 -4.29751 -4.41028 -4.31578 -4.2898 -4.39528 -4.39893 -4.70296 -4.63907 -4.62508 -4.27673 -4.59755 -4.164 -4.66284 -4.59961 -4.52435 -4.03482 -4.24375 -4.38531 -4.25476 -4.49543 -4.52371 -4.41304 -4.36262 -4.28967 -4.48927 -4.62704 -4.70144 -4.63331 -4.14894 -4.73739 -4.3447 -4.81483 -4.81428 -4.52899 -4.2614 -4.35688 -4.46691 -4.58778 -4.64336 -4.4774 -4.57009 -4.56812 -4.4928 -4.8566 -4.82283 -4.83966 -4.37073 -4.88769 -4.41459 -4.94609 -4.90702 -4.72614 -4.36898 -4.60524 -4.67579 -4.2604 -4.4085 -4.38781 -4.4435 -4.35662 -4.75627 -4.65765 -4.73473 -4.23287 -4.78278 -4.20716 -4.84111 -4.83378 -4.7068 -4.11674 -4.43709 -4.40737 -4.47419 -4.48739 -4.45072 -4.50198 -4.81402 -4.82601 -4.82601 -4.35635 -4.88975 -4.41259 -4.85048 -4.86918 -4.82837 -4.19617 -4.58119 -4.62924 -4.27257 -4.40622 -4.35636 -4.70199 -4.71049 -4.51701 -4.1476 -4.68803 -4.18647 -4.72781 -4.62793 -4.54131 -4.09534 -4.17575 -4.44854 -4.21252 -4.35767 -4.70448 -4.68797 -4.6095 -4.20322 -4.57753 -4.25235 -4.56731 -4.664 -4.5043 -4.15864 -4.30102 -4.35015 -4.3466 -4.74996 -4.78078 -4.77372 -4.25903 -4.85118 -4.28005 -4.83316 -4.77214 -4.669 -4.23869 -4.56626 -4.57812 -4.77047 -4.75239 -4.66612 -4.31351 -4.91583 -4.24499 -4.8552 -4.80678 -4.74073 -4.2202 -4.44635 -4.62808 -5.02406 -5.04602 -4.62554 -5.0209 -4.54848 -5.21808 -5.06205 -4.96663 -4.52004 -4.71725 -4.86109 -4.96536 -4.60222 -5.04399 -4.6523 -5.11116 -5.14592 -4.93865 -4.55945 -4.62893 -4.64552 -4.47722 -4.49423 -4.54316 -4.9777 -5.01523 -4.91867 -4.21892 -4.50583 -4.65111 -4.52931 -4.0857 -4.69121 -4.64656 -4.45012 -3.9657 -4.14771 -4.33307 -4.67071 -5.02027 -5.05598 -4.83695 -4.52175 -4.62477 -4.71149 -4.76937 -4.64684 -4.56422 -4.17708 -4.39394 -4.40688 -5.20304 -4.98583 -4.59874 -4.80235 -4.69935 -5.02595 -4.5774 -4.67359 -4.92922 -4.38171 -4.52055 -4.36517 -4.10788 -4.36609 -3.61725
probB 0.0580212 0.61689 -0.0582304 -0.188996 -0.312038 -0.264878 -0.523258 -0.250284 -0.194467 -0.304271 -0.343836 -0.226061 -0.494293 -0.413694 -0.320852 -0.535437 -0.393185 -0.418155 -0.421438 -0.364204 -0.358855 -0.194584 -0.270029 -0.264051 -0.294391 -0.342385 -0.387612 -0.318695 -0.206151 -0.0234021 -0.0387561 -0.0519201 -0.519734 0.0783022 -0.455869 0.115598 0.169363 -0.00379461 -0.367725 -0.215638 -0.163457 0.50721 0.00783668 -0.295584 -0.325118 -0.253205 -0.363178 -0.340413 -0.129733 -0.292324 -0.325771 -0.296563 -0.369504 -0.352088 -0.34721 -0.411246 -0.379721 -0.376392 -0.55502 -0.322527 -0.340742 -0.247058 -0.223677 -0.2204 -0.291864 -0.367703 -0.397186 -0.267784 -0.270098 0.0662858 -0.0242189 0.0237212 -0.518713 0.146057 -0.478139 0.160379 0.103404 0.0370211 -0.549634 -0.215238 -0.16728 -0.938064 -0.668931 -0.723478 -0.774069 -0.974678 -0.617904 -0.798929 -0.729783 -0.905495 -0.792709 -0.878693 -0.688559 -0.828904 -0.718353 -1.02099 -0.826671 -0.966335 -0.960999 -0.944686 -0.906426 -0.790689 -0.888789 -0.89135 -0.930573 -0.859227 -0.906266 -0.870687 -0.379832 -0.62148 -0.424173 -0.974697 -0.427818 -0.894111 -0.427815 -0.626153 -0.524102 -0.934969 1.04483 -0.559789 -0.202112 -0.29995 -0.268002 -0.279167 -0.28307 -0.110067 -0.215247 -0.375262 -0.25192 -0.427644 -0.280777 -0.233006 -0.440654 -0.350033 -0.33697 -0.307293 -0.315381 -0.23339 -0.230301 -0.232248 -0.19337 -0.139655 -0.249946 -0.281286 -0.315474 -0.24362 0.0772644 0.0489175 0.0259397 -0.516311 0.182833 -0.27574 0.107895 0.0703638 0.0207952 -0.429992 -0.203358 -0.242666 0.0856781 0.123496 -0.0643319 0.210023 0.140941 0.0280171 -0.161225 -0.158399 -0.127866 0.018423 -0.0241187 -0.169512 -0.084388 -0.102394 -0.24581 -0.0561887 -0.038937 0.0206393 0.189308 0.0469291 0.101822 0.0360339 0.0141002 -0.0541134 -0.0308124 0.263588 0.181476 0.321511 -0.117287 0.233242 -0.0193576 0.42705 0.384642 0.21101 -0.0850525 0.198003 0.150893 0.102475 -0.0326128 0.105623 0.245049 0.0976344 -0.164624 0.0474912 -0.0811811 0.0268069 0.117757 0.00926022 0.00589307 -0.0330361 -0.0994124 -0.109517 -0.0225403 0.169929 0.180063 0.139026 0.0624138 -0.0463231 -0.130627 0.0357265 0.0868631 0.487547 0.326064 0.354449 -0.122399 0.24968 -0.0432488 0.334545 0.448659 0.432709 -0.0793311 0.178608 0.166735 -0.288814 -0.169748 0.129426 0.0817282 -0.157649 0.009558 -0.10607 -0.0818182 -0.00158042 -0.26807 -0.103838 -0.0521778 -0.170127 -0.147574 -0.115624 0.00622639 0.0744502 -0.0394358 0.0322685 0.00123762 -0.0655202 0.0312599 -0.0363358 0.249443 0.360473 0.27006 -0.260025 0.505485 -0.178863 0.38142 0.373059 0.245584 -0.169192 0.134701 0.19546 0.196428 0.247778 0.069963 -0.0808372 0.107987 -0.0165619 0.125829 0.0552314 -0.0812257 -0.0108425 -0.0490506 -0.223675 -0.0438607 -0.123746 0.0754231 0.168214 0.115299 0.120307 -0.0687134 -0.0358559 0.102785 0.112236 0.378135 0.462419 0.453822 -0.0611131 0.451641 -0.0795664 0.380698 0.402991 0.252228 -0.0846309 0.246527 0.199932 0.167691 0.0619512 -0.0617309 0.106905 -0.149936 -0.115121 -0.0191348 -0.153601 0.0105952 -0.053171 -0.169384 -0.0125673 -0.0520525 0.08098 0.0104802 0.072273 0.00899813 0.0478717 -0.073395 0.0153764 -0.0241988 0.219345 0.236935 0.120218 -0.120152 0.136966 -0.0933691 0.159811 0.351473 0.319077 -0.11673 0.155031 0.214241 -0.119786 -0.186691 -0.141101 -0.256546 -0.136432 -0.102195 -0.326573 -0.348958 -0.235193 -0.405807 -0.248514 -0.206799 -0.144524 -0.101764 -0.0787234 -0.0972713 -0.123413 -0.228818 -0.200595 -0.163808 0.196638 0.133733 0.172523 -0.300783 0.281529 -0.252329 0.354253 0.221993 0.0578923 -0.32073 -0.0417831 -0.0244687 -0.0364551 -0.0321869 -0.187819 0.0685615 -0.0286342 -0.0705248 -0.0797618 0.0401173 -0.246002 -0.150858 -0.0958761 -0.01711 0.158994 0.0869346 0.016212 0.0127561 -0.0261677 -0.029569 -0.00188385 0.450913 0.300338 0.254315 -0.138498 0.451101 -0.0994928 0.383156 0.27028 0.28062 -0.137488 0.0433931 0.180594 0.103094 -0.0610594 0.12648 0.135065 -0.00614315 0.0958594 -0.00185727 -0.038481 0.0777564 -0.0500032 -0.122718 0.147876 0.170185 0.0617588 0.183696 0.146261 0.0937034 0.259208 0.555358 0.350532 0.477283 0.0396838 0.584757 -0.0101208 0.517512 0.510238 0.352216 -0.0892247 0.29751 0.264895 -0.0773929 -0.0123788 0.0542346 -0.227499 -0.0640002 -0.0784826 -0.253912 -0.127701 -0.0110822 0.0469997 0.101491 0.00290277 0.113724 -0.0192193 0.0572563 -0.0413252 0.0287847 0.341469 0.303247 0.330532 -0.143848 0.410845 -0.0642346 0.256493 0.405519 0.406312 -0.202014 0.0992752 0.128936 0.198242 0.102189 0.00168428 0.168536 0.0779201 -0.156264 0.0619199 0.128861 0.159964 0.268699 0.132133 0.155345 0.11905 0.240462 0.209202 0.231553 0.572575 0.428599 0.405529 0.041587 0.702301 0.110982 0.564741 0.430172 0.528674 0.0208188 0.285963 0.369893 -0.0132364 -0.260845 -0.0571839 -0.0249853 -0.175889 -0.0535192 -0.0138547 0.0148686 0.109847 0.040868 -0.00574565 -0.114497 -0.00371506 0.00169868 -0.0413763 0.381292 0.329747 0.182236 -0.206245 0.388397 -0.133633 0.466722 0.406435 0.209304 -0.148405 -0.0461231 0.171007 -0.224675 -0.0854709 -0.0230528 -0.185134 -0.0449777 -0.0460718 0.0460615 0.0587367 -0.0109563 0.0649324 0.0469963 -0.111122 -0.0304589 0.0227541 0.40603 0.274911 0.338911 -0.193671 0.355625 -0.0346193 0.397952 0.377017 0.231369 -0.166631 0.136031 0.222155 0.00570982 0.0943543 0.00736642 0.0748558 0.162746 0.137449 0.269356 0.2986 0.215331 0.160234 0.145536 0.191884 0.231349 0.532354 0.543047 0.460411 -0.00686075 0.659291 0.0741941 0.61036 0.608075 0.387743 0.0587737 0.0619232 0.172862 0.0674058 -0.0772905 -0.0289731 0.081178 0.174373 0.168822 0.0998712 0.146137 0.0669295 0.0856117 0.0962686 0.101721 0.415646 0.429251 0.460461 0.00160074 0.562253 0.000660607 0.540121 0.573184 0.290367 -0.0973181 0.161275 0.252283 -0.130688 0.0451122 0.0201587 0.145031 0.234503 0.0334733 0.0634164 0.07187 -0.0258826 0.0536663 0.0476608 0.432036 0.426509 0.295124 -0.135647 0.526558 0.00541283 0.481312 0.374187 0.447677 -0.098092 0.196005 0.242399 0.0632513 0.147695 0.271028 0.302117 0.136164 0.198798 0.149629 0.185493 0.21449 0.224371 0.532534 0.501731 0.609162 0.0602104 0.542836 0.0673949 0.604273 0.588836 0.492527 0.061355 0.268574 0.177467 0.0506025 0.199173 0.126533 0.208638 0.189456 0.135345 -0.000458875 0.139399 0.0442951 0.482633 0.363265 0.451915 -0.0503795 0.581846 0.0676108 0.600622 0.521744 0.391166 -0.0789754 0.2874 0.258189 0.0802159 0.102913 0.123333 0.177813 -0.0418916 0.00836064 0.059305 0.0224237 0.39864 0.391863 0.352975 -0.0445158 0.376838 -0.115009 0.48485 0.437628 0.370095 -0.0155553 0.165758 0.21367 0.0254966 0.02376 0.0542301 -0.110768 -0.0790794 -0.0117737 -0.0675406 0.260343 0.258035 0.315966 -0.161089 0.343467 -0.128056 0.367503 0.365218 0.228191 -0.257575 0.0318779 0.0552734 -0.0315816 -0.059334 -0.0967044 -0.0949769 -0.11811 -0.115881 0.254841 0.277371 0.232957 -0.204998 0.320676 -0.182438 0.266938 0.324974 0.246644 -0.328657 -0.0176512 0.137086 -0.171652 -0.0338678 -0.16842 -0.0963564 -0.0151176 0.215313 0.21482 0.251096 -0.230022 0.465285 -0.114958 0.396031 0.389641 0.235793 -0.179347 0.0701219 0.00871795 -0.106326 -0.0351911 -0.0563516 -0.0493657 0.338342 0.21214 0.270633 -0.222261 0.448897 -0.175925 0.385159 0.301698 0.223693 -0.273145 0.107829 0.102628 -0.00120076 -0.024669 0.0800423 0.344061 0.2977 0.327265 -0.0164789 0.50779 0.0261677 0.440836 0.417984 0.313688 -0.150805 0.0541644 0.169891 -0.0554985 0.0467876 0.389425 0.364677 0.289901 -0.0633907 0.61454 -0.0517916 0.337095 0.433144 0.300782 -0.162685 0.172696 0.249805 0.0330616 0.374401 0.368914 0.322774 -0.149099 0.521246 -0.108237 0.405624 0.380658 0.285877 -0.173052 0.150831 0.15241 0.359313 0.345002 0.305724 -0.153955 0.514961 -0.0666098 0.422125 0.413032 0.308735 -0.176399 0.0276427 0.196947 -0.0900244 -0.00645247 -0.455661 -0.0076179 -0.508987 0.0701617 0.0850771 -0.0667316 -0.571385 -0.229172 -0.253376 0.0476693 -0.474348 0.15106 -0.387038 0.168104 0.0419443 -0.0815826 -0.525478 -0.12979 -0.0741507 -0.455085 0.577416 -0.315418 0.0117452 0.0862014 0.0371425 -0.309011 -0.0897277 -0.0912806 0.520728 0.0174274 0.430452 0.548196 0.480126 0.00972734 0.236102 0.377531 -0.472864 -0.106659 -0.147701 -0.0665183 -0.560778 -0.296979 -0.268472 0.49048 0.516627 0.345702 -0.0825816 0.208575 0.280507 0.00414531 -0.0997612 -0.596023 -0.269315 -0.158146 -0.137504 -0.513213 -0.265367 -0.191386 -0.474959 -0.068887 -0.00138581 0.229998 0.292946 -0.59497
nr_sv 127 128 356 130 63 59 66 61 42 60 69 49 63 43 66 67 34 44 30 33 39 26 78 16 79 13 27 29 20 28 112 89 134 26 170 36 180 175 139 48 83 101
SV
0.700164868685578 0 0 0 0 0 0 0 0 0 0 0 0 0 0 0 0 0 0 0 0 0 0.1322848403486669 0 0 0 0 0 0 0.4895665144132306 0 0.03154818694909794 0.0193394090150448 0 0 0.8888298853532774 0 0 0 0 0.4503176512636671 1:0.53663975 2:0.64890891 3:0.36054203 4:0.56832892 5:0.51948011 6:0.12896331 7:0.31986567 8:0.4696587 9:0.92744946 10:0.30877498 11:0.34845895 12:0.60980123 13:0.77635658 14:0.47256514 15:0.36976671 16:0.53797972 17:0.89601642 18:0.5384354 19:0.46741387 20:0.56717026 21:0.46552819 22:0.66828007 23:0.71943808 24:0.5042941 25:0.51131904 26:0.35967681 27:0.33073989 28:0.56326997 29:0.39899126 30:0.44254771 31:0.25231069 32:0.50616479 33:0.70964259 34:0.53870344 35:0.4394663 36:0.59298521 37:0.43030578 38:0.60419875 39:0.19130111 40:0.69380051 41:0.48937982 42:0.45134702 43:0.55853903 44:0.45507091 45:0.4302538 46:0.67011285 47:0.55405164 48:0.29374915 49:0.61237061 50:0.69163764 51:0.45717207 52:0.44311929 53:0.41537541 54:0.67691386 55:0.76106763 56:0.41478717 57:0.29772615 58:0.70641077 59:0.33444855 60:0.41029903 61:0.75243837 62:0.44958413 63:0.22682062 64:0.54108936 65:0.65823889 66:0.29760185 67:0.42279178 68:0.21673496 69:0.49088711 70:0.69151706 71:0.62362564 
0 0 0.5447018685055495 0 0 0 0 0 0 0 0 0 0 0 0 0 1.246788655468807 0 0 0 0 0 0 0 0 1.090208034448998 0 0 0 0 0 0 0 0 0 0 0 0 0 0 0 1:0.75008345 2:0.51281852 3:0.31600448 4:0.50056398 5:0.3948341 6:0.44402468 7:0.61889857 8:0.49476558 9:0.68133062 10:0.73020881 11:0.33861786 12:0.60811251 13:0.6511181 14:0.46968383 15:0.53238505 16:0.47100365 17:0.71664023 18:0.46499267 19:0.36335641 20:0.56307459 21:0.59027696 22:0.36544353 23:0.63914484 24:0.39555797 25:0.65426785 26:0.7302109 27:0.41037425 28:0.37444812 29:0.62312257 30:0.32616159 31:0.62544811 32:0.50499672 33:0.44122556 34:0.30177787 35:0.59280217 36:0.43333244 37:0.56032509 38:0.53376079 39:0.21108228 40:0.62310177 41:0.29002911 42:0.53564036 43:0.48244137 44:0.37716392 45:0.33350483 46:0.75079232 47:0.53161538 48:0.42323175 49:0.53037286 50:0.5472312 51:0.43698466 52:0.55934286 53:0.48979986 54:0.70458102 55:0.67592049 56:0.55711168 57:0.35048762 58:0.67971689 59:0.50108099 60:0.582129 61:0.5003317 62:0.7369886 63:0.1952582 64:0.4787958 65:0.65327317 66:0.34521452 67:0.46422556 68:0.31637844 69:0.49389258 70:0.80485964 71:0.56681782 
4.247072088500984 3.448251703263311 0 3.523399665157802 0.769447853322708 0.4324663172114213 0.2574213432207009 0 0.08728456931502841 0 0 0 0 0 0 0.6356673919825178 0 0 0.2645658671144743 1.056294751124853 0 1.192278335207505 0.9052723703615511 0 0 0 0 0 0 0 4.146390258880445 0.2854099507880468 0 5.003336270990972 0 0.566638811077947 0 2.03954435692582 0.6171212772295381 0 0 1:0.61958969 2:0.56498277 3:0.19849128 4:0.43697792 5:0.53603506 6:0.48477328 7:0.49348763 8:0.31846187 9:0.65956688 10:0.84222466 11:0.33984533 12:0.65391028 13:0.59830523 14:0.5342114 15:0.64260262 16:0.68997771 17:0.764907 18:0.2585777 19:0.4086951 20:0.51033938 21:0.66692638 22:0.43930721 23:0.47283083 24:0.316733 25:0.68261421 26:0.59649146 27:0.3639971 28:0.43648133 29:0.56525993 30:0.2839106 31:0.64759737 32:0.35321426 33:0.25571516 34:0.45799869 35:0.63468182 36:0.6546635 37:0.57400012 38:0.50651157 39:0.26418638 40:0.54652584 41:0.44217157 42:0.26153421 43:0.42932203 44:0.53922969 45:0.5662455 46:0.72086483 47:0.51930952 48:0.51422751 49:0.45610353 50:0.50209045 51:0.52777934 52:0.75435436 53:0.35253426 54:0.64891267 55:0.66163903 56:0.45293871 57:0.42633566 58:0.68565369 59:0.69771147 60:0.51962197 61:0.4937717 62:0.62129074 63:0.26440117 64:0.4855293 65:0.60632378 66:0.30662867 67:0.4819093 68:0.32080796 69:0.51805753 70:0.78259999 71:0.52399588 
0 0 0.7149334391929442 0 0 0 0 0 0 0 0 0 0 0 0 0 0 0 0 0 0 0 0 0 0 0 0 0 0 0 0 0 0 0 0 0 0 0 0 0 0 1:0.78095323 2:0.59870547 3:0.32704318 4:0.45910534 5:0.42618203 6:0.46683729 7:0.43721396 8:0.61531818 9:0.44856283 10:0.69592178 11:0.36723521 12:0.61363631 13:0.66542685 14:0.42526868 15:0.40819684 16:0.57540411 17:0.70715272 18:0.55359584 19:0.52475101 20:0.48691422 21:0.71983743 22:0.5647794 23:0.59530634 24:0.40836814 25:0.57448173 26:0.58582574 27:0.30029503 28:0.42210832 29:0.51784503 30:0.17191167 31:0.49275804 32:0.42807403 33:0.20523819 34:0.28157932 35:0.55525249 36:0.70324266 37:0.56833339 38:0.50558704 39:0.428958 40:0.6865586 41:0.49625701 42:0.26714966 43:0.60186672 44:0.4860636 45:0.52493525 46:0.7805953 47:0.72664297 48:0.54010051 49:0.42473361 50:0.50871629 51:0.47823021 52:0.56643277 53:0.20105596 54:0.844078 55:0.69456422 56:0.44538641 57:0.40515599 58:0.75710517 59:0.52866721 60:0.35934407 61:0.57942337 62:0.57228124 63:0.32355773 64:0.38644442 65:0.57379651 66:0.33947513 67:0.48817068 68:0.30506879 69:0.53529209 70:0.76077366 71:0.66404504 
0 0 0 0 0 0 0 0 0 0 0 0 0 0 0 0 0 0 0 0 0 0 0 0 0 0 0 0 0 0 0 0.1994056621380835 0 0 0 0 0 0 0 0 0 1:0.46132421 2:0.61374295 3:0.38739789 4:0.35855892 5:0.36303356 6:0.58432615 7:0.57659858 8:0.32443821 9:0.37639061 10:0.59145606 11:0.37961656 12:0.67503947 13:0.44484651 14:0.37107873 15:0.56392419 16:0.40356228 17:0.51620376 18:0.40133128 19:0.62593442 20:0.53881741 21:0.79338264 22:0.49453577 23:0.30708396 24:0.36282653 25:0.53907734 26:0.57672489 27:0.43935272 28:0.39320782 29:0.38114226 30:0.54811651 31:0.53371251 32:0.54610652 33:0.32526255 34:0.42009169 35:0.46251631 36:0.76565987 37:0.76586688 38:0.52887303 39:0.22583956 40:0.53908253 41:0.4644143 42:0.23546301 43:0.49888214 44:0.36523613 45:0.3219986 46:0.67344058 47:0.58475739 48:0.49446183 49:0.55782688 50:0.477815 51:0.31989077 52:0.60735959 53:0.16820595 54:0.7672475 55:0.74691606 56:0.45374212 57:0.62659597 58:0.72728992 59:0.64830929 60:0.46502286 61:0.5505299 62:0.50954348 63:0.38757974 64:0.44798955 65:0.60078609 66:0.24796861 67:0.46845716 68:0.3401432 69:0.5733692 70:0.83303857 71:0.54417157 
0 0 0 0 0 1.031558697761626 0 0 0 0 0 0 0 0 0 0 0 0 0 0 0 0 0 0 0 0 0 0 0.4049658977466303 0 0 0 0 0 0 0 0 0 0 0 0 1:0.66899115 2:0.48315015 3:0.35039946 4:0.38656673 5:0.38255844 6:0.46872357 7:0.40575752 8:0.36410302 9:0.5520696 10:0.58815479 11:0.47278127 12:0.69977099 13:0.7766434 14:0.28449488 15:0.27920488 16:0.5867359 17:0.89044827 18:0.3928822 19:0.45675942 20:0.50664216 21:0.62119561 22:0.4904263 23:0.39003345 24:0.22322686 25:0.71251994 26:0.70574749 27:0.40186477 28:0.25682479 29:0.45999759 30:0.1333794 31:0.61823189 32:0.56336635 33:0.41233072 34:0.41755626 35:0.54481953 36:0.67110842 37:0.57909828 38:0.44897455 39:0.35412979 40:0.64615095 41:0.49277154 42:0.50947326 43:0.57855242 44:0.59367961 45:0.47870764 46:0.69473708 47:0.66403854 48:0.56412333 49:0.59077746 50:0.3596974 51:0.41779882 52:0.59021711 53:0.20895223 54:0.73686403 55:0.61996162 56:0.54549581 57:0.473775 58:0.81662387 59:0.54588538 60:0.45673355 61:0.56765634 62:0.60687286 63:0.31414336 64:0.45449138 65:0.58257008 66:0.38252702 67:0.4196313 68:0.36501259 69:0.52801889 70:0.77052921 71:0.6326037 
0 0 0 1.043562996003138 2.087452105654519 0 0 0 0 0 0.7098226146477329 0 0 0.9729003978299895 0 0 0.6806197755511174 0 0 0 0 0 1.105698637048621 0 0 0 0 0.2294333548658631 0 0 0.5745049421772178 0.445520669303369 0 1.679454681310468 0 0.4600269289854939 0 0 0 0 0.7680408270401367 1:0.54995406 2:0.85742313 3:0.41624749 4:0.60420686 5:0.60588545 6:0.18991311 7:0.68326336 8:0.50903428 9:0.61009526 10:0.70219064 11:0.19177786 12:0.45818263 13:0.75632054 14:0.48008528 15:0.34465274 16:0.53550923 17:0.34990233 18:0.54554832 19:0.33987859 20:0.67333037 21:0.383614 22:0.71896505 23:0.44389769 24:0.44002008 25:0.65303379 26:0.3668454 27:0.39492062 28:0.51515979 29:0.39604965 30:0.21821079 31:0.257323 32:0.34778461 33:0.55206496 34:0.31512979 35:0.45947573 36:0.47070739 37:0.38063163 38:0.47894508 39:0.38873234 40:0.50857997 41:0.39119229 42:0.60031825 43:0.65932018 44:0.39044321 45:0.51958412 46:0.70107353 47:0.57320833 48:0.37040955 49:0.65314656 50:0.60692531 51:0.32770762 52:0.4956978 53:0.22984137 54:0.71047258 55:0.55421418 56:0.36341938 57:0.43730578 58:0.73692828 59:0.38383859 60:0.35280579 61:0.76659012 62:0.30843258 63:0.41026521 64:0.37851432 65:0.51138198 66:0.46998879 67:0.39234498 68:0.37928262 69:0.67995405 70:0.73454893 71:0.69730216 
0 0 0 0 0 0 0 0 0 0 0 0 0 0 0 0 0 0 0 0 0 0 0 0 0 0 1.077006841462951 0 1.570053251713757 0 0 0 0 0 0 0 0 0 0 0 0 1:0.90582591 2:0.55836058 3:0.23619089 4:0.46460965 5:0.48596659 6:0.36416745 7:0.41796973 8:0.54383409 9:0.54244971 10:0.46685991 11:0.14354582 12:0.42607015 13:0.66039371 14:0.30183029 15:0.43699974 16:0.58914733 17:0.83052903 18:0.36727953 19:0.64290929 20:0.55546767 21:0.40084279 22:0.54361695 23:0.47511467 24:0.15742858 25:0.67033696 26:0.57964653 27:0.42648488 28:0.29614174 29:0.53215063 30:0.33073226 31:0.68942446 32:0.44816315 33:0.41206205 34:0.40544778 35:0.62063378 36:0.66185379 37:0.61283022 38:0.45990443 39:0.3071011 40:0.65731144 41:0.49290216 42:0.35970381 43:0.43456349 44:0.46896225 45:0.46734822 46:0.60363317 47:0.56807005 48:0.38569516 49:0.41338074 50:0.49948806 51:0.47779369 52:0.43784827 53:0.086561359 54:0.72573346 55:0.66419667 56:0.42430598 57:0.34491253 58:0.78019381 59:0.58015269 60:0.45081341 61:0.57114667 62:0.45191431 63:0.253943 64:0.48103148 65:0.60581893 66:0.39491701 67:0.4294081 68:0.31606901 69:0.53119892 70:0.75303864 71:0.65872347 
0 0 0 0 0 0 0 0 0 0 0 1.573262213713409 0 0 0 0.3482640023940486 0 0 0 0.2306839811315073 0 0 0 0 0 0 0 0 0 0 0 0 0 0 0.3564797538028862 0 0 0.9134788879443191 0 0 0 1:0.49979383 2:0.49106964 3:0.53319311 4:0.49099079 5:0.543854 6:0.54865706 7:0.67075986 8:0.52973711 9:0.5117656 10:0.52887255 11:0.83403289 12:0.5972721 13:0.73162287 14:0.25376967 15:0.69855392 16:0.52814245 17:0.26119307 18:0.61190027 19:0.53975505 20:0.51464885 21:0.37835541 22:0.34676832 23:0.54091841 24:0.43467841 25:0.45051768 26:0.20386831 27:0.1916493 28:0.78439695 29:0.60300547 30:0.5853008 31:0.46596575 32:0.47157398 33:0.78281796 34:0.37823418 35:0.59573036 36:0.44456851 37:0.59708428 38:0.56596059 39:0.17669089 40:0.38398176 41:0.35039839 42:0.36731622 43:0.49850914 44:0.34547925 45:0.41276672 46:0.50302905 47:0.51713127 48:0.1223046 49:0.69034815 50:0.55121183 51:0.38702679 52:0.42672157 53:0.39789271 54:0.67537135 55:0.53125179 56:0.51567239 57:0.38717198 58:0.67625648 59:0.58301753 60:0.27678406 61:0.73811239 62:0.34731886 63:0.42203155 64:0.54573196 65:0.82054341 66:0.4188275 67:0.35507217 68:0.46851406 69:0.60380191 70:0.82556331 71:0.58034784 
0 1.394743792396942 0 0 0 0 0 0 0 0 0 0 0 0 0 0 0 0 0 0 0 0 0 0 0 0 0 0 0 0 0 0 0 0 0 0 0 0 0 0 0 1:0.59492141 2:0.56509066 3:0.29772174 4:0.67820936 5:0.53538352 6:0.33173496 7:0.45521566 8:0.23108274 9:0.51559502 10:0.61136115 11:0.20222802 12:0.59692353 13:0.69120276 14:0.40827304 15:0.54645669 16:0.72076118 17:0.78352952 18:0.38749462 19:0.5362801 20:0.7323451 21:0.55889672 22:0.7020635 23:0.61210841 24:0.29872587 25:0.68239409 26:0.46043333 27:0.40030482 28:0.20434117 29:0.41973415 30:0.33757949 31:0.49489239 32:0.39500949 33:0.30059284 34:0.53500122 35:0.4842639 36:0.59563994 37:0.68184459 38:0.61659372 39:0.27066454 40:0.66861534 41:0.38492617 42:0.37786898 43:0.54121667 44:0.51212442 45:0.4737294 46:0.71847934 47:0.53038508 48:0.37153405 49:0.53890944 50:0.54351217 51:0.4648937 52:0.58626312 53:0.3325533 54:0.77353925 55:0.69908947 56:0.46559212 57:0.49938557 58:0.69994783 59:0.57139748 60:0.40487999 61:0.70671028 62:0.51570028 63:0.33445466 64:0.49697235 65:0.5950526 66:0.31373513 67:0.46568289 68:0.28526434 69:0.56449771 70:0.72747046 71:0.59761989 
0 0 0 0 0 0 0 0 0 0 0 0 0 1.638073370152501 0 0 0 0 0.8234441117440212 0.3412295794009638 0.2060281905922037 0 0 0 0 0 0.2505076260352345 0 0 0 0 0.3887019803520355 0 0 0 0 0 0 0 0 0 1:0.73943073 2:0.55999362 3:0.41984951 4:0.60593867 5:0.42078447 6:0.38861293 7:0.61086261 8:0.48565933 9:0.45043385 10:0.51703036 11:0.52399075 12:0.41403547 13:0.69071567 14:0.44428429 15:0.40617609 16:0.57376331 17:0.89389956 18:0.44143033 19:0.46468586 20:0.39574334 21:0.36152422 22:0.5266304 23:0.47974193 24:0.39693287 25:0.57161415 26:0.59361613 27:0.32993737 28:0.10544278 29:0.46266922 30:0.30216727 31:0.38580179 32:0.47310722 33:0.40724862 34:0.51599443 35:0.51149207 36:0.61929804 37:0.51052731 38:0.45841387 39:0.34866327 40:0.69452024 41:0.45085618 42:0.49005538 43:0.40283924 44:0.57692546 45:0.3732703 46:0.70213205 47:0.59381145 48:0.37768489 49:0.62057072 50:0.55923384 51:0.33074746 52:0.52174264 53:0.3503564 54:0.60543031 55:0.55462778 56:0.52755123 57:0.6247716 58:0.76835674 59:0.55546272 60:0.43498042 61:0.57713461 62:0.48331961 63:0.28425381 64:0.46175137 65:0.50519395 66:0.29870933 67:0.32814017 68:0.30712011 69:0.48276958 70:0.73656058 71:0.63494927 
0 0 0 0 0 0 0 0 0 0 0 0 0 0 0.1374054392167009 0 0 0 0 0 0 0 0 0 0 0 0 0 0 0 0 0 0 0 0 0 0 0 1.532579768313167 0 0 1:0.78382218 2:0.47972661 3:0.39147845 4:0.37549368 5:0.59549844 6:0.3636871 7:0.31743589 8:0.50338066 9:0.50871354 10:0.77778876 11:0.45505989 12:0.3300221 13:0.77322125 14:0.57383174 15:0.45746332 16:0.69858813 17:0.88470495 18:0.35340357 19:0.33060694 20:0.35982302 21:0.48665693 22:0.51031035 23:0.49439377 24:0.24670139 25:0.65472937 26:0.59991151 27:0.32102862 28:0.55537802 29:0.58600503 30:0.34260517 31:0.56812048 32:0.62681758 33:0.40571651 34:0.32928419 35:0.59347612 36:0.45368719 37:0.6815666 38:0.34216097 39:0.22437443 40:0.6452775 41:0.55108768 42:0.48268065 43:0.66103089 44:0.35402596 45:0.43213174 46:0.7113539 47:0.45713916 48:0.30239707 49:0.60305279 50:0.36860928 51:0.38531148 52:0.51993388 53:0.48970807 54:0.68971521 55:0.64293015 56:0.41679853 57:0.44974953 58:0.8389045 59:0.49265295 60:0.4847962 61:0.69039756 62:0.46792665 63:0.3380993 64:0.50058305 65:0.47618216 66:0.35384575 67:0.35416722 68:0.40619129 69:0.56462371 70:0.69074124 71:0.60338712 
0 0 0 0 0 0 0 0 0 0 0 0 0 0 0 0 0.8924582965742459 0 0 0 0 0 0 0 0 0 0 0 0 0 0 0 0 0 0 0 0 0 0 0 0 1:0.7501384 2:0.47808525 3:0.46482208 4:0.61629981 5:0.68449306 6:0.32782876 7:0.44127464 8:0.47203177 9:0.65951884 10:0.71660733 11:0.40410122 12:0.57131499 13:0.68945807 14:0.51725274 15:0.525666 16:0.64236528 17:0.68237543 18:0.41243654 19:0.25760269 20:0.42606834 21:0.62552047 22:0.55448878 23:0.54894871 24:0.28301355 25:0.70975155 26:0.4721843 27:0.29487392 28:0.43590567 29:0.35727984 30:0.35902452 31:0.47019839 32:0.33080482 33:0.36990741 34:0.385041 35:0.46112353 36:0.54449803 37:0.47507915 38:0.42786103 39:0.21919167 40:0.68445915 41:0.40995988 42:0.61163294 43:0.60518199 44:0.43186757 45:0.32142907 46:0.70641935 47:0.49778673 48:0.30625644 49:0.57197177 50:0.48592421 51:0.25423312 52:0.5427261 53:0.39766315 54:0.6826061 55:0.6307649 56:0.45502278 57:0.58901364 58:0.75909662 59:0.53625852 60:0.38893926 61:0.65795314 62:0.53273541 63:0.33242589 64:0.41711059 65:0.490549 66:0.26843825 67:0.35787076 68:0.28009051 69:0.52495694 70:0.69859034 71:0.6665917 
0 0 0 0 0 0 1.284774979172745 0 0 0 0 0 0 0 0 0 0 0 0 0 0 0 0 0 0 0 0 0 0 0 0 0 0 0 0 0 0 0 0 0 0 1:0.78822058 2:0.41794941 3:0.45411548 4:0.45422983 5:0.39303946 6:0.47410861 7:0.44989192 8:0.52808714 9:0.57636368 10:0.70364302 11:0.1669452 12:0.4499059 13:0.60387969 14:0.25053731 15:0.61027598 16:0.60832238 17:0.59846014 18:0.39811546 19:0.34557754 20:0.51375771 21:0.70965225 22:0.52603924 23:0.57300466 24:0.41674146 25:0.65256578 26:0.62847531 27:0.34653828 28:0.32757619 29:0.47720739 30:0.29931536 31:0.56542826 32:0.40668303 33:0.38355705 34:0.38399616 35:0.50745893 36:0.63825852 37:0.54089803 38:0.47191229 39:0.3145369 40:0.60895276 41:0.54868335 42:0.29039788 43:0.57186168 44:0.43737781 45:0.47109276 46:0.63014948 47:0.66922337 48:0.50373024 49:0.47313833 50:0.42985234 51:0.41599321 52:0.61416829 53:0.21285591 54:0.73868698 55:0.61641073 56:0.3933132 57:0.47551909 58:0.7666347 59:0.53398383 60:0.44560769 61:0.61022741 62:0.52555698 63:0.38890252 64:0.45091182 65:0.52811038 66:0.28953537 67:0.42498738 68:0.35156688 69:0.53012383 70:0.78227597 71:0.64752704 
0 0 0 0 0 1.121443518954534 0 0 0 0 0 0 0 0.5737434295895556 0 0 0 0 0 0.3432227685255702 0 0 0 0 0 0 0 0 0 0 0 0 0 0 0 0 0 0 0 0 0 1:0.62738335 2:0.5498901 3:0.52711982 4:0.36472005 5:0.36731541 6:0.37974635 7:0.64385033 8:0.53427875 9:0.5158698 10:0.56392717 11:0.80154258 12:0.5496453 13:0.545726 14:0.54135573 15:0.42760915 16:0.61287618 17:0.29480642 18:0.52182454 19:0.61775696 20:0.67651755 21:0.46650565 22:0.45801684 23:0.44291738 24:0.40159926 25:0.52902228 26:0.43252817 27:0.35676581 28:0.42867169 29:0.44735879 30:0.42899656 31:0.15660851 32:0.75732404 33:0.52232778 34:0.44179171 35:0.54663146 36:0.61175519 37:0.54690182 38:0.70280552 39:0.14142781 40:0.63229883 41:0.39570087 42:0.53334498 43:0.41167372 44:0.47858348 45:0.46695158 46:0.71064264 47:0.40800121 48:0.41672212 49:0.60778242 50:0.61728173 51:0.26166826 52:0.39124781 53:0.45175752 54:0.65528089 55:0.59024751 56:0.49047503 57:0.4844768 58:0.7323783 59:0.61327243 60:0.34542903 61:0.61558276 62:0.42539176 63:0.39827526 64:0.46408236 65:0.61349553 66:0.29056233 67:0.37377679 68:0.307412 69:0.41599134 70:0.83577353 71:0.61982453 
0 0 0 0 0 0 0 0 0 0 0 0 0 1.19182663846241 0 0 0 0 0 0 0 0 0 0 0 0 0 0 0 0 0 0 0 0 0 0 0 0 0 0 0 1:0.40763745 2:0.48218277 3:0.55212301 4:0.328188 5:0.46907607 6:0.66212618 7:0.50181615 8:0.51039809 9:0.4973698 10:0.3453151 11:0.45568299 12:0.63362145 13:0.37473962 14:0.60084862 15:0.43982905 16:0.65552646 17:0.27957919 18:0.40929487 19:0.67526549 20:0.439661 21:0.3893826 22:0.66483313 23:0.39446765 24:0.417546 25:0.34411192 26:0.33954352 27:0.51117587 28:0.38083509 29:0.53543472 30:0.57609904 31:0.37393764 32:0.98905593 33:0.3945553 34:0.33910748 35:0.37182239 36:0.69137263 37:0.48700383 38:0.53583014 39:0.21260536 40:0.59935373 41:0.37583023 42:0.36945397 43:0.53173548 44:0.31267747 45:0.45767221 46:0.70897311 47:0.54863662 48:0.48872426 49:0.72290272 50:0.53199977 51:0.23759125 52:0.47790647 53:0.28539115 54:0.74710238 55:0.60161662 56:0.44026816 57:0.58195168 58:0.84408897 59:0.62521845 60:0.28424335 61:0.56539631 62:0.49030107 63:0.29036257 64:0.37536746 65:0.65968412 66:0.2736569 67:0.45841315 68:0.31123471 69:0.52852452 70:0.76129806 71:0.55821037 
0 0 0 0 0 0 0 0 0 0 1.32752017266756 0 0 0 0 0 0 0 0 0 0 0 0 0 0 0 1.36772258956451 0 0 0 0 0 0 0 0 0 0 0 0 0 0 1:0.43104479 2:0.62009293 3:0.42004237 4:0.68763661 5:0.41682011 6:0.40524924 7:0.49977294 8:0.33196408 9:0.50883454 10:0.63551199 11:0.4519985 12:0.67124838 13:0.47447321 14:0.62706447 15:0.55961263 16:0.41996661 17:0.56246406 18:0.53584218 19:0.6097697 20:0.43520662 21:0.6345892 22:0.68450058 23:0.31877309 24:0.37018549 25:0.46242461 26:0.45275789 27:0.40627253 28:0.29057062 29:0.37443078 30:0.37760422 31:0.28257698 32:0.4754056 33:0.41911185 34:0.19734922 35:0.46847349 36:0.63969958 37:0.6932956 38:0.48564914 39:0.12712225 40:0.66993731 41:0.47926635 42:0.41003996 43:0.55276805 44:0.29097986 45:0.32563809 46:0.75630629 47:0.60641271 48:0.66438532 49:0.65107143 50:0.50741255 51:0.24008556 52:0.47936389 53:0.3187913 54:0.75112647 55:0.5897401 56:0.44095302 57:0.68396342 58:0.7139219 59:0.53492647 60:0.33783326 61:0.54776287 62:0.43365473 63:0.36788884 64:0.39417738 65:0.66322714 66:0.27121675 67:0.50406444 68:0.33687314 69:0.53638113 70:0.74754971 71:0.56904691 
0 0 0 0 0 0 0.2884157622568697 0 0 0 0 0 0 0 0 0 0.110483823800437 0 0 0 0 0 0 0 0 0 0 0 0 0 0 0 0 0 0 0 0 0 0 0 0 1:0.86637509 2:0.63533276 3:0.38519883 4:0.34440368 5:0.4261063 6:0.50709885 7:0.39319229 8:0.39411613 9:0.44489965 10:0.49644449 11:0.36172318 12:0.66047055 13:0.69347858 14:0.55993509 15:0.4028855 16:0.6963256 17:1 18:0.40238595 19:0.31317392 20:0.46689731 21:0.64001906 22:0.65677232 23:0.65948272 24:0.42055747 25:0.65676165 26:0.61753178 27:0.4840478 28:0.62425035 29:0.4138459 30:0.27067354 31:0.53134924 32:0.41614333 33:0.29331949 34:0.26943356 35:0.42056614 36:0.62414438 37:0.55293423 38:0.37149397 39:0.26056668 40:0.60737872 41:0.51481777 42:0.50339335 43:0.58808106 44:0.50427437 45:0.40835354 46:0.65266758 47:0.75689763 48:0.55297732 49:0.48734683 50:0.4067997 51:0.33585036 52:0.60982829 53:0.38799518 54:0.6106025 55:0.61107373 56:0.47647241 57:0.455724 58:0.86346185 59:0.57680398 60:0.48141798 61:0.67424202 62:0.53800517 63:0.41664824 64:0.37920025 65:0.53988183 66:0.42155042 67:0.47491989 68:0.30734488 69:0.49772725 70:0.78138918 71:0.6326704 
0 0 0 0 1.29508527357038 0 0 0 0 0 0 0 0 0 1.294712028213148 1.007253103634305 0 0 0 0 0 0 0 0 0 0 0 0 0 0 0 0 0 0 0 0 0 0 0 0.8956238387733236 2.707845089486752 1:0.40675426 2:0.52754551 3:0.45396692 4:0.46045583 5:0.37983674 6:0.39344543 7:0.68611676 8:0.30562821 9:0.38343343 10:0.44352418 11:0.458473 12:0.4728471 13:0.36377078 14:0.78218424 15:0.30099568 16:0.5786134 17:0.32941884 18:0.36916873 19:0.84291732 20:0.41951981 21:0.51016599 22:0.60673141 23:0.37142429 24:0.44494367 25:0.55394644 26:0.30824366 27:0.49371082 28:0.42910436 29:0.34088659 30:0.55705005 31:0.21184666 32:0.6557464 33:0.39525989 34:0.35364714 35:0.39350477 36:0.63305759 37:0.56387007 38:0.67665422 39:0.13741507 40:0.63155746 41:0.55501962 42:0.39186782 43:0.56358743 44:0.27542701 45:0.39972782 46:0.73862064 47:0.42636123 48:0.53775382 49:0.59001678 50:0.48656234 51:0.3128677 52:0.51736927 53:0.4202947 54:0.72407532 55:0.58118349 56:0.48466358 57:0.58027399 58:0.74108106 59:0.69242811 60:0.24196634 61:0.51603025 62:0.49750325 63:0.37415215 64:0.42733631 65:0.6032474 66:0.26365399 67:0.44787812 68:0.20473212 69:0.42295486 70:0.76990604 71:0.63900012 
0 0 0 0 0 0 0 0 0 0 0 0 0 0 0 0 0 0 0 0 0 0 0 0 0 0 0.5615520963064177 0 0 0 0 0 0 0 0 0 0 0 0 0 0 1:0.45201284 2:0.49018842 3:0.34576207 4:0.65965945 5:0.53082621 6:0.48477805 7:0.54641992 8:0.38026386 9:0.60218388 10:0.48053455 11:0.61418444 12:0.62217855 13:0.28863293 14:0.51310539 15:0.7084254 16:0.40862593 17:0.40317336 18:0.64768833 19:0.56912559 20:0.53009146 21:0.52417088 22:0.57077938 23:0.5176326 24:0.43174312 25:0.61757958 26:0.51507264 27:0.3088986 28:0.55988938 29:0.55829757 30:0.332259 31:0.44764391 32:0.52288079 33:0.54430246 34:0.42035767 35:0.42944106 36:0.54360771 37:0.6894775 38:0.53331345 39:0.13361447 40:0.6106472 41:0.29332089 42:0.38348052 43:0.55378598 44:0.36197042 45:0.44326547 46:0.57437408 47:0.51934552 48:0.27035621 49:0.59180743 50:0.55685079 51:0.26467907 52:0.46366817 53:0.30712989 54:0.72386253 55:0.78484792 56:0.42755124 57:0.53595495 58:0.71390569 59:0.64566749 60:0.28985694 61:0.6220417 62:0.46521157 63:0.42376071 64:0.45177796 65:0.62454104 66:0.25315467 67:0.44429687 68:0.41644871 69:0.53545803 70:0.87358457 71:0.59337318 
0 0 0 0 0 0 0 0 0 0.2034030851872254 0 0 0 0 0 0 0 0.4022862646925847 0 1.565905961815597 0.2368982328043686 0 0 0 0 0 0 0 0 0 0 0 0 0 0 0 0 0 0 0 0 1:0.55068386 2:0.2740092 3:0.46453431 4:0.47311211 5:0.58132678 6:0.33086911 7:0.75545865 8:0.4086141 9:0.61070734 10:0.51397109 11:0.48111695 12:0.48705953 13:0.35007256 14:0.44389462 15:0.41698968 16:0.38884407 17:0.33677495 18:0.5538528 19:0.37405297 20:0.57640654 21:0.32946697 22:0.62765092 23:0.45857853 24:0.61804497 25:0.59767503 26:0.48636565 27:0.52298987 28:0.30370805 29:0.51802295 30:0.29484561 31:0.18795058 32:0.76489693 33:0.46732166 34:0.13489161 35:0.37703875 36:0.51902598 37:0.50855201 38:0.46468696 39:0.20235692 40:0.42216942 41:0.49240017 42:0.43378136 43:0.63847435 44:0.46128571 45:0.28329286 46:0.64990658 47:0.44815537 48:0.57683897 49:0.65519714 50:0.50225693 51:0.24103232 52:0.51412439 53:0.37055907 54:0.52567917 55:0.58486521 56:0.36333352 57:0.54127669 58:0.99100524 59:0.52541333 60:0.21146697 61:0.59160405 62:0.3442024 63:0.42082453 64:0.41317987 65:0.57426691 66:0.24686794 67:0.3771129 68:0.27194589 69:0.48372433 70:0.76351035 71:0.65402824 
0 0 0 0 0 0 0 0 0 0 0 0 0 0 0.5540596378321844 0 0 0 0 0 0 0 0.8860650915026339 0 0 0 0 0 0 0 0 0 0 0 0.436325497705591 0 0 0.2415256535799048 0 0 0 1:0.57950109 2:0.6162951 3:0.60548967 4:0.32453737 5:0.40302822 6:0.33101779 7:0.54019749 8:0.36073309 9:0.51076412 10:0.5443629 11:0.51759499 12:0.5915032 13:0.46350586 14:0.58443052 15:0.63870049 16:0.40771976 17:0.23957075 18:0.4985542 19:0.36577526 20:0.55620432 21:0.64025778 22:0.67074621 23:0.29998288 24:0.27029702 25:0.50322169 26:0.26307702 27:0.41993707 28:0.59914845 29:0.59426409 30:0.52618855 31:0.31282339 32:0.70057279 33:0.48812926 34:0.32978287 35:0.4074603 36:0.6621511 37:0.68480223 38:0.62846619 39:0.086884871 40:0.57409608 41:0.46765399 42:0.43222159 43:0.61691892 44:0.29350367 45:0.40414101 46:0.71799785 47:0.40191281 48:0.46635157 49:0.63690138 50:0.50100726 51:0.25518748 52:0.36779672 53:0.39614674 54:0.72803557 55:0.61721444 56:0.43864053 57:0.47885624 58:0.71285653 59:0.56843531 60:0.35087347 61:0.53901839 62:0.50312316 63:0.39122617 64:0.43864274 65:0.57483059 66:0.23529044 67:0.43221331 68:0.29802781 69:0.45836002 70:0.82507765 71:0.6057024 
0 0 0 0 0 0 0 2.279652767342621 0 0 0 0 0 0 0 0 0 0 0 0 0 0 0 0 0.4683791335380926 0 0 0 0 0 0 0 0 0 0 0 0 0 0 0 0 1:0.65532303 2:0.44876426 3:0.51839596 4:0.38267764 5:0.34221634 6:0.53942251 7:0.51717496 8:0.32940227 9:0.35244948 10:0.42551893 11:0.51714885 12:0.41915941 13:0.39033175 14:0.72918946 15:0.46152577 16:0.48465022 17:0.43137988 18:0.48384881 19:0.70551533 20:0.4448165 21:0.56697178 22:0.67683864 23:0.28218898 24:0.28948042 25:0.49428996 26:0.35921225 27:0.51952285 28:0.35584942 29:0.50324184 30:0.46879861 31:0.38367376 32:0.71072346 33:0.41863841 34:0.26007384 35:0.38926065 36:0.67437667 37:0.72665054 38:0.60169113 39:0.1837312 40:0.68933374 41:0.43933684 42:0.38597 43:0.44209298 44:0.27769402 45:0.34166533 46:0.73935014 47:0.51127124 48:0.4581013 49:0.63932633 50:0.51207799 51:0.28441128 52:0.56764925 53:0.2976107 54:0.68303519 55:0.68291563 56:0.46302441 57:0.64625853 58:0.83823174 59:0.6674968 60:0.3803663 61:0.52781153 62:0.56310189 63:0.27077121 64:0.44338068 65:0.70978314 66:0.25464919 67:0.467834 68:0.28611252 69:0.53041381 70:0.75711358 71:0.58778554 
0 0 0 0 0 0 0 0 0 0 0 0 0 0 0 0 0 0 0 0 0 0 0 0 0 1.049273552356537 0 0 0 0 0 0 0 0 0 0 0 0 0 0 0 1:0.45790216 2:0.63608766 3:0.385676 4:0.4537459 5:0.44590804 6:0.60161239 7:0.57793605 8:0.272084 9:0.60229087 10:0.34037554 11:0.52204239 12:0.63177449 13:0.51211345 14:0.61848533 15:0.56647933 16:0.48540986 17:0.42548692 18:0.59375703 19:0.4495787 20:0.55397403 21:0.61903095 22:0.50832003 23:0.52030206 24:0.50174892 25:0.56828618 26:0.62394232 27:0.438815 28:0.39699438 29:0.48066828 30:0.67416894 31:0.43189189 32:0.63148701 33:0.38026518 34:0.42733496 35:0.43654358 36:0.54851031 37:0.63378012 38:0.37649435 39:0.07506112 40:0.36499229 41:0.47871876 42:0.50615114 43:0.54350293 44:0.38715479 45:0.39013776 46:0.64808649 47:0.24209723 48:0.36505574 49:0.59516203 50:0.38688025 51:0.19750902 52:0.45983732 53:0.42316335 54:0.77686679 55:0.42768252 56:0.42210728 57:0.57765049 58:0.76000577 59:0.61755878 60:0.37229279 61:0.52775264 62:0.44262618 63:0.29272851 64:0.43420449 65:0.67969614 66:0.18489143 67:0.39867562 68:0.38373107 69:0.49208924 70:0.79991525 71:0.58193767 
0 0 0 0 0 0 0 0 0 0 0 0 0 0.1084866627187604 0 0 0 0 0.07983285731795801 0 1.119798127076894 0 0 0 0 0 0 0 0 0 0 0 0 0 0 0.3789989174602325 0 0 0 0 0 1:0.16070738 2:0.595186 3:0.47173372 4:0.38968885 5:0.75863957 6:0.36530638 7:0.67554229 8:0.4907198 9:0.47356075 10:0.36783236 11:0.39425719 12:0.25992522 13:0.34095886 14:0.52492654 15:0.37181714 16:0.56870723 17:0.32665563 18:0.56359363 19:0.52008122 20:0.57757318 21:0.43542227 22:0.64193451 23:0.30753154 24:0.64093983 25:0.409547 26:0.66091144 27:0.64598095 28:0.44514677 29:0.35117143 30:0.44497493 31:0.2611846 32:0.38088498 33:0.47077188 34:0.33050632 35:0.29661646 36:0.54149467 37:0.42253205 38:0.28906181 39:0.33118144 40:0.62798685 41:0.54786438 42:0.67695367 43:0.66975677 44:0.36081001 45:0.37727928 46:0.69717878 47:0.61063862 48:0.27943277 49:0.60172391 50:0.50448281 51:0.21011876 52:0.30129024 53:0.35156661 54:0.58064121 55:0.60833442 56:0.45693529 57:0.57664365 58:0.71554714 59:0.43109629 60:0.36190122 61:0.58825308 62:0.48561668 63:0.28070945 64:0.45890254 65:0.68333161 66:0.38035873 67:0.310296 68:0.41576561 69:0.58400846 70:0.85629469 71:0.70642614 
0 0 0.2930001066177307 0 0 1.025394822860805 1.831827405255553 0.1864157330652618 0.9892447435157571 1.919820885869451 0.9217929963541652 0.2019683849746645 0.2032484974202479 0 2.198019205095767 1.800483013491384 0.5181938088045377 0 0 0 0.2173615315112958 0 0 0 0 0.5879301528690678 1.970358415273506 0.908719191899514 0 0 0 4.655602841202813 1.018661333029266 0.9599440209668129 1.117841315011189 1.005832704026495 0.01596210502652043 3.278755386541373 1.412681043173659 0 0.9456819821728194 1:0.7200315 2:0.48962682 3:0.37026602 4:0.55103791 5:0.46126199 6:0.45730236 7:0.44818616 8:0.55565315 9:0.61709827 10:0.61264235 11:0.37155622 12:0.55460137 13:0.78117156 14:0.57726693 15:0.61626756 16:0.518179 17:0.59967053 18:0.42304906 19:0.21478714 20:0.50530046 21:0.4491154 22:0.39726204 23:0.33615044 24:0.18344624 25:0.96195883 26:0.62363529 27:0.33434159 28:0.58444607 29:0.6297614 30:0.34381592 31:0.73213351 32:0.5037536 33:0.31224409 34:0.39291185 35:0.53918916 36:0.46292028 37:0.58438438 38:0.33719221 39:0.39797747 40:0.46755084 41:0.45150566 42:0.52465653 43:0.62962204 44:0.43487909 45:0.41302216 46:0.69206232 47:0.5977909 48:0.287247 49:0.59756392 50:0.37861404 51:0.35515365 52:0.49529219 53:0.37598628 54:0.74776417 55:0.59400415 56:0.44151613 57:0.49614516 58:0.68239039 59:0.4911561 60:0.47100931 61:0.60045058 62:0.40973085 63:0.30459616 64:0.41132313 65:0.3832579 66:0.37246272 67:0.37116003 68:0.31495228 69:0.53887206 70:0.65924138 71:0.69303656 
0 0 1.033261841234919 0.8671449918830439 0 0 0 0 0 0 0 0 0 0 0 0 0 0 0 0 0 0 0 0 0 1.077975357114779 0 0 0 0 0.2517129983236799 0 0 0.5578865758015747 0 0 0 0 0 0 0.5046096527865497 1:0.52064174 2:0.71893251 3:0.27504769 4:0.65264767 5:0.39196852 6:0.52227908 7:0.4876436 8:0.36279011 9:0.50731057 10:0.51318419 11:0.32133305 12:0.67231989 13:0.43981463 14:0.2082283 15:0.46001613 16:0.5941118 17:0.80393636 18:0.22885379 19:0.61492431 20:0.51512259 21:0.55134362 22:0.3826533 23:0.61955053 24:0.32732251 25:0.72865075 26:0.77864939 27:0.53708732 28:0.30619818 29:0.44072264 30:0.34301174 31:0.62209719 32:0.26480815 33:0.20932361 34:0.5005061 35:0.50978935 36:0.67067271 37:0.70856118 38:0.46282318 39:0.51458734 40:0.56265503 41:0.4926742 42:0.43779555 43:0.30129257 44:0.56037593 45:0.46591014 46:0.73658508 47:0.57800204 48:0.39404681 49:0.51650715 50:0.46572933 51:0.42618221 52:0.64236492 53:0.2029734 54:0.69566 55:0.7539072 56:0.57680357 57:0.55950111 58:0.63120705 59:0.61022449 60:0.52814871 61:0.45768782 62:0.6648978 63:0.17131296 64:0.56656921 65:0.60029709 66:0.3515282 67:0.51987493 68:0.30490628 69:0.5536918 70:0.77476311 71:0.57742882 
0 0 0 0 0 0 1.456337898578273 0 0 0 0 0 0 0 0 0 0 0.1384749845834016 0 0 0 0 0 0 0 0 0 0 0 0 0 0 0 0 0 0 0 0 0 1.287029069334764 0 1:0.73735207 2:0.92543596 3:0.5267731 4:0.56478912 5:0.41775391 6:0.62373775 7:0.46191481 8:0.25082406 9:0.52949524 10:0.34700373 11:0.40793207 12:0.69306171 13:0.43957534 14:0.46943006 15:0.47380841 16:0.53281349 17:0.59742886 18:0.41678697 19:0.49733725 20:0.46284157 21:0.73346794 22:0.50321621 23:0.28554973 24:0.55381387 25:0.45251253 26:0.43329382 27:0.35170218 28:0.27863798 29:0.56525749 30:0.57927591 31:0.44155955 32:0.65174371 33:0.36701187 34:0.48929054 35:0.60991013 36:0.6512835 37:0.80694985 38:0.46576455 39:0.19705401 40:0.65349048 41:0.56780118 42:0.25039122 43:0.53529745 44:0.4942534 45:0.34386894 46:0.62511832 47:0.37608725 48:0.48814657 49:0.60402209 50:0.46070209 51:0.25964504 52:0.49691865 53:0.30244449 54:0.74305123 55:0.53775519 56:0.38330641 57:0.60037762 58:0.72433013 59:0.59957772 60:0.47843653 61:0.5599103 62:0.52039659 63:0.35930076 64:0.47128922 65:0.60912776 66:0.23406531 67:0.42648691 68:0.33466941 69:0.45756647 70:0.83214408 71:0.5486486 
0 0 0 0 0 0.6377941882015851 0 0 0 0 0 0 0 0 0 0 0 0 0 0 0 0 0 0 0 0 0 0.1665419414129599 0 0 0 0 0 0 0 0 0 0 0 0 0 1:0.38223827 2:0.53548783 3:0.42990854 4:0.65082252 5:0.28426033 6:0.72238368 7:0.54728293 8:0.60220146 9:0.66066045 10:0.19543603 11:0.60487962 12:0.63753265 13:0.56577647 14:0.29236275 15:0.3703979 16:0.408539 17:0.53512043 18:0.53695905 19:0.48374379 20:0.18192652 21:0.39593619 22:0.32165211 23:0.27162093 24:0.55238521 25:0.74234992 26:0.78911501 27:0.52160585 28:0.44620574 29:0.4144167 30:0.65770912 31:0.45904773 32:0.67105615 33:0.59757203 34:0.45744795 35:0.5705694 36:0.51136661 37:0.71587735 38:0.43811151 39:0.41404581 40:0.4228563 41:0.60029274 42:0.3907775 43:0.56413907 44:0.48939297 45:0.35713091 46:0.81402713 47:0.41436481 48:0.29988679 49:0.67388147 50:0.42312944 51:0.20459224 52:0.34933168 53:0.41553608 54:0.6979121 55:0.50953376 56:0.41726425 57:0.57032198 58:0.9372074 59:0.36573151 60:0.44552103 61:0.50208676 62:0.27691033 63:0.30388141 64:0.45863751 65:0.74803931 66:0.40754738 67:0.48971424 68:0.52259338 69:0.57983369 70:0.88374114 71:0.6030829 
1.452475867222437 0.9302611670481944 1.856200463970951 2.012223691958975 2.719939900098047 0.7479765305634627 2.565975546146629 1.242034546884733 0 0 0 0.2458775450721823 0 0.159003607134138 0 0 2.359351201435716 0 0 0 0.02443832981619868 0 1.19524924876545 0.674964777212911 0.3402549926572008 0 0 0.9901874432258119 0 0 1.7101106126028 0 0.2173425608059795 2.771650728274327 0 2.097287933308402 0.5338165109102273 0 1.368458146864536 0 0 1:0.33887479 2:0.47411039 3:0.60997677 4:0.27445513 5:0.60374814 6:0.25515631 7:0.70195204 8:0.22679986 9:0.74921137 10:0.50024825 11:0.33194149 12:0.36402547 13:0.55605441 14:0.32147118 15:0.53265089 16:0.35293463 17:0.46725699 18:0.27357206 19:0.29032654 20:0.53658056 21:0.10240171 22:0.72536451 23:0.70283961 24:0.38180178 25:0.53856015 26:0.52434582 27:0.64332885 28:0.49032751 29:0.32635081 30:0.30948564 31:0.15702499 32:0.46236467 33:0.45184517 34:0.261949 35:0.23557435 36:0.4510811 37:0.44925302 38:0.44730136 39:0.30916443 40:0.47596005 41:0.46153188 42:0.54328781 43:0.61391383 44:0.43596819 45:0.40605533 46:0.58602142 47:0.5581938 48:0.77146536 49:0.43748909 50:0.58459157 51:0.26633301 52:0.62909961 53:0.41200528 54:0.49173057 55:0.5739699 56:0.31383622 57:0.62314963 58:0.98953456 59:0.55465776 60:0.23904437 61:0.46803188 62:0.31904751 63:0.46457899 64:0.32387155 65:0.52163643 66:0.30571842 67:0.25527671 68:0.21986477 69:0.4684003 70:0.76573181 71:0.6460427 
0.03980242015718343 0 0 0 0.8674751348872034 2.534483981742877 0 0 0 3.227958245118792 0 0.2921177584439731 0.7334983006598459 0 1.895040839982282 0 0 1.338314076072659 0 0 0 0 0 2.917838329660535 0.9108508476773279 1.390062330625742 0 0 0 0 0 2.01219855429343 0.1948433734996938 0 1.950907206171144 2.107159247091704 3.348042391682371 0 0.03015178287121595 0 0 1:0.66940987 2:0.53028244 3:0.22085671 4:0.62196213 5:0.54783803 6:0.36851645 7:0.46448016 8:0.20121461 9:0.48448899 10:0.69971609 11:0.11401591 12:0.70801544 13:0.72779661 14:0.46546593 15:0.5733878 16:0.61452299 17:0.83979744 18:0.29580349 19:0.30091271 20:0.43362331 21:0.49260738 22:0.57950777 23:0.52784413 24:0.32936084 25:0.67888123 26:0.6619432 27:0.50571692 28:0.35297838 29:0.3900786 30:0.28548127 31:0.41324899 32:0.41072586 33:0.3389928 34:0.36731949 35:0.37627575 36:0.58077091 37:0.56085742 38:0.45423248 39:0.23543143 40:0.56046814 41:0.56829864 42:0.46881631 43:0.65050817 44:0.35904136 45:0.5370661 46:0.75150543 47:0.46544176 48:0.56896269 49:0.48239595 50:0.41702157 51:0.45981091 52:0.61909628 53:0.40963492 54:0.72023326 55:0.66167122 56:0.40691498 57:0.54307199 58:0.69813579 59:0.47154158 60:0.43645769 61:0.70541042 62:0.53635788 63:0.32748282 64:0.43153673 65:0.52126026 66:0.30726752 67:0.36455959 68:0.35259354 69:0.55331051 70:0.64957428 71:0.68684882 
0 0 0 1.018556737230712 3.667714697547947 0.2932962451531784 0.7542366383335894 0.9139572348348033 0.8736568080543455 0 0 0.2511901970769363 0.1547837851798407 0 0.001426848547017115 0.466040050645805 0 0 0 0 0 0 0 0.2375057946119082 0 0 0 0 0.002071139083172782 0 0 0.4001812869191425 0 0 0 0 0 0 0.8236825392957534 0 0 1:0.62848902 2:0.53950989 3:0.38308707 4:0.51674312 5:0.62091428 6:0.47428936 7:0.36231112 8:0.5070284 9:0.51437718 10:0.57356167 11:0.32707015 12:0.45859197 13:0.60281175 14:0.46356875 15:0.56282419 16:0.58097869 17:0.71519297 18:0.34456295 19:0.48567563 20:0.4955163 21:0.56795752 22:0.49091029 23:0.5723089 24:0.27345285 25:0.64990956 26:0.6046595 27:0.44647947 28:0.50952345 29:0.58384144 30:0.3477768 31:0.50961614 32:0.57417923 33:0.2760008 34:0.32884276 35:0.55516922 36:0.60508227 37:0.62837601 38:0.51617116 39:0.29085663 40:0.63553208 41:0.43163857 42:0.3233926 43:0.53036004 44:0.52034873 45:0.59624392 46:0.61306661 47:0.5497812 48:0.48947865 49:0.45953363 50:0.38132393 51:0.41259018 52:0.63840938 53:0.30405238 54:0.74627066 55:0.71432048 56:0.46675867 57:0.39425451 58:0.79068506 59:0.75700212 60:0.46708912 61:0.56210393 62:0.60843891 63:0.3533901 64:0.47904432 65:0.60585546 66:0.3163043 67:0.47847798 68:0.32341877 69:0.51258099 70:0.72920865 71:0.56133056 
2.18964301904896 2.936565476991911 3.456377669721399 1.116983348183505 0 0.1004261491864017 0 2.857676215273968 0 0 0 0 0 0 0.03106036596355477 0.3181338765633853 0 0.3060320194679831 1.250947762513499 0 4.522017368353562 1.413808943492559 0 0.3998965381416582 0 0 0 0 0 1.578705190030406 0 0 0 1.162763612259157 0 0.1050862810137236 0.4187100094287007 0.1492540160328565 3.264586579652832 4.615979681601726 1.984276077229125 1:0.65246737 2:0.50872493 3:0.26020947 4:0.62742662 5:0.42448395 6:0.41620401 7:0.51023877 8:0.41921878 9:0.70612013 10:0.52909809 11:0.500965 12:0.57398582 13:0.70142525 14:0.3052353 15:0.49826658 16:0.52550024 17:0.71382654 18:0.51715046 19:0.40930337 20:0.49348953 21:0.29801431 22:0.5406599 23:0.67086333 24:0.21897614 25:0.68078291 26:0.61722088 27:0.20775653 28:0.43919232 29:0.47959039 30:0.4351266 31:0.52873272 32:0.56026983 33:0.46740711 34:0.32011947 35:0.62544644 36:0.49056661 37:0.47141588 38:0.53344154 39:0.267566 40:0.70361537 41:0.39158085 42:0.48030907 43:0.56093031 44:0.52446586 45:0.4264726 46:0.55471289 47:0.54751766 48:0.43087325 49:0.55453968 50:0.52896154 51:0.48634279 52:0.39939395 53:0.47160482 54:0.59761655 55:0.66551048 56:0.45256615 57:0.4261173 58:0.74378008 59:0.478679 60:0.37900263 61:0.65961432 62:0.44799042 63:0.30119404 64:0.50658679 65:0.49722037 66:0.31220496 67:0.37866041 68:0.3309373 69:0.49352655 70:0.7798444 71:0.62541372 
0 0 0 0 0 0 0 0.008526610336757908 0 0 0 0 0 0.8319915158066161 0 0 0 0 0 0 0 0 0 0 0 0 0 0 0 0 0 0 0 0 0 0 0 0 0 0 0 1:0.62102968 2:0.38430405 3:0.34567595 4:0.47944877 5:0.47380933 6:0.54823458 7:0.48553723 8:0.47550157 9:0.46291405 10:0.55038875 11:0.36515105 12:0.72036517 13:0.55589712 14:0.47765854 15:0.66542518 16:0.41525704 17:0.67404515 18:0.53009379 19:0.60127258 20:0.37641713 21:0.68856949 22:0.62096059 23:0.41002032 24:0.46329737 25:0.39887303 26:0.45505682 27:0.52604181 28:0.39361194 29:0.29358566 30:0.43710473 31:0.49433133 32:0.66114926 33:0.50582451 34:0.3982729 35:0.54257286 36:0.74922669 37:0.73744643 38:0.60124701 39:0.44746125 40:0.59199518 41:0.43923488 42:0.34272742 43:0.46296918 44:0.40902543 45:0.37689909 46:0.64349401 47:0.62326461 48:0.41782293 49:0.61949193 50:0.53931957 51:0.29557985 52:0.44416404 53:0.24435365 54:0.78677166 55:0.70529038 56:0.42900133 57:0.53328007 58:0.83549756 59:0.5877248 60:0.45014554 61:0.64101642 62:0.47126305 63:0.34652019 64:0.41804105 65:0.73526114 66:0.30177113 67:0.55600005 68:0.29141539 69:0.51113594 70:0.71421295 71:0.53711826 
0 0.04964452721944235 0 0 0 0 0.6274184235923642 0 0 0 0.7793031216611696 1.557591475579365 3.251662694290836 0 0 0 0.3417690877689338 0.6338601797040128 0 0 0 0 0 0 1.899227856588407 0 0 0 1.739029610521159 1.619088297842552 0 0 0.129878393820527 0 0.3137685534796336 0 0 0 0 1.98033090741844 0 1:0.80231887 2:0.6356861 3:0.42431721 4:0.50155824 5:0.58599424 6:0.4352988 7:0.50042069 8:0.26182094 9:0.66426647 10:0.88424283 11:0.27693173 12:0.67617756 13:0.63222218 14:0.47832936 15:0.41160494 16:0.72136658 17:0.57252884 18:0.35858053 19:0.34308612 20:0.24226682 21:0.58214563 22:0.66083574 23:0.39738837 24:0.47584227 25:0.70629233 26:0.60909712 27:0.21732068 28:0.39310709 29:0.33450493 30:0.31099465 31:0.42801145 32:0.35466242 33:0.39627457 34:0.30956981 35:0.48960143 36:0.61266232 37:0.53307867 38:0.64091808 39:0.19611526 40:0.79252636 41:0.55880141 42:0.37052077 43:0.62319154 44:0.35977736 45:0.5393275 46:0.73260546 47:0.56649756 48:0.46909761 49:0.53452021 50:0.51929289 51:0.40265578 52:0.66121215 53:0.49199715 54:0.80897552 55:0.55743694 56:0.33794269 57:0.41997397 58:0.66884857 59:0.58483231 60:0.37345281 61:0.64719963 62:0.58343643 63:0.35711327 64:0.42000261 65:0.47347802 66:0.3510825 67:0.46190071 68:0.35067248 69:0.54821867 70:0.66813302 71:0.63549495 
0 0 0 0 0 0 0 0 0 0 0 0 0 0 0 0 0 0 0 0 0 0 0 0 0 1.473431668218913 0 0.3227378800418521 0 0 0 0 0.565041440260763 0 0 2.310951633006045 0 0 0 0 0 1:0.45325774 2:0.58751619 3:0.47074771 4:0.54583573 5:0.40888098 6:0.4607839 7:0.51937646 8:0.46066466 9:0.60343683 10:0.56907421 11:0.48643506 12:0.55268878 13:0.38357982 14:0.68572587 15:0.61654902 16:0.46870422 17:0.35177246 18:0.43674809 19:0.58269185 20:0.30118868 21:0.56175226 22:0.50348967 23:0.28951094 24:0.43533242 25:0.67840284 26:0.51588124 27:0.43534133 28:0.40132642 29:0.44360736 30:0.64073241 31:0.42679876 32:0.64447999 33:0.55866963 34:0.12858474 35:0.53210968 36:0.5100618 37:0.6868608 38:0.75653583 39:0.15868814 40:0.47904953 41:0.47390401 42:0.46676502 43:0.50022304 44:0.3687374 45:0.44747284 46:0.78628165 47:0.41272348 48:0.39497772 49:0.62504262 50:0.48260835 51:0.18018125 52:0.40973583 53:0.60010028 54:0.54937708 55:0.35234463 56:0.39687604 57:0.58524662 58:0.87893456 59:0.58795273 60:0.36947516 61:0.58045024 62:0.4321236 63:0.2877093 64:0.46456125 65:0.77468109 66:0.32570827 67:0.50483751 68:0.4327018 69:0.49725887 70:0.77769041 71:0.61170322 
0 0 0 0 0 0 0 0 0 0 0 0 0 0 0 0 0 0 0 0 1.487738830187673 0 0 0 0.7684436540249004 0 0 0 0 0 1.317971075162482 0 0 0 0 0 0 0 0 0.2946926211494871 0.5227407711290272 1:0.37055928 2:0.54547077 3:0.57155055 4:0.19366503 5:0.48233026 6:0.43940148 7:0.38227898 8:0.3281641 9:0.38800836 10:0.50450975 11:0.54257333 12:0.62895787 13:0.1568993 14:0.54951507 15:0.58427656 16:0.46516877 17:0.41744179 18:0.4275223 19:0.45254573 20:0.57145536 21:0.58805811 22:0.64306182 23:0.36192977 24:0.44230095 25:0.47481537 26:0.38911039 27:0.39772254 28:0.47250754 29:0.55169129 30:0.49978545 31:0.34612325 32:0.80709952 33:0.50341702 34:0.15443088 35:0.34404251 36:0.57421786 37:0.65845239 38:0.45644549 39:0.14301316 40:0.50123703 41:0.43029895 42:0.43295518 43:0.69356579 44:0.33389395 45:0.30186802 46:0.63009292 47:0.53304654 48:0.60325158 49:0.66786712 50:0.34693161 51:0.24903364 52:0.48655215 53:0.32066941 54:0.76581001 55:0.68789148 56:0.38398123 57:0.57140243 58:0.77081627 59:0.55760032 60:0.27093866 61:0.48780662 62:0.57826811 63:0.36159757 64:0.42280087 65:0.54633856 66:0.29723904 67:0.40381142 68:0.42040336 69:0.52639502 70:0.88913244 71:0.61987936 
0 0 0 0 1.765348835679352 0 0 0.1852661673383683 0 0 0 0 0 0 0 0 0 0 0 0 0 0 0 0 0.629314575130047 0 0 0 0 0 0 0 0.5630953757895431 0 1.090081115085417 0 0.2166389246765594 0 0 0 0 1:0.80441546 2:0.28913191 3:0.23299976 4:0.45670345 5:0.48873207 6:0.39123347 7:0.42512473 8:0.35799113 9:0.52322835 10:0.60875195 11:0.39460069 12:0.74805975 13:0.55990744 14:0.44905454 15:0.46656206 16:0.60152227 17:0.79719436 18:0.38781175 19:0.52931613 20:0.57543212 21:0.73893398 22:0.46536326 23:0.70805508 24:0.38013315 25:0.66611582 26:0.42082348 27:0.30820227 28:0.43777469 29:0.39677835 30:0.26048961 31:0.40053669 32:0.38164923 33:0.27174914 34:0.45204458 35:0.6117996 36:0.62531924 37:0.60311693 38:0.5797469 39:0.28205308 40:0.61011809 41:0.50876832 42:0.38268629 43:0.51723373 44:0.31826341 45:0.37363249 46:0.68862188 47:0.65091842 48:0.53910983 49:0.43684566 50:0.48716599 51:0.3751393 52:0.68864596 53:0.29405859 54:0.80355412 55:0.7138586 56:0.3640072 57:0.48008588 58:0.61711037 59:0.61071718 60:0.36365452 61:0.59893954 62:0.53906482 63:0.30920821 64:0.455026 65:0.56615293 66:0.34763744 67:0.60761452 68:0.32096666 69:0.56398267 70:0.70601612 71:0.65538442 
0 0 0 0 0 0.9809248623230531 0 0 0 0 0 0 0 0 0 0.7851887106997444 0 0 0 0 0 0 0 0 0 0 0 0 0 0 0 0 0 0 0 0 0 0 0 0 0 1:0.48859516 2:0.41266474 3:0.42203742 4:0.38573956 5:0.39874199 6:0.54433137 7:0.44951531 8:0.438335 9:0.44050527 10:0.55503237 11:0.49101007 12:0.55389136 13:0.32679173 14:0.39288589 15:0.44454321 16:0.5112797 17:0.44167337 18:0.5348199 19:0.65978599 20:0.58682913 21:0.69896644 22:0.56829464 23:0.47543284 24:0.46555868 25:0.47469398 26:0.40525123 27:0.37977648 28:0.46600965 29:0.51859581 30:0.37660858 31:0.44329375 32:0.75880533 33:0.47652495 34:0.3447805 35:0.59227598 36:0.67428797 37:0.72507507 38:0.5703544 39:0.15017495 40:0.54092556 41:0.52026278 42:0.31221214 43:0.47521332 44:0.33610138 45:0.40495101 46:0.79465413 47:0.56013876 48:0.62219226 49:0.55591244 50:0.45064175 51:0.26380324 52:0.50259227 53:0.2828128 54:0.7687934 55:0.71077043 56:0.40636095 57:0.62449259 58:0.7366327 59:0.68142366 60:0.40382439 61:0.58890671 62:0.46587098 63:0.37453556 64:0.42795125 65:0.66559136 66:0.27549177 67:0.49573833 68:0.3858262 69:0.46953133 70:0.80621052 71:0.59147024 
0.8416017675924238 2.596082905234183 2.318711481945039 0.39445271589141 2.648714577880139 1.507847365701291 4.002934365949371 1.824118933379492 1.033691953029298 0.04228672051994709 0 0.6219805832725135 0.5608396525116942 0.4799936344179054 0 0.2133682787797203 0 0.3295358422763389 0.1375430862776737 1.693142667371097 0.8857686157697118 0.9998627879621901 1.13272086473137 1.359140065100285 1.451251090805633 1.885782926391703 0.8282815935699076 0.8861851907109162 0 1.739283021335305 3.093298926463461 2.014452210075912 0.8615359924997036 3.540125742594293 0.9629082547471508 0.9881073568676403 2.671634100296172 1.12311234825896 1.142203754582343 2.981020652919826 2.322492296613512 1:0.8286984 2:0.36185861 3:0.24939521 4:0.27884984 5:0.36349669 6:0.40872109 7:0.44283575 8:0.51169401 9:0.65067822 10:0.35993341 11:0.15938993 12:0.49692041 13:0.44985497 14:0.24792798 15:0.20619456 16:0.61054575 17:0.60380787 18:0.59401637 19:0.59683192 20:0.66665244 21:0.40379703 22:0.56702763 23:0.14946184 24:0.67567635 25:0.79987794 26:0.69618779 27:0.2768271 28:0.6703307 29:0.3431249 30:0.45728192 31:0.64470804 32:0.10606558 33:0.070113577 34:0.82010621 35:0.57867211 36:0.59244597 37:0.6579029 38:0.037299514 39:0.45237929 40:0.44427791 41:0.92095834 42:0.54968047 43:0.58594984 44:0.79719234 45:0.45618802 46:0.78334564 47:0.70339924 48:0.16003314 49:0.49319446 50:0.70832133 51:0.2941756 52:0.47591138 53:0.36222547 54:0.51088458 55:0.62629181 56:0.33334354 57:0.47894707 58:0.6524207 59:0.4154245 60:0.64206469 61:0.55236888 62:0.5100745 63:0.16705802 64:0.5663861 65:0.48704863 66:0.41642344 67:0.43165633 68:0.51846755 69:0.50756991 70:0.66472965 71:0.73593307 
0 0.7744418703959757 0 0 0 0.7670298244173588 0 0 0 0.1161168204356949 0 0 0 0 0 0 0.4082876971349805 0 0 0 0 0.4313693445536191 0.4000271265612843 0.5279413907028091 0 0 0 0 1.540855712820604 3.36457982766169 0 0 0 0.6815442317912772 0 0 0 0.3927838907510493 0 0 0.3277267593104971 1:0.32375908 2:0.4259879 3:0.57597834 4:0.48252353 5:0.60981953 6:0.54052138 7:0.47534952 8:0.60107529 9:0.47618344 10:0.62183917 11:0.41402084 12:0.46650726 13:0.66841078 14:0.32521489 15:0.33792606 16:0.54223132 17:0.34922698 18:0.28531283 19:0.49883884 20:0.29136515 21:0.34381983 22:0.35351014 23:0.36449885 24:0.31604782 25:0.4939456 26:0.73276109 27:0.67576742 28:0.51203305 29:0.35311544 30:0.57464457 31:0.62669754 32:0.57267243 33:0.65053368 34:0.707228 35:0.56747091 36:0.52775776 37:0.6683234 38:0.31150776 39:0.55665058 40:0.41860431 41:0.68094039 42:0.48596808 43:0.50657684 44:0.55933434 45:0.35681838 46:0.63583773 47:0.5923717 48:0.28627262 49:0.65272838 50:0.39826423 51:0.19090988 52:0.57084769 53:0.42593947 54:0.5955537 55:0.52509832 56:0.64752173 57:0.45021218 58:0.75410551 59:0.64333147 60:0.35334188 61:0.39747098 62:0.55339438 63:0.46259978 64:0.42489988 65:0.61721796 66:0.56375486 67:0.48941922 68:0.21679834 69:0.4623833 70:0.84588552 71:0.50126082 
0 0 0 0 0 0 0 0 0 0 0 0 0 0 0 0 0 0 0 0 0 0 0 0 0 0 0 0 0 0 0 0 0 0 0.1335249005303423 0 0 0 0 0 0 1:0.30515817 2:0.3187204 3:0.44810081 4:0.47203794 5:0.55420321 6:0.45310539 7:0.53886712 8:0.56346321 9:0.56832945 10:0.65710008 11:0.46520138 12:0.57042634 13:0.42187786 14:0.35019341 15:0.52398461 16:0.43665475 17:0.35941911 18:0.41978654 19:0.60801071 20:0.4956708 21:0.50883633 22:0.30723852 23:0.42507705 24:0.43824968 25:0.38348669 26:0.69003892 27:0.64514035 28:0.54739201 29:0.41654059 30:0.61416805 31:0.56247598 32:0.54082811 33:0.65058053 34:0.73800278 35:0.5540387 36:0.58344096 37:0.5758394 38:0.30575013 39:0.51703304 40:0.49635515 41:0.51270115 42:0.50562966 43:0.61171973 44:0.57771796 45:0.43322805 46:0.68418962 47:0.67736769 48:0.22182031 49:0.58440584 50:0.50417507 51:0.18531333 52:0.51826793 53:0.14453131 54:0.63300091 55:0.58455032 56:0.4825438 57:0.4319762 58:0.66810441 59:0.52086097 60:0.21620423 61:0.59501565 62:0.41893578 63:0.44293272 64:0.42427814 65:0.59605819 66:0.52004963 67:0.4347969 68:0.30688196 69:0.63557649 70:0.84381145 71:0.60898089 
0 0 0 0 0 0 0 0 0 0 0 0.7219162000481723 0 0 0 0 0 0 0 0 0 0 0 0 0 0 0 0 0 0 0 0 0 0 0 0 0 0 0 0 0 1:0.69904792 2:0.6855002 3:0.5808236 4:0.55900341 5:0.57562637 6:0.58509064 7:0.30149662 8:0.35203332 9:0.43962342 10:0.51388627 11:0.48968989 12:0.4390181 13:0.76941741 14:0.36825141 15:0.46158153 16:0.73010212 17:0.7885983 18:0.60747319 19:0.46460065 20:0.45093703 21:0.47202915 22:0.41608453 23:0.63864797 24:0.57630533 25:0.70031643 26:0.54063582 27:0.37499857 28:0.63301331 29:0.31737876 30:0.33032578 31:0.52262765 32:0.23402771 33:0.45272133 34:0.5385446 35:0.6061275 36:0.49548009 37:0.61875522 38:0.47789559 39:0.44403774 40:0.48458546 41:0.62529081 42:0.46370757 43:0.76559275 44:0.49936944 45:0.36989269 46:0.71128529 47:0.60041428 48:0.34289131 49:0.45353061 50:0.37595668 51:0.31368488 52:0.62447095 53:0.54633152 54:0.7660445 55:0.56727707 56:0.54518622 57:0.28940135 58:0.63289469 59:0.74048638 60:0.33950463 61:0.41297367 62:0.53451335 63:0.46168315 64:0.4462204 65:0.53737313 66:0.51252311 67:0.50556636 68:0.21664475 69:0.54478371 70:0.80271018 71:0.54759687 
0 0 0 0 0 0 0 0 0 0 0 0 0 0 0 0 0 0 0 0 0 0 0 0 0 0 0 0 0.02859336454728698 0 0 0 0.7584351803757104 0 0 0 0 0 0 0 0 1:0.80262041 2:0.48705021 3:0.40242872 4:0.34705794 5:0.50011605 6:0.5487687 7:0.34875947 8:0.42046601 9:0.30828589 10:0.63976032 11:0.57055455 12:0.47973931 13:0.65003896 14:0.4266794 15:0.60175854 16:0.90670317 17:0.74508429 18:0.5264048 19:0.55465269 20:0.66612482 21:0.54046744 22:0.5895434 23:0.84302229 24:0.54647452 25:0.72978443 26:0.68952191 27:0.48297098 28:0.7746855 29:0.38050655 30:0.45786735 31:0.53235692 32:0.30253315 33:0.31975698 34:0.29128167 35:0.43620512 36:0.5655266 37:0.57538003 38:0.49033096 39:0.45217413 40:0.56357747 41:0.54782236 42:0.51971948 43:0.74474752 44:0.44757956 45:0.37241247 46:0.73900783 47:0.77152163 48:0.26170531 49:0.42293224 50:0.5537132 51:0.32759318 52:0.448612 53:0.3140426 54:0.60414857 55:0.57468742 56:0.55192327 57:0.20648696 58:0.59954911 59:0.56549418 60:0.30874637 61:0.48235941 62:0.60486728 63:0.3721149 64:0.44876644 65:0.43240541 66:0.49317431 67:0.39460024 68:0.26052582 69:0.53140986 70:0.78258944 71:0.72457206 
0 0 0 0 0 0 0 0 0 0 0 0 0 0 0 0 0 0 0 0 0 0 0 0 0 0 0 0 0 0 0 0 0 0 0.5187249473940803 0 0 0 0 0 0 1:0.77349043 2:0.51619011 3:0.41933474 4:0.57525849 5:0.4589611 6:0.45761153 7:0.19232793 8:0.49193808 9:0.36461958 10:0.66628081 11:0.53162193 12:0.51181465 13:0.63139707 14:0.32418385 15:0.54573226 16:0.72064078 17:0.62253165 18:0.56110477 19:0.66600084 20:0.64589298 21:0.50322139 22:0.5242359 23:0.6457628 24:0.52501482 25:0.7845118 26:0.51705384 27:0.30654663 28:0.76414007 29:0.41404665 30:0.22322281 31:0.3461954 32:0.26641086 33:0.42215842 34:0.4001084 35:0.56742728 36:0.56952465 37:0.53228325 38:0.41966218 39:0.41523877 40:0.62598884 41:0.55935907 42:0.44149616 43:0.74130636 44:0.39306426 45:0.39966494 46:0.74215019 47:0.64575809 48:0.24874258 49:0.31512684 50:0.51148731 51:0.38976398 52:0.58462316 53:0.34601393 54:0.60365105 55:0.6497131 56:0.567572 57:0.22386484 58:0.70832318 59:0.69465917 60:0.30565074 61:0.57262832 62:0.54395038 63:0.43376204 64:0.44674811 65:0.54774225 66:0.54658175 67:0.53734988 68:0.27991354 69:0.56043422 70:0.80537623 71:0.65121633 
0 0 0 0 0 0 0 0 0 0 0 0 0 0 0 0 0 0 0 0 0 0 0 0 0 0 0 0 0.5454508489572596 0 0 0 0 0 0 0 0 0 0 0 1.036897494116405 1:0.6778453 2:0.71571475 3:0.54824519 4:0.55343223 5:0.55918747 6:0.59028107 7:0.32062429 8:0.33834893 9:0.47724155 10:0.53834957 11:0.47495666 12:0.4359788 13:0.74218321 14:0.37208667 15:0.46472719 16:0.76275438 17:0.7838887 18:0.60566753 19:0.44788674 20:0.44575682 21:0.45021066 22:0.44430864 23:0.61871147 24:0.57422602 25:0.67964476 26:0.55520678 27:0.38340756 28:0.64265913 29:0.31371719 30:0.35851848 31:0.5185883 32:0.22412728 33:0.46567979 34:0.49534586 35:0.58836883 36:0.4954578 37:0.62815875 38:0.49716291 39:0.45828331 40:0.47048727 41:0.61497468 42:0.46893466 43:0.76238579 44:0.49024239 45:0.36172745 46:0.72204119 47:0.61565864 48:0.33458281 49:0.45831069 50:0.38408881 51:0.33778265 52:0.61148602 53:0.54448366 54:0.7670145 55:0.58410245 56:0.5419693 57:0.28894538 58:0.64114273 59:0.75242251 60:0.3413021 61:0.3998065 62:0.55036229 63:0.45653999 64:0.45272887 65:0.54481232 66:0.51345998 67:0.50360298 68:0.20941834 69:0.54560989 70:0.80244273 71:0.55622137 
2.323779265247093 1.753224758397694 0 0.2909026831832933 0 0 0 0 0 0 0 0 0 0 1.932070813391785 0.6534029477689258 0 0 0 0.1582943474426739 0 0.4654277506057637 0 0.6451228498079121 0.4908899138416776 0 0 0 0.09577582145223115 0.3464032420827788 0.9615013773917624 0 0 0 0 0 1.449197658577333 2.623744642257334 0.3822012974664684 0 2.654082111353862 1:0.49805373 2:0.62179846 3:0.4843784 4:0.44684967 5:0.48671132 6:0.41873533 7:0.45532292 8:0.37394217 9:0.52274001 10:0.43210024 11:0.42279661 12:0.35229728 13:0.4751159 14:0.56058437 15:0.63525373 16:0.35086629 17:0.45411283 18:0.55512053 19:0.42106992 20:0.62827176 21:0.53840309 22:0.58129662 23:0.66197264 24:0.27814555 25:0.60914093 26:0.66462028 27:0.76028454 28:0.43202195 29:0.38448802 30:0.69439828 31:0.36399963 32:0.42094672 33:0.53664833 34:0.58394194 35:0.62266588 36:0.55948383 37:0.48149344 38:0.16878353 39:0.4514592 40:0.30600163 41:0.50775784 42:0.46282962 43:0.63025111 44:0.56301516 45:0.36628646 46:0.55904657 47:0.40781516 48:0.38581899 49:0.59055954 50:0.30176696 51:0.172435 52:0.44925579 53:0.46268103 54:0.62167084 55:0.56715858 56:0.53477389 57:0.47576937 58:0.59085858 59:0.63822109 60:0.34717718 61:0.427468 62:0.45704386 63:0.55208516 64:0.43354899 65:0.61009073 66:0.49912894 67:0.37230271 68:0.34015891 69:0.42669773 70:0.90919256 71:0.53581947 
0 0 0 0 0 0 0 0 0 0 0 0 0 0 0 0 0.7002217845027638 0 0 0 0 0 0 0 0 0 0 0 0 0 0 0 0 0 0 0 0 0 0 0 0 1:0.25434107 2:0.35096261 3:0.38947165 4:0.38306117 5:0.60288239 6:0.49653381 7:0.48724213 8:0.4613893 9:0.41086745 10:0.47263309 11:0.47224861 12:0.37273067 13:0.40039888 14:0.55063033 15:0.65215456 16:0.38342187 17:0.37072155 18:0.4714534 19:0.54176724 20:0.67399591 21:0.45564571 22:0.52400208 23:0.5115723 24:0.4825933 25:0.48462173 26:0.7428025 27:0.61855322 28:0.65771562 29:0.41638604 30:0.7321043 31:0.40063891 32:0.53171676 33:0.67717427 34:0.52072632 35:0.46671426 36:0.56396914 37:0.48218933 38:0.27087894 39:0.37478089 40:0.57052249 41:0.45242503 42:0.46402746 43:0.68041182 44:0.50193369 45:0.49225476 46:0.5213356 47:0.51757926 48:0.2928766 49:0.50111407 50:0.48042607 51:0.091476902 52:0.44828147 53:0.2643742 54:0.6047253 55:0.63853741 56:0.51249695 57:0.45958582 58:0.73166543 59:0.53155476 60:0.24096401 61:0.57858247 62:0.37723684 63:0.4643943 64:0.46198767 65:0.53969043 66:0.50190985 67:0.34022668 68:0.45362148 69:0.5731557 70:0.95342875 71:0.6715169 
0 0 0.1836413783617122 0 0 0 0 0 0 0 0 0 0 0 0.1148000090726362 0 0 0 0 0 2.004671220329537 0 0 0 0 0 0 0 0 0 0 0 0 0 1.343580209484916 0 0 0 0 0 0 1:0.40297061 2:0.37247393 3:0.29101512 4:0.38749075 5:0.5828492 6:0.52963036 7:0.49645016 8:0.50259298 9:0.43319976 10:0.47609556 11:0.43422574 12:0.28516704 13:0.48799819 14:0.50400847 15:0.66994935 16:0.50930768 17:0.42176768 18:0.54654837 19:0.58854777 20:0.64578629 21:0.43468237 22:0.525567 23:0.62690914 24:0.57383704 25:0.38156402 26:0.75260031 27:0.77798051 28:0.55765903 29:0.35639662 30:0.72799391 31:0.43256143 32:0.45663932 33:0.66820216 34:0.52182829 35:0.36037081 36:0.59880245 37:0.43196532 38:0.27596566 39:0.38610944 40:0.49684879 41:0.50970316 42:0.60893476 43:0.54065174 44:0.5662725 45:0.55250889 46:0.60366124 47:0.57834792 48:0.20578262 49:0.56969905 50:0.49073768 51:0.07677833 52:0.32211185 53:0.24455404 54:0.53970438 55:0.62289965 56:0.6669082 57:0.46836188 58:0.54944569 59:0.39490482 60:0.25928301 61:0.48659196 62:0.59659886 63:0.32446641 64:0.46933493 65:0.56939107 66:0.41739753 67:0.27752662 68:0.38109717 69:0.4559491 70:0.87938595 71:0.74090862 
0 0 0 0.7160846444871128 0.8171326122379357 0 0 0 0.748623483725067 0 2.593152573496212 0 0 0 0.1000941960816253 0 0 0 0 0 0 0 1.092291720599792 0 0 0 0 0 0 0 0 0 0 0 0 0 0 0.7204804650592677 0 0 0 1:0.51867414 2:0.60960633 3:0.53101009 4:0.41835082 5:0.52062494 6:0.43593338 7:0.47372463 8:0.3578631 9:0.52691996 10:0.38227788 11:0.41533217 12:0.35759079 13:0.55122656 14:0.52770907 15:0.67088997 16:0.41421977 17:0.47898096 18:0.52749759 19:0.49003911 20:0.68956232 21:0.53215182 22:0.56697321 23:0.62803501 24:0.26440138 25:0.54823059 26:0.57369208 27:0.76712543 28:0.46979359 29:0.36014536 30:0.66944385 31:0.33770749 32:0.45341057 33:0.58479708 34:0.57716274 35:0.61219847 36:0.5640685 37:0.43770012 38:0.17129721 39:0.43643698 40:0.30833203 41:0.50360894 42:0.46477884 43:0.57068223 44:0.54685891 45:0.37134492 46:0.57543343 47:0.43957305 48:0.36259755 49:0.59537327 50:0.29235405 51:0.1869394 52:0.46465608 53:0.43473953 54:0.61037856 55:0.616422 56:0.57001835 57:0.44962168 58:0.62072748 59:0.67201698 60:0.36415496 61:0.41557074 62:0.45385274 63:0.56058234 64:0.4501912 65:0.60205972 66:0.50149268 67:0.37114072 68:0.32830006 69:0.42418793 70:0.9009282 71:0.52427542 
0 0 0 0 0 0 0 0 0 0 0 0 0 0 0 0 0 0 2.187003330771276 0 0 0 0 0 0 0 0 0 0 0 0 0 0.03574575313575892 0 0 0 0 0 0 0 0 1:0.36427325 2:0.38021544 3:0.36633036 4:0.38014814 5:0.43842945 6:0.42312974 7:0.58922642 8:0.42633402 9:0.56928128 10:0.5956341 11:0.40140131 12:0.68364078 13:0.3296141 14:0.55357528 15:0.41229379 16:0.55379832 17:0.50076175 18:0.50899637 19:0.56257886 20:0.60228908 21:0.63948196 22:0.39180863 23:0.32235643 24:0.6410321 25:0.49138618 26:0.58835161 27:0.57270813 28:0.26974201 29:0.47134224 30:0.53999203 31:0.46186888 32:0.52080292 33:0.47540012 34:0.45439711 35:0.53649747 36:0.69822717 37:0.55047613 38:0.56473404 39:0.31402284 40:0.41618767 41:0.43540686 42:0.34707913 43:0.47534153 44:0.4845126 45:0.35485756 46:0.78375876 47:0.6258117 48:0.54343778 49:0.57073045 50:0.44953731 51:0.26244512 52:0.53587157 53:0.28654772 54:0.78769052 55:0.66698992 56:0.49628901 57:0.63422161 58:0.79491758 59:0.68255675 60:0.36883551 61:0.45508063 62:0.71643674 63:0.34223908 64:0.36504331 65:0.58981258 66:0.31883857 67:0.38743228 68:0.23907579 69:0.51968229 70:0.81721187 71:0.57738662 
0 0 0 0 0 0 0 0 0 0 0 0 0 0 0 0 0 0 0 0 0 0 0.227770750543107 0 0 0 0 0 0 0 0 0 0 0 0 0 0 0 0 0 0 1:0.70453644 2:0.72762847 3:0.42447612 4:0.46408424 5:0.53942549 6:0.41928482 7:0.4160181 8:0.29579902 9:0.45587921 10:0.57708144 11:0.58585405 12:0.43228135 13:0.54155815 14:0.41304356 15:0.42081502 16:0.78596467 17:0.53287673 18:0.47587359 19:0.477171 20:0.58030301 21:0.56492621 22:0.6092782 23:0.60615158 24:0.57606775 25:0.74324423 26:0.51161474 27:0.41182053 28:0.7955392 29:0.3621335 30:0.12967049 31:0.55917066 32:0.44618827 33:0.37158063 34:0.2133994 35:0.36993775 36:0.51859254 37:0.55259168 38:0.33379051 39:0.44631192 40:0.59835571 41:0.53542638 42:0.58962929 43:0.84190398 44:0.35861588 45:0.3211062 46:0.70755416 47:0.77608651 48:0.34328833 49:0.36565226 50:0.53271157 51:0.39587376 52:0.48962769 53:0.40882525 54:0.61792237 55:0.66862309 56:0.45625955 57:0.27296126 58:0.76149631 59:0.57338262 60:0.40154499 61:0.6205067 62:0.51584703 63:0.34877735 64:0.49734339 65:0.51258898 66:0.52176201 67:0.43032205 68:0.29772863 69:0.65060341 70:0.78643203 71:0.68087381 
0 0 0 0 0 0 0 0 0 0 0 0 0 0 0 0 0 0 0 0 0 0 0.3534495912269486 0 0 0 0 0 0 0 0 0 0 0 0 0 0 0 0 0 0 1:0.71777517 2:0.82235104 3:0.32026628 4:0.52284479 5:0.57055056 6:0.51626563 7:0.30840591 8:0.25326717 9:0.49279898 10:0.52908868 11:0.64103431 12:0.40083551 13:0.7463913 14:0.27670571 15:0.62464929 16:0.85933954 17:0.64586931 18:0.44130012 19:0.6670993 20:0.45045415 21:0.49978846 22:0.49459866 23:0.51940835 24:0.62166554 25:0.85883075 26:0.56718886 27:0.52699107 28:0.67176545 29:0.33482924 30:0.28020811 31:0.6101439 32:0.30615303 33:0.44906387 34:0.51356655 35:0.48670077 36:0.50074142 37:0.55977017 38:0.35631636 39:0.44962567 40:0.591461 41:0.53867447 42:0.56702155 43:0.95751786 44:0.45133439 45:0.32230887 46:0.69038844 47:0.68593347 48:0.26490411 49:0.38418981 50:0.41635787 51:0.26822999 52:0.46435064 53:0.32785711 54:0.56537282 55:0.61766863 56:0.41280383 57:0.30827487 58:0.74712378 59:0.50304437 60:0.40757948 61:0.6178937 62:0.31868929 63:0.43126625 64:0.530882 65:0.58462447 66:0.50985599 67:0.4498741 68:0.44363073 69:0.69780928 70:0.84279424 71:0.59555423 
0 0 0 0 0 0 0 0 0 0 0 0 0 0.01872199072387198 0 0 0 0 0 0 0.3228108305258517 0 0 0 0 0 0 0 0 0 0 0 0 0 0 0 0 0 0 0 0 1:0.23868823 2:0.40662017 3:0.47882557 4:0.53647095 5:0.57536095 6:0.55666524 7:0.58570004 8:0.50396359 9:0.5786835 10:0.52373511 11:0.61412156 12:0.50310975 13:0.40229487 14:0.37672943 15:0.54917097 16:0.63352245 17:0.24648806 18:0.53898358 19:0.48629448 20:0.58057994 21:0.46819347 22:0.35338464 23:0.28210735 24:0.61662096 25:0.56418401 26:0.86878115 27:0.54544103 28:0.43440065 29:0.44155371 30:0.5755313 31:0.51665711 32:0.46303028 33:0.53833061 34:0.59613353 35:0.4091734 36:0.57307255 37:0.56492293 38:0.30261368 39:0.41590407 40:0.43205926 41:0.66575813 42:0.57426894 43:0.60180724 44:0.45276624 45:0.38247368 46:0.75045305 47:0.64297295 48:0.10974357 49:0.63849872 50:0.52899677 51:0.1478516 52:0.30171487 53:0.30183506 54:0.60483736 55:0.58544546 56:0.52960563 57:0.52877057 58:0.63520867 59:0.43091372 60:0.45964682 61:0.61621225 62:0.47092891 63:0.26821157 64:0.45821068 65:0.6443817 66:0.47355548 67:0.3800993 68:0.42846218 69:0.6337077 70:0.8891592 71:0.64710087 
0 0 0 0 0 0 0 0 0 0 0 0 0 0 0 0.4983473815853985 0.1580833182322915 0 0 0 0 0 0 0 0 0 0 0 0 0 0 0 0 0.6149686789461715 0 0.4071787169779562 0.1619294575175461 0 0 0 0 1:0.48071375 2:0.43750069 3:0.3761794 4:0.26437774 5:0.56328636 6:0.53359723 7:0.66475987 8:0.55566067 9:0.44289094 10:0.59495139 11:0.39216501 12:0.48774806 13:0.60003549 14:0.47668466 15:0.49294379 16:0.6153236 17:0.42887899 18:0.369059 19:0.63711846 20:0.47651404 21:0.38705447 22:0.36288673 23:0.4615044 24:0.47536576 25:0.46993306 26:0.84289473 27:0.78502142 28:0.46532258 29:0.43024197 30:0.82448316 31:0.70831835 32:0.36716455 33:0.52237219 34:0.79910052 35:0.36811429 36:0.61827928 37:0.50354373 38:0.27689901 39:0.41687405 40:0.46855155 41:0.62521774 42:0.53903568 43:0.34151375 44:0.60940129 45:0.43178689 46:0.67229921 47:0.66076821 48:0.056994662 49:0.74320382 50:0.66951823 51:0.11204822 52:0.51924777 53:0.12217376 54:0.55730861 55:0.55825418 56:0.66355413 57:0.41631097 58:0.46962482 59:0.39300638 60:0.33520731 61:0.47221187 62:0.63354039 63:0.18459287 64:0.47873503 65:0.54902244 66:0.42381376 67:0.32093626 68:0.17714418 69:0.48322344 70:0.72947079 71:0.7265147 
0.08689467561913126 0 0 0 0 0 0 0 0 0 0 0 0 0 0 0 0 0.8853570874816117 0 0 0 0 0 0 0 0 0 0 0 0 0 0 0 0 0 0.4429255226820455 0 0 0 0 0 1:0.38477084 2:0.29471853 3:0.38470078 4:0.56815505 5:0.47284919 6:0.5287841 7:0.5719955 8:0.75377595 9:0.50788385 10:0.50666708 11:0.57669199 12:0.54767412 13:0.65206492 14:0.35281563 15:0.52700603 16:0.54722184 17:0.39287227 18:0.50835353 19:0.61313009 20:0.58881485 21:0.46020877 22:0.44587952 23:0.41047072 24:0.52491254 25:0.36280489 26:0.54593354 27:0.6036517 28:0.36751547 29:0.40503863 30:0.54936266 31:0.51094604 32:0.59572476 33:0.65030813 34:0.758892 35:0.65586144 36:0.61277449 37:0.52019089 38:0.4245933 39:0.49154237 40:0.45545948 41:0.49186453 42:0.38367495 43:0.48621303 44:0.54705071 45:0.35578239 46:0.70275962 47:0.51954806 48:0.25438428 49:0.53044885 50:0.54947573 51:0.32314977 52:0.44256282 53:0.24205662 54:0.71407688 55:0.6226514 56:0.56142521 57:0.35535812 58:0.6951561 59:0.57118565 60:0.27012455 61:0.59851217 62:0.52016521 63:0.37579578 64:0.45883036 65:0.66512787 66:0.44261843 67:0.47873226 68:0.23405756 69:0.5452348 70:0.82992923 71:0.55039847 
0.3238198084959194 0 0 0 0 0 0 0 0 0 0.4622889949103783 0.3181190379647574 0 0.5514539613168705 0 0 0 0.1274853724517903 0 0 0 0 0 0 0 0 0 0 0.3170213419412914 0 0 0.595591124340616 0 0 0 0.984300033327671 0 1.836568722578921 0 0 0 1:0.44704786 2:0.31441307 3:0.46334878 4:0.45599091 5:0.46798256 6:0.48806909 7:0.52474159 8:0.49576244 9:0.56647557 10:0.67994267 11:0.45452869 12:0.49368507 13:0.45065242 14:0.26647836 15:0.45271587 16:0.51539552 17:0.46282166 18:0.36423722 19:0.50488031 20:0.42287496 21:0.37639642 22:0.45351285 23:0.40061054 24:0.46769187 25:0.4454 26:0.77186263 27:0.65277934 28:0.28756586 29:0.31417221 30:0.62116432 31:0.49913707 32:0.47195154 33:0.66055316 34:0.71845663 35:0.52397841 36:0.52967483 37:0.58882242 38:0.2316743 39:0.53293914 40:0.38503808 41:0.63488173 42:0.4753935 43:0.54180419 44:0.46288916 45:0.33033308 46:0.59827703 47:0.59856617 48:0.32309717 49:0.63098091 50:0.48210418 51:0.18801913 52:0.5343672 53:0.32196513 54:0.61906582 55:0.4680652 56:0.57903153 57:0.43451923 58:0.60418367 59:0.62109476 60:0.27901626 61:0.43895471 62:0.57078749 63:0.37739411 64:0.38621917 65:0.51468694 66:0.51608109 67:0.38768455 68:0.14661415 69:0.47414735 70:0.80172259 71:0.57913095 
1.239276162046542 2.207360281486267 0 0 0 0 0 0.6074856702065046 0 0 0.9410849717827633 5.738937597266794 2.507006993319859 0 0 1.152505713145944 1.914545985286787 0.6065484287733443 0.0959762208444369 0.6784841924103784 0 2.659805586209206 0 1.025329648601839 0 0 0.9427260425828297 0.9483792964314693 0.896218034977747 1.777184058342014 0 2.323427257592237 0 0 0.1282903817519009 2.230966791341464 1.03488991931094 0 0 0.4096991899109281 0.8984040480725832 1:0.43079704 2:0.22834273 3:0.4630143 4:0.33651325 5:0.54274052 6:0.46425712 7:0.59049308 8:0.53613615 9:0.48174822 10:0.65661728 11:0.348515 12:0.64861786 13:0.30733901 14:0.45736066 15:0.54584408 16:0.49274826 17:0.43897325 18:0.28478971 19:0.53011942 20:0.70317137 21:0.67152357 22:0.53849047 23:0.41323987 24:0.47486314 25:0.43881774 26:0.52961797 27:0.54621494 28:0.51692361 29:0.51506907 30:0.46692669 31:0.5922327 32:0.61647004 33:0.51481813 34:0.4705385 35:0.55132329 36:0.59658575 37:0.55469173 38:0.37968972 39:0.38514328 40:0.45776093 41:0.46943235 42:0.37353647 43:0.60763407 44:0.45819712 45:0.43827179 46:0.63093883 47:0.69799274 48:0.45442185 49:0.53765297 50:0.50138015 51:0.39179325 52:0.66583395 53:0.13299713 54:0.74716353 55:0.63845944 56:0.41992784 57:0.46649784 58:0.66140825 59:0.69034576 60:0.082242139 61:0.61556268 62:0.55803317 63:0.48884141 64:0.35028544 65:0.58065844 66:0.42994636 67:0.43333614 68:0.18548326 69:0.57589453 70:0.73905146 71:0.57668197 
0 0 0 0 0 0 0 0 0 0 0 0 0 0 0 0 0 0 0.9744362943266086 1.525154684761595 0 0.3780323534512256 0 0 0 0.9668087107022136 0 0 0 0 0 0 0 0 0 1.98743224621024 0 0 0 0 0 1:0.71938854 2:0.68839377 3:0.3753038 4:0.73589528 5:0.52274746 6:0.5020321 7:0.27595627 8:0.49617016 9:0.46350789 10:0.40818611 11:0.56859213 12:0.46978399 13:0.79339904 14:0.50018328 15:0.49550325 16:0.73357886 17:0.80048245 18:0.56985724 19:0.51625699 20:0.38272083 21:0.41003877 22:0.50238359 23:0.69285208 24:0.4401761 25:0.80302405 26:0.50879592 27:0.52869564 28:0.70612073 29:0.3636888 30:0.24977048 31:0.46025518 32:0.30644128 33:0.4486571 34:0.51399106 35:0.59497124 36:0.4809804 37:0.62742734 38:0.40053919 39:0.41921589 40:0.52871633 41:0.5846709 42:0.4917545 43:0.76508176 44:0.54198438 45:0.2577225 46:0.74253064 47:0.63536108 48:0.44803205 49:0.45754462 50:0.44520277 51:0.4015536 52:0.56104368 53:0.51434547 54:0.6421594 55:0.60593319 56:0.58968979 57:0.24335347 58:0.68861771 59:0.6996094 60:0.3886508 61:0.37166724 62:0.53915304 63:0.41328609 64:0.47107249 65:0.57406777 66:0.50266635 67:0.51236075 68:0.12606336 69:0.49925846 70:0.74853295 71:0.52821147 
0 0 0 0 0 0 0 0 0 0 0 0 0 0 0 1.20473346686791 0 0 0 0 0 0 0 0 0 0 0.6022185668207337 0 0 0 0 0 0 0 0 0 0 0 0 0 0 1:0.74686241 2:0.69171602 3:0.47528398 4:0.53898352 5:0.54399645 6:0.46836782 7:0.2614021 8:0.28582832 9:0.33550593 10:0.51488847 11:0.4437578 12:0.53681338 13:0.68910438 14:0.39175493 15:0.59840304 16:0.8477639 17:0.71272135 18:0.45856255 19:0.53088814 20:0.58305556 21:0.5381307 22:0.52706987 23:0.58770388 24:0.52351761 25:0.85720694 26:0.63099819 27:0.48131791 28:0.74841732 29:0.47386995 30:0.34744155 31:0.52164227 32:0.30452815 33:0.35107249 34:0.4077923 35:0.51126051 36:0.51177615 37:0.57501042 38:0.43222594 39:0.32293957 40:0.6840229 41:0.51199085 42:0.38954344 43:0.87482262 44:0.37225348 45:0.34118304 46:0.60851473 47:0.75290322 48:0.29861218 49:0.37174806 50:0.58164805 51:0.42974669 52:0.6207636 53:0.37257937 54:0.69686562 55:0.5421471 56:0.44334704 57:0.19572401 58:0.67995882 59:0.49194637 60:0.31614792 61:0.57549012 62:0.41187209 63:0.33513719 64:0.46543556 65:0.45420128 66:0.46695697 67:0.3897087 68:0.22118284 69:0.64330721 70:0.73682314 71:0.68106079 
1.491401371337549 1.637688206971762 0 0 0 1.217558872295262 0 0.489757760819602 0 0 0.5111445301143196 0 0 0 0 0.3494752759385324 0 2.121612286949327 0.3705614909844652 0 0 1.454944363888186 0 0 0 0 0 0 0.2500345043795427 0 0 0.01889911221975831 0.3978217508277767 1.274005949188489 0 0 1.154988248375796 1.243582785001074 0 0 1.466182959742625 1:0.7834335 2:0.52614176 3:0.42729738 4:0.51530224 5:0.48705715 6:0.59156275 7:0.35916123 8:0.64390969 9:0.44888842 10:0.54330301 11:0.73028409 12:0.61150932 13:0.68515933 14:0.52092081 15:0.32185879 16:0.69742596 17:0.84681892 18:0.54935735 19:0.43728104 20:0.28410816 21:0.42650476 22:0.50857872 23:0.79023707 24:0.52078819 25:0.81102389 26:0.47931817 27:0.53282756 28:0.53477806 29:0.36489043 30:0.32430294 31:0.47915432 32:0.37042075 33:0.34706423 34:0.66863728 35:0.61392838 36:0.52923036 37:0.57309723 38:0.39873835 39:0.43202004 40:0.58653903 41:0.63330197 42:0.46079215 43:0.78842449 44:0.52704239 45:0.2378737 46:0.76245111 47:0.68875998 48:0.40691817 49:0.43832994 50:0.44714263 51:0.34157243 52:0.58198315 53:0.51189327 54:0.77053839 55:0.60769784 56:0.61467636 57:0.26184592 58:0.65687966 59:0.67493284 60:0.47992387 61:0.32656974 62:0.51140308 63:0.40396386 64:0.45804778 65:0.52548414 66:0.50923532 67:0.53836578 68:0.14059977 69:0.45304918 70:0.65726185 71:0.52589488 
0 0 0 0 0 0 0 0 0 0 0 0 0 0 0 0.01144946155833705 0 0 0 0 0 0 0 0 0 0 0 0 0 0 0 0 0 0 0 0 0.1519825108088212 0 0 0 0 1:0.81089729 2:0.6149646 3:0.51688105 4:0.13353348 5:0.65195471 6:0.5088442 7:0.33427697 8:0.42733327 9:0.43526098 10:0.72973317 11:0.87408894 12:0.79505938 13:0.39568964 14:0.37036371 15:0.46257466 16:0.75772625 17:0.70348394 18:0.55979812 19:0.50469059 20:0.39522967 21:0.51937771 22:0.49926081 23:0.59425837 24:0.58162546 25:0.83666056 26:0.57035577 27:0.43150556 28:0.65829176 29:0.42286652 30:0.33490714 31:0.42438644 32:0.46756449 33:0.1692625 34:0.32526475 35:0.64482421 36:0.58600628 37:0.55847579 38:0.48307925 39:0.34291553 40:0.77237689 41:0.55579233 42:0.44376674 43:0.93228751 44:0.50789899 45:0.34785819 46:0.80543178 47:0.86572021 48:0.3346543 49:0.41685268 50:0.52819306 51:0.48555416 52:0.57886863 53:0.20238656 54:0.79708445 55:0.7645191 56:0.42642298 57:0.24248499 58:0.65470862 59:0.41983804 60:0.29798242 61:0.6951949 62:0.22973599 63:0.44523889 64:0.48947161 65:0.57473654 66:0.44800001 67:0.49583393 68:0.41091967 69:0.6792053 70:0.66368425 71:0.67513859 
0 0 0 0 0 0 0 0.7266999237354366 0 0.8586732239519087 0 0 0.0539304625442945 0 0 0 0 1.200640380853556 0 0 0 0.7819716698125158 0 0.2246553142846013 0 0 0 2.099747099157991 0 0 0 0 0.3913490322120305 0 0 0 1.206822192102172 0 0 0 0 1:0.42738664 2:0.38806084 3:0.52330512 4:0.37731305 5:0.70220506 6:0.62957346 7:0.42008415 8:0.39702621 9:0.60958868 10:0.49334937 11:0.53647774 12:0.66532737 13:0.62575728 14:0.33489925 15:0.5428611 16:0.56072688 17:0.53496903 18:0.52237457 19:0.51514465 20:0.42464083 21:0.35513794 22:0.41411296 23:0.70683831 24:0.43337736 25:0.45080754 26:0.44305766 27:0.49017638 28:0.55682695 29:0.38887706 30:0.69769645 31:0.44636178 32:0.67399579 33:0.65627885 34:0.71884125 35:0.61623609 36:0.43017843 37:0.58030319 38:0.44079161 39:0.45692927 40:0.35968488 41:0.55202568 42:0.544402 43:0.55300808 44:0.59512842 45:0.34168774 46:0.59332097 47:0.32306287 48:0.25650436 49:0.62373769 50:0.44970563 51:0.20847727 52:0.41508776 53:0.51115674 54:0.57958645 55:0.49259499 56:0.64268821 57:0.53932697 58:0.75495476 59:0.74091655 60:0.26353541 61:0.38435385 62:0.59583038 63:0.39382833 64:0.51202464 65:0.66757965 66:0.34023935 67:0.34847862 68:0.16446391 69:0.35303292 70:0.73620683 71:0.55952227 
0 0 0 0.08730921507291577 0 0 0 0 0 0 0 1.231169631763444 0 0 0 0 0 0 0 0 0 0 0 0 0 0 1.336906640509371 0 0 0 0 1.393962701301025 0 0 0 0 0 0 0 0 0 1:0.17471316 2:0.33355355 3:0.47496298 4:0.48437497 5:0.43532342 6:0.45454645 7:0.38676974 8:0.48503864 9:0.61308193 10:0.45634654 11:0.80454725 12:0.45711255 13:0.40232453 14:0.59344447 15:0.54650992 16:0.63854522 17:0.42389339 18:0.44292161 19:0.45515534 20:0.50154638 21:0.38318771 22:0.33395815 23:0.50516564 24:0.51583177 25:0.39743593 26:0.56366509 27:0.44867885 28:0.54855239 29:0.50890553 30:0.64238691 31:0.2472043 32:0.6272971 33:0.67683566 34:0.52361739 35:0.53543591 36:0.34685186 37:0.44491762 38:0.58643872 39:0.3745935 40:0.62763947 41:0.47279063 42:0.57943326 43:0.46524358 44:0.60993463 45:0.37015742 46:0.62955558 47:0.30729038 48:0.24640726 49:0.6521219 50:0.5436222 51:0.23007479 52:0.25694492 53:0.37476924 54:0.54574019 55:0.45206326 56:0.48038915 57:0.48196572 58:0.80745405 59:0.51218683 60:0.14063303 61:0.61302054 62:0.35759354 63:0.33106142 64:0.58684391 65:0.63224983 66:0.37114149 67:0.2842865 68:0.37099525 69:0.47657129 70:0.78727651 71:0.68483198 
