svm_type c_svc
kernel_type rbf
gamma 0.09
nr_class 2
total_sv 23
rho 0.125965
label 130660102 130660103
probA -4.63404
probB -0.973191
nr_sv 5 18
SV
9.666449360456538 1:0.3972472 2:0.4758392 3:0.81545311 4:0.54086018 5:0.42943132 6:0.63838381 7:0.059929449 8:0.5369184 9:0.53365564 10:0.54464871 11:0.61207348 12:0.34461838 13:0.22888659 14:0.7248171 15:0.32708436 16:0.16950893 17:0.72060704 18:0.077165835 19:0.3235319 20:0.25586119 21:0.71624863 22:0.093304999 23:0.31686857 
6.731138170707186 1:0.51543087 2:0.52604711 3:0.4874759 4:0.38060111 5:0.83722341 6:0.4982439 7:0.59150684 8:0.55097795 9:0.74506748 10:0.72290874 11:0.37555483 12:0.18765551 13:0.78610885 14:0.098907188 15:0.18727179 16:0.67407364 17:0.32508817 18:0.5924421 19:0.42001113 20:0.43372509 21:0.9095729 22:0.3305617 23:0.23741315 
4.57209145990399 1:0.73774958 2:1 3:0.29153112 4:0.12529655 5:0.28370172 6:0.24885471 7:0.71144909 8:0.71431452 9:0.27784508 10:0.61641061 11:0.48347908 12:0.9541347 13:0.1856166 14:0.51509315 15:0.17235988 16:0.77538645 17:0.59182757 18:0.62288278 19:0.49918312 20:0.15348187 21:0.52079612 22:0 23:0.51655561 
5.520768413614663 1:0.36657211 2:0.51563138 3:0.27328742 4:0.54033279 5:0.34089327 6:0.4723537 7:0.58066666 8:0.10802474 9:0.7288599 10:0.50001192 11:0.06605652 12:0.55529767 13:0.7412706 14:0.57972425 15:1 16:0.56475598 17:0.79258144 18:0.46830052 19:0.40099722 20:0.58564997 21:8.9530959e-17 22:0.44191059 23:8.2088014e-17 
4.536028991866703 1:0 2:0 3:0.47745836 4:0.57271051 5:0 6:0.12529764 7:0.3344256 8:0.36696181 9:0.70323795 10:0.75337029 11:0.38615227 12:0.67652768 13:0.50619727 14:0.33307421 15:0.028992875 16:0.74761522 17:0.24536109 18:0.926413 19:0.8283937 20:0.21805835 21:0.43294415 22:0.118873 23:0.65231413 
-0.2884609453205896 1:0.41982433 2:0.54685116 3:0.085596241 4:0.56749117 5:0.18728849 6:0.33686343 7:0.45480019 8:0.70203799 9:0.42442358 10:0.84557402 11:0.4643763 12:0.25184679 13:0.44936523 14:0.81274229 15:0.36419132 16:1 17:0.78632021 18:0.11994422 19:0.56095093 20:0.27833274 21:0.86039221 22:0.81635469 23:0.56790799 
-1.026384866960575 1:0.096761294 2:0.5674234 3:0.4948298 4:0.5167501 5:1 6:1 7:0.25629991 8:0.58143628 9:0.56970268 10:0.96300423 11:0.61900884 12:1 13:0.21356031 14:0.62434286 15:0.10560706 16:0.57482713 17:1 18:0.94334906 19:0.96158934 20:0.61662167 21:0.39919731 22:0.83534718 23:0.3490155 
-2.625292701255224 1:0.53408897 2:0.70977473 3:1 4:0.39506552 5:0.51974589 6:0.23304676 7:0.27891195 8:0.2928054 9:0.66169757 10:0.77304775 11:0.59705436 12:0.083209656 13:0.27282587 14:0.73860556 15:0.39022949 16:0.66478175 17:0.74954098 18:0.47837988 19:0.68900567 20:0.48715562 21:0.4291254 22:0.76050675 23:0.60934889 
-1.337857661939609 1:0.26191726 2:0.85072196 3:0.86947709 4:0.45639801 5:0.33613342 6:0.74601758 7:0.57325596 8:0.60077935 9:0.61679149 10:0.52581596 11:0.076658435 12:0.41322604 13:0.77984059 14:0.51663417 15:0.29696992 16:0.42635286 17:0.57855994 18:0.65457278 19:0.67640507 20:0.02982346 21:0.87922275 22:0.8385908 23:0.68079048 
-2.701624932313841 1:0.5798772 2:0.25727808 3:0.14445776 4:0.079831094 5:0.24789259 6:0.94366252 7:0.2517114 8:0.78763455 9:0.31637517 10:0.42854795 11:0.39204702 12:0.2999717 13:0.73873138 14:0.54064393 15:0.27499345 16:0.40934911 17:0.43412116 18:0.011223361 19:0.93421781 20:0.67918414 21:0.40255281 22:0.69388384 23:0.57698661 
-1.403718325841995 1:0.51964599 2:0.56254882 3:0.02696971 4:0.35956955 5:0.42696849 6:0.26467788 7:0.38826689 8:0.022785563 9:0.72738785 10:0.29920903 11:2.3098633e-16 12:0.75512683 13:0.17740217 14:0.62908298 15:0.034906492 16:0.26624122 17:0.88603145 18:0.3864744 19:0.27292228 20:0.5519594 21:0.8010276 22:0.79039788 23:0.39371666 
-4.199542590938753 1:0.52019477 2:0.55842739 3:0.88421774 4:0.29510033 5:0.34179679 6:0.38122866 7:0.37387225 8:0.37242398 9:0.5500688 10:0.51209998 11:0.20555808 12:0.43674567 13:0.26922074 14:0.44378215 15:0.22624643 16:0.45957118 17:0.63731992 18:0.56189764 19:0.27677163 20:0.72258282 21:0.71850187 22:0.76390189 23:0.47898585 
-1.337508725703596 1:0.60120183 2:0.3600561 3:0.11013357 4:1.0110715e-16 5:0.6346305 6:0.66505706 7:0 8:0.41000471 9:0.47230113 10:0.51919627 11:0.2295288 12:0.69453007 13:0.12383385 14:0.59040225 15:0.80844104 16:0.7122193 17:0.0034835821 18:0.56044358 19:0.52885735 20:0.025903631 21:0.65044844 22:0.58033097 23:0.84807074 
-2.395660140020123 1:0.23136877 2:0.47563049 3:0.16765751 4:0.68310517 5:0.75050938 6:0.14170551 7:0.31178227 8:0.59702772 9:0.32951975 10:0 11:0.50100523 12:0.50908035 13:0.39289948 14:0.6951611 15:0.52010143 16:0.6520406 17:0.84622908 18:0.35098946 19:0.58637756 20:0.28551912 21:1 22:0.64724082 23:0.43868577 
-2.012769770521344 1:0.41312554 2:0.60713625 3:0.73930097 4:0.59412062 5:0.2915704 6:0.22392164 7:0.036313932 8:2.6923175e-16 9:0.22127154 10:0.38877898 11:0.57732689 12:0.9730615 13:0.76007515 14:0.56075972 15:0.45536986 16:0.65053487 17:0.40693027 18:0.66460228 19:0.71704817 20:0.56204033 21:0.99957776 22:0.62628609 23:0.34261042 
-1.375575389311881 1:0.40457249 2:0.49072796 3:0.97114354 4:0.8184337 5:0.23798771 6:0.82453305 7:1 8:0.65903831 9:0.43113247 10:0.029288605 11:0.5442785 12:0.82045817 13:0.19506815 14:0.81886792 15:0.41579458 16:0.55244577 17:0 18:0.27778947 19:0.61882961 20:0.44144809 21:0.43518585 22:0.60665935 23:0.55829954 
-0.4574286239071117 1:0.62759089 2:0.58313954 3:0.60086232 4:1 5:0.6969983 6:0.014098016 7:0.055928972 8:1 9:0.84197289 10:0.68338281 11:0.081729941 12:0.84386766 13:0.16290158 14:0.46788934 15:0.5344463 16:0.65409374 17:0.22658943 18:7.9788406e-17 19:0.58445954 20:0.5673753 21:0.40927923 22:0.77712363 23:0.67116892 
-3.291509003252874 1:0.48622471 2:0.37340981 3:0.093671449 4:0.56023639 5:0.20974472 6:0.22944289 7:0.55112046 8:0.75130534 9:0.59054619 10:0.86224216 11:1 12:0.75568181 13:0.41931903 14:0.46524081 15:0.56443739 16:0.15775511 17:0.546911 18:0.7924962 19:0.37863752 20:5.7911212e-17 21:0.63276613 22:0.9531101 23:0.187819 
-2.088841075444386 1:0.33606136 2:0.41548952 3:0.51995742 4:0.70601338 5:0.40827668 6:0.32813981 7:0.39837876 8:0.62428278 9:0.23420969 10:0.56082696 11:0.14745358 12:0.029073479 13:0.11905126 14:0.46742836 15:0.23628333 16:0.31542659 17:0.38135681 18:0.88233727 19:0.22354177 20:0.52574784 21:0.51535517 22:0.73862851 23:0.58680207 
-1.64203685811578 1:0.34335908 2:0.49914747 3:0.74759406 4:0.46794671 5:0.28527912 6:0.77442259 7:0.29568321 8:0.39219463 9:0.39238968 10:0.65687484 11:0.36129513 12:0.6769796 13:0.5711832 14:0.34098086 15:0.51596951 16:0.52182359 17:0.65892607 18:0.12574381 19:0.45481509 20:0.17741209 21:0.61276072 22:0.70670307 23:0.96867919 
-1.461945967273931 1:0.74367976 2:0.33133626 3:0.67770183 4:0.32330877 5:0.77339178 6:0.29489517 7:0.39118123 8:0.15811162 9:1 10:0.66263306 11:0.79232621 12:0.44317687 13:0.48241279 14:0.75176501 15:0.31556019 16:0.49414253 17:0.088468082 18:0.38992622 19:0.5276354 20:0.1236103 21:0.62157422 22:0.68126667 23:0.91414583 
-0.5354024349173241 1:0.92426312 2:0.29398715 3:0.39549458 4:0.65265352 5:0.53355175 6:0.49508834 7:0.84660387 8:0.36377367 9:0.48004264 10:0.4678176 11:0.55947727 12:0.73447526 13:0.25771075 14:0.39207786 15:0.40507689 16:0.42306787 17:0.86524141 18:0.5476954 19:0.46236107 20:0.43447953 21:0.63390368 22:0.59468472 23:0.85953444 
-0.8449163835101422 1:0.64246273 2:0.48945975 3:0.33130923 4:0.72546351 5:0.34696266 6:0.61706787 7:0.46462837 8:0.073729418 9:0.38969618 10:1 11:0.65042746 12:0.53447562 13:0.44284895 14:0.76593816 15:0.051313907 16:0.63427031 17:0.11408026 18:0.032456901 19:0.70924109 20:0.49581838 21:0.68729037 22:0.83636206 23:0.22761343 
