svm_type c_svc
kernel_type rbf
gamma 0.09
nr_class 2
total_sv 72
rho 1.00944
label 130820101 130820102
probA -4.77925
probB 0.267636
nr_sv 25 47
SV
3.240594519480259 1:0.76745242 2:0.60618937 3:0.18009783 4:0.56104398 5:0.82650673 6:0.4223164 7:0.54003751 8:0.70890582 9:0.31056157 10:0.6879856 11:0.63645947 12:0.28783825 13:0.083724655 14:0.68426472 15:0.56209499 16:0.16445421 17:0.46565777 18:0.37581545 19:0.44490224 20:0.1782244 21:0.41509601 22:0.56613928 23:0.62216133 24:0.46100152 25:0.36286503 26:0.3298513 27:0.44052854 28:0.4826344 29:0.57034701 30:0.55218965 31:0.61661249 32:0.33217275 33:0.92928267 34:0.52282357 35:0.64108574 36:0.52432799 37:0.38864323 38:0.64152932 39:0.43189293 40:0.28788659 41:0.28599843 42:0.48149675 43:0.62898177 44:0.20413798 45:0.35275686 46:0.55940837 47:0.52382439 48:0.4010925 49:0.4208205 50:0.21103036 51:0.50657672 52:0.12500943 53:0.91784847 54:0.43884286 55:0.3226113 56:0.14945713 57:0.75423473 58:0.81126398 59:0.99754226 60:0.30694813 61:0.51499712 
4.05375293204857 1:0.14990787 2:0.85249168 3:0.4904522 4:0.49181947 5:0.45387086 6:0.34324253 7:0.6219669 8:0.31567356 9:0.70841348 10:0.18458727 11:0.40211314 12:0.41373882 13:0.6484338 14:0.59344864 15:0.33079198 16:0.46542612 17:0.62662166 18:0.58514297 19:0.4396992 20:0.27802557 21:0.69177663 22:0.24249601 23:0.52097809 24:0.58475637 25:0.44688901 26:0.71340972 27:0.34617329 28:0.60150784 29:0.63480723 30:0.37399152 31:0.53181225 32:0.71507132 33:0.53759605 34:0.34437445 35:0.25366792 36:0.33653125 37:0.48445854 38:0.66066307 39:0.2645267 40:0.63336998 41:0.44503504 42:0.34601885 43:0.42600542 44:0.58392608 45:0.49184209 46:0.28557834 47:0.42148104 48:0.22520632 49:0.63529867 50:0.27086985 51:0.641478 52:0.70711666 53:0.48284042 54:0.5910427 55:0.22277698 56:0.24836755 57:0.69808078 58:0.62606722 59:0.83993614 60:0.45568162 61:0.71337426 
0.5343283024771391 1:0.66791731 2:0.583745 3:0.20908926 4:0.70175886 5:0.43478155 6:0.61275089 7:0.60200024 8:1 9:0.51179081 10:0.65917188 11:0.73250318 12:0.37923351 13:0.55256718 14:0.64931399 15:0.53286791 16:0.51329309 17:0.4038066 18:0.53949875 19:0.71661025 20:0.25699142 21:0.47843206 22:0.39475909 23:0.64783406 24:0.51596773 25:0.18260358 26:0.26363531 27:0.3723577 28:0.81399339 29:0.74754447 30:0.47542045 31:0.65515542 32:0.81733614 33:0.59892058 34:0.65298492 35:0.56143188 36:0.44078296 37:0.68880796 38:0.68672335 39:0.57583207 40:0.35553014 41:0.26681557 42:0.61941057 43:0.42028406 44:0.062486246 45:0.49077448 46:0.49241865 47:0.58268237 48:0.31023392 49:0.35303858 50:0.27716514 51:0.511132 52:0.24033384 53:0.79092848 54:0.46850806 55:0.22470726 56:0.22817759 57:0.58367079 58:0.7995922 59:0.98210871 60:0.28544542 61:0.55739737 
2.010781412535875 1:0.50126177 2:0.36521193 3:0.57507855 4:0.58022738 5:0.43572009 6:0.39189184 7:0.47067797 8:0.47010723 9:0.57906955 10:0.27098081 11:0.54523832 12:0.65666807 13:0.37694171 14:0.29373923 15:0.49870694 16:0.38039815 17:0.3826471 18:0.64633179 19:0.41866493 20:0.9269864 21:0.77892172 22:0.77373379 23:0.56566018 24:0.50925052 25:0.45687997 26:0.452714 27:0.40893278 28:0.38478211 29:0.38734573 30:0.50339675 31:0.52720416 32:0.56282532 33:0.52113581 34:0.18870004 35:0.58403355 36:0.66088563 37:0.53339779 38:0.62700361 39:0.49241021 40:0.60777718 41:0.34484008 42:0.52136266 43:0.34641522 44:0.27303922 45:0.6221379 46:0.38751221 47:0.50491875 48:0.36198995 49:0.52516252 50:0.33421615 51:0.60329807 52:0.20769307 53:0.7411828 54:0.43865654 55:0.42954889 56:0.10897394 57:0.67204368 58:0.80481541 59:0.97347438 60:0.41054022 61:0.62901753 
2.252069177257455 1:0.40097439 2:0.46022934 3:0.35965037 4:0.60048282 5:0.51708895 6:0.46141645 7:0.39705274 8:0.48296121 9:0.58936775 10:0.55571789 11:0.69354534 12:0.26913854 13:0.34972626 14:0.43671343 15:0.60411435 16:0.5871774 17:0.61661655 18:0.40623584 19:0.62386286 20:0.41900784 21:0.59531665 22:0.66038889 23:0.65039343 24:0.55770493 25:0.58266759 26:0.41928881 27:0.47581926 28:0.50284302 29:0.28945699 30:0.54080003 31:0.63319755 32:0.55672759 33:0.43998808 34:0.42361462 35:0.5784409 36:0.42542249 37:0.43166584 38:0.58781898 39:0.80175477 40:0.6586284 41:0.24178632 42:0.52585196 43:0.52597666 44:0.59090722 45:0.55569494 46:0.37654194 47:0.2178884 48:0.14431593 49:0.46406302 50:0.63372391 51:0.5749011 52:0.68996835 53:0.25461715 54:0.24925746 55:0.21333374 56:0.23868407 57:0.8155241 58:0.35672432 59:0.46992266 60:0.95831162 61:0.81880099 
1.441786955712653 1:0.40734926 2:0.47501948 3:0.36643708 4:0.64809519 5:0.49012583 6:0.46271923 7:0.49544403 8:0.4274106 9:0.52047586 10:0.54950291 11:0.63888508 12:0.32220715 13:0.32966956 14:0.41512069 15:0.58684915 16:0.5379439 17:0.61256695 18:0.3791157 19:0.52414298 20:0.43230543 21:0.56534034 22:0.6466645 23:0.57166916 24:0.57860374 25:0.6199472 26:0.41167805 27:0.49246293 28:0.58969325 29:0.29830971 30:0.40571642 31:0.60520476 32:0.49135062 33:0.45921153 34:0.45578563 35:0.52515882 36:0.44383249 37:0.41878477 38:0.5575909 39:0.70809752 40:0.64382964 41:0.28816175 42:0.55957073 43:0.45698792 44:0.57035667 45:0.53851449 46:0.35071191 47:0.26196462 48:0.16604076 49:0.47534183 50:0.69709885 51:0.56924069 52:0.72646177 53:0.30944026 54:0.25551879 55:0.23371604 56:0.14585166 57:0.89051193 58:0.33148336 59:0.50708258 60:1 61:0.79370517 
0.4550270121715357 1:0.38818282 2:0.66043496 3:0.453684 4:0.66723359 5:0.49477756 6:0.44063768 7:0.47418481 8:0.55518419 9:0.60964394 10:0.37802425 11:0.5592103 12:0.65570748 13:0.43025458 14:0.57125539 15:0.70513743 16:0.36489812 17:0.70646203 18:0.58946097 19:0.60545278 20:0.79255646 21:0.45013607 22:0.61608595 23:0.69324237 24:0.42886525 25:0.29796687 26:0.32934114 27:0.37340549 28:0.93878824 29:0.36546868 30:0.37992689 31:0.50507331 32:0.47404727 33:0.48762283 34:0.49623248 35:0.40841606 36:0.51476467 37:0.50201905 38:0.58383214 39:0.31683749 40:0.28644544 41:0.49970514 42:0.45719969 43:0.42122418 44:0.23089433 45:0.45832714 46:0.32114789 47:0.4123987 48:0.32118687 49:0.39040199 50:0.54821897 51:0.53662276 52:0.67711782 53:0.58426732 54:0.39358491 55:0.24395753 56:0.11397897 57:0.84090269 58:0.39265436 59:0.51023877 60:0.91154462 61:0.81462777 
4.40644894872839 1:0.45349061 2:0.64728594 3:0.36079225 4:0.74147791 5:0.27134553 6:0.6414724 7:0.28212413 8:0.20777841 9:0.35420465 10:0.53430396 11:0.52144307 12:0.42003593 13:0.66922504 14:0.52526987 15:0.59946972 16:0.45295373 17:0.60180128 18:0.42697492 19:0.61756778 20:0.81109715 21:0.56574959 22:0.47422519 23:0.42950284 24:0.85599583 25:0.25218633 26:0.63118273 27:0.45821679 28:0.58008081 29:0.53549194 30:0.44754189 31:0.50632143 32:0.11847775 33:0.51027769 34:0.70437455 35:0.84434438 36:0.34275204 37:0.32054198 38:0.53185874 39:0.23890631 40:0.68266928 41:0.13811104 42:0.42357737 43:0.53739971 44:0.7013731 45:0.35336259 46:0.328262 47:0.22450587 48:0.43598112 49:0.3330026 50:0.93030155 51:0.53483498 52:0.85092747 53:0.46712083 54:0.35918906 55:0.51678002 56:0.50532711 57:0.020714808 58:0.77136588 59:0.72670561 60:0.25611091 61:0.71938372 
0.5878271313950261 1:0.52211392 2:0.36073136 3:1.8475937e-16 4:0.46442682 5:0.66842067 6:0.439601 7:0.58638817 8:0.477624 9:0.52906895 10:0.47231847 11:0.79334879 12:0.48920891 13:0.43555456 14:0.46912551 15:0.63383824 16:0.49162558 17:0.40681562 18:0.71926665 19:0.66331655 20:0.90247244 21:0.68753272 22:0.30635917 23:0.40368524 24:0.58260351 25:0.30676726 26:0.63662958 27:0.26917297 28:0.85590369 29:0.48908806 30:0.36760861 31:0.5430035 32:0.39709178 33:0.24114795 34:0.49294865 35:0.55886012 36:0.43641576 37:0.48743594 38:0.49042356 39:0.29280216 40:0.57608128 41:0.39710367 42:0.35993144 43:0.50378239 44:0.76708692 45:0.38509598 46:0.38382095 47:0.49826255 48:0.45114592 49:0.45155999 50:0.66158015 51:0.65365076 52:0.77767962 53:0.39665329 54:0.73443377 55:0.30676964 56:0.59348887 57:0.084190771 58:0.69943017 59:0.67072332 60:0.26150367 61:0.72904438 
2.943850351129671 1:0.25479126 2:0.71061969 3:0.56444734 4:0.61356741 5:0.33847371 6:0.40390444 7:0.6107778 8:0.33916563 9:0.53772795 10:0.41768193 11:0.54239649 12:0.20402111 13:0.89567482 14:0.41413426 15:0.31923503 16:0.469841 17:0.25133586 18:0.35505036 19:0.40479666 20:0.61508614 21:0.35526925 22:0.74951404 23:0.45080405 24:0.4490476 25:0.45150062 26:0.19569238 27:0.42187339 28:0.59508443 29:0.45083708 30:0.49217492 31:0.67309719 32:0.57356006 33:0.38152912 34:0.26713839 35:0.39511961 36:0.54115808 37:0.49459842 38:0.5603199 39:0.6020146 40:0.3362048 41:0.26598582 42:0.70968086 43:0.58761066 44:0.74284643 45:0.45963937 46:0.41879308 47:0.42999506 48:0.46962184 49:0.36531761 50:0.47871816 51:0.68277681 52:1 53:0.32414833 54:0.88284087 55:0.51720971 56:0.57394767 57:0.13577139 58:0.63063455 59:0.71238726 60:0.23469922 61:0.692164 
1.401899231010685 1:0.37982836 2:0.52641821 3:0.5194543 4:0.56277895 5:0.81515598 6:0.61305565 7:0.54925954 8:0.5997169 9:0.30811441 10:0.31061903 11:0.63573277 12:0.38997802 13:0.37176391 14:0.62679088 15:0.58844584 16:0.51258838 17:0.4073109 18:0.42303967 19:0.30690232 20:0.60469842 21:4.1885798e-16 22:0.51363355 23:0.51530325 24:0.29201099 25:0.20277965 26:0.54926765 27:0.29761368 28:0.70946646 29:0.58194399 30:0.50170749 31:0.79687917 32:0.44720641 33:0.51783133 34:0.59150434 35:0.51359981 36:0.32997349 37:0.48009744 38:0.60964441 39:0.39864555 40:0.52018338 41:0.11444711 42:0.68552303 43:0.20696793 44:0.7024532 45:0.63275033 46:0.30177543 47:0.39043984 48:0.34827808 49:0.48208803 50:0.36665586 51:0.63256979 52:0.51400989 53:0.52719414 54:0.51425409 55:0.27909228 56:0.84431845 57:0.43448922 58:0.40228039 59:0.32370725 60:0.69742596 61:0.91657257 
0.1836142500324824 1:0.47835565 2:0.53232223 3:0.4462741 4:0.59955299 5:0.51672989 6:0.39961335 7:0.40557635 8:0.4328869 9:0.62869757 10:0.44917297 11:0.56234491 12:0.42159051 13:0.5906418 14:0.50680923 15:0.45249754 16:0.45770755 17:0.48204675 18:0.32489774 19:0.35904211 20:0.5331251 21:0.50772488 22:0.42316449 23:0.51599616 24:0.59732914 25:0.5603978 26:0.54943365 27:0.52685744 28:0.57437593 29:0.46940574 30:0.56454456 31:0.57962215 32:0.48319203 33:0.6267997 34:0.26875666 35:0.59635675 36:0.41902894 37:0.34323323 38:0.37449476 39:0.14514183 40:0.75922447 41:0.26892436 42:0.69980174 43:0.31512377 44:0.28377172 45:0.64457655 46:0.52698123 47:0.58721942 48:0.51159275 49:0.44540617 50:0.059045888 51:0.50870329 52:0.39203095 53:0.59080952 54:0.54035467 55:0.21249786 56:0.9999423 57:0.4173491 58:0.40824559 59:0.14702395 60:0.73014492 61:0.99449688 
3.508490810742151 1:0.44062734 2:0.41623595 3:0.30645114 4:0.84668273 5:0.71677548 6:0.36691234 7:0.56606686 8:0.65911233 9:0.59263182 10:0.45471612 11:0.65086859 12:0.32244068 13:0.42138156 14:0.37310886 15:0.43735895 16:0.30216739 17:0.51079237 18:0.39922443 19:0.47442716 20:0.4523297 21:0.42695665 22:0.58133149 23:0.37990227 24:0.33413821 25:0.5248208 26:0.37986797 27:0.25528008 28:0.3924101 29:0.75005901 30:0.38016808 31:0.6465919 32:0.26125306 33:0.17933859 34:0.26777071 35:0.44107017 36:0.60939354 37:0.78573328 38:0.47294593 39:0.42288792 40:0.6740483 41:0.41579336 42:0.66348046 43:0.44729647 44:0.34980136 45:0.54236865 46:0.34772846 47:0.5318132 48:0.40347368 49:0.78187782 50:0.89035058 51:0.96802717 52:0.79058528 53:0.71664399 54:0.45500883 55:0.7295838 56:0.45486978 57:0.46308228 58:0.50315744 59:0.048714139 60:0.90279526 61:0.82390296 
1.758727377904516 1:0.45273805 2:0.46830213 3:0.24970204 4:0.44986784 5:0.45188236 6:0.53928792 7:0.53170395 8:0.38347808 9:0.34143555 10:0.45400301 11:0.35357678 12:0.46868223 13:0.50441927 14:0.52132118 15:0.39608929 16:0.54923546 17:0.47061709 18:0.14095788 19:0.58611774 20:0.37123597 21:0.65325457 22:0.61855567 23:0.61017829 24:0.37427497 25:0.31255439 26:0.39165029 27:0.34091446 28:0.43276876 29:0.70824033 30:0.664505 31:0.6860218 32:0.81349522 33:0.47508591 34:0.66325539 35:0.46156722 36:0.30725667 37:0.88982284 38:0.99782717 39:0.40558672 40:0.38182721 41:0.58888882 42:0.61947441 43:0.3284044 44:0.35708192 45:0.34673107 46:0.57346153 47:0.33238867 48:0.46337754 49:0.72713566 50:0.87289101 51:0.92753375 52:0.41848516 53:0.83142298 54:0.60526603 55:0.85266876 56:0.36763135 57:0.59812433 58:0.39294678 59:0.00018319284 60:0.92439812 61:0.8877427 
2.013897086537134 1:0.59885168 2:0.37362269 3:0.68772864 4:0.73384267 5:0.82503307 6:0.65386409 7:0.7489174 8:0.5453341 9:0.8620109 10:0.31569096 11:0.42938411 12:0.10727254 13:0.21183069 14:0.3935135 15:0.50754207 16:0.43223587 17:0.35094416 18:0.34764057 19:0.3040612 20:0.35130858 21:0.57533002 22:0.12025637 23:0.74801409 24:0.76310849 25:0.59331125 26:0.48811394 27:0.300825 28:0.15786676 29:0.44215193 30:0.37699541 31:0.45105195 32:0.40312138 33:0.81329119 34:0.54355502 35:0.73931295 36:0.24681583 37:0.58329338 38:0.20315938 39:0.57465154 40:0.70151865 41:0.2760652 42:0.11041503 43:0.33706006 44:0.49168497 45:0.44470233 46:0.40453124 47:0.36874253 48:0.37781581 49:0.65251952 50:0.91919923 51:0.65809429 52:0.58968651 53:0.89888763 54:0.57160461 55:0.66395295 56:0.61012399 57:0.38547495 58:0.7120024 59:0.60874081 60:0.45294693 61:0.76314318 
0.3400780203649093 1:0.21482667 2:0.4920716 3:0.40853173 4:0.72730416 5:0.47485361 6:0.52894312 7:0.62899178 8:0.20863141 9:0.85468745 10:0.60784829 11:0.59377158 12:0.40233317 13:0.34675625 14:0.38845813 15:0.58101976 16:0.3787038 17:0.59346378 18:0.12703337 19:0.56974101 20:0.15995842 21:0.5675627 22:0.37402958 23:0.30861455 24:0.77312398 25:0.47325745 26:0.20038146 27:0.15007375 28:0.53234845 29:0.40087321 30:0.213981 31:0.57066619 32:0.62571824 33:0.60071653 34:0.53162366 35:0.7086038 36:0.43104169 37:0.64085168 38:0.29065815 39:0.96696198 40:0.77284843 41:0.2540755 42:0.52967954 43:0.46478584 44:0.18518637 45:0.29204261 46:0.56298131 47:0.31417757 48:0.49871594 49:0.73965639 50:0.64247102 51:0.62605482 52:0.60688907 53:0.8335259 54:0.5469355 55:0.56324881 56:0.56508482 57:0.38824087 58:0.76490903 59:0.62668121 60:0.52554697 61:0.74190056 
2.223490336968996 1:0.39946848 2:0.38574219 3:0.23521595 4:0.47817874 5:0.62854415 6:0.40940231 7:0.56381279 8:0.56048757 9:0.44499734 10:0.68409497 11:0.3816911 12:0.30338389 13:0.28867826 14:0.46507421 15:0.41576466 16:0.481482 17:0.49431685 18:0.60092813 19:0.57290071 20:0.41335204 21:0.54455227 22:0.67828327 23:0.4812876 24:0.35247624 25:0.81212568 26:0.92845982 27:0.42343363 28:0.60769147 29:0.45765647 30:0.54012746 31:0.43729508 32:0.75625187 33:0.37203965 34:0.57320559 35:0.5476318 36:0.54849547 37:0.32194814 38:0.47320819 39:0.47158086 40:0.2488503 41:0.21240969 42:0.83428174 43:0.30159989 44:0.75557786 45:0.4029029 46:0.58989352 47:0.27827796 48:0.38997841 49:0.41880161 50:0.85100365 51:0.58673447 52:0.73269129 53:0.52378547 54:0.62516969 55:0.33064532 56:0.57273227 57:0.062435962 58:0.72682732 59:0.68622708 60:0.34476569 61:0.68937802 
3.078246038482548 1:0.25192606 2:0.53358519 3:0.57758653 4:0.36044961 5:0.45703462 6:0.479357 7:0.36274287 8:0.49082553 9:0.28449467 10:0.46920186 11:0.56513399 12:0.38531378 13:0.50457716 14:0.25081998 15:0.50019711 16:0.5051505 17:0.23202924 18:0.70826852 19:0.72607017 20:0.37878019 21:0.69000429 22:0.24293566 23:0.24281402 24:0.85516703 25:0.52565849 26:0.45874229 27:0.47768629 28:0.36499399 29:0.54163802 30:0.56042576 31:0.40351215 32:0.71900994 33:0.52871776 34:0.64590836 35:0.55454165 36:0.44534856 37:0.36072412 38:0.73020637 39:0.71923912 40:0.45522463 41:0.33939427 42:0.66447955 43:0.63207793 44:0.72343498 45:0.25429982 46:0.68939465 47:0.55929416 48:0.49413082 49:0.33747831 50:0.3522723 51:0.3902373 52:0.14051427 53:0.46740246 54:0.47985318 55:0.38928723 56:0.83095634 57:0.33663353 58:0.39350596 59:0.16594736 60:0.79932112 61:0.91876763 
2.991734388022622 1:0.4129951 2:0.46477321 3:0.44922465 4:0.78794366 5:0.41606441 6:0.41420859 7:0.71463096 8:0.52646595 9:0.63334113 10:0.68448055 11:0.38618788 12:0.52819788 13:0.75159848 14:0.69126767 15:0.4198899 16:0.36501661 17:0.29766658 18:0.61227179 19:0.56394017 20:0.51266128 21:0.2522251 22:0.3401061 23:0.60377371 24:0.56514096 25:0.42093968 26:0.34541142 27:0.2747227 28:0.61134821 29:0.56654042 30:0.58620566 31:0.45496807 32:0.63345408 33:0.61465609 34:0.40876928 35:0.66569465 36:0.31400326 37:0.59829187 38:0.32277644 39:0.5878917 40:0.13455936 41:0.33383098 42:0.52283633 43:0.21834761 44:0.75523955 45:0.27982047 46:0.40932241 47:0.44709179 48:0.32951194 49:0.41273785 50:0.33488199 51:0.57469225 52:0.68256158 53:0.57095593 54:0.39270252 55:0.25967237 56:0.13107938 57:0.88934582 58:0.28846014 59:0.51860881 60:0.98454523 61:0.78602964 
2.437582750445569 1:0.33650067 2:0.5988583 3:0.65870148 4:0.42251876 5:0.20783792 6:0.54007852 7:0.56051546 8:0.47811276 9:0 10:0.67514074 11:0.65940386 12:0.10846307 13:0.62244946 14:0.72645664 15:0.52899891 16:0.49896801 17:0.13543329 18:0.34923455 19:0.11358602 20:0.39489207 21:0.50689757 22:0.75706273 23:0.4909223 24:0.49015194 25:0.32863176 26:0.20628753 27:0.4416298 28:0.50264704 29:0.6855427 30:0.59324962 31:0.49939311 32:0.55263001 33:0.17985868 34:0.25184238 35:0.64243448 36:0.23579642 37:0.18182172 38:0.48653066 39:0.56021482 40:0.32199234 41:0.25894219 42:0.6114006 43:0.44408834 44:0.44813803 45:0.36416274 46:0.38977355 47:0.48238161 48:0.65732944 49:0.60358292 50:0.21623906 51:0.50955975 52:0.16936143 53:0.76138693 54:0.35821509 55:0.58373928 56:0.18050867 57:1 58:0.61802459 59:0.94321018 60:0.2817584 61:0.62292683 
1.287366393271326 1:0.61172378 2:0.62271231 3:0.078721456 4:0.62125158 5:0.43347803 6:0.35955656 7:0.53814149 8:0.23806357 9:0.51588321 10:0.63064533 11:0.46966222 12:0.5314064 13:0.46125379 14:0.41108158 15:0.36177576 16:0.39261231 17:0.77502787 18:0.42389721 19:0.52078795 20:0.050620478 21:0.67572212 22:0.18903154 23:0.24545217 24:0.65039158 25:0.5822053 26:0.94774884 27:0.1634547 28:0.42007509 29:0.77652007 30:0.68185306 31:0.57818055 32:0.36803702 33:0.25192392 34:0.34706581 35:0.42672145 36:0.15859805 37:0.49756029 38:0.56704628 39:0.30654079 40:0.55033529 41:0.4813773 42:0.53920984 43:0.49089229 44:0.50898504 45:0.41260105 46:0.36237842 47:0.57274592 48:0.42493644 49:0.72261339 50:0.28003678 51:0.59314662 52:0.51343822 53:0.59699219 54:0.45098558 55:0.31316835 56:0.2908704 57:0.8270787 58:0.61402082 59:0.85018408 60:0.26217332 61:0.72299451 
1.10103006633095 1:0.12161962 2:0.4828802 3:0.30016363 4:0.73390317 5:0.60793006 6:0.45456991 7:0.41909403 8:0.6585409 9:0.57974285 10:0.4874723 11:0.47616848 12:0.59204918 13:1 14:0.40292975 15:0.60148466 16:0.46660221 17:0.2799412 18:0.44481862 19:0.61485034 20:0.55762923 21:0.60243469 22:0.52391142 23:0.88312715 24:0.89848787 25:0.38421869 26:0.014985257 27:0.57560652 28:0.74573773 29:0.5771358 30:0.67468095 31:0.76799214 32:0.52231175 33:0.53836799 34:0.60024035 35:0.61052614 36:0.53876841 37:0.7197848 38:0.7206099 39:0.76088262 40:0.53300804 41:0.41310844 42:0.96090382 43:0.23785108 44:0.38749269 45:0.33112997 46:0.35046187 47:0.46215406 48:0.31356767 49:0.52840859 50:0.45967239 51:0.59523588 52:0.67497563 53:0.50389618 54:0.59471214 55:0.47616336 56:0.43717754 57:0.19863178 58:0.74337316 59:0.74403793 60:0.34521717 61:0.7197088 
2.594112800608997 1:1 2:0.48777154 3:0.27052829 4:0.85816807 5:0.35582262 6:0.42365763 7:0.74272859 8:0.54666936 9:0.31948909 10:0.74983394 11:0.53334534 12:0.62191749 13:0.19730996 14:0.46603057 15:0.60479248 16:0.24137433 17:0.25290594 18:0.68103886 19:0.36194384 20:0.31874925 21:0.71969086 22:0.62732655 23:0.44573373 24:0.91541183 25:0.20786855 26:0.4929584 27:0.28754869 28:0.75869757 29:0.69799978 30:0.58707976 31:0.58104789 32:0.25398201 33:0.4205339 34:0.54658395 35:0.39790598 36:0.44983351 37:0.34833172 38:0.76191801 39:0.57280058 40:0.47003192 41:0.21758325 42:0.920991 43:0.71117818 44:0.55650401 45:0.62349749 46:0.11726665 47:0.31897166 48:0.52142346 49:0.5525533 50:0.76941401 51:0.70036018 52:0.7506566 53:0.3258 54:0.3417967 55:0.40404898 56:0.5954541 57:0.35024333 58:0.53688514 59:0.089775667 60:0.61921495 61:0.90433067 
3.975768123417166 1:0.72193289 2:0.62288576 3:0.46132767 4:0.48713672 5:0.4462218 6:0.62291521 7:0.5323543 8:0.48052877 9:0.49854785 10:0.64451575 11:0.6929934 12:0.44239169 13:0.48550195 14:0.68508548 15:0.59046942 16:0.54386526 17:0.30600184 18:0.91070515 19:0.45539588 20:0.90602559 21:0.51246053 22:0.55902135 23:0.57623565 24:0.42662615 25:0.57322085 26:0.44187528 27:0.49328697 28:0.4779312 29:0.56892931 30:0.35296875 31:0.52275032 32:0.49778512 33:0.34315345 34:0.39131069 35:0.35597125 36:0.46786162 37:0.67389631 38:0.43715671 39:0.45265171 40:0.27801824 41:0.61051995 42:0.28399199 43:0.4975259 44:0.41628614 45:0.28366223 46:0.58058804 47:0.68571514 48:0.70818681 49:0.36103451 50:1 51:0.67999274 52:0.51233506 53:0.76327389 54:0.69771123 55:0.59892112 56:0.5484485 57:0.5465374 58:0.33292714 59:0.21089216 60:0.87648892 61:0.81066257 
0.9993137813885983 1:0.37626827 2:0.57119286 3:0.3618736 4:0.78475857 5:0.59576064 6:0.76118207 7:0.61539572 8:0.5293535 9:0.67092735 10:0.6323998 11:0.44300881 12:0.33879739 13:0.57448268 14:0.36589119 15:0.66246074 16:0.28859189 17:0.53942114 18:0.30573243 19:0.80135572 20:0.3862341 21:0.67116421 22:0.039555985 23:0.4512119 24:0.47346696 25:0.49890459 26:0.75230932 27:0.48171166 28:0.88959199 29:0.69917184 30:0.46890324 31:0.66214448 32:0.80955887 33:0.42269659 34:0.36206639 35:0.44061986 36:0.56702924 37:0.68259197 38:0.3983548 39:0.70596653 40:0.81512624 41:0.41986972 42:0.28045407 43:0.092283145 44:0.66624391 45:0.46407509 46:0.56838304 47:0.65951043 48:0.42132896 49:0.76527822 50:0.56984121 51:0.77253878 52:0.73387647 53:0.74804133 54:0.79425454 55:0.38761955 56:0.62113476 57:0.51062578 58:0.62529796 59:0.75970048 60:0.56033736 61:0.75453508 
-1.603129962670944 1:0.27697009 2:0.49189144 3:0.35412315 4:0.90055364 5:0.79597545 6:0.34164065 7:0.60179001 8:0.39379689 9:0.58648777 10:0.09890195 11:0.62089354 12:0.55911744 13:0.59916663 14:0.46407717 15:0.65587062 16:0.56724483 17:0.44747302 18:0.39603356 19:0.66788 20:0.54226357 21:0.45360386 22:0.54517871 23:0.42263582 24:0.64347744 25:0.70669937 26:0.61243743 27:0.44499063 28:0.73327261 29:0.57688624 30:0.42204338 31:0.65992481 32:0.41809237 33:0.36646301 34:0.4878442 35:0.49312621 36:0.24363227 37:0.34904703 38:0.79711837 39:0.19232452 40:0.31658974 41:0.44703177 42:0.51400918 43:0.49300128 44:0.61028236 45:0.44140652 46:0.70507371 47:0.48305449 48:0.54772407 49:0.41630909 50:0.77267307 51:0.337156 52:0.6504758 53:0.51733023 54:0.52091789 55:0.68201149 56:0.10516598 57:0.63945442 58:0.35375342 59:0.034897488 60:0.12919296 61:0.36479798 
-1.116148541886576 1:0.46048582 2:0.59349298 3:0.20098653 4:0.62673801 5:0.47716182 6:0.40198708 7:0.46941808 8:0.42867538 9:0.66800416 10:0.35065719 11:0.59490961 12:0.67059159 13:0.3477906 14:0.68234736 15:0.3613883 16:0.45584926 17:0.51651943 18:0.34275147 19:0.6696586 20:0.71843892 21:0.28883618 22:0.11546858 23:0.65858829 24:0.45251241 25:0.58194625 26:0.38972807 27:0.15940043 28:0.39633694 29:0.47394255 30:0.65003592 31:0.56418824 32:0.67937261 33:0.19966872 34:0.14547861 35:0.51440465 36:0.62398469 37:0.67186314 38:0.57485992 39:0.68834865 40:0.62226963 41:0.33499587 42:0.74926758 43:0.41759896 44:0.53034109 45:0.48375359 46:0.47379324 47:0.33640221 48:0.30729452 49:0.41762406 50:0.64260542 51:0.51072872 52:0.54209083 53:0.44933441 54:0.67828071 55:0.44722331 56:0.43356043 57:0.70751029 58:0.30063033 59:0.13157275 60:0.011038468 61:0.31971267 
-0.6048883920991874 1:0.56023425 2:0.6017831 3:1 4:0.86901528 5:0.83718312 6:0.89117712 7:0.57108104 8:0.62303227 9:0.23816618 10:0.4924171 11:0.87643653 12:0.33657351 13:0.56326455 14:0.42414457 15:0.45144352 16:0.44363144 17:0.4808332 18:0.53023994 19:0.1205954 20:0.3903307 21:0.44865534 22:0.29342684 23:0.64020693 24:0.43814382 25:0.45694715 26:0.17928293 27:0.50132376 28:0.59242791 29:0.72891611 30:0.25377882 31:0.33045837 32:0.64549333 33:0.50926089 34:0.4652631 35:0.50538719 36:0.5126707 37:0.27723482 38:0.55941731 39:0.28305742 40:0.57023531 41:0.32100052 42:0.3563551 43:0.28499451 44:0.63849318 45:0.35187265 46:0.41790074 47:0.48333982 48:0.55680734 49:0.40735421 50:0.7123788 51:0.6310668 52:0.82328933 53:0.64453208 54:0.5609172 55:0.44881046 56:0.40374005 57:0.85795081 58:0.23056039 59:0.13373902 60:0.21501844 61:0.32488859 
-0.687079827579044 1:0.53656435 2:0.38168821 3:0.58254975 4:0.776972 5:0.25383389 6:0.3448078 7:0.38700604 8:0.50709599 9:0.64590144 10:0.7022987 11:0.67382973 12:0.44087005 13:0.54331875 14:0.65777373 15:0.50240242 16:0.60055065 17:0.49645185 18:0.51104695 19:0.5897817 20:0.62667334 21:0.75764436 22:0.90984678 23:0.73193485 24:0.5170036 25:0.33029833 26:0.65898579 27:0.34704557 28:0.50750417 29:0.60815883 30:0.31339288 31:0.39702785 32:0.099767141 33:0.80868143 34:0.55050331 35:0.60861492 36:0.29781514 37:0.56652081 38:0.44110113 39:0.46805352 40:0.12313595 41:0.45083359 42:0.55056322 43:0.29593045 44:0.60238248 45:0.10360897 46:0.35285801 47:0.39018229 48:0.58084327 49:0.5607453 50:0.22683598 51:0.65513939 52:0.80870092 53:0.6034677 54:0.22230279 55:0.41143748 56:0.89510769 57:0.82345933 58:0.083832979 59:0.26739734 60:0.14137612 61:0.44457576 
-0.9020201968451963 1:0.41364655 2:0.32316765 3:0.29305446 4:0.55893111 5:0.6152066 6:0.5339765 7:0.52558303 8:0.47126332 9:0.87837821 10:0.50777578 11:0.59048551 12:0.10681711 13:0.41603294 14:0.38893041 15:0.41950819 16:0.30666631 17:0.34937125 18:0.41160169 19:0.54027289 20:0.19449537 21:0.85128045 22:0.72847331 23:1 24:0.35144138 25:0.31045508 26:0.33452359 27:0.54522294 28:0.69891077 29:0.56052947 30:0.5392068 31:0.48416781 32:0.22568741 33:0.58748454 34:0.52374411 35:0.7571944 36:0.48426092 37:0.81725711 38:0.51861382 39:0.28019178 40:0.18944627 41:0.44485041 42:0.58297777 43:0.16258843 44:0.64974976 45:0.19131471 46:0.16159479 47:0.28280091 48:0.63846129 49:0.66250437 50:0.25049719 51:0.64447683 52:0.88408339 53:0.33708152 54:0.23921262 55:0.50297546 56:0.73736566 57:0.83897698 58:0 59:0.32623935 60:0.072856799 61:0.44979304 
-1.326190321926603 1:0.5694645 2:0.54255146 3:0.25368381 4:0.84377593 5:4.3814447e-16 6:0.54008406 7:0.73977274 8:0.54664284 9:0.09615016 10:0.40668365 11:0.54115748 12:0.026783757 13:0.75495613 14:0.52694905 15:0.34207481 16:0.49954045 17:0.071125284 18:0.81289792 19:0.51208019 20:0.63051975 21:0.63499677 22:0.38746515 23:0.52585489 24:0.77249318 25:0.76270449 26:0.3331781 27:0.34164244 28:0.69324732 29:0.33629742 30:0.37652406 31:0.57138836 32:0.46191409 33:0.81432205 34:0.47197244 35:0.54243177 36:0.26396361 37:0.58157402 38:0.72098547 39:0.2773183 40:0.45036176 41:0.29168406 42:0.301202 43:0.41384888 44:0.40795988 45:0.38419989 46:0.64127684 47:0.68455529 48:0.36019418 49:0.35596836 50:0.64918745 51:0.71421683 52:0.97625011 53:0.73447877 54:0.4400034 55:0.28729814 56:0.49598491 57:0.61344206 58:0.53907549 59:0.51178843 60:0.63304967 61:0.21166967 
-1.460326022085871 1:0.24755305 2:0.614627 3:0.15524644 4:0.70381749 5:0.49609882 6:0.38938704 7:0.68850648 8:0.56075549 9:0.55935431 10:0.28345734 11:0.70196438 12:0.55386263 13:0.45922092 14:0.42077878 15:0.48285618 16:0.38191473 17:0.4509182 18:0.63739055 19:0.18656603 20:0.49185175 21:0.47424999 22:0.67283362 23:0.084518738 24:0 25:0.45183766 26:0.41772658 27:0.70619714 28:0.62975556 29:0.82621777 30:0.48300618 31:0.29697317 32:0.32781926 33:0.26692006 34:0.96754724 35:0.70200622 36:0.181125 37:0.60813737 38:0.43070865 39:0.32886928 40:1 41:0.24424164 42:0.44358638 43:0.70372909 44:0 45:0.49980497 46:0.14664072 47:0.12873192 48:0.57577932 49:0.17651403 50:0.72622085 51:0.83172268 52:0.3621861 53:0.47834015 54:0.51477569 55:0.35699904 56:0.33050981 57:0.26132402 58:0.20004508 59:0.56892008 60:0.55816936 61:0.15355724 
-3.507792333338375 1:0.50866568 2:0.47126684 3:0.5752067 4:0.53708732 5:0.45471421 6:0.44245419 7:0.5491851 8:0.54724038 9:0.4440769 10:0.81308895 11:0.30051383 12:0.366344 13:0.41449636 14:0.43280247 15:0.47026247 16:0.6505183 17:0.50602829 18:0.55800605 19:0.26070854 20:0.61053008 21:0.51046824 22:0.33451265 23:0.58398557 24:0.52628428 25:0.37840429 26:0.57077336 27:0.26732832 28:0.29968894 29:0.65910882 30:0.60257548 31:0.52762109 32:0.48812002 33:0.58548534 34:0.1903601 35:0.45431954 36:0.39411244 37:0.53418231 38:0.66575044 39:0.50564903 40:0.55745238 41:0.24648301 42:0.53800625 43:0.44191712 44:0.33711448 45:0.37883461 46:0.093949296 47:0.74384183 48:0.15358938 49:0.37692162 50:0.50861305 51:0.5214439 52:0.90461588 53:0.60733461 54:0.41823435 55:0.58963537 56:0.21851601 57:0.07910461 58:0.44882026 59:0.35003841 60:0.61050451 61:0.33383703 
-1.354013488422565 1:0.26158583 2:0.84887576 3:0.33213255 4:0.44968084 5:0.010325724 6:0.5949477 7:0.81199157 8:0.57783413 9:0.50351644 10:0.24090262 11:0.53498888 12:0.28041035 13:0.47702658 14:0.5727424 15:0.31603211 16:0.55872631 17:0.44934085 18:0.44107297 19:0.61741155 20:0.79738295 21:0.32152539 22:0.43592048 23:0.59652382 24:0.35340735 25:0.45464182 26:0.51955998 27:0.4065426 28:0.59360808 29:0.34067756 30:0.42113474 31:0.71228325 32:0.46094996 33:0.57953763 34:0.53544974 35:0.42828336 36:0.46142119 37:0.63557184 38:0.67238593 39:0.49135786 40:0.75995886 41:0.28696361 42:0.41187236 43:0.49029395 44:0.36430845 45:0.34857076 46:0.10644877 47:0.50850797 48:0.32090139 49:0.21293311 50:0.72160894 51:0.63439697 52:0.36432907 53:0.69009513 54:8.4678853e-16 55:0.60531169 56:0.41303858 57:0.23592401 58:0.52841157 59:0.39927924 60:0.53074211 61:0.27693185 
-2.541805223316137 1:0.45025647 2:0.55762017 3:0.40763524 4:0.3660346 5:0.3304396 6:0.32018894 7:0.72810388 8:0.72847128 9:0.71827871 10:0.67603016 11:0.36071068 12:0.49870133 13:0.59719235 14:0.2312555 15:0.77636558 16:0.13501827 17:0.023151683 18:0.41370681 19:0.95562899 20:0.69400167 21:0.58496982 22:0.77385247 23:0.53406042 24:0.65442413 25:0.52168632 26:0.5580759 27:0.36554015 28:0.50127017 29:0.42839465 30:0.57180667 31:0.49391595 32:0.48043084 33:0.21383025 34:0.42933622 35:0.68567854 36:0.16486187 37:0.33069217 38:0.53246993 39:0.41194385 40:0.3086544 41:0.22743157 42:0.34432259 43:0.53099805 44:0.46269405 45:0.46780175 46:0.37839708 47:0.44749478 48:0.54646444 49:0.83485502 50:0.47168878 51:0.66490448 52:0.86425984 53:1 54:0.2148499 55:0.19713522 56:0.46768633 57:0.59745491 58:0.77691883 59:0.24546716 60:0.58100533 61:0.32249957 
-0.9943523309153626 1:0.59615177 2:0.37255639 3:0.20139706 4:0.54046035 5:0.34073219 6:0.65457112 7:0.56119204 8:0.50742072 9:0.7222175 10:0.50089121 11:0.6334725 12:0.48150036 13:0.7964437 14:0.36957967 15:0.55088818 16:0.38893872 17:0.24527796 18:0.57954472 19:0.37341228 20:0.082915999 21:0.39305267 22:0.48231065 23:0.77369452 24:0.57442921 25:0.47931004 26:0.39988211 27:0.47969601 28:0.49099773 29:0.43687308 30:0.08519686 31:0.51484877 32:0.55313063 33:0.18067756 34:0.47177443 35:0.47681525 36:0.64545971 37:0.16902335 38:0.54546607 39:0.68581235 40:0.61591595 41:0.4370603 42:0.48636851 43:0.44537205 44:0.40122032 45:0.54583478 46:0.62023246 47:0.34878787 48:0.71350503 49:0.49779439 50:0.36856779 51:0.64725029 52:0.96914774 53:0.4516575 54:0.17702539 55:0.57169324 56:0.3184194 57:0.57079172 58:0.93228614 59:0.14251807 60:0.66208804 61:0.30437723 
-0.239732978581864 1:0.44211757 2:0.38565817 3:0.46339816 4:0.6506539 5:0.75481707 6:0.40196186 7:0.56742311 8:0.5513739 9:0.47375256 10:0.43651336 11:0.42307827 12:0.59870988 13:0.6855284 14:0.70341635 15:0.49364379 16:0.52243912 17:0.3849324 18:0.40363738 19:0.27100694 20:0.67994225 21:0.4612166 22:0.47245046 23:0.72856998 24:0.43684414 25:0.68794256 26:7.0182958e-16 27:0.25172314 28:0.9109661 29:0.30244488 30:0.40314344 31:0.55551636 32:0.5264259 33:0.48443583 34:0.47155461 35:0.75830775 36:0.55304044 37:0.077498138 38:0.60793656 39:0.81170613 40:0.49901298 41:0.55820554 42:0.59457678 43:0.64030337 44:0.49850702 45:0.13691048 46:0.44457951 47:0.26491576 48:0.22366594 49:0.42361096 50:0.44360438 51:0.67018127 52:0.37574515 53:0.55543089 54:0.53643537 55:0.248365 56:0.6382854 57:0.71952903 58:0.84483957 59:0.2007343 60:0.66760719 61:0.22146699 
-1.806123028536686 1:0.58004326 2:0.97603011 3:0.46966717 4:0.48647916 5:0.80388129 6:0.4165487 7:0.56003124 8:0.56992227 9:0.30642343 10:0.21394931 11:0.19655979 12:0.41764215 13:0.3994953 14:0.62624151 15:0.55700195 16:0.4511804 17:0.46211883 18:0.4439629 19:0.63641441 20:0.48473999 21:0.63022739 22:0.51213533 23:0.21772002 24:0.47090882 25:0.5183441 26:0.6123758 27:0.23020108 28:0.74338591 29:0.5501135 30:0.77315062 31:0.61636597 32:0.48190317 33:0.19921878 34:0.39870816 35:0.52779943 36:0.51828074 37:0.27756879 38:0.60228288 39:0.51103669 40:0.53528965 41:0.35183248 42:0.34083757 43:0.28617239 44:0.63821965 45:0.47038281 46:0.37440047 47:0.3868992 48:0.25302806 49:0.69351977 50:0.51736265 51:0.55416918 52:0.80016553 53:0.41045091 54:0.075622365 55:0.60877335 56:0.57156479 57:0.52490205 58:0.64160961 59:0.46894288 60:0.67231411 61:0.36213753 
-2.405994784517706 1:0.56055087 2:0.74289227 3:0.40637967 4:0.77247524 5:0.39452392 6:0.77739435 7:0.46462563 8:0.44056344 9:0.63146406 10:0.45666525 11:0.53514731 12:0.45854771 13:0.20587264 14:0.70401311 15:0.62637079 16:0.52337915 17:0.75937903 18:0.39522177 19:0.20839624 20:0.29201514 21:0.58715332 22:0.62890238 23:0.71649957 24:0.72802085 25:0.31716764 26:0.36761403 27:0.44981545 28:0.48776114 29:0.31892735 30:0.72768337 31:0.53775239 32:0.70271945 33:0.28493524 34:0.53198779 35:0.54706377 36:0.3371695 37:0.63310879 38:0.66364908 39:0.43701249 40:0.47901374 41:0.53820068 42:0.75247973 43:0.24816911 44:1 45:0.15900579 46:0.40456656 47:0.52049297 48:0.51536906 49:0.41496411 50:0.55492049 51:0.35559162 52:0.48355395 53:0.93339348 54:0.5144248 55:0.25463444 56:0.51898497 57:0.18926428 58:0.39955452 59:0.52785391 60:0.66790611 61:0.19805105 
-2.25552891499085 1:0.29942268 2:0.51550758 3:0.38783973 4:0.60033315 5:0.76923841 6:0.36552197 7:0.40378749 8:0.34416276 9:0.36640805 10:0.37055096 11:0.39063138 12:0.31181049 13:0.2425772 14:0.61093313 15:0.54478019 16:0.56834763 17:0.44277421 18:0.51695204 19:0.55714536 20:0.77105981 21:0.67115301 22:0.4026781 23:0.78964096 24:0.91208959 25:0.5069769 26:0.18356355 27:0.34828964 28:0.63417614 29:0.99054116 30:0.46390185 31:0.58124167 32:0.15635782 33:0.71398968 34:0.50688261 35:0.66524053 36:0.56276667 37:0.60908699 38:0.54971939 39:0.23349845 40:0.72997272 41:0.36556467 42:0.7411204 43:0.44736648 44:0.46561348 45:0.36170885 46:0.34524232 47:0.66851109 48:0.33290353 49:0.85004377 50:0.77816302 51:0.52995098 52:0.50965601 53:0.61585999 54:0.6612016 55:0.065162636 56:0.43105686 57:0.59609216 58:0.67256469 59:0.44995967 60:0.72774029 61:0.19799349 
-0.8029740010719617 1:0.49520394 2:0.23903692 3:0.46104622 4:0.64830136 5:0.60810685 6:0.49295315 7:0 8:0.20151126 9:0.70188558 10:0.79595494 11:0.63591897 12:0.1775348 13:0.68401939 14:0.27838695 15:0.51873243 16:0 17:0.89302284 18:0.68671566 19:0.37385437 20:0.69159645 21:0.44249225 22:0.49331301 23:0.384675 24:0.59368598 25:0.44418335 26:0.18849738 27:0.25264382 28:0.3544614 29:0.73258591 30:0.2650069 31:0.84453732 32:0.62714213 33:0.5399667 34:0.76846606 35:0.7330814 36:0.22416472 37:0.27665073 38:0.70842743 39:0.15510735 40:0.57677919 41:0.41196766 42:0.56688279 43:0.2945897 44:0.55331695 45:0.27740657 46:0.63807601 47:0.42786393 48:0.21487001 49:0.5777384 50:0.24968982 51:0.76186949 52:0.34153247 53:4.4520486e-16 54:0.77562767 55:0.54249185 56:0.28214368 57:0.63594854 58:0.69257569 59:0.34718636 60:0.56498677 61:0.19454607 
-2.504677138822339 1:0.32576203 2:0.46416965 3:0.2146173 4:0.49716738 5:0.91482604 6:0.40740216 7:0.37506899 8:0.26619136 9:0.43220338 10:0.81976974 11:0.26249844 12:0.3550894 13:0.14910118 14:0.50959516 15:0.22460732 16:0.58583868 17:0.43144271 18:0.49667448 19:0.5265184 20:0.74136847 21:0.49758452 22:0.51275426 23:0.37554631 24:0.45314977 25:0.10685389 26:0.41526535 27:0.57014418 28:0.9341557 29:0.37084666 30:0.68746406 31:0.33653486 32:0.5584389 33:0.71546924 34:0.58252478 35:0.3651967 36:0.3389709 37:0.075421326 38:0.55986404 39:1 40:0.59440672 41:0.27851975 42:0.55019653 43:0.19882484 44:0.54127717 45:0.53239191 46:0.75314027 47:0.65218568 48:0.57660639 49:0.39081508 50:0.43215409 51:0.5014618 52:0.83700442 53:0.7836532 54:0.50633162 55:0.73563665 56:0.2193622 57:0.77262801 58:0.79547703 59:0.13327783 60:0.56310123 61:0.50674027 
-0.6238171066069161 1:0.69951147 2:0.44466317 3:0.26862156 4:0.43790159 5:0.58011746 6:0.70006645 7:0.41401869 8:0.58275098 9:0.62272668 10:0.37971953 11:0.41923875 12:0.74188441 13:0.72692484 14:0.67042392 15:0.62660515 16:0.48091787 17:0.50938725 18:0.40113646 19:0.43015409 20:0.36460042 21:0.52431244 22:0.61375207 23:0.25191385 24:0.46598899 25:0.60700083 26:0.259321 27:0.65906489 28:0.34499797 29:0.92545098 30:0.63576901 31:0.69192666 32:0.21657105 33:0.34638494 34:0.62398922 35:0.35652304 36:0.45488784 37:0.15933 38:0.51794565 39:0.91135359 40:0.66689241 41:0.29739425 42:0.21386133 43:0.083411068 44:0.55568689 45:0.2615073 46:0.40649685 47:0.64093286 48:0.77643746 49:0.40685859 50:0.43446913 51:0.82755399 52:0.70755786 53:0.26734006 54:0.65407109 55:0.16431227 56:0.5279668 57:0.53260547 58:0.5037753 59:0.6312623 60:0.73893869 61:0.16183217 
-0.01555966509205295 1:0.29004556 2:0.35940215 3:0.60451788 4:0.64471239 5:0.69024134 6:0.30928773 7:0.15397482 8:0.60350722 9:0.56099516 10:0.56308705 11:0.80455893 12:0.43750709 13:0.32701573 14:0.49054495 15:0.40410137 16:0.79615033 17:0.27047834 18:0.45167702 19:0.57686996 20:0.58055454 21:0.59842706 22:0.41874507 23:0.33495292 24:0.87571436 25:0.31997794 26:0.62945604 27:0.40756691 28:0.62196773 29:0.50730795 30:0.43850017 31:0.49881178 32:0.24468394 33:0.14726338 34:0.69218415 35:0.31571329 36:0.33738649 37:0.65117747 38:0.65361738 39:0.62618089 40:0.59965849 41:0.41289195 42:0.43139243 43:0.21873711 44:0.43098497 45:0.42102295 46:0.68813229 47:0.47011036 48:0.39318964 49:0.5699451 50:0.32032332 51:0.52042711 52:0.75198954 53:0.81299382 54:0.051984549 55:0.44060236 56:0.54520196 57:0.43834111 58:0.77295762 59:0.46485385 60:0.54701585 61:0.25912133 
-0.01408626323656632 1:0.41302937 2:0.79526514 3:0.47937611 4:0.51539516 5:0.07754676 6:0.36616945 7:0.39004412 8:0.46359691 9:0.26811716 10:0.76546532 11:0.48085976 12:0.15941723 13:0.14536959 14:0.42093402 15:0.55146426 16:0.41884741 17:0.44254243 18:0.34351927 19:0 20:0.74317372 21:0.3336243 22:0.55403346 23:0.4091168 24:0.83938175 25:0.44720808 26:0.57523268 27:0.75928795 28:0.77302408 29:0.64025241 30:0.49373433 31:0.59202933 32:0.44787019 33:0.26247799 34:0.34834543 35:0.52993888 36:0.70156491 37:0.72891515 38:0.60457397 39:0.72715968 40:0.65152401 41:0.44383588 42:0.37639868 43:0.36341712 44:0.46344113 45:0.65309072 46:0.73242086 47:0.66430092 48:0.4428122 49:0.55794728 50:0.59015071 51:0.79821783 52:0.9526338 53:0.44165403 54:0.30719605 55:0.36794496 56:0.60813397 57:0.72294968 58:0.55170804 59:0.51786363 60:0.54341936 61:0.23105177 
-0.8193129706786443 1:0.45379254 2:0.60227263 3:0.5446682 4:0.57994395 5:0.29381648 6:0.33029884 7:0.78323233 8:0.43170425 9:0.37355709 10:0.67999727 11:0.65040112 12:0.49289918 13:0.86430526 14:0.55988747 15:0.30985087 16:0.40900904 17:0.46212712 18:0.55549943 19:0.66912448 20:0.41013101 21:0.76365238 22:0.56653613 23:0.96286428 24:0.65156925 25:0.66121507 26:0.32281148 27:0.30007064 28:0.70361173 29:0.75292701 30:0.56754881 31:0.56492674 32:0.38993454 33:0.28265041 34:1 35:0.58703834 36:0.063300803 37:0.34343249 38:0.46739745 39:0.58036804 40:0.85225809 41:0.41260573 42:0.54210669 43:0.58759022 44:0.43529871 45:0.48004967 46:0.60412258 47:0.3817153 48:0.023075629 49:0.39511982 50:0.32664081 51:0.38247451 52:0.41906843 53:0.31865677 54:0.11923374 55:0.79174519 56:0.60240787 57:0.22372267 58:0.60327005 59:0.54164857 60:0.52881759 61:0.23857275 
-0.9036544588696319 1:0.37175837 2:0.40712067 3:0.45080167 4:0.8313936 5:0.42833668 6:0.46686772 7:0.60311007 8:0.36441609 9:0.45119739 10:0.48776171 11:0.71003956 12:0.38138923 13:0.77610022 14:0.43891576 15:0.54336178 16:0.67560416 17:0.23030777 18:0.20078517 19:0.43735403 20:0.35977787 21:0.36785653 22:0.62328231 23:0.4139196 24:0.53491193 25:0.46070719 26:0.44882968 27:0.35944012 28:0.15859707 29:0.68592846 30:0.5272097 31:0.7717948 32:0.71339011 33:0.50548321 34:0.38693985 35:0.49035561 36:0.50858116 37:0.53561842 38:0.67689747 39:0.60263902 40:0.37318861 41:0.68927044 42:0.62847066 43:0.43846792 44:0.33123639 45:0.67225057 46:0.44570008 47:0.21868274 48:0.26183507 49:0.69966274 50:0.32049814 51:0.60030776 52:0.7116549 53:0.35313392 54:0.48658127 55:0.20366938 56:0.8537389 57:0.42203933 58:0.37617555 59:0.67660081 60:0.56383228 61:0.14967468 
-0.7898948165548711 1:0.79474783 2:0.49609804 3:0.14630431 4:0.75663579 5:0.5616557 6:0.39689142 7:0.38328677 8:0.54373592 9:0.087660186 10:0.62717491 11:0.5653289 12:0.5361886 13:0.71570253 14:0.31363192 15:0.5691663 16:0.7340129 17:0.39823604 18:0.40079623 19:0.50169468 20:0.71855563 21:0.6455453 22:0.76751834 23:0.37911439 24:0.86070609 25:0.13162223 26:0.22667474 27:0.56614995 28:0.61258209 29:0.50995791 30:0.44742039 31:0.4179869 32:0.87444288 33:0.20875338 34:0.26705772 35:0.38701555 36:0.50313365 37:0.66696244 38:0.40907079 39:0.46567249 40:0.22523725 41:0.17483686 42:0.41896158 43:0.59946078 44:0.53367275 45:0.55717808 46:0.20405377 47:0.18114236 48:0.46285516 49:0.69759762 50:0.55343097 51:0.46571648 52:0.53739929 53:0.41183203 54:0.78271103 55:0.48175678 56:0.72855788 57:0.82806855 58:0.87900496 59:0.24779631 60:0.64858878 61:0.25446141 
-0.226050823610129 1:0.63950574 2:0.36772934 3:0.71407878 4:0.29507008 5:0.34951103 6:0.83956158 7:0.17204705 8:0.72047573 9:0.73356259 10:0.48397261 11:0.26774144 12:0.14266147 13:0.43509325 14:0.43478101 15:0.46020171 16:0.17221481 17:0.25431079 18:0.28401211 19:0.45065856 20:0.34732795 21:0.76228535 22:0.70845068 23:0.26376662 24:0.67723155 25:0.47645956 26:0.29653928 27:0.23666482 28:0.7856282 29:0.39564776 30:0.33839026 31:0.64730996 32:0.57373446 33:0.1090989 34:0.60188442 35:0.44951391 36:0.50065345 37:0.65958393 38:0.41124532 39:0.48913974 40:0.29006851 41:0.28222686 42:0.77132595 43:0.18686806 44:0.2819905 45:0.73584712 46:0.33043039 47:0.44813702 48:0.35142472 49:0.5735268 50:0.69256496 51:0.72772062 52:0.68116748 53:0.65508646 54:0.56899071 55:0.22621244 56:0.38506705 57:0.41383052 58:0.24984989 59:0.498081 60:0.57036716 61:0.076912053 
-0.2893498097070363 1:0.39195263 2:0.18143964 3:0.75765663 4:0.56943011 5:0.45346871 6:0.17970791 7:0.76460814 8:0.54712355 9:0.70033741 10:0.47779879 11:0.31450868 12:0.63567221 13:0.35975936 14:0.38866568 15:0.45199645 16:0.50203407 17:0.43420461 18:0.46799433 19:0.18827887 20:0.31684548 21:0.38485301 22:0.5223698 23:0.39372644 24:0.88474965 25:0.22277892 26:0.50709063 27:0.61219043 28:0.60124624 29:0.49430311 30:0.56229484 31:0.79873067 32:0.29470506 33:0.41474983 34:0.5603928 35:0.39243624 36:0.42609555 37:0.56627184 38:0.28882107 39:0.41337231 40:0.091964699 41:0.31391323 42:0.59773368 43:0.49417555 44:0.70516801 45:0.44358447 46:0.6741544 47:0.4473882 48:0.34031177 49:0.24172929 50:0.4357239 51:0.68579537 52:0.73789567 53:0.50580853 54:0.22769308 55:0.57661849 56:0.3810173 57:0.23237714 58:0.29612422 59:0.58571804 60:0.58833396 61:0.1694874 
-0.08918489727506924 1:0.30207103 2:0.44231296 3:0.40501219 4:0.44454777 5:0.49664053 6:0.54731596 7:0.31807849 8:0.35972142 9:0.43283755 10:0.45187169 11:0.62678021 12:0.48460951 13:0.39630184 14:0.28024507 15:0.57363218 16:0.2354175 17:0.37698552 18:0.29478675 19:0.58905953 20:0.46368679 21:0.50656909 22:0.45687097 23:0.56911212 24:0.41525346 25:0.20886075 26:0.29285339 27:0.11913046 28:0.78414702 29:0.49215502 30:1 31:0.58829159 32:1.0105594e-15 33:0.75105709 34:0.788064 35:0.49888724 36:0.55602956 37:0.4547005 38:0.37196496 39:0.47090915 40:0.33813503 41:0.14825878 42:0.70737529 43:0.37979671 44:0.69728136 45:0.34067199 46:0.23211609 47:0.72952455 48:0.30623472 49:0.6482017 50:0.51208204 51:0.50584871 52:0.79193079 53:0.64748621 54:0.67625135 55:0.42428076 56:0.53567201 57:0.69247961 58:0.55961311 59:0.38263574 60:0.65803707 61:0.29948312 
-1.777495910192233 1:0.55409092 2:0.53979313 3:0.43774155 4:0.57797235 5:0.54340208 6:0.35633314 7:0.39933935 8:0.50408447 9:0.35717323 10:0.56365007 11:0.71848857 12:0.70327252 13:0.96991372 14:0.56449395 15:0.53040236 16:0.27014431 17:0.69698024 18:0.59499341 19:0.47703791 20:0.29324758 21:0.75919759 22:0.17414278 23:0.317004 24:0.37811249 25:0.62888122 26:0.60201514 27:0.14379719 28:0.74966526 29:0.25170189 30:0.52310902 31:0.35615242 32:0.56151873 33:0.64367992 34:0.3096922 35:0.96787083 36:0.56156892 37:0.80021363 38:0.66861355 39:0.57953566 40:0.67836535 41:0.5909934 42:0.58637089 43:0.87570447 44:0.39434689 45:0.44689968 46:0.25363871 47:0.34240544 48:0.65618414 49:0.35097978 50:0.68914199 51:0.88555175 52:0.74366879 53:0.31582856 54:0.23581463 55:0.37094784 56:0.64392549 57:0.53682309 58:0.54122353 59:0.53711802 60:0.5723235 61:0.264135 
-1.244152862950666 1:0.24631594 2:0.63007122 3:0.46258649 4:0 5:0.48126894 6:0.47295734 7:0.75995576 8:0.56995106 9:0.55099142 10:0.86115271 11:1 12:0.62522292 13:0.52675843 14:0.41983587 15:0.57320464 16:0.42963013 17:0.50679213 18:0.41383401 19:0.46732706 20:0.14079136 21:0.33431941 22:0.60923845 23:0.73096353 24:0.77637857 25:0.5220924 26:0.49645913 27:0.34399214 28:0.50238293 29:0.69296288 30:0.37041306 31:0.59798121 32:0.55240661 33:0.86717612 34:0.16535737 35:0.42145199 36:0.54795033 37:0.5404337 38:0.77336591 39:0.43254125 40:0.31059891 41:0.10937148 42:0.25521597 43:0.61279666 44:0.47090256 45:0.46911517 46:0.24194938 47:0.61490929 48:0.415402 49:0.51275843 50:0.53208739 51:0.96921736 52:0.90096009 53:0.62413383 54:0.82734978 55:0.48236904 56:0.50691557 57:0.66230339 58:0.69382781 59:0.28537008 60:0.57769436 61:0.24709451 
-2.138205359738952 1:0.38117477 2:0.38528019 3:0.4727653 4:0.70834213 5:0.53422624 6:0.72882789 7:0.45204133 8:0.61818087 9:0.81736714 10:0.21927084 11:0.61440063 12:0.3770988 13:0.49040055 14:0.48840299 15:0.42160249 16:0.75986224 17:0.029194985 18:0.57740927 19:0.42947328 20:0.23185706 21:0.45280048 22:0.29052299 23:0.33477196 24:0.59756488 25:0.10719767 26:1 27:0.30791792 28:0.32168707 29:0.53075272 30:0.54898673 31:0.87447137 32:0.56279731 33:0.77184355 34:0.37935334 35:0.75177068 36:0.52642703 37:0.15534778 38:0.70448202 39:0.39963016 40:0.22151527 41:0.27896795 42:0.60527641 43:0.67316753 44:0.7493704 45:0.48419905 46:0.60722351 47:0.60942769 48:0.40996185 49:0.48705518 50:0.90285438 51:0.46725547 52:0.15971009 53:0.26893589 54:0.19449653 55:0.6758703 56:0.36216924 57:0.68978482 58:0.54063678 59:0.50839603 60:0.49857497 61:0.31911266 
-0.1382217418201107 1:0.3857266 2:0.39821476 3:0.48175713 4:0.78977627 5:0.38099951 6:0.3063674 7:0.12232755 8:0.57693142 9:0.53655982 10:0.34842482 11:0.20016408 12:0.24922127 13:0.30876368 14:0.64588153 15:0.25312415 16:0.15454036 17:0.52710187 18:0.53539532 19:0.57819074 20:0.29607707 21:0.62263572 22:0.73745245 23:0.5755232 24:0.73875046 25:0.36738867 26:0.67243975 27:0.43312329 28:0.63221955 29:0.41999578 30:0.30633345 31:0.53815055 32:0.50717694 33:0.89326823 34:0.27407923 35:0.25277293 36:0.29014999 37:0.85469538 38:0.86660266 39:0.62070096 40:0.91270375 41:0.13535346 42:0.71377289 43:0.28485203 44:0.41791764 45:0.52879483 46:0.47183689 47:0.082180776 48:1 49:0.51054168 50:0.78280032 51:0 52:0.72394168 53:0.54038745 54:0.32800806 55:0.25446522 56:0.80386096 57:0.65353101 58:0.63683426 59:0.79114956 60:0.82196122 61:0.29399782 
-0.06688614395226503 1:0.55249751 2:0.26901525 3:0.57704169 4:0.3884469 5:0.33177811 6:0.45720437 7:0.65682942 8:0.51720405 9:0.50330716 10:0.45953336 11:0.52017218 12:0.24015598 13:0.54147959 14:0.59176558 15:0.53310299 16:0.82230347 17:0.59572691 18:0.33665615 19:0.63880122 20:0.61111188 21:0.40138608 22:0.34794062 23:0.57548344 24:0.90193665 25:0.63274854 26:0.61079985 27:0.40049359 28:0.28091535 29:0.6571148 30:0.33136529 31:0.51199883 32:0.19984141 33:0.33444723 34:0.4090403 35:0.44355085 36:0.48810625 37:0.41217288 38:0.34765506 39:0.35780799 40:0.91378516 41:0.35124347 42:1 43:0.60534775 44:0.59182727 45:0.27563527 46:0.34416422 47:0.4376348 48:0.45575094 49:0.74922585 50:0.23307149 51:0.6319626 52:0.79702294 53:0.4335154 54:0.70069534 55:0.804461 56:0.15488657 57:0.5750131 58:0.82705301 59:0.37713903 60:0.76160973 61:0.23713799 
-2.668647387922841 1:0.44058883 2:0.90880585 3:0.61740947 4:0.53197896 5:0.64167279 6:0.42078435 7:0.5467025 8:0.05444397 9:0.48659617 10:0.32281151 11:0.51085663 12:0.17815627 13:0.5150032 14:0.57585442 15:0.41121489 16:0.31472707 17:0.29854766 18:0.61516827 19:0.77473366 20:0.19708313 21:0.65002304 22:0.73340213 23:0.5869258 24:0.56280285 25:0.56385022 26:0.2238984 27:0.43022829 28:0.5776577 29:0.45975441 30:0.56392258 31:0.55683547 32:0.27913639 33:0.62598085 34:0.52720189 35:0.15784246 36:0.55092728 37:0.34779274 38:0.60983866 39:0.33151233 40:0.4651719 41:0.19846453 42:0.490226 43:0.36036569 44:0.72751462 45:0.41759858 46:0.31901586 47:0.34840965 48:0.44995242 49:0.45120752 50:0.84725964 51:0.27841538 52:0.41005558 53:0.35823664 54:0.74862581 55:1 56:0.64263457 57:0.98253387 58:0.61937231 59:0.64271808 60:0.77321661 61:0.33864558 
-0.2259948829021016 1:0.33966216 2:0.64187491 3:0.11207965 4:0.46780485 5:0.53825659 6:0.30681798 7:0.64149767 8:0.75317609 9:0.61769539 10:0.79653937 11:0.38366002 12:0.32995251 13:0.46728981 14:0.72999018 15:0.46665064 16:0.25011799 17:0.4317537 18:0.2928251 19:0.22906682 20:0.79248405 21:0.27952901 22:0.52138638 23:0.82206535 24:0.52778322 25:0.33805236 26:0.46763471 27:0.044222727 28:0.45039135 29:0.82202947 30:0.57340097 31:0.40918478 32:0.71936536 33:0.73243135 34:0.61921805 35:0.44582048 36:0.18672448 37:0.57579958 38:0.37240696 39:0.41374809 40:0.78467256 41:0.55503392 42:0.6905303 43:0.35651731 44:0.59516799 45:0.7974171 46:0.54802126 47:0.65581018 48:0.47718328 49:0.67504591 50:0.39508262 51:0.66539234 52:0.67908001 53:0.046032593 54:0.40355876 55:0.74845511 56:0.69337642 57:0.53352988 58:0.18742263 59:0.93093902 60:0.6706512 61:0.27760342 
-1.579663938931643 1:0.29883963 2:0.49019226 3:0.43507683 4:0.52151018 5:0.71206439 6:0.65475458 7:0.59411097 8:0.39213851 9:0.45679969 10:0.83475882 11:0.67837471 12:0.46840018 13:0.0065985434 14:0.51439494 15:0.74287707 16:0.59994507 17:0.58081073 18:0.71513122 19:0.58180624 20:0.53617454 21:0.39063933 22:0.29397497 23:0.52885216 24:0.65547711 25:0.065424055 26:0.11382775 27:0.027369987 28:0.51127756 29:0.47147149 30:0.48536098 31:0.65082508 32:0.7169773 33:0.29034597 34:0.51452261 35:0.52172285 36:0.21055722 37:0.72059548 38:0.68297046 39:0.71840328 40:0.71533191 41:0.35873529 42:0.64122277 43:0.39828703 44:0.68360972 45:0.80781949 46:0.54128283 47:0.47233251 48:0.73840451 49:0.17444268 50:0.41202247 51:0.60123843 52:0.70066267 53:0.18696889 54:0.65764582 55:0.71605563 56:0.83623016 57:0.90910715 58:0.39931267 59:0.91990918 60:0.59892559 61:0.35536686 
-0.3829214039411675 1:0.67437381 2:0.20932038 3:0.28295684 4:0.56655508 5:0.61850953 6:0.59358633 7:0.6286335 8:0.51515037 9:0.17893346 10:0.571356 11:0.60588044 12:0.27233484 13:0.54379779 14:0.37489069 15:0.64649373 16:0.30772102 17:0.44502023 18:0.55929661 19:0.63504398 20:0.74564892 21:0.31301209 22:0.70311666 23:0.79013538 24:0.37304878 25:0.41623262 26:0.58213496 27:0.42002657 28:0.42434299 29:0.4523049 30:0.53937334 31:0.53532672 32:0.55526406 33:0.71379113 34:0.28782535 35:0.44100457 36:0.30026251 37:0.33896077 38:0.76121384 39:0.37600288 40:0.53655142 41:0.38260746 42:0.76101297 43:0.61808473 44:0.099268273 45:0.50672537 46:0.72176349 47:0.22441968 48:0.45399132 49:0.4985978 50:0.671924 51:0.15520015 52:0.68676639 53:0.62243891 54:0.48191836 55:0.37851787 56:0.68145531 57:0.38328522 58:0.15715598 59:0.96415734 60:0.71338028 61:0.17082986 
-0.03811595068574316 1:0.67170334 2:0.49680272 3:0.52520037 4:0.33005947 5:0.3171868 6:0.34081304 7:0.5697329 8:0.47400913 9:0.076566204 10:0.16296777 11:0.523893 12:0.63257921 13:0.41418037 14:0.28416803 15:0.16511233 16:0.34664428 17:0.57229441 18:0.52742052 19:1 20:0.559322 21:0.34113231 22:0.43859589 23:0.54616857 24:0.30866894 25:0.4409675 26:0.057094872 27:0.44025752 28:0.39884171 29:0.15710208 30:0.55066943 31:0.46339551 32:0.44038957 33:0.59238285 34:0.37065968 35:0.26952451 36:0.24273914 37:0.47199875 38:0.4612619 39:0.53434128 40:0.79782128 41:0.31774542 42:0.81777042 43:0.63393611 44:0.85926473 45:0.6344499 46:0.7440691 47:0.3076604 48:0.55324447 49:0.72535288 50:0.33927944 51:0.92219442 52:0.81248969 53:0.90591145 54:0.20081773 55:0.49756697 56:0.77478844 57:0.43344352 58:0.33858284 59:0.8304944 60:0.57854456 61:0.20596167 
-1.506217718238463 1:0.42956483 2:0.47177586 3:0.37099141 4:0.84465623 5:0.38074902 6:1 7:0.76911652 8:0.30773738 9:0.87989312 10:0.86381906 11:0.66547 12:0.37730414 13:0.08116135 14:0.45677194 15:0.40512562 16:0.42398563 17:0.63625646 18:0.91054529 19:0.65132558 20:0.5244962 21:0.51929802 22:0.25603095 23:0.40253115 24:0.38045311 25:0.57606053 26:0.37634331 27:1 28:0.66765034 29:0.078617662 30:0.5456934 31:0.53371257 32:0.64275342 33:0.40114838 34:0.26995754 35:0.17262821 36:0.36439839 37:0.48061541 38:0.43750545 39:0.42451552 40:0.48861212 41:0.19491948 42:0.68270701 43:0.41084588 44:0.26652101 45:0.017388571 46:0.38763317 47:0.31273898 48:0.27698168 49:0.58425355 50:0.38774741 51:0.79423165 52:0.62745696 53:0.47165912 54:0.47335902 55:0.78328735 56:0.89116609 57:0.69495916 58:0.52067727 59:0.79215389 60:0.7482509 61:0.36400232 
-1.251493726077187 1:0.35559374 2:1 3:0.37305722 4:0.81055242 5:0.60925841 6:0.53806156 7:0.63197207 8:0.27634251 9:0.59475732 10:0.7744891 11:0.39205655 12:0.097431913 13:0.34448513 14:0.17484221 15:0.65155059 16:0.30259958 17:0.46521619 18:0.46816951 19:0.72574985 20:0.3104589 21:0.32423127 22:0.53297246 23:0.4847922 24:0.59294701 25:0.44171926 26:0.42703003 27:0.50521529 28:0.39435187 29:0.55090368 30:0.32411557 31:0.42189205 32:0.62152314 33:0.026192956 34:0.37459964 35:0.77433825 36:0.33614334 37:0.4538945 38:0.51993895 39:0.39126658 40:0.16633552 41:0.56624812 42:0.46383169 43:0.65609795 44:0.52462524 45:0.46178493 46:0.25664043 47:0.49468052 48:0.2891534 49:0.68153244 50:0.71941078 51:0.52319044 52:0.48662588 53:0.74816036 54:0.15909761 55:0.3174552 56:0.87375993 57:0.64046246 58:0.61062443 59:0.52002728 60:0.56452674 61:0.24323368 
-0.2412735373081305 1:0.15003827 2:0.51759493 3:0.31583372 4:0.41597012 5:0.71358573 6:0 7:0.61848444 8:0.4504557 9:0.66090751 10:0.7814768 11:0.60690254 12:0.51523441 13:0.2035456 14:0.44090942 15:0.44171712 16:0.12502961 17:0.15695503 18:1 19:0.49389917 20:0.2414837 21:0.35394254 22:0.68223584 23:0.52804339 24:0.62298125 25:0.3345021 26:0.50708073 27:0.2686016 28:0.4136388 29:0.43514886 30:0.48796731 31:0.62436479 32:0.57862383 33:0.51210296 34:0.42584684 35:0.52501988 36:1 37:0.33794436 38:0.5262509 39:0.21573153 40:0.39925259 41:0.38448918 42:0.39853433 43:0.099462733 44:0.45901203 45:0.31489572 46:0.38296938 47:0.45482484 48:0.58729053 49:0.6374923 50:0.68536144 51:0.42896512 52:0.55948776 53:0.21658936 54:0.67155385 55:0.49034852 56:0.2924259 57:0.46551532 58:0.43329599 59:0.38293436 60:0.70566136 61:0.25189686 
-1.028622043010869 1:0.34741741 2:0.85681665 3:0.6067456 4:0.53842056 5:0.66022933 6:0.61176467 7:0.52658844 8:0.75153744 9:0.22750725 10:0.91841865 11:0.77252883 12:0.38378066 13:0.76219416 14:0.6631074 15:0.72599089 16:0.40682113 17:0.64248586 18:0.33070466 19:0.58082944 20:0.2622903 21:0.73028702 22:0.76859576 23:0.17088115 24:0.73766589 25:0.48626408 26:0.73233879 27:0.40516239 28:0.35151166 29:0.38753659 30:0.41605324 31:0.20987682 32:0.76175487 33:0.42904344 34:0.12913145 35:0.020343684 36:0.48187992 37:0.55197597 38:0.68154234 39:0.27257746 40:0.86518079 41:0.28056341 42:0.9642216 43:0.37153149 44:0.60408413 45:0.19099157 46:0.57299435 47:0.64507538 48:0.34685728 49:0.82006162 50:0.60118526 51:0.70790833 52:0.63134068 53:0.64590961 54:0.43762621 55:0.22597796 56:1.120518e-15 57:0.32388228 58:0.39513099 59:0.36767337 60:0.64001322 61:0.2131312 
-1.166850497962757 1:0.46056095 2:0.28760719 3:0.33452985 4:0.72745228 5:0.65085667 6:0.54018182 7:0.70074034 8:0.32252708 9:0.080005839 10:0.39790386 11:0.40396589 12:0.24661492 13:0.69957018 14:0.52695268 15:0.64149553 16:0.4949035 17:0.60790241 18:0.49293324 19:0.46380883 20:0.72342557 21:0.78385741 22:0.40177995 23:0.15256378 24:0.34510991 25:0.52786881 26:0.53021514 27:0.2601898 28:0.51808786 29:0.7008974 30:0.57364839 31:0.62350988 32:0.45699129 33:0.48329756 34:0.42537853 35:0.62910622 36:0.4961414 37:0.44668749 38:0.28579643 39:0.38442445 40:0.36655241 41:0.34346205 42:0.27176079 43:0.57710564 44:0.57602268 45:0.30238456 46:0.65869033 47:0.48063344 48:0.55938065 49:0.4197025 50:0.49756286 51:0.4822987 52:0.50346053 53:0.44234911 54:0.26187441 55:0.61016101 56:0.40540811 57:0.3622973 58:0.24113074 59:0.65493941 60:0.86006814 61:0.19776063 
-2.589437082138077 1:0.30692407 2:0.45292875 3:0.2726953 4:1 5:0.021357374 6:0.5068202 7:0.22070041 8:0.64798248 9:0.50422549 10:0.43552479 11:0.40156621 12:0.48586214 13:0.48110217 14:0.60314316 15:0.45055103 16:0.37850729 17:0.34761995 18:0.70261341 19:0.3768017 20:0.69535708 21:0.40991327 22:0.73812574 23:0.22466242 24:0.52544141 25:0.42513219 26:0.83303648 27:0.25160503 28:0.44207001 29:0.61164272 30:0.57444793 31:0.52473146 32:0.70628887 33:0.77579248 34:0.48253947 35:0.45423117 36:0.43347269 37:0.77781332 38:0.44970682 39:0.51549095 40:0.5591327 41:0 42:0.25401881 43:0.66283607 44:0.64430159 45:0.60879433 46:0.21243973 47:0.38554466 48:0.40809634 49:0.55493313 50:0.39471698 51:0.73506814 52:0.73798025 53:0.74659008 54:0.69739091 55:0.47652775 56:0.59842747 57:0.67892754 58:0.6593653 59:0.29799658 60:0.57347828 61:0.3436994 
-0.2391909302253527 1:0.53128535 2:0.6400649 3:0.23612697 4:0.48599505 5:0.40893814 6:0.42277706 7:0.41566071 8:0.35267463 9:0.58162743 10:0.12037056 11:0.64117855 12:0.44907013 13:0.31953472 14:0.64817494 15:0.55867654 16:0.12233544 17:0.4786289 18:0.57522434 19:0.68796653 20:0.35580748 21:0.52086675 22:0.29977968 23:0.53297156 24:0.65687329 25:0.19550261 26:0.45291469 27:0.33295929 28:0.29179904 29:0.68234795 30:0.15599962 31:0.56028402 32:0.72101688 33:0.67300022 34:0.29786757 35:0.71819139 36:0.49847597 37:0.61914766 38:0.40147346 39:0.53710413 40:0.39089325 41:0.4490748 42:0.88448066 43:0.32121626 44:0.43186665 45:0.71094137 46:0.34923506 47:0.29106933 48:0.33270428 49:0.4221628 50:0.26703095 51:0.68793714 52:0.7787028 53:0.46010339 54:0.49878305 55:0.52801991 56:0.14366721 57:0.25642857 58:0.51419455 59:0.18649937 60:0.59532511 61:0.1593695 
-1.072402716833897 1:0.59094542 2:0.74744034 3:0.43706718 4:0.31262273 5:0.95628619 6:0.59310466 7:0.33903772 8:0.62534052 9:0.4583334 10:0.53175634 11:0.46719506 12:0.91112554 13:0.47745097 14:0.39722419 15:0.46304408 16:1 17:0.55485803 18:0.71006149 19:0.26352227 20:0.64112008 21:0.43812928 22:0.14758344 23:0.79962683 24:0.781901 25:0.67173636 26:0.61613166 27:0.64406478 28:0.23769361 29:0.63041669 30:0.29412746 31:0.40227449 32:0.47393394 33:0.63453102 34:0.95005178 35:0.58960551 36:0.88238889 37:0.72771424 38:0.53332704 39:0.82808244 40:0.57887852 41:0.16498813 42:0.69101852 43:0.43965527 44:0.73720974 45:0.2990827 46:0.66840076 47:0.46038705 48:0.58386797 49:0.90613359 50:0.36900145 51:0.62542611 52:0.57725418 53:0.24861504 54:0.39318484 55:0.39043704 56:0.37217858 57:0.59820133 58:0.56915289 59:0.65594983 60:0.58750713 61:0.28527138 
-1.202586540085443 1:0.6338681 2:0.41801721 3:0.51662987 4:0.68101633 5:0.49248412 6:0.27753285 7:0.81635392 8:0.20495969 9:0.37782893 10:0.49127889 11:0.42812729 12:0.23902857 13:0.67836291 14:0.40613389 15:0.65101027 16:0.026791669 17:0.26824176 18:0.47853726 19:0.48034048 20:0.83521777 21:0.50460881 22:0.32739308 23:0.94921571 24:0.3289791 25:0.31026357 26:0.79588413 27:0.38047794 28:0.46327424 29:0.91664219 30:0.41387904 31:0.59323466 32:0.38520497 33:0.44579637 34:0.49874121 35:0.33812806 36:0.42720923 37:0.80434287 38:0.73033506 39:0.85748446 40:0.65571219 41:0.28031582 42:0.89901292 43:0.33167309 44:0.68763596 45:0.42342013 46:0.63313967 47:0.17069727 48:0.25099134 49:0.65141159 50:0.43215626 51:0.38521117 52:0.45453212 53:0.74108553 54:0.68322158 55:0.22908653 56:0.51835281 57:0.49738488 58:0.43550587 59:0.36536676 60:0.69453734 61:0.17737257 
-0.8538271042637396 1:0.58080882 2:4.5601729e-16 3:0.66365522 4:0.38098282 5:0.18114363 6:0.3010976 7:0.64249301 8:0.11305811 9:0.38336262 10:0.26433063 11:0.42135224 12:0.11155041 13:0.70243752 14:0.75201678 15:0.57625198 16:0.36696178 17:0.57694858 18:0.65885043 19:0.15692511 20:0.22098745 21:0.53206158 22:0.53440905 23:0.96168554 24:0.49498695 25:4.7728883e-16 26:0.84356886 27:0.21608853 28:0.78278422 29:0.26276997 30:0.58138126 31:0.32948777 32:0.48884669 33:0 34:0.36879948 35:0.70653236 36:0.63023323 37:0.40960744 38:0.40626431 39:0.28719771 40:0.69476205 41:0.22242039 42:0.56882918 43:0.2800763 44:0.46682635 45:0.37576571 46:0.37559149 47:0.47005844 48:0.30012 49:0.63096553 50:0.83585012 51:0.88265097 52:0.35895413 53:0.52409518 54:0.44116852 55:0.22140956 56:0.57906002 57:0.68640745 58:0.69270176 59:0.39136544 60:0.62994128 61:0.22125003 
-0.5259224200454036 1:0.72856861 2:0.34531212 3:0.45697287 4:0.36641797 5:0.48790824 6:0.27241969 7:0.090460539 8:0.55367768 9:0.57763666 10:0.59487218 11:0.17813723 12:0.48865122 13:0.43926382 14:0.7070713 15:0.53279686 16:0.56345075 17:0.43168271 18:0.22468494 19:0.71199995 20:0.51617038 21:0.49507773 22:0.42274976 23:0.19751988 24:0.52169293 25:0.28192738 26:0.36959565 27:0.57328504 28:1 29:0.2788305 30:0.29860857 31:0.64477897 32:0.64292783 33:0.70667255 34:0.24733321 35:0.45362952 36:0.4001703 37:0.52134758 38:0.19646883 39:0.11470355 40:0.53271461 41:0.41181377 42:0.82190132 43:1 44:0.64407372 45:0.07426966 46:0.55580586 47:0.36696553 48:0.32761669 49:0.55199385 50:0.62817484 51:1 52:0.33823353 53:0.4980433 54:0.56630284 55:0.32488155 56:0.28504625 57:0.52041566 58:0.38349238 59:0.60212886 60:0.45878088 61:0.12579283 
