svm_type c_svc
kernel_type rbf
gamma 0.09
nr_class 2
total_sv 12
rho -0.205311
label 130970101 130970102
probA -2.80586
probB 0.0483349
nr_sv 7 5
SV
1.946795815510765 1:0.40370589 2:0.21431877 3:0.14319983 4:0.44996059 5:0.46522573 6:0.78116822 7:0.2967689 8:0.24740471 9:0.18434359 10:0.11213061 11:0.87618589 
2.524794518564091 1:0.80291528 2:0.22524974 3:0.27924085 4:0.4704566 5:0.30769089 6:0.022503803 7:0.80087137 8:0.42315561 9:1 10:0.30840272 11:0.91037399 
1.870017809989452 1:0.27192706 2:6.6165513e-16 3:0.54652786 4:0.76160532 5:0.549393 6:1 7:0.76720577 8:0.11554488 9:0.35247201 10:0.4198637 11:0.91278595 
1.075680979316173 1:0.46659994 2:1 3:0.60465223 4:0.77281439 5:0.48110029 6:0.39091012 7:0.59743536 8:0.55559385 9:0.66356438 10:0.26708916 11:0.86043769 
5.981722200988799 1:0.30140153 2:0.41752946 3:0.26747257 4:0.54604465 5:0.79199582 6:0.48349372 7:0.039289799 8:1 9:0.36272407 10:0 11:0.80759072 
5.504961464099427 1:0.12858297 2:0.70455372 3:0.39282539 4:0 5:0.16717768 6:0.51012266 7:1 8:0.58379966 9:0.19015257 10:0.95710522 11:0.7336778 
2.788337818063358 1:0.4833805 2:0.28135955 3:0.80036855 4:0.65405768 5:0.73282242 6:0.37068924 7:0.26495841 8:0.66814494 9:0.36154631 10:0.87818438 11:0.74514735 
-3.208597848138546 1:0.041448221 2:0.52695674 3:0.094997965 4:0.82488143 5:0 6:0.37339911 7:0.69294971 8:0.58997625 9:0.25590581 10:0.09608309 11:0.037262268 
-5.03996690362802 1:0.33201936 2:0.04905742 3:1 4:0.58634126 5:0.085581243 6:0.34221464 7:0.59448725 8:0.66181993 9:0.46662083 10:0.3145349 11:0.064133495 
-1.029391890803456 1:0.31727788 2:0.40939432 3:0.484124 4:0.54509789 5:0.92128849 6:0.16232595 7:0.52433091 8:0.2233649 9:0.42058894 10:0.44914481 11:0.0031220773 
-7.663356439807396 1:0.25778285 2:0.39235175 3:0.085413523 4:0.17740881 5:1 6:0.64417255 7:0.65010673 8:0.58270389 9:0.70797759 10:0.49468124 11:0.093136571 
-4.750997524154648 1:1 2:0.71269178 3:0.46785551 4:0.38277626 5:0.38984382 6:0.89565498 7:0.32955581 8:0.67851496 9:0.15534201 10:0.31062227 11:0.10021152 
