svm_type c_svc
kernel_type rbf
gamma 0.09
nr_class 2
total_sv 24
rho -1.00506
label 130250101 130250102
probA -3.4704
probB -1.11695
nr_sv 21 3
SV
0.5556544629115789 1:0.49004549 2:0.74082589 3:0.59324491 4:0.53768021 5:0.79459214 6:0.83994651 7:0.58847123 8:0.3680892 9:0.14602065 10:0.40992573 11:0.29416499 12:0.63088244 13:0.5229435 14:0.57630146 15:0.33243841 16:0.39359781 17:0.25552306 18:0.50907981 19:0.25994238 20:0.65208566 21:0.70762467 22:0.80040061 23:0.68232852 24:0.43583685 25:0.52401859 26:0.69996065 27:0.4496896 28:0.082574688 
0.1548709332051722 1:0.32338613 2:0.63158548 3:0.71430129 4:0.32245997 5:0.6080156 6:0.74864793 7:0.47921047 8:0.43137524 9:0.20505452 10:0.47308588 11:0.22128567 12:0.4379459 13:0.37976351 14:0.6711517 15:0.34670693 16:0.40759358 17:0.093416542 18:0.42634708 19:0.1830356 20:0.72406626 21:0.76634437 22:0.94901603 23:0.65923005 24:0.45405626 25:0.51781875 26:0.68309218 27:0.43128648 28:0.058566526 
1.507612785619495 1:0.35628867 2:0.29773659 3:0.73674184 4:0.6901651 5:0.82237655 6:0.55090994 7:0.35176429 8:0.50355577 9:0.5051927 10:0.51795667 11:1.3573594e-16 12:0.47225338 13:0.41833004 14:0.5241918 15:0.53823942 16:0.82003492 17:0.17467441 18:0.85818523 19:0.93140334 20:0.40875587 21:1 22:0.49490833 23:0.42274386 24:0.54656583 25:0.5808599 26:0.65889835 27:0.56937152 28:0.302062 
0.6965106216365515 1:0.25723013 2:0.72068053 3:0.46563393 4:0.80711919 5:0.25876722 6:0.19680472 7:0.59478563 8:0.80391937 9:0.27965054 10:0.56486309 11:0.075664438 12:0.58085072 13:0.54285359 14:0.57515669 15:0.50295609 16:0.39553735 17:0.50366133 18:0.36041984 19:0.67581451 20:0.5815171 21:0.87878382 22:0.48934188 23:0.81303555 24:0.42333019 25:0.41390455 26:0.62691373 27:0.4174332 28:0.04482013 
0.1460275086680753 1:0.58771795 2:0.57595146 3:0.094901472 4:0.31332779 5:0.34346071 6:0.58868778 7:0.22383055 8:0.78444684 9:0.27494133 10:0.44876456 11:0.60062248 12:0.46002278 13:0.19367893 14:0.63095742 15:0.063550562 16:0.34138969 17:0.38816145 18:0.16063207 19:0.83085537 20:0.89481449 21:0.57982051 22:0 23:0.41322976 24:0.39311236 25:0.25387612 26:0.86457866 27:0.31101173 28:0.49637309 
1.755181582171006 1:0 2:0.54120165 3:0.58287549 4:0.59810221 5:0.17328362 6:0.23347789 7:0.60114408 8:0.32199731 9:0.55810028 10:0 11:1 12:0.71472758 13:0.53082573 14:0.85393548 15:0.26133862 16:0.92589736 17:0.61168337 18:0.89281082 19:0.41349995 20:0.42292255 21:0.13843931 22:0.64470863 23:0.72871995 24:0.63665783 25:0.421709 26:0.40628105 27:0.47351447 28:0.3615717 
0.1207865015955745 1:0.15288499 2:0.71606755 3:0.53956044 4:0.27887279 5:0.28644139 6:1 7:0.70513475 8:0.4283416 9:0.44328761 10:0.29135948 11:0.29758713 12:0.41768321 13:0.75194293 14:0.61647743 15:0.34172919 16:0.41835803 17:0.22287014 18:0.21383259 19:0.44279489 20:0.50902426 21:0.3799521 22:0.70548594 23:0.38041168 24:0.57591903 25:0.45162889 26:0.85984838 27:0.24570833 28:0.070617273 
0.0656651416384554 1:0.57514399 2:0.61326969 3:0.3241314 4:0.51922846 5:0.58057392 6:0.2123208 7:0.40629783 8:0.33094943 9:0.31309199 10:0.49548435 11:0.02051707 12:0.81698948 13:0.3366363 14:0.39839822 15:0.23028512 16:0.46572784 17:0.51772147 18:0.69500721 19:0.7209658 20:0.26126575 21:0.29428026 22:0.38114402 23:0.52285635 24:0.52823234 25:0.41591743 26:0.79342413 27:0.32040074 28:0.068414047 
0.6357360824110689 1:0.41570294 2:0.60316551 3:0.56255102 4:0.79553372 5:0.63160986 6:0.75867862 7:0.7664085 8:0.51536942 9:0.33484629 10:0.43894434 11:0.29305449 12:0.41322225 13:0.4844991 14:0.44761184 15:0.41400936 16:0.6860072 17:0.1122696 18:0.56836766 19:0.28946435 20:0.33122629 21:0.64361453 22:0.21990843 23:0.65221816 24:0.46220171 25:0.045753643 26:0.91950816 27:0.64096689 28:0.9915567 
1.555069192218675 1:0.53640985 2:0.93923283 3:0.73305672 4:0.67577994 5:1.8605125e-16 6:0.59798318 7:0.097844832 8:0.37562481 9:0.24875759 10:0.56721437 11:0.12935646 12:0.6857 13:0.019736519 14:0.71568221 15:0.85485715 16:0.68020731 17:0.11472996 18:0 19:0.55465412 20:0.84979922 21:0.1918598 22:0.60502899 23:0.56385928 24:0.2009013 25:0.63779819 26:0.48181629 27:0.80347341 28:0.89918303 
0.1749403734750222 1:0.1132876 2:0.30567801 3:0.17900489 4:0.50762409 5:0.55494028 6:0.69619197 7:0.24748918 8:0.58444595 9:0.17239983 10:0.46508548 11:0.068550728 12:0.60794777 13:0.50601959 14:0.949462 15:0.3011713 16:0.40256155 17:0.17338203 18:0.28320396 19:0.27330667 20:0.10354795 21:0.44342235 22:0.34940627 23:0.58504939 24:0.53645366 25:1 26:0.51881242 27:0.80442142 28:0.74367958 
0.8684960091569681 1:0.50348598 2:0.60578835 3:0.55436242 4:0.65367115 5:0.64170033 6:0.37067461 7:0.38277027 8:0.57067114 9:0.30887786 10:0.38527626 11:0.16859148 12:0.46445274 13:0.75036442 14:0.85239655 15:0.38537964 16:0.64766204 17:0.16583936 18:0.52629143 19:0.82607186 20:0.80170244 21:0.34566662 22:0.59199035 23:0.50993311 24:0.28323543 25:0.026360614 26:0.88003719 27:0.73055613 28:0.8417269 
0.6165592705658316 1:0.59740967 2:0.66911972 3:0.52836466 4:0.47067598 5:0.65264791 6:0.31099877 7:0.032092683 8:0.63212657 9:0.22641289 10:0.44177487 11:0.3518413 12:0.54787517 13:0.62321621 14:0.47491902 15:0.40790334 16:0.51648957 17:0.16255677 18:0.41625473 19:0.84806842 20:0.026997808 21:0.64761704 22:0.63519979 23:0.96383363 24:0.92148447 25:0.29767188 26:0.50575167 27:0.71242756 28:0.73286998 
0.6747336777976367 1:0.62988347 2:0.6302585 3:0.59917086 4:0.30348617 5:0.41643509 6:0.47960281 7:0.21455479 8:0.53563583 9:0.31955469 10:0.42613518 11:0.32476327 12:0.48652136 13:0.66526067 14:0.32680285 15:0.25234976 16:0.51929593 17:0.18264848 18:0.35730958 19:0.9605394 20:0.10980099 21:0.75382459 22:0.60318869 23:1 24:0.96668935 25:0.19070868 26:0.54639435 27:0.64779854 28:0.75650585 
0.01185860322871423 1:0.13447015 2:0.32722223 3:0.47701636 4:0.7697736 5:0.60621005 6:0.45834169 7:0.59670824 8:0.80595034 9:0.13547158 10:0.34010023 11:0.28664365 12:0.22480476 13:9.4353372e-16 14:0.69909811 15:0.41131866 16:0.50810212 17:0.56319517 18:0.54107904 19:0.84217298 20:0.41442847 21:0.36040953 22:0.90841091 23:0.93142641 24:0.66863382 25:0.37907776 26:0.66204184 27:0.7940982 28:0.8561846 
0.7624379390563182 1:0.39608225 2:0.31983435 3:0.78281301 4:0.84720939 5:0.66845369 6:0.4694699 7:1 8:1 9:0.53153825 10:0.49717641 11:0.26591605 12:0.40403047 13:0.44706813 14:0.39096084 15:0.38401029 16:0 17:0.2160193 18:0.35326579 19:0.80242372 20:0.80993074 21:0.28128451 22:0.45050105 23:0.44093072 24:0.49117377 25:0.81346381 26:0.74435681 27:0.73954344 28:0.77900755 
0.7646429973504023 1:0.18403558 2:0.67861199 3:0.55722713 4:0.79492509 5:0.71120608 6:0.29631969 7:0.051337551 8:0.76629257 9:0.28266668 10:0.40006191 11:0.44795105 12:0.9042232 13:0.33330721 14:0.34205025 15:0.41901299 16:0.40447184 17:0.59562141 18:0.4358128 19:0.38059473 20:0.82263499 21:0.76214635 22:0.64195573 23:0.16877486 24:0.44222757 25:0.2466336 26:0.73429322 27:0.54078823 28:0.80049181 
0.4071440243259594 1:0.52488333 2:0.42077953 3:0.70684272 4:0.47681755 5:0.34894535 6:0.99479359 7:0.24472539 8:0.6461457 9:0.025274608 10:0.020621866 11:0.15288904 12:0.65822357 13:0.58517206 14:0.33691284 15:0.40128389 16:0.3144511 17:1 18:0.60115463 19:0.46470392 20:0.6675688 21:0.73599005 22:0.58882672 23:0.35879526 24:0.41414273 25:0.33231828 26:0.85996944 27:0.54097342 28:0.82687074 
1.025472615226414 1:0.49011937 2:0.44332057 3:0.57788754 4:0.4029125 5:0.60039079 6:0.45202476 7:0.30457771 8:0.56852663 9:0.61624128 10:0.42893031 11:0.15467906 12:0.47880101 13:0.39970949 14:0.39108768 15:0.70530194 16:0.45283753 17:0.57535875 18:0.51381087 19:0.023043258 20:0.24664451 21:0.70390803 22:0.45761469 23:0.39927441 24:0.52127522 25:0.18243898 26:0.75537252 27:0.70149207 28:0.91956276 
0.9670620964511383 1:0.52317357 2:0.19365969 3:0.82293814 4:0.36309996 5:0.59522682 6:0.5864321 7:0.37669116 8:0.34404522 9:0.2072511 10:1 11:0.67698127 12:0.65514249 13:0.31854132 14:6.9810439e-16 15:0.24807389 16:1 17:0.5616954 18:0.3101058 19:0.86237293 20:0.73997337 21:0.54332548 22:0.37500995 23:0.55799639 24:0.31063047 25:0.86184049 26:0.47868583 27:0.51994932 28:0.94902706 
2.539722010619428 1:0.37350169 2:0.35967559 3:0.4173477 4:0.12415372 5:0.52428055 6:0.49799505 7:0.066014342 8:0.76074344 9:0.32796183 10:0.44254112 11:0.22716266 12:0.31039143 13:0.98926663 14:0.35128924 15:0.21314935 16:0.59496021 17:0.53856689 18:0.57633173 19:0.38291991 20:0.46456084 21:0.41605458 22:0.38536453 23:0.56962186 24:0.39589795 25:0.84203321 26:0.50690717 27:0.65446711 28:0.74453151 
-7.566345098136716 1:0.45630246 2:0.57766646 3:0.56882161 4:0.53469712 5:0.56937236 6:0.55907625 7:0.4480468 8:0.58328885 9:0.34095472 10:0.43608984 11:0.11149253 12:0.4667533 13:0.52368426 14:0.6723128 15:0.44655129 16:0.64270562 17:0.47573376 18:0.6646769 19:0.43185258 20:1 21:0.38720155 22:0.36561748 23:0.51419532 24:0.75880373 25:0.44740734 26:5.468585e-16 27:6.7231366e-16 28:0.95151073 
-0.0003621643134765587 1:0.43310231 2:0.53988045 3:0.59468001 4:0.54771763 5:0.55909282 6:0.48230678 7:0.40098655 8:0.5802002 9:0.41878939 10:0.37842822 11:0.26873499 12:0.50830585 13:0.52080208 14:0.57512981 15:0.40729129 16:0.3839125 17:0.23194689 18:0.50403297 19:0.72664171 20:0.030154308 21:0.64601159 22:0.74007845 23:0.52187413 24:3.2075309e-16 25:0.42122504 26:0.15658478 27:0.066547923 28:0.86286175 
-8.439477166879295 1:0.43310231 2:0.53988045 3:0.59468001 4:0.54771763 5:0.55909282 6:0.48230678 7:0.40098655 8:0.5802002 9:0.41878939 10:0.37842822 11:0.26873499 12:0.50830585 13:0.52080208 14:0.57512981 15:0.40729129 16:0.3839125 17:0.23194689 18:0.50403297 19:0.72664171 20:0.030154308 21:0.64601159 22:0.74007845 23:0.52187413 24:3.2075309e-16 25:0.42122504 26:0.15658478 27:0.066547923 28:0.86286175 
