svm_type c_svc
kernel_type rbf
gamma 0.09
nr_class 2
total_sv 12
rho 0.0353043
label 130020101 130020102
probA -3.88902
probB 0.181027
nr_sv 7 5
SV
1.479171343636417 1:0.27214727 2:0.99427134 3:0.73762906 4:0.65903836 5:0.53534257 6:0.33493087 7:0.6489197 8:0.091713652 9:0.85104489 10:0.95058537 
1.931086845987887 1:0.65433508 2:0.08625073 3:0.42268541 4:2.8392049e-16 5:0.75422382 6:1 7:0.55536842 8:0.71872789 9:0.35018733 10:0.75304461 
8.246600710281969 1:0.47445151 2:0.46552339 3:0.51619577 4:0.56183523 5:0.30634111 6:0.0058015678 7:0.64439702 8:0.29654321 9:0.75803095 10:0.61331272 
1.756780541673826 1:0.50183368 2:0.73095787 3:0.57278365 4:0.59332329 5:0.97020394 6:0.1113406 7:0.82353282 8:0.86997825 9:0.057761319 10:0.71064603 
7.479713916760982 1:0.65666753 2:0.44099838 3:0.33978063 4:0.53000873 5:0.14740455 6:0.051812086 7:0.60399032 8:0.29071563 9:0.89154196 10:0.55686498 
0.9784158939736167 1:0.29161587 2:0.16375504 3:0.67710072 4:0.82190782 5:0.30065703 6:0.39587036 7:0.92359179 8:0.93423057 9:0.18621817 10:0.56262892 
10 1:0.54819059 2:0.51052159 3:0.7180745 4:0.75068516 5:0.72788864 6:0.10323121 7:0.72065914 8:0.76754683 9:0.12244972 10:0.58543229 
-9.0902022694167 1:0.49595618 2:0.56533116 3:0.58995539 4:0.69292045 5:0.63388753 6:0.2655406 7:1.8207005e-16 8:0.6325416 9:0.57908493 10:0.063400649 
-0.6190353056391833 1:0.45760098 2:0.56675702 3:0.54171234 4:0.68462634 5:0.62457627 6:0.27464101 7:0.99399793 8:0.59811646 9:1 10:0.023630543 
-9.833244319014277 1:0.45760098 2:0.56675702 3:0.54171234 4:0.68462634 5:0.62457627 6:0.27464101 7:0.99399793 8:0.59811646 9:1 10:0.023630543 
-2.329722562431837 1:0.51501381 2:0.55240434 3:0.54414231 4:0.67984468 5:0.61009282 6:0.27348906 7:0.81833953 8:0 9:0.071864665 10:0.16434948 
-9.999564795812708 1:0.51501381 2:0.55240434 3:0.54414231 4:0.67984468 5:0.61009282 6:0.27348906 7:0.81833953 8:0 9:0.071864665 10:0.16434948 
