svm_type c_svc
kernel_type rbf
gamma 0.09
nr_class 2
total_sv 27
rho -0.0905165
label 130710102 130710103
probA -3.7784
probB -0.168499
nr_sv 16 11
SV
0.4398469387867921 1:0.12284216 2:0.53653252 3:0.32727697 4:0.5515424 5:0.35478202 6:0.66825616 7:0.50899285 8:0.291053 9:0.64057171 10:0.57333475 11:0.70333225 12:0.36622444 13:0.53754646 14:0.50090861 15:0.58006668 16:0.55467105 17:0.63757205 18:0.5588147 19:0.68467867 20:0.89666891 21:0.77296734 22:0.27763996 23:0.026426649 24:0.91024137 
2.196340424009778 1:0.71345633 2:0.34935135 3:0.29580107 4:0.6771642 5:0.31824005 6:0.57702184 7:0.2940051 8:0.41446984 9:0.33236802 10:0.59672487 11:0.33879358 12:0.21848246 13:0.53514379 14:0.56136572 15:0.60303551 16:0.54734606 17:0.41270146 18:0.45085979 19:0.46425191 20:0.7195487 21:0.6953721 22:0.32787549 23:0.028610658 24:0.8622455 
0.1596514256057325 1:0.64610225 2:0.26547131 3:0.40825638 4:0.38440451 5:0.66168272 6:0.47666007 7:0.39581445 8:0.56669843 9:0.53781843 10:0.62838709 11:0.86871225 12:0.30116034 13:0.72048897 14:0.34193203 15:0.41186845 16:0.29497072 17:0.79353869 18:0.51445955 19:0.74735576 20:0.72033954 21:0.5446533 22:0.27779183 23:0.073836438 24:0.93029994 
4.938437966868255 1:0.68548965 2:0.33894089 3:0.3766911 4:0.50663227 5:0.18891042 6:0.35315463 7:0.40093002 8:0.52889729 9:0.2892715 10:0.3713676 11:0.68526083 12:0.36017939 13:0.56463581 14:0.57266295 15:0.51630795 16:0.45261973 17:0.44136694 18:0.34845963 19:0.60835242 20:0.81978261 21:0.76815599 22:0.36501679 23:0.00025786943 24:0.91400957 
2.031159034767015 1:0.7232222 2:0.61075079 3:0.29673198 4:0.37572151 5:0.50178301 6:0.81904501 7:0.19561206 8:0.59401953 9:0.35887536 10:0.78342056 11:0.63191152 12:0.48843655 13:0.68946546 14:0.55005521 15:0.6895268 16:0.95823568 17:0.72900355 18:0.6075443 19:0.61365318 20:0.54700893 21:0.47250447 22:0.1991346 23:0.15171131 24:0.86007345 
0.8687502178199354 1:0.53036118 2:0.36665693 3:0.34202284 4:0.56116265 5:0.54805678 6:0.30614761 7:0.52713645 8:0.81553882 9:0.26507595 10:0.4808057 11:0.093062289 12:0.67984426 13:0.49934798 14:0.78999418 15:0.67833233 16:0.35543108 17:0.68462139 18:0.58552569 19:0.46937025 20:0.43928659 21:0.74098212 22:0.43504009 23:0.096464634 24:0.88517886 
3.309315551348734 1:0.66879708 2:0.92371947 3:0.51087618 4:0.32224429 5:0.61493635 6:0.59337479 7:0.29892251 8:0.17966549 9:0.72424006 10:0.52246559 11:0.69025141 12:0.47415161 13:0.52749646 14:0.54790604 15:0.4031857 16:0.0031885456 17:0.33825758 18:0.74616557 19:0.58061773 20:0.3469072 21:0.1578429 22:0.67941576 23:0.28075588 24:0.51227522 
7.175964138354447 1:0.57696068 2:0.28939724 3:0.28702986 4:0.43425167 5:0.69130766 6:0.34167179 7:0.17932069 8:0.73573333 9:0.57668084 10:0.70678574 11:0.60462087 12:0.50637573 13:0.70944905 14:0.70599055 15:0.51268297 16:0.60045749 17:0.040530935 18:0.60661882 19:0.5722031 20:0.45242462 21:0.19365665 22:0.81486684 23:0.28654703 24:0.3935515 
0.8138678445679715 1:0.043729905 2:0.48868403 3:0.68344653 4:0.2439051 5:0.45944935 6:0.38106441 7:0.78302604 8:0.7722981 9:0.2289409 10:0.53069842 11:0.81124532 12:0.27129135 13:0.52248102 14:0.46540597 15:0.505683 16:0.53293413 17:0.82593083 18:0.2237197 19:0.74380493 20:0.3156524 21:0.023578668 22:0.909769 23:0.58739144 24:0.50238061 
2.010030901786342 1:0.65255237 2:0.31495732 3:0.43354964 4:0.61012554 5:0.71612406 6:1 7:0.55878961 8:0.83336627 9:0.34975415 10:0.28181237 11:0 12:0.50475115 13:0.23323452 14:0.48435014 15:0.49229252 16:0.41986492 17:0.91468614 18:0.40387559 19:0.81324065 20:0.64749289 21:0.36672971 22:1 23:0.53032774 24:0.48924017 
5.573555377247941 1:0.54148412 2:0.61365521 3:0.55785406 4:0.61591083 5:0.41680211 6:0.51671112 7:0.33300579 8:0.27776214 9:0.39902028 10:0.1831964 11:0.63639861 12:0.5010578 13:0.62364119 14:0.55887949 15:0.53225034 16:0.48336706 17:0.59869927 18:1 19:0.76488966 20:0.72311574 21:0.30695993 22:0.2150448 23:0.81444567 24:0.53356528 
1.768978333659985 1:0.42702955 2:0.44457823 3:0.23597343 4:0.5159663 5:0.83834869 6:0.7591868 7:0.17130426 8:0.50017923 9:0.20842725 10:0.64018506 11:0.81788117 12:0.50552708 13:0.11249493 14:0.8173784 15:0.37895381 16:0.18877256 17:0.85432011 18:0.29807022 19:0.18202515 20:0.77695525 21:7.5839873e-16 22:0.1298542 23:0.60153764 24:0.66028929 
3.542658105003448 1:0.28329986 2:0.500112 3:0.3370882 4:0.46866459 5:0.40401667 6:0.41762131 7:0.079773843 8:0.31651416 9:0.3237572 10:0.65664065 11:0.61290199 12:0.39573875 13:0.296731 14:0.77598917 15:0.69894993 16:0.21105309 17:0.89747041 18:0.22129217 19:0 20:0.78329235 21:0.091887154 22:0.12177424 23:0.55842328 24:0.6024574 
5.733107302080886 1:0.27712828 2:0.27222237 3:0.38629657 4:0.5547592 5:0.75332898 6:0.68548703 7:1 8:0.68727601 9:0.6120975 10:0.86943632 11:0.88467538 12:0.18220872 13:0.50942123 14:0.29991466 15:0.7373451 16:0.50016516 17:0.65074456 18:0.82201397 19:0.28668743 20:0.084372483 21:0.85116845 22:0.35317415 23:0.66524309 24:0.6389423 
1.363704933970575 1:0.61056334 2:0.13549621 3:0.40098101 4:0.46875435 5:0.45054436 6:0.68275058 7:0.24993686 8:0.53719985 9:0.61933535 10:0.51883799 11:0.57365686 12:0.42733467 13:0.59182137 14:0.66918951 15:0.50630319 16:0.71394902 17:0.51960784 18:0.767308 19:0.91061801 20:0.96159172 21:0.30801633 22:0.27115098 23:0.92311162 24:0.41437352 
2.367418998769545 1:1 2:0.64568549 3:0.28409222 4:0.51887846 5:0.054691125 6:0.29473728 7:0.34373662 8:0.79737967 9:0.67040801 10:0.83602953 11:0.67311937 12:0.29600635 13:0.53953701 14:0.47196683 15:0.46673292 16:0.087284751 17:0.54440439 18:0.28304243 19:0.41377494 20:0.25995189 21:0.42384085 22:0.38754967 23:0.66901743 24:0.57944244 
-4.694998370689959 1:0.46945935 2:0.3369216 3:0.36784407 4:0.31182623 5:0.52540219 6:0.34985653 7:0.20542254 8:0.53668791 9:0.5415225 10:0.47694674 11:0.7794553 12:0.37200397 13:0.25363669 14:0.56821305 15:0.56213671 16:0.84706277 17:0.73318273 18:0.74230099 19:0.73354375 20:0.61152393 21:0.56627941 22:0.51785243 23:0.13022028 24:0.099025145 
-4.009471616046815 1:0.4855887 2:0.41377664 3:0.36095321 4:0.47599405 5:0.24792679 6:0.68328595 7:0.73009169 8:0.63426334 9:0.66599756 10:0.42833364 11:0.64417696 12:0.38425776 13:0.57427675 14:0.57737219 15:0.37764731 16:0.42434883 17:0.72548705 18:0.86817253 19:0.1285713 20:0.79935586 21:0.39582747 22:0.34048817 23:0.033825781 24:0.12903357 
-10 1:0.73590291 2:0.52211267 3:0.46346855 4:0.48409277 5:0.53955805 6:0.47750166 7:0.46505919 8:0.67122424 9:0.31538129 10:0.75649613 11:0.52656591 12:0.37802565 13:0.39525929 14:0.38841647 15:0.41063014 16:0.31117937 17:0.63563395 18:0.78365916 19:0.31943807 20:0.83443576 21:0.30401817 22:0.36087573 23:0.028677341 24:0.11237834 
-0.819917770607571 1:0.6887539 2:0.40665242 3:0.053182736 4:0.56342411 5:0.49638966 6:0.40628073 7:0.0091598947 8:0.47639912 9:0.49578631 10:0.68109399 11:0.64272469 12:0.2739988 13:0.28669861 14:0.56793898 15:0.69160229 16:0.44639233 17:0.78681737 18:0.79407293 19:0.78724968 20:0.43413576 21:0.5640496 22:0.44693524 23:0.13729697 24:0.096359864 
-1.636251241211785 1:0.56955093 2:0.48898029 3:0.455798 4:0.49500525 5:0.50175732 6:0.54596436 7:0.26347914 8:0.40094027 9:0.4599238 10:0.5545094 11:0.71060747 12:0.42549914 13:0.2255026 14:0.60824275 15:0.73217922 16:0.50564176 17:0.71356714 18:0.75559014 19:0.87680352 20:0.31685668 21:0.5689984 22:0.45345059 23:0.14025427 24:0.12605476 
-5.232017481489169 1:0.60976452 2:0.63999158 3:0.46417394 4:0.3816877 5:0.4315863 6:0.45888901 7:0.08013501 8:1 9:1 10:0.2807034 11:0.48154631 12:0.42617631 13:0.65457177 14:0.72860169 15:0.30758923 16:0 17:0.63432008 18:0.056248125 19:0.92531276 20:0.17949642 21:0.66131991 22:0.15892173 23:0.37711918 24:0.30053607 
-5.777546916526921 1:0.45811257 2:0.047187712 3:0.20067158 4:0.10659363 5:0.37445828 6:0.79993337 7:0.11299513 8:0.26462546 9:0.18072429 10:0.57004613 11:0.54582059 12:0.81367117 13:0.54146588 14:0.43144974 15:0.41081902 16:0.4645741 17:0.34744722 18:0.3056702 19:0.44861886 20:0.39918783 21:0.28762639 22:0.016073266 23:0.23149215 24:0.27902272 
-8.38763784908322 1:0.3774631 2:0.54653513 3:0.33386204 4:0.91053599 5:0.75712293 6:0.3467671 7:0.68075484 8:0.18143974 9:0.11370599 10:0.47469372 11:0.69958907 12:0.021929024 13:1 14:0.8542102 15:0.51553434 16:0.57572234 17:0.48798373 18:0.50865 19:0.63634902 20:0.19221255 21:0.72724968 22:0.16826093 23:0.60220897 24:0.2847245 
-2.135680946097761 1:0.53772998 2:0.53857666 3:0.14393564 4:0.65557808 5:0.63910902 6:0.7882241 7:0.84774452 8:0.62841403 9:0.47444332 10:0.2138482 11:1 12:1 13:0.014644765 14:0.54054391 15:0.55656755 16:0.68900728 17:0.49838275 18:0.062085349 19:0.74953026 20:0.12908322 21:0.69579107 22:0.11440326 23:0.57201284 24:0.2599422 
-0.723401665659117 1:0.57224005 2:0.33155984 3:0.34424737 4:0.95258152 5:0.16879681 6:0.32176322 7:0.34311798 8:0.63533747 9:0.48664191 10:0.58641225 11:0.91097033 12:0.53641409 13:0.51260948 14:0.48826766 15:0.70665509 16:0.7880103 17:0.53260708 18:0.37421134 19:0.53531504 20:0.24062596 21:0.69956481 22:0.31323543 23:0.49008849 24:0.060212735 
-0.8758636372350643 1:0.38437906 2:0.30395582 3:1 4:0.60350406 5:0.47995335 6:0.95212191 7:0.034383494 8:0.46010724 9:0.39278585 10:0.97482085 11:0.1347892 12:0.13297366 13:0.8002066 14:0.36057732 15:0.42730439 16:0.59752572 17:0.39884403 18:0.21040758 19:0.71469313 20:0.13834973 21:0.58846748 22:0.081035987 23:0.36994135 24:0.2253841 
