svm_type c_svc
kernel_type rbf
gamma 0.09
nr_class 2
total_sv 177
rho 0.774768
label 130130102 130130103
probA -1.57888
probB -0.389119
nr_sv 91 86
SV
2.44876931688598 1:0.69446194 2:0.35699788 3:0.33978271 4:0.44756129 5:0.43889904 6:0.21040076 7:0.48151883 8:0.42047498 9:0.59976673 10:0.53923666 11:0.25759393 12:0.58402389 13:0.48390406 14:0.3730225 15:0.40934935 16:0.26531482 17:0.36381406 18:0.58269244 19:0.46242383 20:0.33136183 21:0.49689311 22:0.58367556 23:0.23119068 24:0.29963231 25:0.51661944 26:0.63500786 27:0.63018954 28:0.67063439 29:0.36061999 30:0.23130992 31:0.45513368 32:0.23886274 33:0.43602648 34:0.40225255 35:0.59660137 36:0.68980443 37:0.58723956 38:0.56467289 39:0.67951053 40:0.56451482 41:0.50943905 42:0.44432327 43:0.5587098 44:0.417339 45:0.56911874 46:0.47985524 47:0.48599857 48:0.55350775 49:0.25494501 50:0.53602207 51:0.31715146 52:0.46665275 53:0.42953527 54:0.30714858 55:0.52198219 56:0.29074496 57:0.61322731 58:0.6588372 59:0.77316344 60:0.35349467 61:0.64206582 62:0.44129142 63:0.64488226 64:0.078554697 65:0.58523738 
3.321141031009662 1:0.51441067 2:0.49301779 3:0.62084281 4:0.40929636 5:0.59913272 6:0.60655975 7:0.3500725 8:0.33691296 9:0.1486263 10:0.54921776 11:0.38363552 12:0.57858342 13:0.58766615 14:0.61600471 15:0.62935096 16:0.68988436 17:0.4090614 18:0.56990784 19:0.56539404 20:0.46227571 21:0.49884847 22:0.32050949 23:0.31433693 24:0.3327769 25:0.57758999 26:0.71319658 27:0.47183362 28:0.51539332 29:0.44029188 30:0.36947602 31:0.3361927 32:0.47332963 33:0.4086971 34:0.35025126 35:0.5945431 36:0.62809598 37:0.59525174 38:0.6054756 39:0.61591089 40:0.35477817 41:0.36947083 42:0.38234365 43:0.48451972 44:0.44674957 45:0.64021057 46:0.30910784 47:0.43568319 48:0.43033159 49:0.35182735 50:0.59290838 51:0.15661961 52:0.45446646 53:0.50607395 54:0.26320502 55:0.72060531 56:0.21114619 57:0.59664917 58:0.746584 59:0.67705756 60:0.47183892 61:0.58591813 62:0.45359489 63:0.58747017 64:2.3098708e-16 65:0.67427403 
0.5766591494722512 1:0.70792937 2:0.61399877 3:0.55145812 4:0.5432058 5:0.47181213 6:0.17446417 7:0.28128543 8:0.66409087 9:0.54509211 10:0.35738835 11:0.33551428 12:0.29836157 13:0.53863627 14:0.60239756 15:0.45992383 16:0.61084843 17:0.37597984 18:0.7633695 19:0.58136064 20:0.57079494 21:0.52968293 22:0.42859361 23:0.36628672 24:0.67545003 25:0.66468328 26:0.52251506 27:0.48591718 28:0.45496166 29:0.30247012 30:0.36578122 31:0.52534688 32:0.40577617 33:0.51133209 34:0.38888857 35:0.65729636 36:0.75165218 37:0.37558135 38:0.58130848 39:0.79946434 40:0.50829852 41:0.49941662 42:0.35509932 43:0.18625246 44:0.48385322 45:0.51390475 46:0.41345102 47:0.45075324 48:0.43986404 49:0.30355516 50:0.45836595 51:0.29068959 52:0.50677615 53:0.6512931 54:0.35016689 55:0.53924525 56:0.24714085 57:0.53269428 58:0.71918225 59:0.71265 60:0.4067322 61:0.57890266 62:0.45881596 63:0.62412006 64:0.062035054 65:0.61219376 
0.3975599299288992 1:0.60200065 2:0.24188001 3:0.38101542 4:0.52638698 5:0.45270479 6:0.50090498 7:0.23332097 8:0.34290713 9:0.54316574 10:0.46709362 11:0.47013041 12:0.43376884 13:0.689089 14:0.79561043 15:0.35495901 16:0.64098871 17:0.56186461 18:0.18309963 19:0.21466403 20:0.49275225 21:0.60271609 22:0.56768739 23:0.40519091 24:0.34046766 25:0.44456577 26:0.63535285 27:0.3990894 28:0.219999 29:0.646635 30:0.50414652 31:0.65263814 32:0.42719743 33:0.53129292 34:0.65824252 35:0.66519332 36:0.3930954 37:0.62997609 38:0.67999697 39:0.66553116 40:0.32978404 41:0.46985361 42:0.52013433 43:0.4759315 44:0.28267574 45:0.55099034 46:0.61228561 47:0.31134778 48:0.64509213 49:0.72426653 50:0.61444497 51:0.71708226 52:0.59794444 53:0.46640655 54:0.40519559 55:0.29841477 56:0.61288732 57:0.46381751 58:0.53534716 59:0.8481071 60:0.2984395 61:0.58982563 62:0.38263822 63:0.89230961 64:0.27495942 65:0.63332355 
0.5287095235961737 1:0.44979209 2:0.54786855 3:0.56972933 4:0.68461347 5:0.6405831 6:0.62086087 7:0.34381557 8:0.44446439 9:0.58391106 10:0.57452857 11:0.51446056 12:0.67463219 13:0.55506831 14:0.70700252 15:0.4773367 16:0.5142141 17:0.67695421 18:0.82669473 19:0.44866791 20:0.80246931 21:0.34447637 22:0.85183442 23:0.94610339 24:0.46038514 25:0.74560916 26:0.37534705 27:0.61867809 28:0.55164295 29:0.54971617 30:0.37598744 31:0.60506195 32:0.72561187 33:0.44909975 34:0.64850724 35:0.28102383 36:0.43150333 37:0.67251152 38:0.37797245 39:0.54540378 40:0.70556355 41:0.78242892 42:0.54676485 43:0.41901657 44:0.52278417 45:0.23435083 46:0.37509739 47:0.71117967 48:0.29509526 49:0.32469907 50:0.38518584 51:0.37016711 52:0.81632316 53:0.50297934 54:0.25087219 55:0.37980998 56:0.22442605 57:0.50817162 58:0.5567444 59:0.54424244 60:0.38857594 61:0.3206118 62:0.2857981 63:0.6049701 64:0.056387287 65:0.63289487 
0.3546295703364463 1:0.67155749 2:0.94445109 3:0.274652 4:0.86846799 5:0.6036222 6:0.51738024 7:0.64549094 8:0.41165721 9:0.48407498 10:0.33776283 11:0.56252044 12:0.561028 13:0.40189308 14:0.98153549 15:0.20212822 16:0.45532584 17:0.74047637 18:0.66142243 19:0.62204009 20:0.49018219 21:0.29839441 22:0.54720467 23:0.75198406 24:0.61229914 25:0.19506781 26:0.52911049 27:0.24398133 28:0.68854809 29:0.56362545 30:0.85008806 31:0.61173469 32:0.32589939 33:0.42379236 34:0.79061437 35:0.55207747 36:0.59406817 37:0.48526645 38:0.36263427 39:0.026238972 40:0.74714696 41:0.48022738 42:0.35024145 43:0.2890062 44:0.60541904 45:0.19032393 46:0.46608573 47:0.45675945 48:0.62449449 49:0.4598712 50:0.41202405 51:0.39998648 52:0.85751438 53:0.58035588 54:0.21992755 55:0.22873065 56:0.35897303 57:0.58295572 58:0.57811815 59:0.57361507 60:0.36446282 61:0.34887809 62:0.22575858 63:0.70783329 64:0.20388797 65:0.65386629 
1.833299698129855 1:0.5248369 2:0.43855995 3:0.53719699 4:0.51269513 5:0.72035569 6:0.67903078 7:1 8:0.38600549 9:0.27229494 10:0.24767186 11:0.69083035 12:0.30025119 13:0.44173792 14:0.80367446 15:0.70523638 16:0.35484678 17:0.71313685 18:0.44810715 19:0.18008396 20:0.33611244 21:0.2755796 22:0.41278464 23:0.20501791 24:0.36599565 25:0.567882 26:0.61605108 27:0.17869763 28:0.50684029 29:0.51175612 30:0.66359842 31:0.55604553 32:0.46378246 33:0.48067185 34:0.57337409 35:0.47385272 36:0.60988659 37:0.55103636 38:0.47956544 39:0.40287292 40:0.5441367 41:0.39122885 42:0.57574904 43:0.31641617 44:0.54327458 45:0.54355043 46:0.39058375 47:0.45303649 48:0.40383053 49:0.33769995 50:0.48683748 51:0.22933041 52:0.4831337 53:0.56758195 54:0.1712627 55:0.58985895 56:0.29810435 57:0.57515031 58:0.74745309 59:0.67188305 60:0.40164259 61:0.52528167 62:0.42024076 63:0.59958863 64:0.019085141 65:0.67761433 
0.5748224225087634 1:0.5614956 2:0.78409016 3:0.66018057 4:0.81694567 5:0.54544288 6:0.6812728 7:0.23461427 8:0.34703314 9:0.46637431 10:0.65253085 11:0.54798931 12:0.59638709 13:0.40412918 14:0.39598805 15:0.29303142 16:0.58941913 17:0.57508099 18:0.35924268 19:0.1525593 20:0.46074149 21:0.5504663 22:0.67630702 23:0.34135807 24:0.23543675 25:0.44799176 26:0.23375393 27:0.44983041 28:0.60922027 29:0.52755195 30:0.3408449 31:0.61971015 32:0.45662999 33:0.56289083 34:0.47674817 35:0.52513409 36:0.34021473 37:0.87955326 38:0.002550628 39:0.14990179 40:0.52658683 41:0.17663258 42:0.46724781 43:0.11147738 44:0.52236921 45:0.36077848 46:0.59304368 47:0.44231939 48:0.42920473 49:0.23825319 50:0.37038344 51:0.33657143 52:0.63410139 53:0.68879658 54:0.36436108 55:0.12677532 56:0.62659478 57:0.51530367 58:0.18815085 59:0.39442188 60:0.48632252 61:0.34746549 62:0.1170035 63:0.71623993 64:0.29678017 65:0.61447215 
4.349026479589893 1:0.48143137 2:0.85350198 3:0.49828264 4:0.7242986 5:0.24528858 6:0.5814538 7:0.56617576 8:0.26604459 9:0.42424327 10:0.50326145 11:0.47550127 12:0.71983153 13:0.47571719 14:0.47592875 15:0.21900393 16:0.46160981 17:0.65490353 18:0.063545443 19:0.072581872 20:0.68008387 21:0.49024257 22:0.62387991 23:0.56227994 24:0.46667635 25:0.39519605 26:0.29296833 27:0.41843259 28:0.53252006 29:0.40418443 30:0.34415507 31:0.28520796 32:0.5721488 33:0.28822368 34:0.5962863 35:0.32928738 36:0.35619867 37:0.65766805 38:0.13264145 39:0.59627426 40:0.52932841 41:0.23369984 42:0.36963955 43:0.1335613 44:0.68121326 45:0.26876721 46:0.48343158 47:0.45369688 48:0.37732685 49:0.21868369 50:0.4846696 51:0.22347088 52:0.39929363 53:0.84484833 54:0.39508113 55:0.29683545 56:0.4530465 57:0.58290273 58:0.20770191 59:0.37620336 60:0.4246563 61:0.27168101 62:0.063303605 63:0.48482004 64:0.23061174 65:0.51701111 
0.1965226123269524 1:0.65935427 2:0.69505942 3:0.43875739 4:0.68530178 5:0.59466064 6:0.58893657 7:0.67036235 8:0.50453246 9:0.3221322 10:0.43967375 11:0.36933625 12:0.3548964 13:0.36149928 14:0.72487229 15:0.20700257 16:0.62026137 17:0.63253713 18:0.38634861 19:0.38364118 20:0.44198045 21:0.3404547 22:0.7342214 23:0.59587991 24:0.33383062 25:0.48080316 26:0.23327136 27:0.58791655 28:0.50277162 29:0.52645618 30:0.58872682 31:0.49727145 32:0.42617995 33:0.40289587 34:0.64439672 35:0.38579151 36:0.52959752 37:0.61878413 38:0.6453805 39:0.4773632 40:0.20305572 41:0.28311166 42:0.48946053 43:0.36559322 44:0.17527808 45:0.42115211 46:0.53942353 47:0.34357512 48:0.49877134 49:0.53056753 50:0.47129452 51:0.10077319 52:0.17700061 53:0.83091819 54:0.23933659 55:0.52075118 56:0.79659867 57:0.58157939 58:0.76678294 59:0.54772896 60:0.54897308 61:0.29742312 62:0.41500202 63:0.63745719 64:0.88550568 65:0.74075556 
3.936018669818416 1:0.57096034 2:0.87320304 3:0 4:0.39146295 5:0.56692731 6:0.53465837 7:0.19973119 8:0.68425214 9:0.095661879 10:0.38970038 11:0.22050217 12:0.66848683 13:0.42411393 14:0.64551175 15:0.61551231 16:0.31250674 17:0.54420757 18:0.42535883 19:0.25625998 20:0.19477561 21:0.59659874 22:0.57131612 23:0.1662751 24:0.47709754 25:0.29282182 26:0.40837911 27:0.83176953 28:0.54564297 29:0.50739276 30:0.66333216 31:0.48722237 32:0.46476877 33:0.74095237 34:0.65085381 35:0.10656852 36:0.71488702 37:0.61203414 38:0.22167034 39:0.56105512 40:0.48229128 41:0.24699154 42:0.13649501 43:0.14892466 44:0.74125469 45:0.30733007 46:0.77828807 47:0.54749489 48:0.60797113 49:0.48030397 50:0.52840686 51:0.19829027 52:0.875099 53:0.64059526 54:0.15698117 55:0.3035872 56:0.5318678 57:0.90220374 58:0.86837703 59:0.59061539 60:0.40129963 61:0.55663192 62:0.48631331 63:0.56254703 64:0.90138394 65:0.66403723 
5.973148249081788 1:0.59488034 2:0.64649159 3:0.61328191 4:0.42565042 5:0.51151109 6:0.40054238 7:0.38956213 8:0.58399224 9:0.65864491 10:0.71235245 11:0.38271165 12:0.34066588 13:0.32468104 14:0.49270207 15:0.67642218 16:0.45963252 17:0.57073599 18:0.6712203 19:0.51953977 20:0.3359015 21:0.74326235 22:0.43988329 23:0.60870796 24:0.58083898 25:0.32518867 26:0.63310754 27:0.45918995 28:0.37941679 29:0.73199028 30:0.5911383 31:0.49389872 32:0.5170114 33:0.40447935 34:0.60882831 35:0.49208754 36:0.54250419 37:0.60272902 38:0.43718883 39:0.57667589 40:0.3683823 41:0.43143812 42:0.49399254 43:0.22445495 44:0.34587884 45:0.69243914 46:0.36092138 47:0.47474825 48:0.23512681 49:0.41878322 50:0.53236318 51:0.14065015 52:0.50412267 53:0.28998145 54:0.43206751 55:0.4718622 56:0.20980939 57:0.81783104 58:0.58579236 59:0.317572 60:0.18980861 61:0.7928884 62:0.28173292 63:0.46482992 64:0.57857341 65:0.53852034 
1.72791104210451 1:0.33010414 2:0.67070407 3:0.43213934 4:0.28227949 5:0.37047002 6:0.30968073 7:0.47223508 8:0.52387196 9:0.54935986 10:0.43011722 11:0.63221747 12:0.34589759 13:0.36210805 14:0.1281787 15:0.45845205 16:0.26103967 17:0.51745832 18:0.55195373 19:0.070137128 20:0.3697933 21:0.30725461 22:0.52879888 23:0.68514299 24:0.53767043 25:0.63781178 26:0.73816037 27:0.59304118 28:0.56862205 29:0.67080629 30:0.34116247 31:0.54579997 32:0.45816049 33:0.67431903 34:0.44577992 35:0.44162685 36:0.25468296 37:0.54226488 38:0.38255253 39:0.46030703 40:0.39431018 41:0.48815066 42:0.51549774 43:0.78466588 44:0.67340863 45:0.67099857 46:0.27726805 47:0.53692579 48:0.26283386 49:0.75529271 50:0.28200975 51:0.63283002 52:0.49036971 53:0.67903507 54:0.58170384 55:0.32723662 56:0.035100289 57:0.71704972 58:0.81340539 59:0.50097269 60:0.25005874 61:0.40883949 62:0.31506541 63:0.67466402 64:0.54709285 65:0.61792868 
0.09885903231038547 1:0.36378294 2:0.49164864 3:0.29321265 4:0.58880019 5:0.80049449 6:0.35024008 7:0.61824912 8:0.56516844 9:0.47611943 10:0.49975815 11:0.35637882 12:0.30374855 13:0.67677248 14:0.62582916 15:0.61379927 16:0.26274693 17:0.65900141 18:0.76957613 19:0.46220231 20:0.69275647 21:0.27408314 22:0.78987736 23:0.58761895 24:0.79143572 25:0.51238513 26:0.47930694 27:0.56463516 28:0.36273378 29:0.48354065 30:0.55607456 31:0.36626109 32:0.22446965 33:0.36841983 34:0.63674802 35:0.09059152 36:0.66336972 37:0.55041802 38:0.51157546 39:0.61012536 40:0.54532874 41:0.37356403 42:0.57041782 43:0.61389828 44:0.39676723 45:0.64254451 46:0.96058822 47:0.40029383 48:0.50783175 49:0.6244114 50:0.47173354 51:0.84520483 52:0.52797949 53:0.68423343 54:0.43289617 55:0.70441622 56:0.61770016 57:0.62410909 58:0.63852239 59:0.81241399 60:0.52128077 61:0.49171641 62:0.36802417 63:0.87028915 64:0.34331805 65:0.74952471 
1.670634353219872 1:0.46486232 2:0.67729276 3:0.42500076 4:0.83835053 5:0.63590008 6:0.37126562 7:0.63132995 8:0.533113 9:0.41489878 10:0.32585147 11:0.41490135 12:0.42146277 13:0.57239342 14:0.37979254 15:0.59839648 16:0.36860469 17:0.59066188 18:0.64211679 19:0.54095984 20:0.65982872 21:0.42871186 22:0.62604576 23:0.39558885 24:0.66035873 25:0.64223391 26:0.46486497 27:0.53154612 28:0.37698314 29:0.62031788 30:0.49125195 31:0.48341346 32:0.43249178 33:0.26811671 34:0.57367116 35:0.20290253 36:0.71111852 37:0.56540322 38:0.56994694 39:0.77239472 40:0.49341717 41:0.27383289 42:0.52511525 43:0.59188741 44:0.33026406 45:0.6675033 46:0.9412818 47:0.43070748 48:0.49726608 49:0.4514581 50:0.46621725 51:0.75124466 52:0.46687728 53:0.71064085 54:0.48127154 55:0.73010743 56:0.5791356 57:0.62252253 58:0.68014282 59:0.78177899 60:0.58135068 61:0.47920269 62:0.40325743 63:0.85067111 64:0.3014259 65:0.76146328 
1.310290010394331 1:0.54174864 2:0.29112113 3:0.55664676 4:0.14576995 5:0.25926748 6:0.45563126 7:0.33937287 8:0.29400036 9:0.33890641 10:0.38975194 11:0.36341259 12:0.55225801 13:0.26779869 14:0.69944817 15:0.42794424 16:0.37432787 17:0.48323146 18:0.49807826 19:0.67865056 20:0.66724575 21:0.61151576 22:0.5134725 23:0.22587864 24:0.40532625 25:0.55078542 26:0.36982843 27:0.41593495 28:0.3380481 29:0.72196597 30:0.44222733 31:0.68408 32:0.7327854 33:0.66647899 34:0.50628704 35:0.57863569 36:0.55050856 37:0.75887918 38:0.27739018 39:0.61713034 40:0.67387277 41:0.55373842 42:0.61263305 43:0.53641051 44:0.59746015 45:0.43941405 46:0.50897437 47:0.71020275 48:0.50609916 49:0.21900372 50:0.45726812 51:0.50955355 52:0.67313957 53:0.26847917 54:0.35046589 55:2.4823664e-16 56:0.42905131 57:0.71772778 58:0.44874293 59:0.76266629 60:0.268832 61:0.86531597 62:0.3534255 63:0.48193699 64:0.64716995 65:0.57218105 
2.871118477870159 1:0.6820491 2:0.31649992 3:0.63553017 4:0.50411409 5:0.44914281 6:0.69067144 7:0.32556641 8:0.49251813 9:0.3220022 10:0.29428679 11:0.60396999 12:0.74602169 13:0.28713107 14:0.56795174 15:0.53416353 16:0.30644086 17:0.5032708 18:0.74060768 19:0.36741665 20:0.69296217 21:0.47465345 22:0.63199002 23:0.64093906 24:0.42173952 25:0.68404657 26:0.43561235 27:0.57901436 28:0.51402259 29:0.48307446 30:0.54590547 31:0.52604204 32:0.39263913 33:0.36676657 34:0.5255239 35:0.75175709 36:0.56363815 37:0.56827903 38:0.5804894 39:0.059011623 40:0.56917584 41:0.32012546 42:0.51852548 43:0.8935734 44:0.58134836 45:0.59980637 46:0.39683557 47:0.52098179 48:0.41471678 49:0.56425679 50:0.594715 51:0.53967237 52:0.536071 53:0.78506815 54:0.83253831 55:0.2750169 56:0.14432696 57:0.68493724 58:0.69718069 59:0.50240755 60:0.21187362 61:0.33753842 62:0.28181261 63:0.74274099 64:0.6184873 65:0.61495912 
0.6547550645179308 1:0.62369388 2:0.48101643 3:0.50576997 4:0.35321847 5:0.35288078 6:0.65647483 7:0.59220791 8:0.72780013 9:0.46975827 10:0.37226361 11:0.26259613 12:0.49619052 13:0.49805227 14:0.52930373 15:0.061649896 16:0.6244275 17:0.40102595 18:0.73744839 19:0.49490595 20:0.59978318 21:0.15329674 22:0.57662159 23:0.5076887 24:0.48891625 25:0.50714725 26:0.45109487 27:0.31570035 28:0.42624086 29:0.52525532 30:0.50298095 31:0.40397939 32:0.30234623 33:0.62901819 34:0.80064148 35:0.62627167 36:0.57063794 37:0.58468962 38:0.66072887 39:0.69215357 40:0.61116004 41:0.3519325 42:0.45925829 43:0.37573081 44:0.62834656 45:0.48830283 46:0.58080417 47:0.5126822 48:0.39827824 49:0.37021613 50:0.25420764 51:0.62617773 52:0.4195253 53:0.1621415 54:0.34174979 55:0.32708335 56:0.2660549 57:0.58884388 58:0.40025648 59:0.57861352 60:0.12041777 61:0.77731109 62:0.38252667 63:0.42253107 64:0.73016095 65:0.51454175 
10 1:0.37287912 2:0.31215474 3:0.21280853 4:0.36263424 5:0.41381285 6:0.52282012 7:0.75239271 8:0.44762814 9:0.37845799 10:0.39765584 11:0.29887566 12:0.30387235 13:0.63053203 14:0.69423044 15:0.31883484 16:0.50689334 17:0.77077574 18:0.67623568 19:0.46933377 20:0.60432535 21:0.53831863 22:0.66467917 23:0.25909683 24:0.61024714 25:0.61922365 26:0.47555161 27:0.40921408 28:0.22454596 29:0.39901987 30:0.73821658 31:0.35039157 32:0.18068942 33:0.52495646 34:0.2177486 35:0.7382673 36:0.51047212 37:0.62424541 38:0.50368893 39:0.28270805 40:0.21135138 41:0.63893241 42:0.30396321 43:0.52203274 44:0.60641509 45:0.4377175 46:0.71324629 47:0.55626452 48:0.18159245 49:0.58592463 50:0.4354504 51:0.54328299 52:0.74121761 53:0.45476627 54:0.37776068 55:0.63071966 56:0.17601708 57:0.59174079 58:0.5936178 59:0.44776887 60:0.2799035 61:0.18422061 62:0.27514085 63:0.67937493 64:0.71105695 65:0.6564461 
9.280917151526122 1:0.66837895 2:0.6327973 3:0.42409706 4:0.45082375 5:0.542979 6:0.45646605 7:0.66960996 8:0.65044123 9:0.58696473 10:0.53270674 11:0.61150426 12:0.57661879 13:0.60032362 14:0.51802176 15:0.36631617 16:0.56907648 17:0.47036019 18:0.79264241 19:0.38514659 20:0.24850197 21:0.46375582 22:0.5700354 23:0.47458923 24:0.2443189 25:0.57868516 26:0.10085041 27:0.68482989 28:0.56760073 29:0.068975933 30:0.68554217 31:0.76341605 32:0.17083283 33:0.57489163 34:0.64581418 35:0.49298093 36:0.43778002 37:0.55169916 38:0.76390266 39:0.66543448 40:0.2541351 41:0.077653557 42:0.51001865 43:0.53491801 44:0.36671451 45:0.51705152 46:0.59249121 47:0.6948328 48:0.43482247 49:0.28040332 50:0.43343791 51:0.40396672 52:0.85195875 53:0.17976603 54:0.34820539 55:0.72177166 56:0.47239929 57:0.81643921 58:0.47811583 59:0.22674181 60:0.075197741 61:0.73055965 62:0.27443326 63:0.50082576 64:0.71766448 65:0.67679447 
0.3243697252091559 1:0.47307202 2:0.55974668 3:0.46004844 4:0.26578671 5:0.59418315 6:0.36103141 7:0.59409285 8:0.49047726 9:0.38109851 10:0.46100557 11:0.35630715 12:0.52236205 13:0.43775034 14:0.74777144 15:0.78409648 16:0.39453822 17:0.5759626 18:0.13645926 19:0.63599581 20:0.66367513 21:0.5279789 22:0.66548049 23:0.60260266 24:0.26607567 25:0.54009938 26:0.67169434 27:0.38639271 28:0.39437535 29:0.36848634 30:0.41337594 31:0.46715221 32:0.45006475 33:0.54022896 34:0.19738372 35:0.49756652 36:0.29729515 37:0.46733978 38:0.59818929 39:0.56850266 40:0.66296303 41:0.78341961 42:0.52239639 43:0.744326 44:0.53919971 45:0.38830721 46:0.53027433 47:0.69608223 48:0.50530404 49:0.39734635 50:0.38149375 51:0.4240309 52:0.33282182 53:0.58532846 54:0.16180891 55:0.054459333 56:0.33050203 57:0.51035416 58:0.58516103 59:0.6255967 60:0.22859931 61:0.59643257 62:0.33907634 63:0.51595259 64:0.62423891 65:0.62931728 
2.042012411792983 1:0.53968209 2:0.43762305 3:0.47696862 4:0.48224479 5:0.33619678 6:0.22151852 7:0.12144211 8:0.49747589 9:0.51587886 10:0.26701593 11:0.73366368 12:0.36525512 13:0.51079983 14:0.52120447 15:0.592062 16:0.56151801 17:0.75649351 18:0.53517979 19:0.55660111 20:0.66425806 21:0.26488504 22:0.57427394 23:0.045992482 24:0.46733314 25:0.26715001 26:0.038437799 27:0.14688873 28:0.36813447 29:0.3669838 30:0.61831075 31:0.30393669 32:0.41584247 33:0.60910296 34:0.59748352 35:0.40672523 36:0.632765 37:0.63573909 38:0.45508072 39:0.15096803 40:0.21742679 41:0.57488716 42:0.28369743 43:0.51920444 44:0.51468921 45:0.4171373 46:0.52711689 47:0.49507603 48:0.1920296 49:0.1546082 50:0.40653738 51:0.38795429 52:0.30419865 53:0.5895198 54:0.61608106 55:0.24682525 56:0.29555002 57:0.26846695 58:0.4350518 59:0.51389766 60:0.39874482 61:0.56207269 62:0.30742243 63:0.44588071 64:0.82056928 65:0.59487337 
2.160338198275103 1:0.72450894 2:0.51221097 3:0.52553517 4:0.46418205 5:0.68314618 6:0.60729623 7:0.50268894 8:0.36734715 9:0.54363191 10:0.06291341 11:0.3420994 12:0.80110013 13:0.44881713 14:0.75799835 15:0.19869836 16:0.33509427 17:0.27574429 18:0.591268 19:0.5880087 20:0.91643637 21:0.60409135 22:0.57187438 23:0.68842202 24:0.38924897 25:0.37718347 26:0.66366577 27:0.86541796 28:0.52751178 29:0.69522303 30:0.69270247 31:0.52477312 32:0.32683513 33:0.39785123 34:0.17131232 35:0.7405901 36:0.39626944 37:0.55453527 38:0.41190371 39:0.58179426 40:0.49627337 41:0.54209429 42:0.52608341 43:0.11777848 44:0.40816617 45:0.35904336 46:0.42786345 47:0.5735206 48:0.4873322 49:0.4128792 50:0.35291314 51:0.50177914 52:0.1892132 53:0.3783322 54:0.16653068 55:0.42626739 56:0.22781539 57:0.55741566 58:0.46295303 59:0.60223609 60:0.29798824 61:0.7720319 62:0.40246958 63:0.47288445 64:0.60121065 65:0.59187537 
2.777912062179397 1:0.36749503 2:0.47668594 3:0.34306687 4:0.65844846 5:0.60744333 6:0.52086061 7:0.24264519 8:0.42324784 9:0.28525373 10:0.5410611 11:0.56634718 12:0.44754955 13:0.30094227 14:0.49741417 15:0.50446612 16:0.53471887 17:0.44508579 18:0.23622277 19:0.56785613 20:0.13794059 21:0.33001691 22:0.54411149 23:0.49357718 24:0.49760288 25:0.39393643 26:0.47337011 27:0.59292936 28:0.53970289 29:0.35949695 30:0.36632836 31:0.61809862 32:0.67945278 33:0.60099268 34:0.59647495 35:0.28248078 36:0.4680278 37:0.32568356 38:0.65612257 39:0.49170619 40:0.37211165 41:0.4678835 42:0.33574808 43:0.093407288 44:0.24387349 45:0.32191232 46:0.39262307 47:0.54319948 48:0.32990277 49:0.34983915 50:0.55500799 51:0.4807485 52:0.50934654 53:0.76126105 54:0.26817507 55:0.27021265 56:0.29670712 57:0.30045024 58:0.42233676 59:0.32711744 60:0.3796275 61:0.79892462 62:0.30882779 63:0.46401417 64:0.71672243 65:0.57476771 
0.8953275347171397 1:0.63137466 2:0.39451778 3:0.65929306 4:0.36206821 5:0.45047909 6:0.53190625 7:0.51402837 8:0.37263179 9:0.55553848 10:0.24480508 11:0.48295668 12:0.54017049 13:0.52460545 14:0.61639154 15:0.72774583 16:0.64091331 17:0.37272167 18:0.39178947 19:0.43425301 20:0.39306277 21:0.25340837 22:0.54486281 23:0.62657589 24:0.61826211 25:0.61859351 26:0.48863709 27:0.49083206 28:0.52178848 29:0.2464025 30:0.430464 31:0.70968443 32:0.26759925 33:0.69670182 34:0.35220301 35:0.50546515 36:0.34923577 37:0.54471678 38:0.4412359 39:0.99753022 40:0.44388062 41:0.62684304 42:0.39031529 43:0.72977501 44:0.28186214 45:0.46304983 46:0.87514895 47:0.7471447 48:0.75519371 49:0.40867773 50:0.25715062 51:0.49262992 52:0.44876504 53:0.64853758 54:0.27783385 55:0.30940846 56:0.29319057 57:0.73057467 58:0.38778356 59:0.68439656 60:0.24758667 61:0.6187883 62:0.29263502 63:0.42025256 64:0.57950473 65:0.5695675 
1.698128062496016 1:0.49347907 2:0.46118745 3:0.41376567 4:0.78470331 5:0.62335688 6:0.61905479 7:0.4340682 8:0.4827683 9:0.60344923 10:0.52528441 11:0.4978019 12:0.65635425 13:0.2839773 14:0.44771546 15:0.59273207 16:0.47409588 17:0.55235958 18:0.46122289 19:0.64077395 20:0.32220539 21:0.34028804 22:0.46392655 23:0.54533803 24:0.23190752 25:0.60255778 26:0.19991975 27:0.49491635 28:0.35060984 29:0.34757221 30:0.63739139 31:0.71140832 32:0.30063248 33:0.68811226 34:0.67083138 35:0.40586472 36:0.49062839 37:0.44160005 38:0.73935062 39:0.44725662 40:0.64453155 41:0.49225157 42:0.24271134 43:0.11407475 44:0.62223387 45:0.67021817 46:0.59900814 47:0.59338921 48:0.69006819 49:0.18601975 50:0.25602281 51:0.63142061 52:0.2398553 53:0.62225783 54:0.22501634 55:0.42519423 56:0.20522852 57:0.54966158 58:0.54700732 59:0.69666117 60:0.41099435 61:0.44179982 62:0.36456388 63:0.47812596 64:0.55900627 65:0.58567637 
0.3042073269958456 1:0.47487098 2:0.47922087 3:0.62470096 4:0.60033 5:0.23294377 6:0.50294179 7:0.31109759 8:0.60206872 9:0.46906278 10:0.18648271 11:0.3399221 12:0.41064602 13:0.57323766 14:0.58818036 15:0.51019377 16:0.52467811 17:0.66945612 18:0.44709718 19:0.89827043 20:0.44014376 21:0.67315388 22:0.69971842 23:0.9289633 24:0.4058336 25:0.44179153 26:0.61381394 27:0.17200309 28:0.55674988 29:0.11007444 30:0.63012719 31:0.51681679 32:0.43531334 33:0.56545699 34:0.46444067 35:0.39964521 36:0.39904448 37:0.5655902 38:0.76790494 39:0.59607172 40:0.83220929 41:0.79748285 42:0.41471985 43:0.35438082 44:0.62051493 45:0.54329401 46:0.57441562 47:0.49881154 48:0.36367318 49:0.21474151 50:0.29821387 51:0.15536952 52:0.318086 53:0.46632451 54:0.34037647 55:0.44954446 56:0.17122236 57:0.5135594 58:0.66801149 59:0.69551563 60:0.26530799 61:0.6595245 62:0.48863816 63:0.42875174 64:0.42466369 65:0.59757912 
2.176123042090921 1:0.34412003 2:0.27206597 3:0.37945628 4:0.23967518 5:0.043869261 6:0.19671604 7:0.23811559 8:0.83629084 9:0.61104596 10:0.26326069 11:0.4765282 12:0.36842301 13:0.41441551 14:0.49751282 15:0.38669586 16:0.74629956 17:0.53210318 18:0.71576673 19:0.20633072 20:0.44011086 21:0.53004551 22:0.46740267 23:0.79882234 24:0.2147918 25:0.52224833 26:0.52159256 27:0.39115885 28:0.55571508 29:0.42259437 30:0.55167913 31:0.53066409 32:0.43299422 33:0.7581194 34:0.43100289 35:0.17152946 36:0.78644216 37:0.48089615 38:0.48366714 39:0.34579486 40:0.37289795 41:0.5241968 42:0.37019452 43:0.42195448 44:0.57813966 45:0.30715492 46:0.56706518 47:0.5610649 48:0.71557277 49:0.15412709 50:0.3873629 51:0.078499898 52:0.17446034 53:0.34806758 54:0.35171914 55:0.36322242 56:0.089790232 57:0.59051317 58:0.49412712 59:0.61966783 60:0.49727079 61:0.53747767 62:0.54467684 63:0.38802907 64:0.57616866 65:0.58783609 
4.315115861922746 1:0.42422655 2:0.22834681 3:0.50258154 4:0.89308965 5:0.40349513 6:0.50557649 7:0.26081285 8:0.21684024 9:0.41220993 10:0.65257508 11:0.61444646 12:0.53793263 13:0.49321154 14:0.6394698 15:0.54271287 16:0.24271733 17:0.6403994 18:0.30346096 19:0.64670789 20:0.64990544 21:0.43908152 22:0.46547332 23:0.53560448 24:0.24187957 25:0.77766949 26:0.55467361 27:0.61356521 28:0.45078868 29:0.33939046 30:0.56600618 31:0.5282526 32:0.72886699 33:0.77500182 34:0.51685327 35:0.63832492 36:0.71287096 37:0.4845992 38:0.39834943 39:0.89650238 40:0.55406946 41:0.62571311 42:0.32520133 43:0.2985962 44:0.41214952 45:0.61549503 46:0.44883204 47:0.65828907 48:0.41794634 49:0.6021688 50:0.31579328 51:0.67209357 52:0.13294569 53:0.41483533 54:0.25246713 55:0.37750953 56:0.29113591 57:0.56408387 58:0.41640183 59:0.50710124 60:0.18734649 61:0.64307576 62:0.2951141 63:0.55510956 64:0.58789134 65:0.5195877 
3.263660787190624 1:0.74063087 2:0.10408347 3:0.7823624 4:0.21992463 5:0.4740001 6:0.19504371 7:0.58717722 8:0.65777808 9:0.72340012 10:0.10698487 11:0.4338901 12:0.60053253 13:0.68335783 14:0.50735754 15:0.56200284 16:0.54033953 17:0.61334395 18:0.67488492 19:0.33722818 20:0.3380672 21:0.66097307 22:0.58015871 23:0.88058627 24:0.21321438 25:0.51378125 26:0.47595963 27:0.49838015 28:0.43100134 29:0.3585752 30:0.20700826 31:0.76857668 32:0.33512735 33:0.45376447 34:0.54864955 35:0.3352986 36:0.47372502 37:0.52853906 38:0.61124724 39:0.53663468 40:0.36329317 41:0.72466838 42:0.43143305 43:0.44702041 44:0.20577174 45:0.50165504 46:0.87129009 47:0.52959937 48:0.81133074 49:0.57229573 50:0.3225325 51:0.53845489 52:0.0023177951 53:0.50711584 54:0.36270177 55:0.31089118 56:0.2294946 57:0.60365355 58:0.35705844 59:0.57746416 60:0.42683974 61:0.59624249 62:0.37196463 63:0.56049132 64:0.60800189 65:0.55945051 
1.376780235442347 1:0.70156008 2:0.2067668 3:0.41487873 4:0.45585039 5:0.43440059 6:0.48039171 7:0.43650404 8:0.27805042 9:0.41466025 10:0.37905654 11:0.68055189 12:0.53239053 13:0.53005129 14:0.30205992 15:0.67824316 16:0.40501869 17:0.64603251 18:0.72772485 19:0.5514105 20:0.58454329 21:0.49187991 22:0.66579312 23:0.69078946 24:0.34050819 25:0.43401697 26:0.57049799 27:0.80772567 28:0.77290416 29:0.63673246 30:0.19336608 31:0.42970642 32:0.44972908 33:0.42988357 34:0.64649695 35:0.77961296 36:0.49642006 37:0.62748736 38:0.72485387 39:0.76705509 40:0.51161116 41:0.33321613 42:0.56226575 43:0.25384164 44:0.38034707 45:0.30381438 46:0.8568157 47:0.44539386 48:0.43918607 49:0.48741114 50:0.59543449 51:0.20510752 52:0.85700524 53:0.62851834 54:0.14936176 55:0.61770517 56:0.34115151 57:0.68007129 58:0.63847029 59:0.032927815 60:0.13481587 61:0.40955824 62:0.31930622 63:0.35813734 64:0.63893354 65:0.6225161 
10 1:0.32365277 2:0.61825448 3:0.48428133 4:0.26775333 5:0.47636488 6:0.28553453 7:0.46534887 8:0.49408874 9:0.49690846 10:0.34640628 11:0.43010589 12:0.5660615 13:0.36176917 14:0.47461829 15:0.51981503 16:0.96632791 17:0.50436312 18:0.52038211 19:0.37910181 20:0.49939597 21:0.73229825 22:0.59098357 23:0.45851812 24:0.52813256 25:0.55682677 26:0.21578348 27:0.19623445 28:0.69333118 29:0.63324678 30:0.62489378 31:0.4186103 32:1 33:0.48170009 34:0.17254637 35:0.1169204 36:0.59767133 37:0.70316786 38:0.37678337 39:0.39269346 40:0.47440612 41:0.56096613 42:0.33281457 43:0.15793833 44:0.44660518 45:0.40673521 46:0.26551154 47:0.6535933 48:0.72906715 49:0.57913876 50:0.36532554 51:0.51687741 52:0.47419453 53:0.70941901 54:0.097172618 55:0.40303031 56:0.29628682 57:0.44264013 58:0.79322404 59:0.52124554 60:0.32744613 61:0.56993246 62:0.45443431 63:0.77721763 64:0.65530628 65:0.12653854 
10 1:0.67336321 2:0.51909542 3:0.37903297 4:0.1893419 5:0.34158373 6:0.47309917 7:0.8289358 8:0.55635315 9:0.38017318 10:0.35627851 11:0.39801386 12:0.48907053 13:0.63329667 14:0.79916412 15:0.64717525 16:0.1506272 17:0.60213304 18:0.37902579 19:0.39770889 20:0.39291301 21:0.42282739 22:0.49242011 23:0.70666701 24:1 25:0.36008191 26:0.4226301 27:0.54092008 28:0.79687947 29:0.24174494 30:0.27726981 31:0.71790266 32:0.5020439 33:0.50133884 34:0.68285739 35:0.98832613 36:0.57846445 37:0.81816649 38:0.32734007 39:0.65599924 40:0.59060788 41:0.71622926 42:0.41553402 43:0.30050129 44:0.14240536 45:0.15001303 46:0 47:0.62429518 48:0.495074 49:0.48742446 50:0.53457683 51:0.63792527 52:0.17590819 53:0.44658789 54:0.5763607 55:0.49777779 56:0.40618047 57:0.45856598 58:0.35166714 59:0.40934774 60:0.54673827 61:0.73538244 62:0.38212535 63:0.79055679 64:0.65066242 65:0.17138611 
10 1:0.641559 2:0.5230214 3:0.55885839 4:0.38223466 5:0.39355856 6:0.39835027 7:0.15786219 8:0.44988525 9:0.3844538 10:0.57044494 11:0.67190886 12:0.46780401 13:0.30198368 14:0.37358382 15:0.58557326 16:0.58246613 17:0.82828826 18:0.81977177 19:0.46137032 20:0.31713897 21:0.6346615 22:0.40381581 23:0.4920131 24:0.27324262 25:0.43656021 26:0.67404795 27:0.53679758 28:0.45232853 29:0.44521824 30:0.45274967 31:0.59645069 32:0.16362862 33:0.59610659 34:0.72886038 35:0.69392627 36:0.53219616 37:0.45049468 38:0.19299108 39:0.67634344 40:0.41073278 41:0.29562864 42:0.59130353 43:0.27432773 44:0.74852806 45:0.43397903 46:0.66921741 47:0.6518712 48:0.35021442 49:0.39703763 50:0.3902874 51:0.66466773 52:0.39357039 53:0.73305362 54:0.48852944 55:0.61846054 56:0.71162307 57:0.75197917 58:0.72190404 59:0.56741047 60:0.45383465 61:0.3821443 62:0.26751998 63:0.7786895 64:0.60233903 65:0.060601905 
10 1:0.83003759 2:0.87903214 3:0.54000264 4:0.61960864 5:0.47980741 6:0.37547639 7:0 8:0.45290843 9:0.60983503 10:0.59228563 11:0.5783658 12:0.65597361 13:0.77216917 14:0.3915095 15:0.32541201 16:0.53325456 17:0.45064268 18:3.5852538e-16 19:0.41359305 20:0.50225365 21:0.50101537 22:0.60710257 23:0.65493512 24:0.4856334 25:0.17882517 26:0.52789736 27:0.63716108 28:0.4035241 29:0.57635492 30:0.39166111 31:0.28679642 32:0.4286994 33:0.45172986 34:0.53136075 35:0.83730215 36:0.72887725 37:0.58153003 38:0.59829998 39:0.83941305 40:0.53568614 41:0.41439226 42:0.3441256 43:0.26029333 44:0.58094597 45:0.42867517 46:0.76988727 47:0.3052116 48:0.36024716 49:0.40911707 50:0.21595138 51:0.32582477 52:0.66549307 53:0.51544547 54:0.40839851 55:0.612858 56:0.40870887 57:0.41112238 58:0.71217549 59:0.52954364 60:0.34360242 61:0.46063545 62:0.32945055 63:0.73667347 64:0.70400542 65:0.10875124 
10 1:0.61712438 2:0.26075357 3:0.6808542 4:0.78031993 5:0.16455767 6:0.37572241 7:0.52235121 8:0.41258267 9:0.4684788 10:0.67334002 11:0.53316408 12:0.75853723 13:0.66784889 14:0.6941604 15:0.62485796 16:0.19617021 17:0.38944003 18:0.59974384 19:0.59095865 20:0.44196442 21:0.89177305 22:0.40629381 23:0.11003978 24:0.54301578 25:0.4091934 26:0.63537657 27:0.26449013 28:0.5830555 29:0.51629573 30:0.091329046 31:0.74463928 32:0.45659274 33:0.7730121 34:0.67739493 35:0.44274056 36:0.54776978 37:0.57382756 38:0.54195583 39:0.22309622 40:0.23059954 41:0.50354284 42:0.72362387 43:0.43184313 44:0.75922048 45:0.44731787 46:0.76780629 47:0.44440916 48:0.49702373 49:0.5496251 50:0.22842342 51:0.24738035 52:0.84109282 53:0.76455313 54:0.37603587 55:0.68516564 56:0.5088563 57:0.49202761 58:0.4132885 59:0.5714066 60:0.39496827 61:0.49428794 62:0.23083062 63:0.737207 64:0.64394635 65:0.10762828 
10 1:0.45682162 2:0.029139366 3:0.53007287 4:0.46975362 5:0.75378871 6:0.58857805 7:0.34415802 8:0.58263314 9:0.47652882 10:0.5022648 11:0.57603627 12:0.67716956 13:0.25361523 14:0.44241998 15:0.49221131 16:0.42301595 17:0.45529899 18:0.7832365 19:0.32946798 20:0.72392386 21:0.69422948 22:0.62292415 23:0.49566898 24:0.6124984 25:0.61249369 26:0.47611484 27:0.47930264 28:0.69587767 29:0.62055063 30:0.64732683 31:0.62027335 32:0.36212087 33:0.6788066 34:0.42397523 35:0.66979831 36:0.62532252 37:0.43336529 38:0.38288787 39:0.68789649 40:0.20744841 41:0.73669279 42:0.71346217 43:0.19819407 44:0.4248102 45:0.33568662 46:0.28215122 47:0.57897365 48:0.44568545 49:0.33669913 50:0.43186727 51:0.33873352 52:0.66096878 53:0.42050251 54:0.30479196 55:0.54702508 56:0.62931764 57:0.3369537 58:0.62367028 59:0.60836416 60:0.4816955 61:0.79044616 62:0.26950386 63:0.64117712 64:0.69047469 65:0.092628866 
10 1:0.40823668 2:0.47606561 3:0.41386333 4:0.45605671 5:0.53071243 6:0.33421993 7:0.23610374 8:0.30021685 9:0.42471132 10:0.24921097 11:0.8377468 12:0.56010723 13:0.40573481 14:0.56855071 15:0.043252695 16:0.56610548 17:1 18:0.62997538 19:0.73984706 20:0.24151169 21:0.88902915 22:0.4267877 23:0.13890786 24:0.61210477 25:0.82210743 26:0.7054168 27:0.48649973 28:0.70407552 29:0.4691917 30:0.52413255 31:0.4758065 32:0.49164784 33:0.50856447 34:0.73129237 35:0.47021168 36:0.46775904 37:0.60702878 38:0.59400141 39:0.47334954 40:0.60467118 41:0.42189509 42:0.43097961 43:0.71597075 44:0.21429981 45:0.73159951 46:0.43066761 47:0.83375514 48:0.47487876 49:0.42035899 50:0.38002974 51:0.3115496 52:0 53:0.56456023 54:0.081069946 55:0.19000188 56:0.3859551 57:0.28765294 58:0.6129216 59:0.25409511 60:0.28407127 61:0.40297431 62:0.42099744 63:0.83944225 64:0.59364772 65:0.20880944 
10 1:0.37544107 2:0.36280379 3:0.39764538 4:0.29058781 5:0.51212049 6:0.29813778 7:0.48165998 8:0.42003357 9:0.61611694 10:0.51923287 11:0.55480385 12:0.71515691 13:0.65506524 14:0.60540146 15:0.57356572 16:0.62628853 17:0.49519849 18:0.53260833 19:0.44976214 20:0.45667079 21:0.32525775 22:0.65587789 23:0.29847205 24:0.066794559 25:0.43723887 26:0.24029294 27:0.45584345 28:0.65853137 29:0.11563411 30:0.32374945 31:0.086656772 32:0.41853711 33:0.060431935 34:0.57127601 35:0.44684497 36:0.83069813 37:0.53443098 38:0.32457235 39:0.3122133 40:0.5226168 41:0.24352641 42:0.75153023 43:0.33624995 44:0.83929348 45:0.20824355 46:0.32315287 47:0.49781308 48:0.74842882 49:0.65311241 50:0.18784143 51:0.66135734 52:0.33572769 53:0.61707407 54:0.28365311 55:0.43800873 56:0.49526623 57:0.41414312 58:0.72555739 59:0.41983229 60:0.24943306 61:0.56215346 62:0.36758286 63:0.81051654 64:0.58629042 65:0.1544877 
10 1:0.58745325 2:0.86694789 3:0.42926833 4:0.54066658 5:0.24701688 6:0.55025625 7:0.70966262 8:0.42665187 9:0.55038649 10:0.68055803 11:0.3838855 12:0.36350518 13:0.41396245 14:0.41310993 15:0.31439933 16:0.65134019 17:0.77423137 18:0.40876949 19:0.63864738 20:0.35589534 21:0.61056411 22:1 23:0.3685188 24:0.59906417 25:0.15052946 26:0.43193415 27:0.5408408 28:0.5845241 29:0.40035641 30:0.65233701 31:0.66218728 32:0.59174663 33:0.49948406 34:0.50453156 35:0.34948727 36:0.73658818 37:0.54889023 38:0.57444364 39:0.75140971 40:0.63289648 41:0.59230548 42:0.59130371 43:1 44:0.58309692 45:0.50188106 46:0.28848782 47:0.86744785 48:0.48564434 49:0.46718931 50:0.51819801 51:0.4406403 52:0.2227027 53:0.64128786 54:0.20166123 55:0.53769678 56:0.46484679 57:0.64306194 58:0.69075376 59:0.40842175 60:0.28639689 61:0.80123222 62:0.34070715 63:0.76335084 64:0.5384779 65:0.20529561 
10 1:0.67944801 2:0.76664925 3:0.30449039 4:0.60149455 5:0.18400058 6:0.71502256 7:0.217325 8:0.66599816 9:0.28104606 10:0.50712931 11:0.40867549 12:0.33057061 13:0.69627577 14:0.71923912 15:0.46057272 16:0.84585774 17:0.39721313 18:0.66841418 19:0.55220461 20:0.51199323 21:0.25480285 22:0.49217597 23:0.76263046 24:0.49775347 25:0.60501939 26:0.67807192 27:0.44825056 28:0.091860145 29:0.70848966 30:0.2420236 31:0.32971573 32:0.66447413 33:0.8182379 34:0.48557144 35:0.47094762 36:0.75636995 37:0.56970352 38:0.37770271 39:0.36298952 40:0.34235284 41:0.73483235 42:0.090785056 43:0.40068394 44:0.29607585 45:0.6087327 46:0.60651302 47:0.58037812 48:0.66637355 49:0.33130753 50:0.43773127 51:0.21505885 52:0.45611608 53:0.58361101 54:0.45903417 55:0.64734882 56:0.30327478 57:0.51410156 58:0.5420382 59:0.50526202 60:0.48382503 61:0.54999399 62:0.36998013 63:0.75834864 64:0.70577419 65:0.083955683 
10 1:0.74897087 2:0.52211094 3:0.3085238 4:0.31664422 5:0.58820236 6:0.52200681 7:0.18467779 8:0.49391329 9:0.067603938 10:0.2208079 11:0.92254585 12:0.2973609 13:0.47728157 14:0.50738043 15:0.59229124 16:0.43754381 17:0.2936615 18:0.48015016 19:0.61947352 20:0.56213284 21:0.65469646 22:0.41490853 23:0.61073035 24:0.25328621 25:0.6045348 26:0.70306742 27:0.30445188 28:0.49441934 29:0.30200782 30:0.53521878 31:0.82041025 32:0.4359352 33:0.52007723 34:0.61345536 35:0.54949206 36:0.50934088 37:0.52909285 38:0.350721 39:0.52305102 40:0.8329671 41:0.47905242 42:0.44031978 43:0.19090006 44:0.66496003 45:0.57914382 46:0.46148822 47:0.59112579 48:0.50011742 49:0.31192029 50:0.44399697 51:0.51299554 52:0.36310831 53:0.49298844 54:0.51363569 55:0.60996002 56:0.41910467 57:0.57686108 58:0.40524936 59:0.5662598 60:0.46979028 61:0.43226701 62:0.25458592 63:0.76507086 64:0.66629416 65:0.094088003 
10 1:0.57113469 2:0.48826221 3:0.37744296 4:0.59570777 5:0.47564003 6:0.38495448 7:0.21923567 8:0.51700467 9:0.50169748 10:0.49551499 11:0.55255765 12:0.34797147 13:0.7128064 14:0.71882731 15:0.48357069 16:0.26629341 17:0.67293072 18:0.74271619 19:0.24938825 20:0.57849872 21:0.27763301 22:0.66940701 23:0.25203672 24:0.71148449 25:0.60482627 26:0.441695 27:0.55257511 28:0.48166037 29:0.70469147 30:0.65652263 31:0.40714034 32:0.0407735 33:0.60017931 34:5.2914259e-16 35:0.53383267 36:0.48193935 37:0.70389533 38:0.43623945 39:0.99212533 40:0.6495257 41:0.4379901 42:0.41548082 43:0.33616883 44:0.219771 45:0.52766442 46:0.44593468 47:0.34714183 48:0.51170003 49:0.002237347 50:0.485329 51:0.44504803 52:0.3568038 53:0.48419195 54:0.32458436 55:0.50975293 56:0.44738409 57:0.25757784 58:0.57186061 59:0.47065812 60:0.37768432 61:0.71197951 62:0.33395076 63:0.72309482 64:0.72283196 65:0.092799924 
10 1:0.63098437 2:0.3924301 3:0.60966712 4:0.37264034 5:0.21094266 6:0.42126057 7:0.2883724 8:0.4438324 9:0.802809 10:0.64182854 11:0.59036154 12:0.66896594 13:0.32733285 14:0.75316912 15:0.51793879 16:0.234979 17:0.64533842 18:0.66332507 19:0.6300773 20:0.2170355 21:0.60774863 22:0.83192694 23:0.054405462 24:0.44456843 25:0.21763924 26:0.59886479 27:0.27434951 28:0.56816161 29:0.34667218 30:0.69325042 31:0.40701959 32:0.32626224 33:0.34276149 34:0.3068147 35:0.11170453 36:0.53990442 37:0.41253826 38:0.18631348 39:0.78637171 40:0.54209638 41:0.52781713 42:0.33396456 43:0.4074893 44:0.46611688 45:0.68133581 46:0.72986686 47:0.73313498 48:0.44299856 49:0.40463787 50:0.45992464 51:0.49372971 52:0.5517655 53:0.54704905 54:0.27849999 55:0.36899316 56:0.25943938 57:0.61533594 58:0.68844622 59:0.49211824 60:0.37235537 61:0.45143861 62:0.34721091 63:0.8218084 64:0.63473362 65:0.13657662 
10 1:0.35397071 2:0.21390897 3:0.47038582 4:0.76369017 5:0.71874011 6:0.57699907 7:0.041801985 8:0.62873697 9:0.62457156 10:0.22909544 11:0.61637455 12:0.54982865 13:0.30059722 14:0.45394582 15:0.24532117 16:0.34988886 17:0.45889682 18:0.93214303 19:0.19257016 20:0.16426851 21:0.27314055 22:0.42912444 23:0.24070662 24:0.26963821 25:0.3631036 26:0.44065982 27:0.39626893 28:0.54637337 29:0.29987648 30:0.72489113 31:0.30592021 32:0.6785298 33:0.51620334 34:0.47110936 35:0.2460549 36:0.48215556 37:0.72312778 38:0.78570324 39:0.86175889 40:0.54618853 41:0.73887736 42:0.62657452 43:0.62298614 44:0.55230343 45:0.35220504 46:0.58437467 47:0.15662253 48:0.54964942 49:0.64445448 50:0.45113328 51:0.5334295 52:0.31894594 53:0.24904077 54:0.40793437 55:0.54738253 56:0.3882674 57:0.78367537 58:0.47420543 59:0.4677633 60:0.49868801 61:0.72286302 62:0.42066169 63:0.68819427 64:0.60960174 65:0.29036024 
8.623640832696164 1:0.45011014 2:0.89032549 3:0.17126717 4:0.56544667 5:0.6370436 6:0.31088212 7:0.0092463158 8:0.79298955 9:0.72970271 10:0.20487045 11:0.53978652 12:0.48409998 13:0.34720519 14:0.3500106 15:1 16:0.65998608 17:0.34147015 18:0.62663215 19:0.5122242 20:0.68114185 21:0.3978295 22:0.77758098 23:0.73881 24:0.29508483 25:0.46804264 26:0.846466 27:0.34688932 28:0.47299466 29:0.40071517 30:0.32983124 31:0.31919008 32:0.16972712 33:0.85988492 34:0.79071182 35:0.65862018 36:0.62830269 37:0.52666795 38:0 39:0.32967412 40:0.51199865 41:0.63877094 42:0.58096099 43:0.55122596 44:0.048325352 45:0.77642685 46:0.38168487 47:1 48:0.57151145 49:0.28267056 50:0.54795897 51:0.74324495 52:0.74691969 53:0.63413757 54:0.1006128 55:0.6017583 56:0.44102675 57:0.67235804 58:0.11951769 59:0.5704385 60:0.21337685 61:0.56527162 62:0.83245051 63:0.75661355 64:0.7114805 65:0.6081959 
10 1:0.41267729 2:0.65272069 3:0.47177804 4:0.35540801 5:0.55221188 6:0.7224431 7:0.54711288 8:0.21297354 9:0.48761857 10:0.48508358 11:0.58301502 12:0.22077292 13:0.3774786 14:0.37523192 15:0.37302509 16:1 17:0.43352479 18:0.43940857 19:0.58403087 20:0.2331776 21:0.40654597 22:0.61902463 23:0.58345944 24:0 25:0.10123508 26:0.71915871 27:0.76494187 28:0.58772343 29:0.33542603 30:0.4646472 31:0.79073685 32:0.27538851 33:0.14396711 34:0.28070027 35:0.62364149 36:0.52216673 37:0.6379329 38:0.37866336 39:0.58858418 40:0.51363415 41:0.67534524 42:0.13384628 43:0.38766506 44:0.54512537 45:0.41043022 46:0.5778963 47:0.5980224 48:0.3773163 49:0.24866027 50:0.41376549 51:0.52424222 52:0.49271137 53:0.40604654 54:0.68143767 55:0.74907857 56:0.36798024 57:0.58191091 58:0.58968616 59:0.54748327 60:0.51029342 61:0.20230949 62:0.29585114 63:0.84857064 64:0.61299187 65:0.085771151 
10 1:0.50451726 2:0.30188763 3:0.49079162 4:0.72750163 5:0.71535873 6:0.26083675 7:0.22279419 8:0.40648508 9:0.69622046 10:0.42242506 11:0.58218431 12:0.36329639 13:0.3392179 14:0.16292104 15:0.62252742 16:0.3665874 17:0.75700897 18:0.20570235 19:0.96591622 20:0.3999497 21:0.24100541 22:0.4762378 23:0.4573282 24:0.60371667 25:0.55542105 26:0.017403034 27:0.39687017 28:0.30412662 29:0.2310379 30:0.56274837 31:0.26191777 32:0.20875145 33:0.67315453 34:0.27020305 35:0.52099204 36:0.51517081 37:0.68389368 38:0.45874614 39:0.36432448 40:0.82898605 41:0.62517768 42:0.36454797 43:0.48506114 44:0.3019436 45:0.26911777 46:0.63274229 47:0.53455031 48:0.63614351 49:0.42227405 50:0.32149819 51:0.22423889 52:0.77299857 53:0.62580305 54:0.44959989 55:0.46451345 56:0.41411185 57:0.75767565 58:0.79813379 59:0.52446604 60:0.27229077 61:0.38772681 62:0.30404142 63:0.64125311 64:0.57443601 65:0.070758164 
10 1:0.34915298 2:0.85358775 3:0.8524192 4:0.81141657 5:0.5094527 6:0.42345628 7:0.42589495 8:0.4693473 9:0.42168874 10:0.60524464 11:0.69340366 12:0.4235118 13:0.40670991 14:0.52714097 15:0.48566276 16:0.41105667 17:0.50971222 18:0.35409352 19:0.4207204 20:0.28890166 21:0.24448849 22:0.57570064 23:0.18316211 24:0.59857136 25:0.60052621 26:0.57276106 27:0.22754379 28:0.33978057 29:0.80970442 30:0.51429009 31:0.41338995 32:0.47647765 33:0.33896989 34:0.4384653 35:0.61924142 36:0.32593521 37:0.48105925 38:0.41579542 39:0.52344376 40:0.28491035 41:0.64419544 42:0.26617813 43:0.72517961 44:0.4428241 45:0.35225251 46:0.44081631 47:0.58056003 48:0.42255419 49:0.4784084 50:0.29728118 51:0.17153738 52:0.62033999 53:0.48224512 54:0.21000509 55:0.48911667 56:0.48931289 57:0.55379355 58:0.7359103 59:0.59477049 60:0.21287884 61:0.67433137 62:0.23407771 63:0.65708894 64:0.63511455 65:0.17045857 
10 1:0.66817355 2:0.56785774 3:0.12576525 4:0.14865728 5:0.53493887 6:0.69213682 7:0.59376234 8:0.69283342 9:0.45509884 10:0.55879319 11:0.5080592 12:0.63437718 13:0.37633792 14:0.3164233 15:0.27402595 16:0.45769119 17:0.51298863 18:0.25749585 19:0.52925813 20:0.33325335 21:0.45453972 22:0.66890842 23:0.35139984 24:0.19954175 25:0.90189695 26:0.65246159 27:0.19060315 28:0.79876608 29:0.48555392 30:0.58622438 31:0.50537914 32:0.27286425 33:0.60109973 34:0.68703943 35:0.66559255 36:0.49287501 37:0.64085925 38:0.57950604 39:0.47725719 40:0.80307019 41:0.95285559 42:0.58281255 43:0.47140142 44:0.67817712 45:0.68076921 46:0.61543608 47:0.33127141 48:0.20896371 49:0.14634115 50:0.36128405 51:0.55570698 52:0.48866287 53:0.32403174 54:0.26303148 55:0.61597729 56:0.58277798 57:0.54212856 58:0.53281856 59:0.65319777 60:0.41419643 61:0.56836152 62:0.22364913 63:0.69019473 64:0.62399805 65:0.027194144 
10 1:0.46503893 2:0.42935666 3:0.45826182 4:0.40624863 5:0.41387054 6:0.43403456 7:0.41697598 8:0.61853081 9:0.4589816 10:0.47078779 11:0.37268442 12:0.5421195 13:0.46965739 14:0.56194973 15:0.72318888 16:0.29596418 17:0.32228836 18:0.59410328 19:0.34061703 20:0.44718766 21:0.10906614 22:0.69430327 23:0.15598883 24:0.28129956 25:5.3163504e-16 26:0.54853237 27:0.52116269 28:0.42713636 29:0.83645827 30:0.82152861 31:0.67606223 32:0.87368679 33:0.42287046 34:0.3516708 35:0.58206558 36:0.31126365 37:0.68054461 38:0.4938316 39:0.62261724 40:0.38014701 41:0.34936836 42:0.37654802 43:0.29265571 44:0.32853958 45:0.48879179 46:0.59321642 47:0.74021095 48:0.54820371 49:0.40310222 50:0.21532013 51:0.51875842 52:0.75764257 53:0.61768126 54:0.057235599 55:0.47551903 56:0.30920836 57:0.54398429 58:0.69405222 59:0.48171949 60:0.38326475 61:0.48999691 62:0.43163487 63:0.71988738 64:0.64695507 65:0.29713389 
10 1:0.37534666 2:0.68191642 3:0.35048699 4:0.64575398 5:0.56096774 6:0.37930378 7:0.36594057 8:0.49695152 9:0.48857725 10:0.261361 11:0.45479012 12:0.32374361 13:0.73871225 14:0.15385661 15:0.53749943 16:0.40952605 17:0.27723739 18:0.62934083 19:0.80795002 20:0.29642022 21:0.4951331 22:0.3376894 23:0.80564183 24:0.59980792 25:0.75364703 26:0.11311843 27:0.39387053 28:0.54317963 29:0.61484951 30:0.49443385 31:0.49989405 32:0.79014951 33:0.33288541 34:0.40899965 35:0.52125967 36:0.91177714 37:0.43817508 38:0.55072129 39:0.39156276 40:0.88935804 41:0.25588733 42:1 43:0.074433818 44:0.41265878 45:0.42044908 46:0.60404372 47:0.59620732 48:0.2801097 49:0.45878947 50:0.24634369 51:0.49005941 52:0.25305307 53:0.53272116 54:0.20793517 55:0.27611384 56:0.61396968 57:0.45941874 58:0.71620286 59:0.44292989 60:0.28797036 61:0.35571569 62:0.39206389 63:0.80813307 64:0.56055242 65:0.14919168 
10 1:0.90465426 2:0.33272672 3:0.53369862 4:0.33849436 5:0.51586467 6:0.64549148 7:0.59409195 8:0.81407076 9:0.49768713 10:0.59397662 11:0.16318925 12:0.67400819 13:0.38814101 14:0.43290761 15:0.28465512 16:0.24798419 17:0.52832979 18:0.50784421 19:0.60782546 20:0.63406271 21:0.34484309 22:0.52394873 23:0.46021333 24:0.44510621 25:0.5660814 26:0.47054771 27:0.58452284 28:0.23354399 29:0.05472552 30:0 31:0.52897155 32:0.63040668 33:0.73661667 34:0.57654071 35:0.59470546 36:0.4187949 37:0.56174046 38:0.72767949 39:0.36417189 40:0.92624336 41:0.38643748 42:0.62727439 43:0.432863 44:0.32617965 45:0.57389569 46:0.55326402 47:0.43502599 48:0.57085764 49:0.41384819 50:0.43416041 51:0.49429902 52:0.38892207 53:0.5583443 54:0.21827659 55:0.5180465 56:0.33392182 57:0.50404507 58:0.61835212 59:0.50288332 60:0.28851536 61:0.70958072 62:0.42058626 63:0.72160512 64:0.65732783 65:0.066261344 
10 1:0.49360141 2:0.75201029 3:0.68543428 4:0.20940439 5:0.76426589 6:0.48147988 7:0.48224863 8:0.23476681 9:0.57189268 10:0.45881712 11:0.17648445 12:0.58692074 13:0.64488524 14:0.51373011 15:0.53256196 16:0.2113481 17:0.46553898 18:0.45732915 19:0.29759714 20:0.4680683 21:0.48822695 22:0.65403521 23:0.86938632 24:0.44709554 25:0.40494311 26:0.46308252 27:0.40635502 28:0.27648705 29:0.55862981 30:0.80515391 31:0.14160757 32:0.45983362 33:0.40895215 34:0.71236044 35:0.54552275 36:0.55734992 37:0.43229622 38:0.75018597 39:0.44166639 40:0.42994428 41:0.78379333 42:0.48134705 43:0.56863433 44:0.38511494 45:0.45443851 46:0.45891434 47:0.36455271 48:0.57801998 49:0.2439833 50:0.31691873 51:0.17433113 52:0.61067218 53:0.51608109 54:0.099509433 55:0.47573259 56:0.37113953 57:0.33012283 58:0.52346271 59:0.47510362 60:0.36420301 61:0.65751231 62:0.32967603 63:0.73406446 64:0.64418483 65:0.11031946 
10 1:0.58139282 2:0.34796956 3:0.30623674 4:0.28386742 5:0.33535147 6:0.44690898 7:0.13383715 8:0.53597212 9:0.34277833 10:0.21452062 11:0.30011439 12:0.24627098 13:0.43122765 14:0.65986633 15:0.78162605 16:0.62121892 17:0.59928316 18:0.38692936 19:0.35447726 20:0.25852412 21:0.58300805 22:0.50691408 23:0.3848387 24:0.68666124 25:0.69963741 26:0.26894581 27:0.18414293 28:0.64414346 29:0.34931812 30:0.45293781 31:0.47126207 32:0.59846908 33:0.035900582 34:0.43754143 35:0.55556625 36:0.45375413 37:0.43453205 38:0.52741629 39:0.62173176 40:0.090740249 41:0.531528 42:0.28511366 43:0.43465456 44:0.48236752 45:0.74332982 46:0.4736616 47:0.6222418 48:0.3988696 49:0.31124404 50:0.34310132 51:0.64562613 52:0.90996945 53:0.11176154 54:0.34323514 55:0.38955149 56:0.33296254 57:0.30297911 58:0.48308927 59:0.67783213 60:0.41826543 61:0.33783007 62:0.35410362 63:0.77856672 64:0.6222322 65:0.18049797 
10 1:0.45036411 2:0.4707956 3:0.54650748 4:0.57286775 5:0.80164564 6:0.45263731 7:0.5352605 8:0.56393194 9:0.61170584 10:0.54495698 11:0.69713742 12:0.33861476 13:0.37889352 14:0.43930823 15:0.67437643 16:0.43745318 17:0.78936434 18:0.33271295 19:0.4674525 20:0.4293161 21:0.44709453 22:0.61409235 23:0.66889554 24:0.57913542 25:0.39075923 26:0.48854145 27:0.47704333 28:0.70711523 29:0.64859277 30:0.56174886 31:0.52994269 32:0.40333363 33:0.44569117 34:0.50630736 35:0.38168743 36:0.78547144 37:0.4767442 38:0.36276951 39:0.49454853 40:0.20284912 41:0.42983282 42:0.63345826 43:0.77006096 44:0.3869648 45:0.59904641 46:0.49753562 47:0.38712463 48:0.59111065 49:0 50:0.30915087 51:0.41856813 52:0.41914839 53:0.27206874 54:0.40970594 55:0.53167838 56:0.37352243 57:0.30567169 58:0.63081044 59:0.52342027 60:0.38292477 61:0.60641211 62:0.24308872 63:0.74854529 64:0.65628755 65:0.10472591 
10 1:0.48727936 2:0.46493968 3:0.83289415 4:0.56359142 5:0.45432353 6:0.52020717 7:0.49029675 8:0.38917169 9:0.34729365 10:0.34742609 11:0.37566161 12:0.36289856 13:0.50927484 14:0.82830006 15:0.93225253 16:0.48856783 17:0.74466908 18:0.69316781 19:0.55616564 20:0.19394575 21:0.39220017 22:0.5506596 23:0.76271588 24:0.31378752 25:0.57183468 26:0.52442539 27:0.64487588 28:0.63796359 29:0.16596717 30:0.78179425 31:0.46077153 32:0.61822486 33:0.088147894 34:0.85260868 35:0.66499919 36:0.33173686 37:0.65354419 38:0.5725925 39:0.67521572 40:0.50402224 41:0.57143545 42:0.40832716 43:0.54628772 44:0.74469632 45:0.42186657 46:0.60050344 47:0.44006538 48:0.56396717 49:0.49363121 50:0.42430964 51:0.50664175 52:0.58474016 53:0.55211598 54:0.26227123 55:0.49568394 56:0.43474671 57:0.59114736 58:0.58360147 59:0.48095593 60:0.28726617 61:0.56304771 62:0.3672623 63:0.76031905 64:0.61846262 65:0.11327278 
2.25333531531661 1:0.66148752 2:0.67741036 3:0.76167834 4:0.42626974 5:0.39248344 6:0.72440207 7:0.45001224 8:0.60074955 9:0.59566641 10:0.41341192 11:0.2948958 12:0.47354871 13:0.52116477 14:0.51072389 15:0.50844955 16:0.21508151 17:0.96860486 18:0.27263328 19:0.26123217 20:0.43825212 21:0.62869459 22:0.48296019 23:0.3441008 24:0.2904914 25:0.72904193 26:0.43964639 27:0.47830206 28:0.77581644 29:0.49689618 30:0.671619 31:0.55268866 32:0.43557504 33:0.61038303 34:0.28462806 35:0.48403114 36:0.54252285 37:0.6331979 38:0.47230574 39:0.51624227 40:0.3704333 41:0.2684319 42:0.6132648 43:0.35094091 44:0.38320252 45:0.25837252 46:0.85461211 47:0.50209773 48:0.21333939 49:0.74128759 50:0.28835025 51:0.31893283 52:0.27534005 53:0.35166726 54:0.60720509 55:0.49494171 56:0.25162777 57:0.43470263 58:0.49498519 59:0.61723447 60:0.52049059 61:0.93532473 62:0.4212755 63:0.65260363 64:0.49725249 65:0.64526588 
5.150442396866471 1:0.29110155 2:0.87045622 3:0.60794216 4:0.34020397 5:0.56601351 6:0.53289223 7:0.27327666 8:0.67026448 9:0.40004548 10:0.39998859 11:0.18986645 12:0.40663669 13:0.083477288 14:0.47412112 15:0.52803606 16:0.64737022 17:0.7355442 18:0.68529332 19:0.24164614 20:0.31629023 21:0.32542786 22:0.54291147 23:0.37765905 24:0.53897583 25:0.51843172 26:0.79387647 27:0.59113759 28:0.69045579 29:0.43269226 30:0.388365 31:0.64879954 32:0.47545293 33:0.4885568 34:0.5276593 35:0.59431845 36:0.72042906 37:0.6947819 38:0.40667686 39:0.57126498 40:0.43401325 41:0.42688572 42:0.43737227 43:0.13423938 44:0.5961991 45:0.24545021 46:0.94423103 47:0.66787022 48:0.52977031 49:0.37867182 50:0.20301726 51:0.28856719 52:0.31962484 53:0.53392112 54:0.63909894 55:0.24498911 56:0.19496669 57:0.51668042 58:0.39836073 59:0.4258782 60:0.52497303 61:0.80158007 62:0.35982302 63:0.5254162 64:0.3980951 65:0.54678565 
2.960120339454228 1:0.72770876 2:0.70815355 3:0.68352753 4:0.30244952 5:0.63327837 6:0.78733182 7:0.24354869 8:0.60477549 9:0.68203694 10:0.33413571 11:0.31812674 12:0.46025535 13:0.47309095 14:0.74542767 15:0.38160962 16:0.63353497 17:0.63000256 18:0.48218095 19:0.32434186 20:0.21944529 21:0.51103747 22:0.43060696 23:0.54962456 24:0.34483108 25:0.80924761 26:0.68850124 27:0.48350215 28:0.5965417 29:0.63192272 30:0.6542232 31:0.51524687 32:0.2254962 33:0.61296189 34:0.44933012 35:0.48332107 36:0.59777522 37:0.70255029 38:0.50801939 39:0.32528871 40:0.16459727 41:0.35298088 42:0.34289911 43:0.37478587 44:0.51993108 45:0.29379693 46:0.73416817 47:0.33373529 48:0.65714747 49:0.66141111 50:0.22703521 51:0.60263371 52:0.28242993 53:0.40441659 54:0.49132758 55:0.42749992 56:0.27110511 57:0.4127261 58:0.49253267 59:0.68506765 60:0.34119457 61:0.76038784 62:0.3746658 63:0.58220637 64:0.69270593 65:0.49306896 
10 1:0.43252152 2:0.39233565 3:0.61864591 4:0.46213487 5:0.35197416 6:0.49224529 7:0.11847963 8:0.60645568 9:0.53389668 10:0.44797647 11:0.3198531 12:0.66396886 13:0.17841472 14:0.84237158 15:0.50717109 16:0.63847524 17:0.55403286 18:0.50510883 19:0.2678844 20:0.5675422 21:0.41610342 22:0.74710035 23:0.48249623 24:0.21508875 25:0.68142885 26:0.31974521 27:0.33253443 28:0.42008385 29:0.30487952 30:0.72544181 31:0.88519728 32:0.25148886 33:0.36882627 34:0.89494437 35:0.33413714 36:0.58073026 37:0.59996688 38:0.83992326 39:0.43040025 40:0.325445 41:0.61788505 42:0.26507631 43:0.24845211 44:0.55026239 45:0.30971065 46:0.23533498 47:0.60068399 48:0.43210661 49:0.31159973 50:0.41846764 51:0.48904896 52:0.65887457 53:0.59659988 54:0.19218881 55:0.59812331 56:0.64104581 57:0.70705837 58:0.8244831 59:0.4581053 60:0.3365148 61:0.61994112 62:0.3382304 63:0.74573207 64:0.63253319 65:0.15443419 
10 1:0.3866393 2:0.38632813 3:0.49656186 4:0.47731721 5:0.22279155 6:0.75447476 7:0.31491035 8:0.41356307 9:0.49442297 10:0.35751811 11:0.26909375 12:0.38477933 13:0.48122573 14:0.21571341 15:0.5430783 16:0.70973992 17:0.56761241 18:0.71968025 19:0.27989057 20:0.44823262 21:0.058909334 22:0.47607014 23:0.41368917 24:0.37157387 25:0.49489909 26:0.50182015 27:0.56052798 28:0.68498349 29:0.43237504 30:0.54670286 31:0.58656055 32:0.38775378 33:0.73279339 34:0.4803592 35:0.695566 36:0.68014455 37:0.29541185 38:0.74261081 39:0.43292269 40:2.0720379e-16 41:0.74566025 42:0.45369387 43:0.67890757 44:0.71289384 45:0.40503499 46:0.48116112 47:0.59413654 48:0.64132476 49:0.37702382 50:0.42976591 51:0.23541673 52:0.64896089 53:0.67222589 54:0.2860277 55:0.69587415 56:0.45229936 57:0.32328835 58:0.56655258 59:0.50060201 60:0.33040762 61:0.71880579 62:0.24822986 63:0.6047048 64:0.7003625 65:0.13915431 
10 1:0.51917738 2:0.40251493 3:0.43195173 4:0.17133024 5:0.45962524 6:0.3818779 7:0.51346153 8:0.29871267 9:0.4605301 10:0.25283384 11:0.53009486 12:0.7188983 13:0.12091076 14:0.38141108 15:0.17582719 16:0.14914182 17:0.66389471 18:0.79256105 19:0.8472032 20:0.74691188 21:0.46764952 22:0.82749861 23:1 24:0.30386123 25:0.62852806 26:0.76587915 27:0.11794888 28:0.52130473 29:0.48566151 30:0.80461407 31:0.68922716 32:0.55006135 33:0.43609923 34:0.41686279 35:0.30904567 36:0.35470015 37:0.56851059 38:0.66277689 39:0.74428207 40:0.66941398 41:0.39472863 42:0 43:0.20330679 44:0.32799724 45:0.3478297 46:0.59431231 47:0.47968245 48:0.44846776 49:0.13281204 50:0.37622809 51:0.432372 52:0.69800156 53:0.51197535 54:0.48950434 55:0.55654502 56:0.52119261 57:0.65853053 58:0.63843089 59:0.52210826 60:0.42187285 61:0.29184854 62:0.29475981 63:0.79577851 64:0.59881967 65:0.043539304 
10 1:0.65446752 2:0.62636614 3:0.68020356 4:0.57573891 5:0.37785128 6:0.51494116 7:0.33701253 8:0.17281844 9:0.54736513 10:1.3101342e-16 11:0.2292483 12:0.32235479 13:0.051452961 14:0.78752446 15:0.4835141 16:0.3085961 17:0.34112746 18:0.49793836 19:0.67696244 20:0.63885182 21:0.29162884 22:0.65918529 23:0.32142091 24:0.32966363 25:0.42996246 26:0.78018814 27:0.54123849 28:0.60167855 29:0.56775063 30:0.45860067 31:0.39445755 32:0.70844787 33:0.52733552 34:0.62699127 35:0.13801724 36:0.64452618 37:0.63450754 38:0.36199361 39:0.60512435 40:0.83230257 41:0.40080339 42:0.60653269 43:0.67147666 44:0.19406635 45:0.2216371 46:0.46638697 47:0.56286198 48:0.53371286 49:0.47872874 50:0.43960235 51:0.53068817 52:0.3614651 53:0.53139889 54:0.49562496 55:0.5691511 56:0.19867672 57:0.6371733 58:0.50290024 59:0.39699548 60:0.3599942 61:0.43978673 62:0.32288089 63:0.83239567 64:0.61844528 65:0.092013255 
10 1:0.52133411 2:0.56249726 3:0.48707548 4:0.35861802 5:0.45181781 6:0.43093488 7:0.37517041 8:0.54560697 9:0.82119393 10:0.12087363 11:0.36607677 12:0.24226372 13:0.3355459 14:0.64406925 15:0.36328888 16:0.42573231 17:0.44476682 18:0.10202888 19:0.69756079 20:0.7056495 21:0.45668575 22:0.50624126 23:0.44156399 24:0.24704453 25:0.71093285 26:0.30409065 27:0.57420731 28:0.40712577 29:0.39637068 30:0.18837726 31:0.27061242 32:0.25510645 33:0.59608561 34:0.76255834 35:0.291969 36:0.51920378 37:0.70997655 38:0.16994272 39:0.33870456 40:0.58338904 41:0.51483172 42:0.40303537 43:0.52202302 44:0.3482042 45:0.41874042 46:0.46059009 47:0.40945873 48:0.55565274 49:0.19883241 50:0.4713459 51:0.26982602 52:0.55529171 53:0.28488064 54:0.55334443 55:0.7040714 56:0.28340662 57:0.56013805 58:0.64985603 59:0.49776542 60:0.45456699 61:0.34743613 62:0.27710757 63:0.85518926 64:0.62759429 65:0.029438552 
10 1:0.33532104 2:0.3902213 3:0.54139858 4:0.32944316 5:0.50803161 6:0.55558151 7:0.51884484 8:0.46502998 9:0.44936922 10:0.29960617 11:0.67178357 12:0.43257111 13:0.77542156 14:0.50863618 15:0.26002675 16:0.44482258 17:0.59124756 18:0.74382091 19:0.24688295 20:0.8875652 21:0.50486153 22:0.23814641 23:0.49501577 24:0.40767953 25:0.45148101 26:0.40938762 27:0.61495388 28:0.41644153 29:0.21046516 30:0.68485683 31:0.62922078 32:0.36229476 33:0.51911461 34:0.5975343 35:0.33807999 36:0.85164386 37:0.646815 38:0.24539231 39:0.27228296 40:0.18448909 41:0.46235996 42:0.34370774 43:0.28277403 44:0.31505615 45:0.56760132 46:0.73289162 47:0.56293601 48:0.48323932 49:0.29613617 50:0.33306584 51:0.091625221 52:0.6266948 53:0.50790578 54:0.42031491 55:0.50664604 56:0.49565849 57:0.58760649 58:0.73354697 59:0.43589818 60:0.34423083 61:0.43328539 62:0.25479531 63:0.74483949 64:0.65383035 65:0.085865743 
10 1:0.4095408 2:0.60572976 3:0.12669542 4:0.26003003 5:0.11151133 6:0.39505145 7:0.61497128 8:0.64916945 9:0.58971399 10:0.36639914 11:0.47576746 12:0.61304462 13:0.51279521 14:0.34016687 15:0.78722668 16:0.71088606 17:0.70678604 18:0.95897198 19:0.16838831 20:0.64279574 21:0.33982792 22:0.58754849 23:0.48165259 24:0.31765121 25:0.36733013 26:0.597637 27:0.5917874 28:0.5111919 29:0.47046489 30:0.56087059 31:0.43890134 32:0.6028226 33:0.64880681 34:0.63509762 35:0.50527877 36:0.25027898 37:0.92514771 38:0.63207644 39:0.46426076 40:0.61809415 41:0.46984282 42:0.49816984 43:0.41231728 44:0.31584245 45:0.39614311 46:0.55068398 47:0.21942645 48:0.5489797 49:0.25959468 50:0.27958074 51:0.28103697 52:0.45435989 53:0.48730004 54:0.24186583 55:0.44952023 56:0.61010695 57:0.50777435 58:0.75390655 59:0.52057564 60:0.19554706 61:0.68286526 62:0.31540018 63:0.72585863 64:0.57626122 65:0.10770862 
10 1:0.7037313 2:0.26851436 3:0.63361597 4:0.51581407 5:0.51066673 6:0.53234249 7:0.47043177 8:0.42836887 9:0.52617228 10:0.81259733 11:0.45792589 12:0.30998254 13:0.69524288 14:0.79791957 15:0.71738827 16:0.59435922 17:0.49405971 18:0.56633902 19:0.1734826 20:0.65136158 21:0.57323384 22:0.66760892 23:0.5792318 24:0.44857261 25:0.45578468 26:0.86319625 27:0.047259647 28:0.75312048 29:0.80339944 30:0.3398824 31:1 32:0.29385033 33:0.66872758 34:0.1103463 35:0.37526181 36:0.51093686 37:0.72434753 38:0.53778672 39:0.46445414 40:0.84896266 41:0.3382622 42:0.45357424 43:0.3347975 44:0.27165502 45:0.51380819 46:0.71754235 47:0.68427688 48:0.58099711 49:0.4659431 50:0.3394053 51:0.459719 52:0.41574648 53:0.57347089 54:0.46969527 55:0.55342847 56:0.30840239 57:0.51408589 58:0.55125904 59:0.5266875 60:0.36314973 61:0.48114678 62:0.33800101 63:0.78010488 64:0.68382227 65:0.18278989 
10 1:0.88496941 2:0.44721726 3:0.31797239 4:0.87943023 5:0.58027607 6:0.50778306 7:0.43236911 8:3.1407728e-16 9:0.47273457 10:0.33974016 11:0.48717064 12:0.6289283 13:0.58017194 14:0.31578913 15:0.47607282 16:0.60687721 17:0.57845235 18:0.5719263 19:9.5781988e-16 20:0.37258729 21:0.39475721 22:0.46587822 23:0.56556553 24:0.67992902 25:0.38839665 26:0.50875711 27:0.38006249 28:0.71569824 29:0.16976131 30:0.51911509 31:0.74072725 32:0.70395303 33:0.71553814 34:0.55205214 35:0.3436031 36:0.55346763 37:0.93311262 38:0.55422831 39:0.24120265 40:0.68317616 41:0.55723053 42:0.28558934 43:0.37836334 44:0.48871082 45:0.51089907 46:0.42666331 47:0.52553701 48:0.78474557 49:0.48176071 50:0.41938418 51:0.54831272 52:0.27746716 53:0.50134188 54:0.3441278 55:0.46736273 56:0.32412213 57:0.51818496 58:0.68812901 59:0.50474638 60:0.34093586 61:0.58241338 62:0.36898232 63:0.79515666 64:0.66583133 65:0.19485402 
10 1:0.53441781 2:0.39750028 3:0.56295407 4:0.46483254 5:0.47844493 6:1 7:0.71737295 8:0.66013414 9:0.44981214 10:0.40511164 11:0.2389167 12:0.41516021 13:0.53276825 14:0.40589938 15:0.50103778 16:0.63864505 17:0.75595623 18:1 19:0.50401944 20:0.029713791 21:0.62093693 22:0.25715509 23:0.83774477 24:0.27933428 25:0.56402916 26:0.4871065 27:0.40065208 28:0.80515778 29:0.70079267 30:0.81181848 31:0.41736731 32:0.53032166 33:0.74149007 34:0.53838456 35:0.52813935 36:0.76794642 37:0.47505829 38:0.38396141 39:0.76356179 40:0.866768 41:0.36299935 42:0.38304904 43:0.54858577 44:0.13542444 45:0.42295164 46:0.56295842 47:0.61847532 48:0.64466399 49:0.31084204 50:0.35847005 51:0.3064931 52:0.56463164 53:0.68644369 54:0.2244295 55:0.44284412 56:0.37553591 57:0.34832337 58:0.56031078 59:0.42610183 60:0.37485126 61:0.70332259 62:0.34287718 63:0.79150903 64:0.65036887 65:0.10867137 
10 1:0.58807045 2:0.51618129 3:0.52351618 4:0.268861 5:0.84356409 6:0.38084772 7:0.44339535 8:0.39900836 9:0.33163479 10:0.015483179 11:0.073999397 12:0.46698397 13:0.46280882 14:0.55537027 15:0 16:0.79154789 17:0.52253801 18:0.56120962 19:0.58690095 20:0.53047347 21:0.44978672 22:0.578008 23:0.55012435 24:0.54598361 25:0.23591562 26:0.65807432 27:0.41981936 28:0.60350543 29:0.81133491 30:0.47613278 31:0.49263248 32:0.24274281 33:0.66744506 34:0.61138141 35:0.5767644 36:0.70615351 37:0.47297379 38:0.25066847 39:0.5299167 40:0.26027805 41:0.53432184 42:0.68575221 43:0.53683764 44:0.70252842 45:0.78559214 46:0.65979409 47:0.79892153 48:0.42175135 49:0.54680026 50:0.51948565 51:0.38900957 52:0.23749454 53:0.49416587 54:0.24692154 55:0.52067244 56:0.38257974 57:0.55212224 58:0.46369898 59:0.53463286 60:0.44689721 61:0.7177484 62:0.2321009 63:0.71939999 64:0.65170825 65:0.15579091 
10 1:0.51284933 2:0.74479264 3:0.5527159 4:0.61555946 5:0.53706878 6:0.85785782 7:0.36791462 8:0.59408987 9:0.57301229 10:0.39848527 11:0.40958288 12:0.093731299 13:0.55462813 14:0.51038122 15:0.70035046 16:0.34312865 17:0.53916025 18:0.61582553 19:0.039333854 20:0.70728266 21:1 22:0.49294272 23:0.37915537 24:0.37119699 25:0.17786345 26:0.40628511 27:0.61624277 28:0.27417392 29:0.21776856 30:0.47173226 31:0.40240225 32:0.44212982 33:0.74318713 34:0.39951101 35:0.55764288 36:8.2287101e-16 37:0.24554078 38:0.40308937 39:0.43499404 40:0.68089825 41:0.35931763 42:0.45621681 43:0.35342544 44:0.37730584 45:0.37316975 46:0.48655248 47:0.65671909 48:0.35977492 49:0.060172815 50:0.54576898 51:0.58431298 52:0.52623665 53:0.63895977 54:0.30629891 55:0.47160065 56:0.48098335 57:0.29921961 58:0.48248726 59:0.44523361 60:0.54053074 61:0.62224472 62:0.35153028 63:0.78977782 64:0.64572501 65:0.21628456 
10 1:0.58019632 2:0.56233686 3:0.45784417 4:0.30177096 5:0.65583974 6:0.67154461 7:0.40637815 8:0.50796461 9:0.68326545 10:0.44829658 11:0.41736087 12:0.70166874 13:0.43770868 14:0.77449787 15:0.49095461 16:0.14194345 17:0.69215012 18:0.20714517 19:0.52198434 20:0.60342318 21:0.26160401 22:0.22156146 23:0.60106277 24:0.45030171 25:0.53566229 26:0.61331886 27:0.32399845 28:0.52119094 29:0.51967961 30:0.72423369 31:0.46392247 32:0.48769501 33:0.75071096 34:0.84748006 35:0.16096233 36:0.58298582 37:0.70281661 38:0.27118149 39:0.35998946 40:0.19375923 41:0.55530864 42:0.34632224 43:0.63326699 44:0.37092316 45:0.36526182 46:0.56428158 47:0.77785623 48:0.5353142 49:0.35013011 50:0.52497298 51:0.41440803 52:0.62325281 53:0.38933355 54:0.45662531 55:0.69164318 56:0.37500432 57:0.73923349 58:0.71591133 59:0.6004712 60:0.44907254 61:0.42795831 62:0.28067583 63:0.80842948 64:0.63123912 65:0.078439653 
1.893806639950902 1:0.57673734 2:0.78011638 3:0.62547994 4:0.24791344 5:0.54661769 6:0.28013903 7:0.15558656 8:0.18912935 9:0.59836656 10:0.73547709 11:0.47779176 12:0.40569666 13:0.66793311 14:0.24714769 15:0.28421548 16:0.27002957 17:0.80119419 18:0.69309723 19:0.7614069 20:0.34337196 21:0.48948652 22:0.45818123 23:0.49227953 24:0.69060701 25:0.50125778 26:0.46735483 27:0.28559956 28:0.61254299 29:0.42648461 30:0.1144008 31:0.69356155 32:0.33516353 33:0.38461435 34:0.52610916 35:0.38995463 36:0.61119729 37:0.73910236 38:0.57031518 39:0.47529605 40:0.5733037 41:0.42455816 42:0.29205462 43:0.52360672 44:0.72447258 45:0.13829401 46:0.62300336 47:0.6072399 48:0.65076286 49:0.34586024 50:0.5048573 51:0.46554157 52:0.9001587 53:0.35518458 54:0.20198825 55:0.26810461 56:0.41016617 57:0.79751456 58:0.70166457 59:0.78188646 60:0.37609479 61:0.7239362 62:0.52604169 63:0.65093118 64:0.87443066 65:0.78432691 
2.868902956168716 1:0.40516993 2:0.03279835 3:0.59458774 4:0.38006133 5:0.66158009 6:0.73980671 7:0.56221247 8:0.28309056 9:0.59390557 10:0.5322476 11:0.41025117 12:0.25099176 13:0.55726868 14:0.4380866 15:0.64280605 16:0.48883265 17:0.43475819 18:0.48693377 19:0.29164654 20:0.55678654 21:0.65512103 22:0.79735011 23:0.3724457 24:0.33330736 25:0.61264431 26:0.51806301 27:0.49140763 28:0.41956985 29:0.67872077 30:0.48851818 31:0.52293569 32:0.5891704 33:0.72054642 34:0.77345175 35:0.060472012 36:0.59584934 37:0.51428503 38:0.3420521 39:0.53978997 40:0.79940253 41:0.49376187 42:0.28588843 43:0.60624391 44:0.67994839 45:0.29543266 46:0.27789953 47:0.53651732 48:0.46002436 49:0.28126708 50:0.53010315 51:0.4760097 52:0.97770524 53:0.72309256 54:0.12937613 55:0.38805383 56:0.37026718 57:0.63131028 58:0.6378774 59:0.90898627 60:0.48559585 61:0.62618363 62:0.50527805 63:0.6178509 64:1 65:0.6838032 
1.00940279740197 1:0.50172937 2:0.4231711 3:0.29627526 4:0.36759329 5:0.45952207 6:0.60124624 7:0.15186723 8:0.45442185 9:0.66481161 10:0.52635419 11:0.45198703 12:0.52479154 13:0.38618258 14:0.24512322 15:0.55702043 16:0.3375949 17:0.57626647 18:0.57456708 19:0.52484357 20:0.57370847 21:0.30354401 22:0.51731795 23:0.31292847 24:0.29638258 25:0.48609456 26:0.51489389 27:0.5073396 28:0.62766814 29:0.57870781 30:0.77216858 31:0.34660479 32:0.84715492 33:0.74848843 34:0.70584261 35:0.81808394 36:0.82089454 37:0.64030099 38:0.43741709 39:0.58239764 40:0.47743189 41:0.51557595 42:0.63353533 43:0.59415019 44:0.33238307 45:0.71168828 46:0.53245819 47:0.71461117 48:0.5415653 49:0.3807613 50:0.25348732 51:0.30793756 52:0.43754706 53:0.47214511 54:0.41436464 55:0.49677175 56:0.53318799 57:0.86941189 58:0.41186613 59:1 60:0.75599122 61:0.65354282 62:0.45219779 63:0.62412423 64:0.5964548 65:0.74477541 
0.8607855542998782 1:0.54714936 2:0.50801629 3:0.45169821 4:0.26323685 5:0.33712882 6:0.35395861 7:0.37064737 8:0.19027105 9:0.58663553 10:0.28696999 11:0.53896838 12:0.72953165 13:0.53301954 14:0.55670631 15:0.28420919 16:0.57731324 17:0.56589115 18:0.5299049 19:0.5295828 20:0.078184068 21:0.53136897 22:0.61496276 23:0.54631364 24:0.71149009 25:0.73158234 26:0.3360728 27:0.54464269 28:0.46652603 29:0.59995824 30:0.67384374 31:0.54115194 32:0.43038383 33:0.62604821 34:0.3212848 35:0.51366276 36:0.47637004 37:0.55889171 38:0.47151774 39:0.51168716 40:0.29201496 41:0.53390163 42:0.50437111 43:0.45237523 44:0.30284306 45:0.32833099 46:0.60545278 47:0.5780912 48:0.1056546 49:0.31989235 50:0.40342656 51:0.44456506 52:0.5614543 53:0.81864136 54:0.28490567 55:0.55598098 56:0.46457621 57:0.41192055 58:0.49580818 59:0.8128888 60:0.89540446 61:0.91674477 62:0.49481136 63:0.59033573 64:0.7648325 65:0.80039233 
0.3397168280295485 1:0.6697039 2:0.65985441 3:0.54633415 4:0.21576966 5:0.5544889 6:0.5575 7:0.59160733 8:0.48495397 9:0.48119876 10:0.4822216 11:0.11860012 12:0.177792 13:0.41949412 14:0.6744749 15:0.35488597 16:0.19802792 17:0.3219167 18:0.88179201 19:0.47369352 20:0.10896249 21:0.46546909 22:0.76897269 23:0.30015036 24:0.36618119 25:0.51156467 26:0.16607401 27:0.45196554 28:0.88957578 29:0.6146009 30:0.25440928 31:0.43178812 32:0.18715972 33:0.53942859 34:0.80861181 35:0.42717114 36:0.41843849 37:0.61461961 38:0.41548932 39:0.64645547 40:0.32746038 41:0.64962083 42:0.3027567 43:0.13257213 44:0.16967466 45:0.705176 46:0.78467178 47:0.37495118 48:0.3486174 49:0.65211684 50:0.25794992 51:0.18638201 52:0.34674895 53:0.81961828 54:0.41241834 55:0.2639257 56:0.39695677 57:0.67878538 58:0.71731734 59:0.54497474 60:0.46412253 61:0.052173279 62:0.29446983 63:0.61580473 64:0.70410103 65:0.56065083 
0.2422968726929324 1:0.55439514 2:0.35717055 3:0.43113071 4:0.30124521 5:0.21954772 6:0.35881186 7:0.65457147 8:0.47732791 9:0.69447803 10:0.32570499 11:0.64253449 12:0.42815098 13:0.42651552 14:0.52439368 15:0.21592422 16:0.50399548 17:0.62238038 18:0.51079482 19:0.18046543 20:0.17755811 21:0.33533186 22:0.66104913 23:0.32270575 24:0.4431923 25:0.29101786 26:0.21584854 27:0.4231309 28:0.44806212 29:0.50837654 30:0.37774041 31:0.59915739 32:0.24575105 33:0.76090556 34:0.40551594 35:0.30433375 36:0.69879103 37:0.3484081 38:0.47392476 39:0.58509219 40:0.87921524 41:0.77199793 42:0.44915199 43:0.57009703 44:0.55841535 45:0.42645743 46:0.31107906 47:0.48226559 48:0.51499689 49:0.21869616 50:0.25722167 51:0.30882785 52:0.35119897 53:0.41503206 54:0.33753556 55:0.63669735 56:0.28373709 57:0.79973406 58:0.15468311 59:0.37635931 60:0.67552364 61:0.30050313 62:0.18130009 63:0.66230035 64:0.44208565 65:0.69491369 
1.053144284601745 1:0.15063776 2:0.64439505 3:0.63903636 4:0.45109764 5:0.29414135 6:0.6785748 7:0.38380608 8:0.3739506 9:0.49028587 10:0.52707338 11:0.37501377 12:0.33830702 13:0.72466999 14:0.71819371 15:0.43687406 16:0.51148772 17:0.37258399 18:0.52765089 19:0.68298686 20:0.27584824 21:0.16802847 22:0.37334439 23:0.65179813 24:0.47064292 25:0.57235909 26:0.3708134 27:0.49863607 28:0.5255298 29:0.82222366 30:0.59110904 31:0.70715928 32:0.065500148 33:0.39187509 34:0.42932248 35:0.44929358 36:0.21282639 37:0.38947469 38:0.066217825 39:0.62904978 40:0.80915242 41:0.32037297 42:0.50862914 43:0.52877402 44:0.60133773 45:0.69338167 46:0.52212173 47:0.44970822 48:0.91068959 49:0.15394542 50:0.26096198 51:0.68793172 52:0.54801643 53:0.43062449 54:0.45966166 55:0.50119817 56:0.30770248 57:0.63156378 58:0.38481858 59:0.35566983 60:0.54363555 61:0.90184194 62:0.20675153 63:0.75119066 64:0.52384949 65:0.67387277 
5.993636173910128 1:0.56306392 2:0.61212951 3:0.50711048 4:0.46474975 5:0.43078053 6:0.60057563 7:0.36554033 8:0.44203165 9:0.57234925 10:0.17560261 11:0.40598828 12:0.58649153 13:0.44070506 14:0.33987376 15:0.47992867 16:0.57244062 17:0.79803526 18:0.55519372 19:0.53431493 20:0.38110599 21:0.45422995 22:0.59601277 23:0.28827181 24:0.33631527 25:0.39292777 26:0.23934494 27:0.17557651 28:0.37747967 29:0.37934327 30:0.4475843 31:0.55462509 32:0.44488373 33:0.49383557 34:0.59340775 35:0.39208108 36:0.60715634 37:0.57528234 38:0.64356667 39:0.51060623 40:0.74958318 41:0.76485169 42:0.45372146 43:0.46973038 44:0.61053026 45:0.47665346 46:0.7080766 47:0.48444867 48:0.2296918 49:0.26583621 50:0.36557591 51:0.32830986 52:0.59920007 53:0.86567944 54:0.38983214 55:0.66717988 56:0.26953164 57:0.39008963 58:0.31167194 59:0.4157016 60:0.73196733 61:0.67760402 62:0.28096408 63:0.63670373 64:0.49587673 65:0.70234138 
0.07458517976256444 1:0.55852473 2:0.68506169 3:0.46171427 4:0.49381012 5:0.48059061 6:0.47786903 7:0.50739771 8:0.53010231 9:0.61767495 10:0.45888472 11:0.47328418 12:0.48667356 13:0.74496394 14:0.76111031 15:0.38588554 16:0.37952346 17:0.54398376 18:0.32388124 19:0.55394053 20:0.58785987 21:0.84994417 22:0.49036995 23:0.793136 24:0.47418478 25:0.43232456 26:0.62432325 27:0.32314572 28:0.44686529 29:0.41975656 30:0.9102385 31:0.58464622 32:0.46567675 33:0.52209824 34:0.4455092 35:0.44958448 36:0.70011884 37:0.46232343 38:0.52135652 39:0.1926492 40:0.44121444 41:0.66256934 42:0.48256639 43:0.83380365 44:0.4624795 45:0.42098805 46:0.60972637 47:0.5824942 48:0.18424803 49:0.65131557 50:0.55988032 51:0.30907685 52:0.79054725 53:0.56100214 54:0.24395426 55:0.43652174 56:0.47593021 57:0.42120832 58:0.58156073 59:0.37127918 60:0.44326183 61:0.73975313 62:0.19985369 63:0.73183405 64:0.54535556 65:0.78433192 
1.234539951906709 1:0.41606206 2:0.088732339 3:0.48911145 4:0.45321649 5:0.74439806 6:0.1382647 7:0.33512941 8:0.40988705 9:0.38603154 10:0.25259039 11:0.4056679 12:0.34094277 13:0.4587875 14:0.57121009 15:0.86129534 16:0.53013313 17:0.31921878 18:0.62520736 19:0.54043049 20:0.55308968 21:0.5514645 22:0.67319131 23:0.81947166 24:0.38891944 25:0.39312077 26:0.42316708 27:0.23139735 28:0.48817188 29:0.29216799 30:0.48060682 31:0.61823189 32:0.08895123 33:0.58939826 34:0.68833929 35:0.69376165 36:0.65418816 37:0.70389205 38:0.32916543 39:0.58692652 40:0.52603263 41:0.16897242 42:0.46108294 43:0.61809325 44:0.51368439 45:0.37809923 46:0.59477955 47:0.46718365 48:0.63083977 49:0.65893304 50:0.43960813 51:0.15714069 52:0.34109467 53:0.4899697 54:0.22073698 55:0.42659086 56:0.61742687 57:0.64618152 58:0.16947028 59:0.17055754 60:0.56508887 61:0.58493161 62:0.17848517 63:0.78679788 64:0.49835667 65:0.69861138 
2.699755855517812 1:0.70897859 2:0.37913632 3:0.30956906 4:0.39408037 5:0.39726523 6:0.38113075 7:0.31987971 8:0.58166629 9:0.45823988 10:0.6189689 11:0.38738033 12:0.19847369 13:0.31352216 14:0.55728859 15:0.64297181 16:0.17552988 17:0.61011273 18:0.66029942 19:0.45838085 20:0.71542674 21:0.76442999 22:0.41229165 23:0.60736418 24:0.43720505 25:0.47095075 26:0.32141191 27:0.50934285 28:0.43484738 29:0.71043408 30:0.77637833 31:0.50473064 32:0.40246686 33:0.17944844 34:0.3735953 35:0.30622095 36:0.47441429 37:0.5909546 38:0.48943648 39:0.38976884 40:0.022442907 41:0.8411153 42:0.55735385 43:0.46480718 44:0.33954838 45:0.1473859 46:0.40524548 47:0.50281447 48:0.53835493 49:0.775527 50:0.43885773 51:0.24897067 52:0.15960896 53:0.6732446 54:0.23634543 55:0.91243964 56:0.54565936 57:0.73654687 58:0.35679927 59:0.42542201 60:0.47788414 61:0.5079881 62:0.26955587 63:0.54175365 64:0.56950426 65:0.70117003 
1.772180409107947 1:0.59069741 2:0.21858908 3:0.24760504 4:0.28084847 5:0.68547362 6:0.69374889 7:0.35623994 8:0.45108867 9:0.66316837 10:0.37872854 11:0.37586832 12:0.31760755 13:0.79272264 14:0.60297424 15:0.27194804 16:0.25008324 17:0.4193916 18:0.53448308 19:0.13970155 20:0.45185295 21:0.52119923 22:0.56639606 23:0.54144776 24:0.38484594 25:0.5266816 26:0.4800626 27:0.50582838 28:0 29:0.60917872 30:0.73268956 31:0.33159399 32:0.31172341 33:0.2933315 34:0.58870077 35:0.60055166 36:0.60654569 37:0.55247259 38:0.56820625 39:0.21618086 40:0.77140343 41:0.53645623 42:0.16392861 43:0.46445268 44:0.39766786 45:0.65171629 46:0.49867275 47:0.70443594 48:0.39697868 49:0.16668545 50:0.36942583 51:0.60918742 52:0.34884989 53:0.693335 54:0.24284765 55:0.64523393 56:0.36996546 57:0.42076781 58:0.26809746 59:0.22734195 60:0.61172044 61:0.67129135 62:0.22256473 63:0.70229059 64:0.54499745 65:0.74451447 
2.769544391198237 1:0.67906147 2:0.37878916 3:0.51967639 4:0.46829915 5:0.59162635 6:0.50627333 7:0.56447697 8:0.58205861 9:0.56038404 10:0.16442697 11:0.44452348 12:0.31537619 13:0.52373123 14:0.8542819 15:0.41508734 16:0.4017902 17:0.33752394 18:0.59938556 19:0.60352439 20:0.46570981 21:0.29639664 22:0.72758311 23:0.49376285 24:0.34281456 25:0.37811247 26:0.092613727 27:0.48246542 28:0.62740207 29:0.63090372 30:0.51176333 31:0.61149424 32:0.48645908 33:0.77932268 34:0.3813765 35:0.34548846 36:0.36281118 37:0.33582759 38:0.45280513 39:0.5580259 40:0.54949689 41:0.16268364 42:0.18939577 43:0.4437888 44:0.91875547 45:0.5160408 46:0.4984214 47:0.68223137 48:0.35152707 49:0.56823349 50:0.48753589 51:0.16895832 52:0.20293716 53:0.39628097 54:0.07181222 55:0.35528359 56:0.40838778 57:0.60219437 58:0.61422867 59:0.38285205 60:0.3095659 61:0.37483579 62:0.30147615 63:0.52040064 64:0.78299952 65:0.68800086 
1.943357822297458 1:0.39875314 2:0.50100386 3:0.83128214 4:0.26707759 5:0.32002181 6:0.4993389 7:0.44823802 8:0.50161934 9:0.49558845 10:0.45795128 11:0.7516675 12:0.34601197 13:0.56867701 14:0.46203923 15:0.57909369 16:0.56298298 17:0.6649726 18:0.29363179 19:0.7401939 20:0.41383854 21:0.69152784 22:0.605721 23:0.48115203 24:0.3846136 25:0.76010936 26:0.71900547 27:0.64207768 28:0.82024211 29:0.32056004 30:0.75208068 31:0.44653222 32:0.69299722 33:0.67222816 34:0.38392606 35:0.46222806 36:0.38835865 37:0.45667139 38:0.57127631 39:0.60092306 40:0.092599139 41:0.346349 42:0.36753431 43:0.30914626 44:0.56408012 45:0.65981638 46:0.8747195 47:0.39442194 48:0.63879645 49:0.5846715 50:0.38550752 51:0.65888155 52:0.51702583 53:0.40613344 54:0.40025398 55:0.53869832 56:0.20833528 57:0.54213935 58:0.42895237 59:0.32332119 60:0.4506658 61:0.59456158 62:0.30148393 63:0.62063348 64:0.76406109 65:0.67673743 
4.118794132735121 1:0.61199373 2:0.53910261 3:0.44873735 4:0.77947986 5:0.23943917 6:0.441405 7:0.48079735 8:0.52776873 9:0.49503863 10:0.45070514 11:0.61480701 12:0.50008309 13:0.35922638 14:0.64444369 15:0.61754209 16:0.58537465 17:0.60861528 18:0.58946252 19:0.55168116 20:0.84129864 21:0.361269 22:0.66885549 23:0.74884987 24:0.28671905 25:0.47863802 26:0.48588273 27:0.3280184 28:0.59652942 29:0.70534664 30:0.5707559 31:0.48362246 32:0.22975147 33:0.48955512 34:0.14419751 35:0.46149254 36:0.5313009 37:0.77997512 38:0.64894813 39:0.65293825 40:0.35388842 41:0.37513122 42:0.42595211 43:0.28511548 44:0.54220086 45:0.56841761 46:0.50791466 47:0.70903552 48:0.47471961 49:0.40595996 50:0.43722516 51:0.33461559 52:0.41934732 53:0.7122674 54:0.37866205 55:0.30039725 56:0.62281126 57:0.5852744 58:0.42865202 59:0.24574901 60:0.61454916 61:0.63682336 62:0.16820042 63:0.74114883 64:0.59017611 65:0.74788719 
1.919899362877064 1:0.31393155 2:0.66067201 3:0.50834048 4:0.46493429 5:0.42479026 6:0.60269028 7:0.38033482 8:0.36496088 9:0.56254566 10:0.34009629 11:0.38651383 12:0.53663999 13:0.58042431 14:0.3448056 15:0.8021363 16:0.26628715 17:0.32410794 18:0.60401458 19:0.63681436 20:0.57787919 21:0.29972714 22:0.55517983 23:0.20810272 24:0.31005874 25:0.42089358 26:0.41162756 27:0.2604863 28:0.63472277 29:0.56760961 30:0.7562319 31:0.24878499 32:0.52481967 33:0.74290675 34:0.2627877 35:0.63602269 36:0.66809952 37:0.90701586 38:0.55925006 39:0.3364872 40:0.44644824 41:0.34648779 42:0.50193304 43:0.14125159 44:0.70390046 45:0.90654445 46:0.44226485 47:0.5607506 48:0.74829352 49:0.17393371 50:0.353917 51:0.76659179 52:0.66414982 53:0.43233356 54:0.53770971 55:0.45105374 56:0.21536265 57:0.79716343 58:0.37115717 59:0.27219126 60:0.51723021 61:0.54764795 62:0.28304604 63:0.68643361 64:0.68501925 65:0.67954803 
4.250946294839966 1:0.75387794 2:0.79805303 3:0.88041764 4:0.30291024 5:0.60540599 6:0.61312741 7:0.67062652 8:0.28840965 9:0.45241773 10:0.41477445 11:0.31841412 12:0.46408683 13:0.61373341 14:0.21313472 15:0.55119014 16:0.13695613 17:0.46777809 18:0.59019548 19:0.25981715 20:0.32209811 21:0.37516126 22:0.53390992 23:0.13980193 24:0.32001802 25:0.47166699 26:0.15955946 27:0.30719426 28:0.59613931 29:0.5629319 30:0.69253683 31:0.59807014 32:0.81101495 33:0.75021106 34:0.38148642 35:0.52934074 36:0.5998069 37:0.66463017 38:0.48027736 39:0.50714481 40:0.20548429 41:0.4332065 42:0.55062771 43:0.32398853 44:0.50489318 45:0.76242524 46:0.51809108 47:0.77591342 48:0.71553594 49:0.16434048 50:0.22213389 51:0.87223423 52:0.78829849 53:0.35650539 54:0.57370245 55:0.54582399 56:0.27070034 57:0.71584493 58:0.39063984 59:0.20999095 60:0.53286558 61:0.56695938 62:0.25292423 63:0.74570704 64:0.57573593 65:0.69998676 
3.141327422868257 1:0.56139189 2:0.47961554 3:0.49981907 4:0.32936156 5:0.42896703 6:0.95587707 7:0.42087889 8:0.19205296 9:0.3078571 10:0.38054588 11:0.58324677 12:0.46623436 13:0.40997574 14:0.25701213 15:0.51429898 16:0.43919727 17:0.47472352 18:0.34824169 19:0.45252585 20:0.58983088 21:0.31740198 22:0.49005583 23:0.23415662 24:0.47836155 25:0.27202877 26:0.73029763 27:0.5342024 28:0.61197203 29:0.29176533 30:0.70452619 31:0.4489308 32:0.22756186 33:0.32918301 34:0.8233791 35:0.21387267 36:0.19793423 37:0.64731145 38:0.59954488 39:0.37052664 40:0.65754092 41:0.48912719 42:0.55425346 43:0.43556395 44:0.18347825 45:0.65279925 46:0.70916605 47:0.53423733 48:0.40871817 49:0.5603056 50:0.26896265 51:0.47479457 52:0.27809504 53:0.72339386 54:0.002865372 55:0.68927217 56:0.35730049 57:0.66556054 58:0.51912117 59:0.34838632 60:0.44531301 61:0.45424291 62:0.39130035 63:0.62833297 64:0.58044064 65:0.81576478 
-1.458604474414674 1:0.61319023 2:0.7868163 3:0.55586326 4:0 5:0.44235992 6:0.33306882 7:0.1201076 8:0.51132089 9:0.50293058 10:0.38760507 11:0.74684268 12:0.59621525 13:0.22126719 14:0.59619403 15:0.81049258 16:0.5708335 17:0.31125304 18:0.47366896 19:0.43344158 20:0.76282144 21:0.35102618 22:0.5475322 23:0.26675814 24:0.92235321 25:0.44546771 26:0.45196483 27:0.46090043 28:0.5371154 29:0.14138661 30:1 31:0.64333498 32:0.34782678 33:0.66908753 34:0.63666928 35:0.68458015 36:0.54459584 37:0.41856751 38:0.43574032 39:0.53368795 40:0.64614111 41:0.51165617 42:0.51265877 43:0.30125913 44:0.45309222 45:0.75291216 46:0.79104686 47:0.54629618 48:0.48395434 49:0.76362836 50:0.60075998 51:0.41350737 52:0.31799144 53:0.64008886 54:0.18023649 55:0.28034264 56:0.41143849 57:0.72549736 58:0.58229095 59:0.68894851 60:0.61139512 61:0.26775905 62:0.38364419 63:0.62348169 64:0.66038662 65:0.28194422 
-1.706080119990954 1:0.56722879 2:0.25143272 3:0.40772584 4:0.91369998 5:0.62216467 6:0.28642541 7:0.60330427 8:0.54900759 9:0.26264054 10:0.39515334 11:0.33588079 12:0.4432174 13:0.21653637 14:0.5730412 15:0.23877352 16:0.22932824 17:0.6797297 18:0.48133203 19:0.49910885 20:0.59958684 21:0.40139693 22:0.46175551 23:0.68020606 24:0.27165934 25:0.65221518 26:0.57786 27:0.4854925 28:0.64693552 29:0.7412318 30:0.7611537 31:0.58873731 32:0.020650432 33:0.40922576 34:0.50121647 35:0.67745608 36:0.73705411 37:0.47874916 38:0.47830749 39:0.59562773 40:0.52249467 41:0.19391035 42:0.43476713 43:0.50507975 44:0.32920271 45:0.60625541 46:0.73469132 47:0.68089449 48:0.66713941 49:0.068414882 50:0.36471301 51:0.10768528 52:0.77760488 53:0.61777103 54:0.3536343 55:0.33528793 56:0.55681264 57:0.53682691 58:0.60414004 59:0.64599544 60:0.60282248 61:0.73869008 62:0.33746576 63:0.59869123 64:0.74226946 65:0.18179311 
-1.421186345453084 1:0.65994799 2:0.32824701 3:0.74229789 4:0.54423648 5:0.52991569 6:0.41882557 7:0.0084332488 8:0.71363175 9:0.3469995 10:0.62151867 11:0.62654811 12:0.25330803 13:0.79015797 14:0.25815034 15:0.070185915 16:0.5028438 17:0.38225228 18:0.80932266 19:0.51320583 20:0.56603426 21:0.47095928 22:0.7660715 23:0.4079572 24:0.36431646 25:0.43666565 26:0.8212778 27:0.46885952 28:1 29:0.28374499 30:0.85448259 31:0.27234837 32:0.52245963 33:0.53502393 34:0.64333922 35:0.7210843 36:0.37763819 37:0.92141467 38:0.55299819 39:0.78053838 40:0.56350815 41:0.70460242 42:0.45959967 43:0.50758982 44:0.56335473 45:0.45363259 46:0.6109488 47:0.32815468 48:0.49377474 49:0.39169443 50:0.31866643 51:0.50839317 52:0.53479427 53:0.73206186 54:0.29035699 55:0.45055637 56:0.32853737 57:0.63989264 58:0.18737221 59:0.2936846 60:0.33718312 61:0.66655326 62:0.94635576 63:0.81471384 64:0.43684712 65:0.54315662 
-1.387873719598717 1:0.53497821 2:0.46849924 3:0.41418254 4:0.51029783 5:0.20897393 6:0.52274591 7:0.58306754 8:0.31711882 9:0.5963701 10:0.16316751 11:0.28296816 12:0.66100305 13:0.55295157 14:0.60032612 15:0.50601375 16:0.65880996 17:0.63152474 18:0.37222326 19:0.3065649 20:0.56885165 21:0.27210632 22:0.29908487 23:0.46337235 24:0.35611844 25:0.53403884 26:0.34463325 27:0.31426635 28:0.42343026 29:0.29935482 30:0.48925981 31:0.75406116 32:0.30167124 33:0.40563849 34:0.49695459 35:0.56485158 36:0.50996703 37:0.41565651 38:0.16251989 39:0.70125365 40:0.61480397 41:0.35126859 42:0.20818204 43:0.51951712 44:0.17268458 45:0.67214841 46:0.49866053 47:0.1630317 48:0.11728507 49:0.57268178 50:0.26954451 51:0.65030766 52:0.46354488 53:0.56865978 54:0.22573736 55:0.27796012 56:0.40538594 57:0.83594078 58:0.64094871 59:0.44936481 60:0.52207839 61:0.75126678 62:0.35266894 63:0.58277655 64:0.44415104 65:0.24884598 
-4.17312628733635 1:0.62293303 2:0.3081356 3:0.43259045 4:0.28961226 5:0.53986663 6:0.52634877 7:0.26742375 8:0.5780406 9:0.48177785 10:0.27127934 11:0.25802395 12:0.35883534 13:0.49758098 14:0.51769984 15:0.65538299 16:0.61185676 17:0.53787738 18:0.59192091 19:0.32161209 20:0.49565306 21:0.56237525 22:0.85145491 23:0.46319231 24:0.67474908 25:0.47728267 26:0.50565428 27:0.54681683 28:0.7380541 29:0.45991263 30:0.49631143 31:0.36640126 32:0.57564127 33:0.30983326 34:0.59223688 35:0.3827005 36:0.80204892 37:0.35897452 38:0.2684795 39:0.31607527 40:0.60348278 41:0.45214149 42:0.40171561 43:0.64594388 44:0.61047995 45:0.44765511 46:0.49885926 47:0.38153765 48:0.53555495 49:0.13726385 50:0.36026657 51:0.80960429 52:0.36503419 53:0.61132878 54:0.25221819 55:0.32153019 56:0.26256904 57:0.86195332 58:0.40031475 59:0.28012225 60:0.46619761 61:0.6573658 62:0.3356289 63:0.33169523 64:0.46120685 65:0.22097214 
-9.161471001164212 1:0.41018125 2:0.39112541 3:0.75024819 4:0.55967599 5:0.51393175 6:0.50546807 7:0.16210192 8:0.66206807 9:0.43904456 10:0.31506926 11:0.28760079 12:0.42289951 13:0.37132865 14:0.54516864 15:0.45724788 16:0.29381773 17:0.60841352 18:0.34292719 19:0.58876079 20:0.5596844 21:0.65306526 22:0.54737723 23:0.89805841 24:0.37303776 25:0.56564701 26:0.66062403 27:0.57722169 28:0.54027539 29:0.36698571 30:0.6445052 31:0.58422613 32:0.61476171 33:0.6798721 34:0.25144151 35:0.45336321 36:0.85806626 37:0.6263333 38:0.6033482 39:0.34398183 40:0.21673651 41:0.30062681 42:0.33707699 43:0.28877929 44:0.74494076 45:0.43991834 46:0.54765463 47:0.54648852 48:0.22420713 49:0.29516685 50:0.21605596 51:0.81413835 52:0.12972048 53:0.61492139 54:0.21678609 55:0.62914312 56:0.55177194 57:0.88449949 58:0.69086599 59:0.44499534 60:0.45291051 61:0.67462218 62:0.36666924 63:0.59500462 64:0.53051579 65:0.33592078 
-1.222117652325806 1:0.45383766 2:0.59375322 3:0.18561071 4:0.30869573 5:0.43215641 6:0.40425372 7:0.57736081 8:0.56917024 9:0.59811854 10:0.6331017 11:0.36112532 12:0.57571405 13:0.49603856 14:0.22786984 15:0.43398327 16:0.461882 17:0.68146682 18:0.53474224 19:0.34352699 20:0.080140986 21:0.40659556 22:0.5366528 23:0.67472863 24:0.36555082 25:0.31100649 26:0.047306072 27:0.33299243 28:0.62383473 29:0.65721166 30:0.6260429 31:0.632846 32:0.39258847 33:0.67391419 34:0.6204589 35:0.74240828 36:0.30525538 37:0.76316077 38:0.63619745 39:0.40915629 40:0.37876412 41:0.37257034 42:0.41144061 43:0.42147681 44:0.67789197 45:0.22299829 46:0.77410984 47:0.7492668 48:0.31512159 49:0.11058607 50:0.90881723 51:0.65785974 52:0.18520455 53:0.35043049 54:0.4051314 55:0.42809731 56:0.39018166 57:0.63523608 58:0.65410715 59:0.54338449 60:0.86686051 61:0.55111289 62:0.57056558 63:0.73339409 64:0.46840715 65:0.34730002 
-0.2756997484933504 1:0.54249531 2:0.58916765 3:0.42872736 4:0.30937928 5:0.46765968 6:0.2837536 7:0.47731194 8:0.41838732 9:0.36266366 10:0.48516381 11:0.27481791 12:0.70009559 13:0.43250319 14:0.30978575 15:0.35749882 16:0.71199542 17:0.60945892 18:0.42950234 19:0.49523836 20:0.45384967 21:0.36319542 22:0.39429671 23:0.76127416 24:0.51413059 25:0.27090862 26:0.067223936 27:0.49587736 28:0.55133694 29:0.51727951 30:0.65612048 31:0.2417568 32:0.47531274 33:0.46836835 34:0.62628013 35:0.59349549 36:0.46491164 37:0.70746088 38:0.72549891 39:0.27236363 40:0.23654152 41:0.56258953 42:0.30692008 43:0.43759641 44:0.58783692 45:0.41006926 46:0.74348658 47:0.84566838 48:0.18120073 49:0.080158941 50:0.80632579 51:0.58602631 52:0.010094726 53:0.40907672 54:0.53482431 55:0.55008954 56:0.33747655 57:0.54327178 58:0.73492342 59:0.43024713 60:0.76820517 61:0.4320457 62:0.53380877 63:0.62341219 64:0.42860481 65:0.33122897 
-3.418580888900474 1:0.3778936 2:0.79113185 3:0.64930254 4:0.54090661 5:0.47724062 6:0.55627674 7:0.38739881 8:0.437792 9:0.58614826 10:0.57437176 11:0.4498719 12:0.30546519 13:0.54316473 14:0.55943483 15:0.37496275 16:0.39897725 17:0.47704139 18:0.60528779 19:0.41254348 20:0.46924838 21:0.75688332 22:0.64298254 23:0.72856349 24:0.28326899 25:0.35449713 26:0.51421195 27:0.37897566 28:0.49332839 29:0.41488767 30:0.31029207 31:0.43864751 32:0.58747703 33:0.51549047 34:0.33850107 35:0.9385168 36:0.64164013 37:0.29190829 38:0.42901838 39:0.76364499 40:0.59520185 41:0.25965217 42:0.39862502 43:0.45504266 44:0.20402484 45:0.33607379 46:0.3449837 47:0.47857207 48:0.35728553 49:0.67261201 50:0.49172783 51:0.54562992 52:0.49867326 53:0.54171848 54:0.34218976 55:0.25109997 56:0.27358624 57:0.88693994 58:0.67497718 59:0.34048274 60:0.48211321 61:0.72188872 62:0.33603579 63:0.57916659 64:0.49852875 65:0.18984519 
-3.076523614730869 1:0.5961805 2:0.81317514 3:0.51820487 4:0.52219725 5:0.14300899 6:0.50988972 7:0.033724695 8:0.51122546 9:0.44011047 10:0.33419323 11:0.60751486 12:0.49077418 13:0.55788714 14:0.58192551 15:0.41746324 16:0.2859019 17:0.46099889 18:0.43442881 19:0.2244975 20:0.19164668 21:0.48619652 22:0.56953329 23:0.52731162 24:0.18910238 25:0.17123766 26:0.30928105 27:0.35217059 28:0.48249921 29:0.50645369 30:0.58854824 31:0.44115686 32:0.50002235 33:0.67902827 34:0.30647063 35:0.50776529 36:0.62703669 37:0.28668854 38:0.44255459 39:0.58624458 40:0.40887496 41:0.36865202 42:0.53404522 43:0.33134216 44:0.33039916 45:0.47397289 46:0.31917828 47:0.3203181 48:0.52549273 49:0.64359081 50:0.52556467 51:0.69878411 52:0.43267328 53:0.55010313 54:0.33116224 55:0.29775044 56:0.37123629 57:0.8693248 58:0.62348843 59:0.368442 60:0.53979594 61:0.70842707 62:0.34501573 63:0.64570624 64:0.53141993 65:0.22644798 
-6.110506316232307 1:0.54852569 2:0.58386177 3:0.4138763 4:0.65690458 5:0.6068517 6:0.70405185 7:0.12703611 8:0.70581961 9:0.71751559 10:0.41021097 11:0.7683323 12:0.6599344 13:0.36658898 14:1 15:0.49419522 16:0.62628388 17:0.57656538 18:0.75515175 19:0.59724349 20:0.37617669 21:0.38065323 22:0.5040766 23:0.13426435 24:0.4507944 25:0.69881243 26:0.7420187 27:0.4140577 28:0.49482638 29:0.73889184 30:0.44326183 31:0.64776802 32:0.045260854 33:0.65363896 34:0.52359444 35:0.55461115 36:0.5819211 37:0.60793287 38:0.430338 39:0.77279514 40:0.51455283 41:0.054408628 42:0.60468537 43:0.43996438 44:0.43273875 45:0.50322521 46:0.63143331 47:0.86405402 48:0.45642537 49:0.49479401 50:0.44342145 51:0.41066843 52:0.15083794 53:0.67104316 54:0.02617738 55:0.15290445 56:0.25152549 57:0.4144201 58:0.66264486 59:0.35667682 60:0.39004937 61:0.31459188 62:0.38811737 63:0.72098088 64:0.56627518 65:0.26809895 
-1.847617513519565 1:0.70044583 2:0.88451385 3:0.56001914 4:0.61594647 5:0.49925593 6:0.41576871 7:0.58992416 8:0.60089111 9:0.42790952 10:0.4507232 11:0.45362073 12:0.58169317 13:0.50882024 14:0.31032762 15:0.79639465 16:0.42928493 17:0.48150426 18:0.69111753 19:0.5025143 20:0.49906009 21:0.37189394 22:0.52728671 23:0.40424892 24:0.23286429 25:0.40047505 26:0.66295177 27:0.51489002 28:0.35953438 29:0.69727057 30:0.42902747 31:0.60866565 32:0.30469403 33:0.156201 34:0.63543361 35:0.60423493 36:0.48028573 37:0.40366134 38:0.42934 39:0.042281501 40:0.57791108 41:0.40853277 42:0.54067975 43:0.73878807 44:0.40550759 45:0.46987712 46:0.59428334 47:0.4405705 48:0.69284695 49:0.02199512 50:0.5574308 51:0.2520802 52:0.9210937 53:0.37196445 54:0.35549375 55:0.28904521 56:0.23941763 57:0.4153156 58:0.44561452 59:0.66264015 60:0.52589399 61:0.71093035 62:0.37205613 63:0.70104665 64:0.72069663 65:0.23196581 
-1.482377583171911 1:0.6263032 2:0.79371613 3:0.65057319 4:0.49305412 5:0.64736992 6:0.35620049 7:0.37711954 8:0.51736885 9:0.57668626 10:0.50772285 11:0.31900555 12:0.64554566 13:0.27679196 14:0.53044206 15:0.63346756 16:0.56935078 17:0.55486435 18:0.45790893 19:0.45955124 20:0.86947322 21:0.49544784 22:0.40785122 23:0.31264192 24:0.32856005 25:0.4877663 26:0.30311313 27:0.34858376 28:0.5111652 29:0.55269831 30:0.48392102 31:0.39934468 32:0.6597684 33:0.48249692 34:0.4741779 35:0.4287158 36:0.1785191 37:0.31032729 38:0.43689948 39:0.53124034 40:0.53703207 41:0.40127295 42:0.56092632 43:0.63321155 44:0.41441596 45:0.46905151 46:0.6494472 47:0.46408987 48:0.63563949 49:0.30402219 50:0.59434658 51:0.28064746 52:0.68217814 53:0.67985588 54:0.36756939 55:0.56287974 56:0.13417724 57:0.43926662 58:0.4393692 59:0.4139238 60:0.45890558 61:0.61847448 62:0.24837805 63:0.61807376 64:0.63024151 65:0.11986835 
-3.027514725689038 1:0.6150859 2:0.66557389 3:0.22060831 4:0.7198751 5:0.25314948 6:0.61123306 7:0.4790304 8:0.54023641 9:0.63296837 10:0.20637546 11:0.28380257 12:0.34562224 13:0.53656787 14:0.57046866 15:0.63640285 16:0.44531545 17:0.56723398 18:0.68611729 19:0.38824689 20:0.51693869 21:0.34209132 22:0.51791966 23:0 24:0.25572771 25:0.55628395 26:0.77044302 27:0.73241109 28:0.16552854 29:0.4996326 30:0.39943212 31:0.33126572 32:0.47343025 33:0.65496367 34:0.67887205 35:0.50221288 36:0.4222225 37:0.46269125 38:0.4012174 39:0.58209151 40:0.65997297 41:0.50234759 42:0.64085269 43:0.048629362 44:0.60759604 45:0.38106242 46:0.43491954 47:0.7536062 48:0.34572247 49:0.38910398 50:0.31528568 51:0.66123652 52:0.67227334 53:0.45457578 54:0.33172828 55:0.61635321 56:0.35713482 57:0.77223039 58:0.54425788 59:0.48927963 60:0.33810231 61:0.38829672 62:0.34187034 63:0.67884392 64:0.64316285 65:0.12759265 
-5.784152571985976 1:0.4896847 2:0.54111981 3:0.45072463 4:0.30905962 5:0.86298084 6:0.71100289 7:0.26864368 8:0.41432336 9:0.43996957 10:0.39396173 11:0.64860839 12:0.28974795 13:0.41980878 14:0.37009504 15:0.50682104 16:0.54124194 17:0.65479422 18:0.71652579 19:0.5839442 20:0.47417912 21:0.16564451 22:0.6415571 23:0.53344369 24:0.51051766 25:0.50642353 26:0.66211843 27:0.425816 28:0.38949141 29:0.37052301 30:0.66515905 31:0.49079251 32:0.75592905 33:0.33797297 34:0.35081223 35:0.23613152 36:0.50104958 37:0.72140294 38:0.52264798 39:0.73779625 40:0.32382149 41:0.49350438 42:0.54855651 43:0.47384185 44:0.4083142 45:0.45710212 46:0.59316546 47:0.70976704 48:0.71505249 49:0.27972004 50:0.39927152 51:0.51703906 52:0.48156545 53:0.34710512 54:0.32520232 55:0.47531885 56:0.1957552 57:0.55759728 58:0.65602189 59:0.55553228 60:0.44637111 61:0.51196015 62:0.32216677 63:0.72683316 64:0.67809016 65:0.14015456 
-10 1:0.37287912 2:0.31215474 3:0.21280853 4:0.36263424 5:0.41381285 6:0.52282012 7:0.75239271 8:0.44762814 9:0.37845799 10:0.39765584 11:0.29887566 12:0.30387235 13:0.63053203 14:0.69423044 15:0.31883484 16:0.50689334 17:0.77077574 18:0.67623568 19:0.46933377 20:0.60432535 21:0.53831863 22:0.66467917 23:0.25909683 24:0.61024714 25:0.61922365 26:0.47555161 27:0.40921408 28:0.22454596 29:0.39901987 30:0.73821658 31:0.35039157 32:0.18068942 33:0.52495646 34:0.2177486 35:0.7382673 36:0.51047212 37:0.62424541 38:0.50368893 39:0.28270805 40:0.21135138 41:0.63893241 42:0.30396321 43:0.52203274 44:0.60641509 45:0.4377175 46:0.71324629 47:0.55626452 48:0.18159245 49:0.58592463 50:0.4354504 51:0.54328299 52:0.74121761 53:0.45476627 54:0.37776068 55:0.63071966 56:0.17601708 57:0.59174079 58:0.5936178 59:0.44776887 60:0.2799035 61:0.18422061 62:0.27514085 63:0.67937493 64:0.71105695 65:0.6564461 
-10 1:0.66837895 2:0.6327973 3:0.42409706 4:0.45082375 5:0.542979 6:0.45646605 7:0.66960996 8:0.65044123 9:0.58696473 10:0.53270674 11:0.61150426 12:0.57661879 13:0.60032362 14:0.51802176 15:0.36631617 16:0.56907648 17:0.47036019 18:0.79264241 19:0.38514659 20:0.24850197 21:0.46375582 22:0.5700354 23:0.47458923 24:0.2443189 25:0.57868516 26:0.10085041 27:0.68482989 28:0.56760073 29:0.068975933 30:0.68554217 31:0.76341605 32:0.17083283 33:0.57489163 34:0.64581418 35:0.49298093 36:0.43778002 37:0.55169916 38:0.76390266 39:0.66543448 40:0.2541351 41:0.077653557 42:0.51001865 43:0.53491801 44:0.36671451 45:0.51705152 46:0.59249121 47:0.6948328 48:0.43482247 49:0.28040332 50:0.43343791 51:0.40396672 52:0.85195875 53:0.17976603 54:0.34820539 55:0.72177166 56:0.47239929 57:0.81643921 58:0.47811583 59:0.22674181 60:0.075197741 61:0.73055965 62:0.27443326 63:0.50082576 64:0.71766448 65:0.67679447 
-2.866118627834067 1:0.54768294 2:0.4822422 3:0.17684673 4:0.28509921 5:0.4869889 6:0.37067714 7:0.30835149 8:0.68691283 9:0.40640691 10:0.60173887 11:0.5367949 12:0.5371297 13:0.44712389 14:0.56551945 15:0.6727618 16:0.72283715 17:0.65993726 18:0.61460972 19:0.55950898 20:0.20871097 21:0.4339242 22:0.41453284 23:0.47691205 24:0.27653405 25:0.12363827 26:0.62332588 27:0.35877085 28:0.56489182 29:0.56029892 30:0.3759236 31:0.43508965 32:0.25574616 33:0.46867621 34:0.51997703 35:0.65258437 36:0.44340494 37:0.41278383 38:0.41240156 39:0.8965255 40:0.38828915 41:0.73890585 42:0.27252042 43:0.45290911 44:0.61974162 45:0.48264492 46:0.64679819 47:0.73429918 48:0.41482878 49:0.38549656 50:0.73913658 51:1 52:0.17116046 53:0.52499008 54:0.27741078 55:0.54116517 56:0.40803987 57:0.64628607 58:0.431609 59:0.42605439 60:0.56051219 61:0.42405626 62:0.36303526 63:0.63227558 64:0.5946669 65:0.18504569 
-10 1:0.50462675 2:0.39488995 3:0.40896133 4:0.66403228 5:0.36669403 6:0.60657042 7:0.46192014 8:0.39783633 9:0.56554914 10:0.56133217 11:0.53132278 12:0.40681994 13:0.42355067 14:0.55448705 15:0.56259996 16:0.36048308 17:0.13757122 18:0.1984732 19:0.31633595 20:0.50203967 21:0.37207067 22:0.5090614 23:0.5896017 24:0.28064489 25:0.50875813 26:0.43975842 27:0.3943218 28:0.54671866 29:0.21846823 30:0.41577464 31:0.56905675 32:0.59703749 33:0.50530982 34:0.67917091 35:0.45765144 36:0.25691369 37:0.65506375 38:0.56832165 39:0.36296242 40:0.27279866 41:0.42155024 42:0.38759989 43:0.37584528 44:0.68122536 45:0.64740509 46:0.67208713 47:0.77339381 48:0.58549029 49:0.37121245 50:0.32990253 51:0.047660951 52:0.32346296 53:0.45698735 54:0.40993115 55:0.49430382 56:0.14598501 57:0.76682454 58:0.55315763 59:0.60656905 60:0.80665749 61:0.85055524 62:0.54528809 63:0.66341931 64:0.32303154 65:0.56105667 
