svm_type c_svc
kernel_type rbf
gamma 0.09
nr_class 2
total_sv 46
rho -0.509339
label 130190101 130190102
probA -4.4982
probB -0.0676419
nr_sv 24 22
SV
3.650853875275943 1:0.46012825 2:0.73656708 3:0.39339653 4:0.57236475 5:0.58298367 6:0.48733056 7:0.53229487 8:0.31886095 9:0.3147566 10:0.26933172 11:0.10908812 12:0.47821167 13:0 14:0.45368022 15:0.40418392 16:0.20926912 17:0.64472556 18:0.16042182 19:0.56714863 20:0.34637129 21:0.48018491 22:0.56723642 23:0.74846053 24:0.46918857 25:0.48227778 26:0.56557274 27:0.36817583 28:0.53284711 29:0.56210643 30:0.53817827 31:0.21178286 32:0.32237002 33:0.40559569 34:0.30095065 35:0.490964 36:0.20721842 
0.6045552936140989 1:0.23901656 2:0.14307265 3:0.69072449 4:0.40880537 5:0.44654065 6:0.41092598 7:0.29096666 8:0.40070781 9:0.56913984 10:0.36029068 11:0 12:0.5756833 13:0.74606669 14:0.71437079 15:0.66315776 16:0.26540941 17:0.34140491 18:0.29783362 19:0.48091224 20:0.24783269 21:0.94213468 22:0.88118583 23:0.64380974 24:0.45816454 25:0.77423072 26:0.74776453 27:0.23691584 28:0.7443198 29:0.58652842 30:0.53765815 31:1 32:0.34826529 33:0.86368996 34:0.42300311 35:0.34623116 36:0.32085383 
3.994219486436851 1:0.21851662 2:0.69587302 3:0.43247581 4:0.33761606 5:0.62142122 6:0.81359982 7:0.80907023 8:0.72009486 9:0.57736218 10:0.51544207 11:0.46882179 12:0.86865652 13:0.47408441 14:0.21233782 15:0.65129048 16:0.38655281 17:0.93970954 18:0.48120588 19:0.54028791 20:0.5325188 21:0.73246717 22:0.72708851 23:1 24:0.66262579 25:0.077933654 26:0.33409491 27:0.6061666 28:0.57396579 29:0.26320678 30:0.75977874 31:0.47091511 32:0.57111549 33:0.74681497 34:0.9020732 35:0.78697371 36:0.78787076 
4.98845877090149 1:0.61036503 2:0.11981043 3:0.22481629 4:0.34598541 5:0.18275739 6:0.13298604 7:0.3055377 8:0.76770008 9:0.86338216 10:0.23439023 11:0.28093669 12:0.19852696 13:0.33350679 14:0.49330524 15:0.5213781 16:0.58201987 17:0.61164361 18:0.17128985 19:0.47901511 20:0.33939028 21:0.60894209 22:0.94737929 23:0.79309773 24:0.3907598 25:0.177983 26:0.62067938 27:0.56337702 28:0.73392838 29:0.32675558 30:0.53297687 31:0.36459523 32:0.66154134 33:0.51809007 34:0.40407848 35:0.35210866 36:0.7724939 
1.165900936260333 1:0.40534636 2:0.10921092 3:0.45732054 4:0.92868692 5:0.75717175 6:0.62691379 7:1.9557011e-16 8:0.7280063 9:0.29822624 10:0.90503061 11:0.23368903 12:0.84674346 13:0.11921162 14:0 15:0.68039179 16:0.44699594 17:0.54700989 18:0.54695976 19:0.64796114 20:0.40408143 21:0.59394878 22:0.83763021 23:0.80291373 24:0.46175599 25:0.36040518 26:0.69288468 27:0.52367967 28:0.72820282 29:0.45231217 30:0.6290319 31:0.46539906 32:0.63278252 33:0.5232811 34:0.72642809 35:0.85122538 36:0.71659476 
5.506158839199194 1:0.46418694 2:0.93876213 3:1 4:0.60216492 5:0.46660104 6:0.96155798 7:0.68720859 8:0.72564042 9:0.71136278 10:0.25404236 11:0.33199826 12:0.29010683 13:0.45748872 14:0.26536444 15:0.77010542 16:0.48578379 17:0.70831418 18:0.50033188 19:0.35827541 20:0.20600171 21:0.53042477 22:0.61419898 23:0.24304593 24:0.62154055 25:0.58650082 26:0.64747536 27:0.43011135 28:0.72646642 29:0.53627384 30:0.39757705 31:0.45128959 32:0.53168154 33:0.59945577 34:0.61263037 35:0.73510063 36:0.11662491 
1.798072672535212 1:0.66862941 2:0.28889862 3:0.6076709 4:0.61112535 5:0.422479 6:0.6521185 7:0.5098629 8:0.62874734 9:0.39881685 10:0.36728665 11:0.30378288 12:0.43212697 13:0.21284057 14:0.60568917 15:0.5829035 16:0.68496883 17:0.69419074 18:0.64908981 19:0.38996288 20:0.38488212 21:0.4696399 22:7.9578395e-17 23:0.70740825 24:0.52177429 25:0.79015142 26:0 27:0.683065 28:0.19813123 29:0.80838692 30:0 31:0.56177431 32:0.17361192 33:0.8231231 34:0.18809779 35:0.32170928 36:0.20296083 
7.043036545411187 1:0.28129539 2:0.40423864 3:0.2219494 4:0.94055408 5:0.54072565 6:0.46087968 7:0.45302236 8:0.61299455 9:0.53819215 10:0.34954861 11:0.86581957 12:0.072764628 13:0.51087964 14:0.56255323 15:0.29449984 16:0.20106381 17:0.82207847 18:0.42203927 19:0.63869858 20:0.17384101 21:0.78625149 22:0.84196001 23:0.6838361 24:0.63768876 25:0.83387107 26:0.63283956 27:0.63746578 28:0.95461231 29:0.48075759 30:0.37042907 31:0.48981702 32:0.75614548 33:0.51813126 34:0.39281964 35:0.63287097 36:1.0655721e-15 
7.288159441857599 1:0.19662677 2:0.3582474 3:0.6737861 4:0.47980037 5:0.53787827 6:0.42199731 7:0.3227163 8:0.56231815 9:0.20081751 10:0.51559055 11:0.51631778 12:0.72815454 13:0.33017248 14:0.76387179 15:0 16:1 17:0.38439339 18:0.54986805 19:1 20:0.50688994 21:0.66415596 22:0.73987937 23:0.36519772 24:0.47469172 25:0.32944596 26:0.56068987 27:0.83281422 28:0.74204904 29:0.56135082 30:0.54378074 31:0.44738591 32:0.73400313 33:0.44001737 34:0.32536277 35:0.58685029 36:0.15664648 
1.318516886891301 1:0.31564173 2:0.61340731 3:0.56784874 4:0.56836355 5:0.45976585 6:0.383993 7:0.74531108 8:0.27941856 9:0.5415557 10:0.42211598 11:1 12:0.53537083 13:0.54648864 14:0.19919217 15:0.49455148 16:0.68728697 17:0.42200285 18:0.26000679 19:0.7047084 20:0.84152073 21:0.37225404 22:0.60287046 23:0.43769845 24:0.49073794 25:0.53546059 26:0.55924308 27:0.42766285 28:0.41651773 29:0.50614625 30:0.76807547 31:0.76630658 32:0.6616227 33:0.86155742 34:0.50190747 35:0.5717141 36:0.12574258 
10 1:0.65174544 2:0.26831734 3:0.62058342 4:0.45085272 5:0.44272441 6:0.59187299 7:0.3703824 8:0.78819442 9:0.49972209 10:0.41599858 11:0.19436625 12:1 13:0.46485201 14:0.047869701 15:0.4670032 16:0.44179061 17:0.72391844 18:0.24011472 19:0.44963068 20:0.16950105 21:0.67400599 22:0.66024774 23:0.39724416 24:0.3993625 25:0.69337124 26:0.83546722 27:0.4755162 28:0.7140137 29:0.53879738 30:0.64982033 31:0.21601923 32:0.40022185 33:0.21969609 34:0.30328965 35:0.54075736 36:0.14192891 
0.2185471883984052 1:0.52115083 2:0.56340241 3:0.68763703 4:0.38002345 5:0.62413317 6:0.64876121 7:0.24382386 8:0.52793407 9:0.49439245 10:0.71639204 11:0.24563767 12:0.28940767 13:0.2970745 14:0.735219 15:0.51963174 16:0.62334895 17:0.33389741 18:0.27396482 19:0.51552212 20:0.22796912 21:0.60535914 22:0.74290252 23:0.79724991 24:0.62822139 25:0.77527982 26:0.68763489 27:0.44135845 28:0.38641828 29:0.50086904 30:0.41745538 31:0.24719976 32:1 33:0.49322608 34:0.39514154 35:0.51538378 36:0.81570554 
0.5793341107239023 1:0.18017776 2:0.48765242 3:0.79303902 4:0.2327282 5:0.37983689 6:0.5246228 7:0.083002098 8:0.23936667 9:1 10:0.52306837 11:0.69461221 12:0.32637274 13:0.33579957 14:0.19074138 15:0.48263344 16:0.66123897 17:0.39294419 18:0.055626683 19:0.84488678 20:0.039777871 21:0.67768162 22:0.62032771 23:0.67293113 24:0.37215003 25:0.69934893 26:0.76481783 27:0.48233899 28:0.62584913 29:0.53740078 30:0.40791282 31:0.619528 32:0.39117864 33:0.28863195 34:0.47341964 35:0.48476037 36:0.9149881 
1.560707192738987 1:0.17673188 2:0.53601617 3:0.41473642 4:0.54282033 5:0.38972768 6:0.46234155 7:0.24753973 8:0.5592671 9:1.3853593e-15 10:0.57204157 11:0.40992066 12:0.41970026 13:0.21871783 14:0.078856952 15:0.71193725 16:0.32242224 17:0.78856122 18:0.45542732 19:0.53202605 20:0.61687386 21:0.75157756 22:0.94959497 23:0.31358117 24:0.44866043 25:0.32446423 26:0.79443079 27:0.59955394 28:0.23539683 29:0.42544511 30:0.28274783 31:0.61955905 32:0.38008848 33:0.30567586 34:0.2745555 35:0.29952222 36:0.88722742 
3.592039790636487 1:0.83639938 2:1 3:0.28755912 4:0.75329757 5:0.78670293 6:0.68104833 7:0.60127801 8:0.81591648 9:0.45657474 10:0.51018602 11:0.3055836 12:0.72949523 13:0.18381765 14:0.73669434 15:0.56584263 16:0.63439649 17:0.41789725 18:0.39827418 19:0.55720019 20:0.38746932 21:0.74383271 22:0.78966254 23:0.80774111 24:0.45966378 25:0.46805394 26:0.90850443 27:0.27468354 28:0.80218947 29:0.63717246 30:0.31130585 31:0.93283409 32:0.57596207 33:0.48474199 34:0.18391207 35:0.42684495 36:0.79183632 
0.4847852476605665 1:0.13998163 2:0.78855735 3:0.33589509 4:0.91360968 5:0.20570426 6:0.53625709 7:0.54355782 8:0 9:0.4758971 10:0.47572991 11:0.30485541 12:0.48804659 13:0.37302852 14:0.53227174 15:0.71592379 16:0.49871734 17:0.52211112 18:1 19:0.43115029 20:0.099281736 21:0.3235946 22:0.94535482 23:0.57053113 24:0.59889805 25:0.46432889 26:0.637501 27:0.43716225 28:0.5556913 29:0.35448784 30:0.42514244 31:0.32046959 32:0.55370009 33:0.62017721 34:0.14741954 35:0.26979867 36:0.78178984 
10 1:1.8015623e-16 2:0.59720087 3:0.36017543 4:0.69321018 5:0.66447419 6:0.70767462 7:0.59670609 8:0.47854584 9:0.49716836 10:0.4596068 11:0.22685321 12:0.42608085 13:0.52291477 14:0.5131225 15:0.60508615 16:0.47920066 17:0.71667892 18:0.4591586 19:0.46427542 20:0.3671003 21:0.837062 22:0.80013162 23:0.6328631 24:0.47374776 25:0.97678483 26:0.73168248 27:0.21582875 28:0.54086047 29:0.55582952 30:0.6473825 31:0.42761204 32:0.48661149 33:0.62774926 34:0.23727842 35:0.31717408 36:0.79056269 
2.678203373553478 1:0.65019715 2:0.43995178 3:0.63175315 4:0.68597972 5:0.58439058 6:0.78709805 7:0.11363193 8:0.47322792 9:0.14979823 10:0.031332932 11:0.76532638 12:0.46856591 13:0.37073514 14:0.41521803 15:0.58647412 16:0.53732145 17:0.57839042 18:0.31970504 19:0.46193942 20:0.31764019 21:0.26205173 22:0.62930965 23:0.56772667 24:0.01143812 25:0.48735023 26:0.58063996 27:0.12132234 28:0.81019491 29:0.640508 30:0.32691023 31:0.2305136 32:0.69258261 33:0.90659219 34:0.45822921 35:0.38681284 36:0.62397128 
3.398057253445391 1:0.53713119 2:0.53331357 3:0.3324492 4:0.58626419 5:0.45573097 6:0.67752194 7:0.2044991 8:0.57757926 9:0.78217816 10:0.50495183 11:0.27011514 12:0.67485946 13:0.69970733 14:0.78614563 15:0.62916827 16:0.39797607 17:0.5168671 18:0.33866212 19:0.44187903 20:0.19782178 21:0.65541351 22:0.79005575 23:0.35366818 24:0.24696334 25:0.61917788 26:0.6044932 27:0.037023727 28:0.51216853 29:0.49986443 30:0.47030187 31:0.18697385 32:0.6416564 33:0.86806834 34:0.50433308 35:0.2265178 36:0.59993535 
6.332292285103959 1:0.28632936 2:0.7369023 3:0.17662124 4:0.40760559 5:0.4045819 6:0.2566281 7:0.39553669 8:0.59211165 9:0.32652465 10:0.35088843 11:0.55179256 12:0.42960295 13:0.19356862 14:0.66667712 15:0.71033895 16:0.64933127 17:0.30710316 18:0.61092091 19:0.52340925 20:0.37108183 21:0.63672251 22:0.24036315 23:0.21081954 24:0.48837933 25:0.45666593 26:0.89092189 27:0.535272 28:0.58499163 29:0.76972973 30:0.5414688 31:0.40893275 32:0.82775629 33:0.4533492 34:0.61697936 35:0.60961652 36:0.90102881 
3.19241474104282 1:0.62814742 2:0.4328106 3:0.74453151 4:0.09820731 5:0.67102498 6:0.41148111 7:0.27219993 8:0.77507055 9:0.59874356 10:0.55298066 11:0.46110603 12:0.47269377 13:0.67055398 14:0.34205601 15:0.53425819 16:0.473708 17:0.74729329 18:0.60214883 19:0.53560865 20:0.73045635 21:0.22666152 22:0.69639069 23:0.45489952 24:0.34472576 25:0.7792837 26:0.83342874 27:0.19979222 28:0.82719839 29:0.48939702 30:0.79500961 31:0.26912999 32:0.48867601 33:0.37018305 34:0.16881342 35:0.32633558 36:0.67689484 
2.536825554318467 1:0.37833408 2:0.74789017 3:0.37252697 4:0.51117414 5:0.65296555 6:0.35195786 7:0.30310333 8:0.76848513 9:0.41054505 10:0.20749587 11:0.55167079 12:0.47639644 13:0.74295908 14:0.17859687 15:0.60973763 16:0.45306695 17:0.45377928 18:0.35694686 19:0.42370662 20:0.46216798 21:0.67813802 22:0.5822891 23:0.46955037 24:0.49725893 25:0.84472179 26:0.56993872 27:0.43502039 28:0.19008511 29:0.41187495 30:0.57508898 31:0.51116973 32:0.68559206 33:0.33120605 34:0.78447902 35:0.65254754 36:0.76459092 
6.666068967367979 1:0.58192229 2:0.35169032 3:0.46680534 4:0.74041075 5:0.53304577 6:0.63500482 7:0.37954569 8:0.72032744 9:0.65661412 10:0.45440656 11:0.85625887 12:0.66225892 13:0.37673098 14:0.36406475 15:0.80207646 16:0.58905602 17:0.064335927 18:0.52459723 19:0.41826141 20:0.37759542 21:0.63767505 22:0.46649477 23:0.43985748 24:7.1194754e-17 25:0.4131957 26:0.52267057 27:0.10474814 28:0.35531351 29:0.39107776 30:0.51136965 31:0.54456872 32:0.15914948 33:0.50199622 34:0.53360128 35:0.54502106 36:0.66471022 
2.461216548407831 1:0.26106295 2:0.65451878 3:0.57851648 4:0.46535945 5:0.77779371 6:0.81504983 7:0.17122655 8:0.55449116 9:0.65903175 10:0.40972534 11:0.46131396 12:0.64173502 13:0.45892909 14:0.6473096 15:0.60012287 16:0.29552701 17:0.33511865 18:0.14371368 19:0.42099127 20:1 21:0.58653504 22:0.60462046 23:0.32617033 24:0.61482453 25:0.29101703 26:0.97261351 27:0.35719797 28:0.35453129 29:0.29752353 30:0.10454743 31:0.096156329 32:0.28006122 33:0.46459094 34:0.18275528 35:0.25572965 36:0.53270906 
-5.441379872375298 1:0.13808782 2:0.63000077 3:0.73451006 4:0.6628021 5:0.3901912 6:0.64612603 7:0.097766139 8:0.84788716 9:0.56822002 10:0.42674649 11:0.71607244 12:0.80135703 13:0.25051269 14:0.4747425 15:0.379996 16:0.34513122 17:1.7157675e-15 18:0.64068377 19:0.34900263 20:0.43456104 21:0.91575438 22:0.88294071 23:0.79947209 24:0.36675239 25:0.87684911 26:0.59941632 27:0.43557888 28:0.65617144 29:0.73651052 30:0.40379447 31:0.13765775 32:0.41620427 33:0.73818839 34:0.27374458 35:0.81430829 36:0.27714735 
-3.875112718577284 1:0.2067861 2:0.66774321 3:0.41562185 4:0.22923441 5:0.67165643 6:0.69800842 7:0.39819375 8:0.67221045 9:0.62711751 10:0.61400884 11:0.60818541 12:0.48998418 13:0.44721639 14:0.49914208 15:0.86772048 16:0.48160848 17:0.66938734 18:0.45633394 19:0.755041 20:0.27826938 21:0.51539171 22:0.58156359 23:0.82900941 24:0.30017808 25:0.50981838 26:0.83928782 27:0.52701437 28:0.52279979 29:0.60460377 30:0.43051279 31:1.0505574e-16 32:0.44672981 33:0.55294168 34:0.21293993 35:0.94192964 36:0.1681217 
-1.448310988111053 1:0.5459612 2:0.3840459 3:0 4:0.14396589 5:0.75699806 6:0.69985861 7:0.45668411 8:0.45305723 9:0.78861904 10:0.23223199 11:0.23917377 12:0.74528015 13:0.26841971 14:0.63532209 15:0.69051671 16:0.47678438 17:0.41137248 18:0.65976632 19:0.55298603 20:0.53189892 21:0.7210381 22:0.68984294 23:0.64870858 24:0.41921273 25:0.89979833 26:0.67331839 27:0.72587276 28:0.63472843 29:0.64921993 30:0.43014407 31:0.37704897 32:0.52153277 33:0.55338728 34:0.29323658 35:0.95591384 36:0.23385482 
-2.194378490002386 1:0.32570252 2:0.78264636 3:0.48798293 4:0.72128105 5:0.40019208 6:0.45043457 7:0.74905854 8:0.75735742 9:0.68895441 10:0.49842837 11:0.26459357 12:0.74638355 13:0.62714511 14:0.57403499 15:0.57733071 16:0.37360513 17:0.90616977 18:0.59555483 19:0.60138392 20:0.23676836 21:0.62765837 22:0.47930366 23:0.21383557 24:0.14563608 25:0.23743282 26:0.58568764 27:0.3299928 28:0.61865205 29:0.63661194 30:0.4768334 31:0.4027766 32:0.76249492 33:0.48095 34:0.30853802 35:0.9491964 36:0.20266986 
-7.113323359106658 1:0.3982704 2:0.78675205 3:0.5751003 4:0.75609189 5:0.44580212 6:0.36925223 7:0.40804359 8:0.63253075 9:0.786448 10:0.091079071 11:0.57619673 12:0.74995118 13:0.31411967 14:0.42826897 15:0.69392651 16:0.64470094 17:0.54382664 18:0.25058001 19:0.6070323 20:0.24069388 21:0.57044196 22:0.51559961 23:0.30211377 24:0.37050876 25:0.5422014 26:0.76473314 27:0.50521892 28:0.85296804 29:0.37334242 30:0.63418579 31:0.62899101 32:0.167712 33:0.5061636 34:0.12375806 35:0.83070737 36:0.20592491 
-6.839810798306335 1:0.60060823 2:0.44516516 3:0.51832235 4:0.7195437 5:0.67924893 6:0.58920479 7:0.49406052 8:0.24246657 9:0.57001865 10:1 11:0.79998481 12:0.23147282 13:0.39028001 14:0.32540423 15:0.81031358 16:0.62286365 17:0.95775646 18:0.17364429 19:0.068301678 20:0.34185633 21:0.82892692 22:0.61302006 23:0.26803586 24:0.68437475 25:0.44903982 26:0.89632183 27:0.42888489 28:0.52990144 29:0.48525921 30:0.39950436 31:0.25013337 32:0.72892666 33:0.40045565 34:0.2253917 35:0.95768762 36:0.17849797 
-10 1:0.45696929 2:0.42071843 3:0.48365664 4:0.43554971 5:0.33905807 6:0.36382294 7:0.34216881 8:0.77174819 9:0.3496452 10:7.2534343e-16 11:0.19887875 12:0.50314581 13:0.13580109 14:0.3900016 15:0.65119708 16:0.52212268 17:0.87914473 18:0.42680293 19:0.62535185 20:0.36427963 21:0.91524541 22:0.77229172 23:0.38253158 24:0.28271076 25:0.70028228 26:0.86931479 27:0.33895004 28:0.51657379 29:0.56584495 30:0.52115208 31:0.52112216 32:0.62379599 33:0.51309419 34:0.21182068 35:0.85978949 36:0.20796815 
-6.435983838816829 1:0.21680671 2:0.13902472 3:0.29371804 4:0.59174675 5:0.33043811 6:0.47759247 7:0.66810572 8:0.67529368 9:0.39430696 10:0.32786992 11:0.42938748 12:0.93121171 13:0.56904078 14:0.83391351 15:0.46069649 16:0.6171025 17:0.35906899 18:0.48129961 19:0.31521758 20:0.32104546 21:0 22:0.6670447 23:0.51927966 24:0.40915591 25:0.35984215 26:0.79980659 27:0.20540167 28:0.80133581 29:0.39885086 30:0.47183815 31:0.51865029 32:0.41259611 33:0.45917639 34:0.32066336 35:0.83884907 36:0.62099832 
-2.261348180431156 1:0.13123544 2:0.71360981 3:0.56527805 4:0.67801875 5:0.29884866 6:0.60417396 7:0.38281024 8:0.53144622 9:0.63573498 10:0.43491003 11:0.41991171 12:0.62312102 13:0.24742845 14:0.75882208 15:0.20356098 16:0.19320633 17:0.59216708 18:0.30793211 19:3.2232394e-16 20:0.50436282 21:0.58212495 22:0.76071501 23:0.7007708 24:0.2627129 25:0.57123232 26:0.60019273 27:0.45308664 28:0.75147986 29:0.39000157 30:0.55374503 31:0.61910403 32:0.37789416 33:0.39983562 34:0.44821087 35:0.93525547 36:0.81096774 
-2.733008575915797 1:0.046896659 2:0.33281091 3:0.47017974 4:0.63295656 5:0.627527 6:0.45173064 7:0.4550648 8:0.59072202 9:0.26551619 10:0.68984175 11:0.48202696 12:0.64386666 13:0.38807744 14:0.50471622 15:0.18974121 16:0.46117389 17:0.48539662 18:0.354476 19:0.25460997 20:0.51184011 21:0.6546216 22:0.75432122 23:0.07708016 24:0.28595674 25:0.6080333 26:0.44019854 27:0.24065024 28:0.70358413 29:0.71448338 30:0.7005263 31:0.36265671 32:0.70036203 33:0.51372385 34:0.15020536 35:0.62647897 36:0.82303357 
-3.898925061525701 1:0.22128665 2:0.40725151 3:0.51740283 4:0.32273382 5:0.85369956 6:0.6433112 7:0.50055456 8:0.50479835 9:0.4540984 10:0.39735326 11:0.13617551 12:0.30393177 13:0.72331476 14:0.53703946 15:0.48291233 16:0.47349951 17:0.51509488 18:0.38612655 19:0.48102731 20:0.37115109 21:0.51016235 22:0.55290991 23:0.46613881 24:0.13123102 25:0.43421897 26:0.35563019 27:0.78612757 28:0.67992705 29:0.23781273 30:0.28287208 31:0.4259358 32:0.4824689 33:0.50710964 34:0.56367666 35:0.96796107 36:0.87970209 
-5.115287186375165 1:0.5019232 2:0.52242887 3:0.23390809 4:0.84025848 5:0.4136869 6:0.64225835 7:0.27801368 8:0.80756152 9:0.79210484 10:0.43594715 11:0.22585507 12:0.78114641 13:0.49380779 14:0.20774464 15:0.1836803 16:0.52321672 17:0.85880196 18:0.23843408 19:0.7726 20:0.47347671 21:0.47148779 22:0.55359179 23:0.6888634 24:0.65643126 25:0.52981055 26:0.74465531 27:0 28:0.56598794 29:0.94417453 30:0.35982865 31:0.34431872 32:0.7705934 33:0.73225564 34:0.06072453 35:0.63537699 36:0.75309622 
-5.303301262814495 1:0.61892265 2:0.53578436 3:0.45298141 4:0.54318243 5:0.26727501 6:0.67188245 7:0.55032319 8:0.39115962 9:0.54508764 10:0.50156957 11:0.52503699 12:0.86698633 13:0.69587034 14:0.40873343 15:0.71705568 16:0.25771493 17:0.5020346 18:0.509633 19:0.62998021 20:0.45035109 21:0.79870421 22:0.9123978 23:0.3362737 24:0.4110958 25:0.59322381 26:0.64113176 27:0.75173026 28:0.38200518 29:0.68025422 30:0.6291846 31:0.63047355 32:0.68078196 33:0.83987856 34:0.069015317 35:0.50619054 36:0.90908682 
-1.644051008839913 1:0.013168955 2:0.42862266 3:0.68998212 4:0.6114983 5:1 6:0.35642409 7:0.49893013 8:0.61133724 9:0.69148654 10:0.20896728 11:0.5839265 12:0.63459772 13:0.61801255 14:0.17877583 15:0.40038815 16:0.31708938 17:0.32242513 18:0.39184317 19:0.86258566 20:0.21118684 21:0.40290844 22:0.62838322 23:0.70672661 24:0.77815402 25:0.63100028 26:0.65038615 27:0.58576906 28:0.22808821 29:0.67964602 30:0.23799571 31:0.40846786 32:0.75055045 33:0.61866468 34:0.27738574 35:0.86616439 36:0.94040596 
-2.360749677176321 1:0.60866052 2:0.53945702 3:0.86251038 4:0.60379767 5:0.90407205 6:0.15386863 7:0.38779128 8:0.71814805 9:0.39199409 10:0.51411957 11:0.42062461 12:0.33768007 13:0.47114408 14:0.7882303 15:0.59015095 16:0.22894225 17:0.47812456 18:0.2256794 19:0.5456115 20:0.3891972 21:0.67712599 22:0.71700299 23:0.36616904 24:0.39822412 25:0.16223145 26:0.83771175 27:0.84303582 28:0.41276562 29:1 30:0.7010327 31:0.3281875 32:0.32094541 33:1 34:0.12754171 35:0.46395195 36:0.89371079 
-1.879419035090263 1:0.69329023 2:0.576406 3:0.73535734 4:0.40667763 5:0.63476968 6:0.45030561 7:0.52094454 8:0.61626089 9:0.5804432 10:0.45627567 11:0.34420782 12:0.31601757 13:0.43385938 14:0.62379289 15:0.3211064 16:0.27513522 17:0.51112676 18:0.30863258 19:0.3757903 20:0.44184631 21:0.64846319 22:0.52638626 23:0.40954679 24:0.41782397 25:0.64030063 26:0.48745307 27:0.34143063 28:0.65853959 29:0.28410354 30:0.43397173 31:0.3290672 32:0.85269779 33:0.80285501 34:0.21835627 35:0.7327401 36:0.88989031 
-0.8036553894283799 1:0.38019192 2:0.34846798 3:0.32353953 4:0.5313437 5:0.35533822 6:0.85965723 7:0.57965326 8:0.6043641 9:0.37398624 10:0.32593203 11:0.79129088 12:0.3028703 13:0.40021572 14:0.66787601 15:0.28856382 16:0.55242848 17:0.23954192 18:0.13149779 19:0.25000384 20:0.21224642 21:0.6577301 22:0.43435889 23:0.61671114 24:0.47560465 25:0.76528156 26:0.8206808 27:0.67452288 28:0.38943711 29:0.46526662 30:0.31570128 31:0.79224157 32:0.805911 33:0.56783253 34:0.24817976 35:0.87938523 36:1 
-4.288632921721407 1:0.24034488 2:0.41293189 3:0.50102085 4:0.78396201 5:0.51817715 6:0.55089116 7:0.36897874 8:0.97078496 9:0.35106674 10:0.28388909 11:0.37797189 12:0.54594469 13:0.55890512 14:0.52207261 15:0.52241069 16:0.96238065 17:0.84167141 18:0.27295807 19:0.5870291 20:0.37308961 21:0.68590432 22:0.94627947 23:0.52737117 24:0.18833153 25:0.77407986 26:0.4026849 27:0.87194389 28:0.38398132 29:0.44834709 30:0.68261427 31:0.22697495 32:0.5263654 33:0.82225615 34:0.23087722 35:0.57482219 36:0.82043058 
-5.475731050290999 1:0.58691353 2:0.70379758 3:0.11951359 4:0.1779906 5:0.47575846 6:0.62532747 7:0.49937689 8:0.41809398 9:0.30866691 10:0.52021277 11:0.44716558 12:0.46362966 13:0.70780724 14:0.39580348 15:0.24296409 16:0.60075879 17:0.56207466 18:0.18890464 19:0.51503497 20:0.22314371 21:0.85560101 22:0.76981688 23:0.40607116 24:0.44265997 25:0.63203532 26:0.36173514 27:0.39632621 28:1 29:0.61199462 30:0.57936978 31:0.22375602 32:0.26887047 33:0.28182825 34:0.20149933 35:0.56060576 36:0.80967426 
-5.006100404322466 1:0.78165007 2:0.51776773 3:0.071617901 4:0.28158751 5:0.72762668 6:0.36487025 7:0.26458812 8:0.7268914 9:0.44061539 10:0.33488807 11:0.71810663 12:0.31269738 13:0.39842457 14:0.040351655 15:0.32207465 16:0.49079558 17:0.56670153 18:0.63531035 19:0.70485574 20:0.29254234 21:0.6870392 22:0.96432477 23:0.45074251 24:0.55377537 25:0.8299374 26:0.26966676 27:0.19348237 28:0.54116994 29:0 30:0.22788239 31:0.36116704 32:0.27701706 33:0.79773313 34:0.25861448 35:0.55407172 36:0.82753557 
-4.217048547760506 1:0.36580536 2:0.50587606 3:0.37330249 4:0.4697293 5:0.56853777 6:0.63961589 7:0.47637922 8:0.84175622 9:0.48012295 10:0.50709701 11:0.38348642 12:0.32957277 13:0.58640409 14:0.40338138 15:0.29907328 16:0.30074674 17:0.31948578 18:0.41555476 19:0.51719916 20:0.46375856 21:0.53205729 22:0.67016864 23:0.52445006 24:0.87282276 25:0.28802344 26:0.70329499 27:0.25003543 28:0.48063275 29:0.62820292 30:0.6588003 31:0.26714581 32:0 33:0.81844866 34:0.48426524 35:0.79794234 36:0.54789704 
-2.722866634793062 1:0.39348119 2:0.73291153 3:0.57234389 4:0.56415004 5:0.48321211 6:0.83003545 7:0.41688153 8:0.40778655 9:0.22649387 10:0.34083512 11:0.09739548 12:0.34507641 13:0.5017612 14:0.5559355 15:0.6148901 16:0.68073022 17:0.43605641 18:0.25189832 19:0.615861 20:0.20768827 21:0.73168755 22:0.87191588 23:0.53488326 24:0.42577142 25:0.6953041 26:0.52459973 27:0.18606491 28:0.54276776 29:0.80988544 30:0.48930311 31:0.2034421 32:0.33121514 33:0.77432895 34:0.51598102 35:0.81762081 36:0.789451 
