svm_type c_svc
kernel_type rbf
gamma 0.09
nr_class 2
total_sv 18
rho -0.244655
label 130110101 130110102
probA -2.7795
probB -0.364848
nr_sv 12 6
SV
4.711510322669561 1:0.32046446 2:0.66960829 3:0.36448747 4:0.61699915 5:0.4319239 6:0.19065504 7:0.36779866 8:0.44737035 9:0.4374063 10:0.47426128 11:0.90285748 12:0.75173247 13:0.45600596 14:0.74390537 15:0.97108352 16:0.050283298 17:0.34365365 
0.01882310362571457 1:0.48652011 2:0.60588276 3:0.52751929 4:0.69618332 5:0.31235957 6:0.38940364 7:0.50355065 8:0.74785084 9:0.736301 10:0.45760685 11:0.97908235 12:0.049127497 13:0.40457222 14:0.40058941 15:0.21094714 16:0.20259167 17:0.30435398 
8.211258049193205 1:0.39171073 2:0.68641913 3:0.20787558 4:0.15033263 5:0.16910315 6:0.2995674 7:0.77718711 8:0.8376177 9:0.59725475 10:0.67229235 11:0.5755704 12:0.72583783 13:0.35852891 14:0.52168715 15:0.076570392 16:0.3603532 17:0.30024192 
0.8098969929148754 1:0.29167014 2:0.46795934 3:0.83086956 4:0.73749101 5:0.18169422 6:0.80877829 7:0.32627934 8:0.52298427 9:0.90426296 10:0.46530497 11:0.98969287 12:0.91978395 13:0.40821394 14:0.66887349 15:0.12252262 16:0.3248859 17:0.20746075 
2.395606791645669 1:0.37277228 2:0.40252152 3:0.62905639 4:0.40442795 5:0.36770836 6:0.6829406 7:0.73154694 8:0.61920714 9:0.8599807 10:0.4649708 11:0.18885916 12:0.49040595 13:0.33447334 14:0.45441395 15:0.76039499 16:0.49124885 17:0.071639746 
1.378282882230842 1:0.17851688 2:0.42621481 3:0.074665532 4:0.95750093 5:0.0058270451 6:0.64064074 7:0.079841368 8:0.39273548 9:0.55317354 10:0.48449272 11:0.41835618 12:0.49299222 13:0.036504757 14:0.48577118 15:0.55905539 16:0.53233987 17:0.15452045 
1.087369856302933 1:0.78388023 2:0.69474632 3:0.31047571 4:0.53993559 5:0.21217678 6:0.40582436 7:0.26295939 8:0.38677379 9:0.80751503 10:0.28767166 11:0.67024666 12:0.65028578 13:0.11287598 14:0.66711468 15:0.34246811 16:0.85881335 17:0.084241807 
5.330314207492298 1:0.20092298 2:0.35516196 3:0.53970289 4:0.79883039 5:0.53192127 6:0.56101036 7:0.48867914 8:0.54471636 9:0.29681334 10:0.72996807 11:0.69386965 12:0.27235436 13:0.29188442 14:0.16282478 15:0.53978449 16:0.86633658 17:0.12162354 
0.4596823228322241 1:0.13022688 2:0.63758099 3:0.79355264 4:9.628629e-16 5:0.2206497 6:0.42343748 7:0.043870788 8:0.82491666 9:0.52248812 10:0.37152493 11:0.69905245 12:0.54785454 13:0.77433318 14:0.62886274 15:0.4407112 16:0.97696245 17:0.14682874 
4.868343437147726 1:1 2:0.16220126 3:0.93918246 4:0.59878254 5:0.1709107 6:0.4298813 7:0 8:0.51969367 9:0.33822215 10:0.31759113 11:0.44184759 12:0.47691149 13:0.72279996 14:0.65240008 15:0.48675647 16:0.86103308 17:0.22407505 
0.03008058380508664 1:0.48421112 2:0.93689799 3:0.82661253 4:0.77232206 5:0.19031492 6:1.5821561e-15 7:0.62616903 8:0.63929307 9:0.72122163 10:0.79684442 11:0.35116678 12:0.86185193 13:0.1034979 14:0.41605365 15:0.36860785 16:0.9109804 17:0.058678519 
0.3329579307362495 1:0.41788432 2:0.89891028 3:0.71829724 4:0.82401931 5:0.23440842 6:0.376681 7:0.76255852 8:0.88610941 9:0.31916115 10:0.51784581 11:0.57577324 12:0.80177277 13:0.39044806 14:0.20487157 15:0.53883284 16:1 17:0.051319029 
-7.761211740864295 1:0.29058155 2:0 3:0.51270956 4:0.13811272 5:0 6:0.33508882 7:1 8:2.3377336e-16 9:0.56862187 10:0.25721779 11:0.83332753 12:0.70730352 13:0.52594382 14:0.001942764 15:0.68990952 16:0.86768228 17:0.33145192 
-0.480296617870962 1:0.39146644 2:0.6317119 3:0.66139781 4:0.73524475 5:0.2837975 6:0.45943123 7:0.37539676 8:0.74941421 9:0.60044092 10:0.085688412 11:0.24309514 12:0.63004982 13:0.26797131 14:0.47944158 15:0.38931778 16:0.49469018 17:0.8990286 
-0.7758001922585237 1:0.58155292 2:0.59315234 3:0.52637887 4:0.52366239 5:0.24798162 6:0.52096176 7:0.31192854 8:0.56530881 9:0.63978714 10:0.98639369 11:0.65325952 12:0.61843592 13:0.45228308 14:0.46197227 15:0.53250295 16:0.72059542 17:0.99577826 
-10 1:0.50516611 2:0.5250017 3:0.45870596 4:0.60695732 5:0.23729399 6:0.3807146 7:0.23399405 8:0.64910394 9:0.63901895 10:0.9691723 11:0.75503975 12:0.58951157 13:0.49414739 14:0.49589217 15:0.53997195 16:0.72407895 17:0.95617253 
-0.6168179296026032 1:0.39911023 2:0.55078363 3:0.21316287 4:0.50396764 5:0.59921449 6:0.47708079 7:0.34124264 8:0.75529182 9:0.54767442 10:1.8299801e-16 11:0.36758244 12:0.62510008 13:0.26197535 14:0.32662499 15:0.44653878 16:0.54382145 17:0.85927558 
-10 1:0.35833687 2:0.67182344 3:0.47936428 4:0.61689496 5:0.42637184 6:0.40857956 7:0.48724869 8:0.68976414 9:0.59028536 10:0.023242414 11:0.28595296 12:0.61903322 13:0.21814606 14:0.45802268 15:0.34587982 16:0.48427019 17:0.85790062 
