svm_type c_svc
kernel_type rbf
gamma 0.09
nr_class 2
total_sv 36
rho -0.351615
label 130360101 130360102
probA -3.92044
probB -0.946772
nr_sv 29 7
SV
0.4191577794961209 1:0.76337761 2:0.28553751 3:0.022275362 4:0 5:0.46048936 6:0.17873256 7:0.50428134 8:0.53552926 9:0.57294613 10:0.51493639 11:0.86245281 12:0.74571985 13:0.38400763 14:0.887936 15:0.52750409 16:0.42160454 17:0.68844116 18:0.22990763 19:0.37330067 20:0.43599531 21:6.6354756e-16 22:0.62072456 23:0.85847437 24:0.72385025 25:0.73789215 26:0.58843589 27:0.3952629 28:0.63240087 29:0.57373303 30:0.53764361 31:1 32:0.62954694 33:0.49457932 34:0.66097707 35:0.55082083 36:0.14288734 
0.8156494569042111 1:0.34573433 2:0.63319945 3:0.27074757 4:0.46354148 5:0.60642534 6:0.44495991 7:0.21156166 8:0.72270501 9:0.4916096 10:0.76599628 11:0.28477055 12:0.56589574 13:0.24561363 14:0.15056689 15:0.63013089 16:0.54840982 17:0.43717247 18:0.26929763 19:0.4435586 20:0.54554045 21:0.5213626 22:0.62762994 23:0.98432446 24:0.815925 25:0.27952063 26:0.44422573 27:0.30450606 28:0.69226211 29:0.44957829 30:0.49233207 31:0.55937284 32:0.76826918 33:0.67195278 34:0.54517281 35:0.53441888 36:0.060978573 
2.121323814517321 1:0.43362346 2:0.31659475 3:0.69677597 4:0.5502708 5:0.53187257 6:0.14544897 7:0.8218292 8:0.35462674 9:0.17683075 10:0.35141033 11:0.49082139 12:0.41802716 13:0.77140796 14:0.35713321 15:0.40142268 16:0.55849111 17:0.65490425 18:0.79203629 19:0.53677136 20:0.73243171 21:0.67482048 22:0.25462186 23:0.65230972 24:0.62741458 25:0.86641914 26:0.90021092 27:0.61420047 28:0.98845112 29:0.48872921 30:0.33579493 31:0.72035754 32:0.59846169 33:0.45487165 34:0.56271601 35:0.35392883 36:0.20222168 
0.4798839722635926 1:0.32201996 2:0.39230695 3:0.51226825 4:0.42101997 5:0.36239821 6:0.95876771 7:0.24055359 8:0.81345731 9:0.35867628 10:0.40437305 11:0.77723634 12:0.39427528 13:0.26606873 14:0.82734424 15:0.67162514 16:0.3795687 17:0.49081779 18:0.28769955 19:0.68749523 20:0.3424167 21:0.64995432 22:0.71791667 23:0.52623963 24:0.60833895 25:0.30628812 26:0.60576171 27:0.63186061 28:0.50599867 29:0.59584373 30:0.37571234 31:0.50582534 32:0.11095181 33:0.11002871 34:0.67223799 35:0.43831494 36:0.13028695 
1.740664260257863 1:0.62718254 2:0.82585853 3:0.44852346 4:0.7850728 5:0.27814767 6:0.63505286 7:0.55126429 8:0.64268899 9:0.74124217 10:0.75466919 11:0.18486813 12:0.60925573 13:0.44646394 14:0.47038573 15:0.39469919 16:0.33210769 17:1 18:0.30309567 19:0.71998072 20:0.5788576 21:0.69113922 22:0.13083328 23:0.76516783 24:0.66101241 25:0.76159275 26:0.41244903 27:0.5155347 28:0.34899747 29:0.42792344 30:0.54511863 31:0.8573519 32:0.29375175 33:0.68113369 34:0.67952913 35:0.40653953 36:0.15533011 
2.450733741004101 1:0.49499553 2:0.53562343 3:0.39433214 4:0.67431074 5:0.41890034 6:0.62951404 7:0.25084063 8:0.63456118 9:0.20794183 10:0.44184721 11:0.34547544 12:0.53169876 13:0.36786127 14:0.58290732 15:0.34985778 16:0.6692856 17:0.38518798 18:0.51840746 19:0.45780617 20:0.53188246 21:0.81214678 22:0.57388276 23:0.68766439 24:0.028435264 25:0.49814573 26:0.3641513 27:0.13398398 28:0.79505932 29:0.64837062 30:0.7066229 31:0.89164376 32:0.42625019 33:0.57497036 34:0.80281103 35:0.19893189 36:0.93681842 
0.03241332632326353 1:0.41148648 2:0.49387747 3:0.29058 4:0.59522688 5:0.829027 6:0.65922219 7:0.51084346 8:0.99531865 9:0.54759115 10:0.52378207 11:0.81640655 12:0.73801714 13:0.72636157 14:0.36756271 15:0.31979975 16:0.58419913 17:0.37855455 18:0.18904553 19:0.35386762 20:1 21:0.71792895 22:0.47129163 23:0.54479849 24:0.34783131 25:0.66904926 26:0.50727087 27:0.77019376 28:0.43024066 29:0.45655337 30:0.31675324 31:0.57039583 32:0.5651176 33:0.75643885 34:0.85292953 35:0.28074268 36:0.92801046 
1.179557969135652 1:0.45147496 2:0.67753589 3:0.44587895 4:0.62057465 5:0.52570182 6:0.61852872 7:0.53055316 8:0.86157417 9:0.28327924 10:0.38825098 11:0.32378808 12:0.44964987 13:0.60172117 14:0.70813978 15:0.49460286 16:0.46859249 17:0.2569544 18:0.65926498 19:0.19714202 20:0.67807156 21:0.60136265 22:0.49768698 23:0.53102797 24:0.72564769 25:0.3932184 26:0.37420413 27:0.3680315 28:0.43754789 29:0.26832238 30:0.39664954 31:0.43334559 32:0.3978371 33:0.88604945 34:0.80066508 35:0.47697905 36:0.83326828 
0.1661362868899207 1:0.40406153 2:0.69412684 3:0.46703702 4:0.55210638 5:0.57619208 6:0.57426506 7:0.62389708 8:0.71479863 9:0.2495639 10:0.44647187 11:0.32061249 12:0.60136932 13:0.63319898 14:0.65771103 15:0.39957693 16:0.55743372 17:0.33845559 18:0.66709358 19:0.20895942 20:0.65101278 21:0.56873137 22:0.65132242 23:0.53360087 24:0.7328555 25:0.32374424 26:0.32072121 27:0.29123124 28:0.49424672 29:0.26873165 30:0.36785367 31:0.4316203 32:0.38644111 33:0.84689951 34:0.77934986 35:0.5186466 36:0.842933 
0.07217429988317828 1:0.23103459 2:0.46027499 3:0.16094366 4:0.52642393 5:0.78137183 6:0.4866567 7:0.67780316 8:0.82340401 9:0.61497921 10:0.65636325 11:0.71615207 12:0.93690002 13:0.7630657 14:0.22983049 15:0.30090967 16:0.69231772 17:0.5281871 18:0.10318281 19:0.46321544 20:0.98290002 21:0.66376072 22:0.5556255 23:0.65074652 24:0.48124725 25:0.50422472 26:0.46057826 27:0.60949516 28:0.51496613 29:0.40629593 30:0.30760038 31:0.72778314 32:0.53200477 33:0.59029841 34:0.8546102 35:0.41627845 36:0.93813407 
0.01407793297007018 1:0.62267083 2:0.42270261 3:0.49328589 4:0.32137236 5:0.37027296 6:0.31240344 7:0.36663669 8:0.86729234 9:0.10836119 10:0.63759202 11:0.72170269 12:0.081612907 13:0.41845116 14:0.68064904 15:0.73135209 16:0.9318276 17:0.32445657 18:0.36715999 19:0.66940522 20:0.48975185 21:0.26648265 22:0.10931362 23:0.81684512 24:0.73662323 25:0.45940414 26:0.54640418 27:0.64695597 28:0.76125735 29:0.53406233 30:0.29246402 31:0.66640115 32:0.68951243 33:0.45863625 34:0.98970431 35:0.24541929 36:0.85012567 
0.2020856936646502 1:0.28971651 2:0.45093513 3:0.47102639 4:0.52633703 5:0.36940095 6:0.92176372 7:0.61759228 8:0.9051469 9:0.46400949 10:0.28420565 11:0.58059269 12:0.67476326 13:0.61126351 14:0.54770404 15:0.61498344 16:0.99190986 17:0.62784624 18:0.50809294 19:0.30723843 20:0.24173479 21:0.62093127 22:0.36968812 23:0.65843797 24:0.91897702 25:0.74795097 26:0.44019869 27:0.095161229 28:0.30011761 29:0.3346464 30:0.38351998 31:0.66436142 32:0.36150128 33:0.83431673 34:0.91375756 35:0.43964303 36:0.77542484 
2.337831069732321 1:0.37826851 2:0.66443181 3:0.31543246 4:0.56936949 5:0.34002894 6:0.58828127 7:0.55645549 8:0.65158272 9:0.64526814 10:0.29495794 11:0.46613151 12:0.55214643 13:0.25332937 14:0.29658774 15:0.6394704 16:0.82277805 17:0.26429793 18:0.2133857 19:0.43476489 20:0 21:0.45899022 22:0.4189651 23:0.75402856 24:0.84247619 25:0.54299182 26:0.35595477 27:0.39276221 28:0.68228954 29:0.528929 30:0.2190896 31:0.72806531 32:0.5629102 33:0.4579944 34:0.93895191 35:0.24575545 36:0.84167677 
0.9131759500927896 1:0.11895732 2:0.56467527 3:0.52079135 4:0.53112233 5:0.89968705 6:0.67854244 7:0.80806112 8:0.72509253 9:0.17308682 10:0.48334134 11:0.81313759 12:0.67894536 13:0.51167232 14:0.89991778 15:0.42605761 16:0.5592646 17:0.38073435 18:0.6190148 19:0.3971625 20:0.81226337 21:0.092140704 22:0.52331358 23:0.62844861 24:0.57628608 25:0.58583093 26:0.38476267 27:0.52111638 28:0.51549256 29:0.86749387 30:0.46283531 31:0.7114979 32:0.75213432 33:0.39436936 34:0.48831236 35:0.81530404 36:0.59032083 
1.248067014864729 1:0.35191262 2:0.38983214 3:0.32844529 4:0.6268819 5:0.42653689 6:0.12110341 7:0.54831648 8:0.62435907 9:0.38301614 10:0.5804249 11:0.59548718 12:0.65925515 13:0.45430577 14:0.72027373 15:0.47296831 16:0.31165722 17:0.44656789 18:0.52717799 19:0.39577818 20:0.52883136 21:0.8249253 22:0.41545519 23:0.78387403 24:0.72227633 25:0.32321709 26:0.60238767 27:0.31651607 28:0.45270348 29:0.91403836 30:0.69359773 31:0.61748487 32:0.64995486 33:0.26583531 34:0.45846426 35:0.93647826 36:0.9022997 
0.5962893114874166 1:0.81697458 2:0.32940498 3:0.64287651 4:0.27177948 5:0.56110454 6:0.57324731 7:0.52740365 8:0.45612007 9:0.30925977 10:0.36055553 11:0.45045584 12:0.77435368 13:0.57854718 14:0.52105498 15:0.61750168 16:0.39645943 17:0.56070554 18:0.23971142 19:0.27098393 20:0.31666279 21:0.78112477 22:0.36160323 23:0.61325729 24:0.40178719 25:0.32881925 26:0.20870669 27:0.62550515 28:0.42023218 29:0.39693528 30:0.52827066 31:0.34053168 32:0.57438326 33:0.83331126 34:0.50230211 35:0.8805548 36:0.83147252 
0.1975731636738231 1:0.53003228 2:0.7908892 3:0.62026894 4:0.20402785 5:0.52784961 6:0.38581172 7:0.28404135 8:0.93115646 9:0.25618824 10:0.47168067 11:0.5755325 12:0.51653922 13:0.65400839 14:0.15192088 15:0.32821539 16:0.14282311 17:0.80673033 18:0.94470793 19:0.40644923 20:0.47198516 21:0.50309366 22:0.45499086 23:0.71470422 24:0.66518164 25:0.49039376 26:0.44807529 27:0.26581109 28:0.59673524 29:0.55386114 30:0.81409931 31:0.23721665 32:0.69708532 33:0.27856079 34:0.5407241 35:0.24306139 36:0.83146387 
0.8515671257164895 1:0.73914814 2:0.83667332 3:0.46760917 4:0.067704834 5:0.60223681 6:0.53776997 7:0.27188978 8:0.67243546 9:0.29267591 10:0.64125925 11:0.6414355 12:0.66624403 13:0.44608322 14:0.25985259 15:0.52925211 16:0.26611936 17:0.46022335 18:0.84984916 19:0.51375473 20:0.60630572 21:0.32610729 22:0.32196626 23:0.8046549 24:0.66290927 25:0.68400705 26:0.40405765 27:0.25527266 28:0.5735119 29:0.70609832 30:1 31:0.34491777 32:0.60161388 33:0.33440283 34:0.52487493 35:0.19534241 36:0.66563058 
2.30782097220533 1:0.25739855 2:0.31304389 3:0.59410131 4:0.54758728 5:0.90366262 6:0.31996861 7:0.37767729 8:0.39390913 9:0.86547327 10:0.44213831 11:0.049364157 12:0.88278109 13:0.52357447 14:0.46311164 15:0.60302752 16:0.54616129 17:0.189125 18:0.39299351 19:0.40203643 20:0.85630095 21:0.62310183 22:0.29423708 23:0.84641421 24:0.51112926 25:0.38065672 26:0.2882733 27:0.37981072 28:0.34315699 29:0.35817009 30:0.64513433 31:0.17078114 32:0.79089952 33:0.070156462 34:0.58162183 35:0.043795176 36:0.5819912 
0.2245323727947254 1:0.24189554 2:0.54749924 3:0.53746539 4:0.73246455 5:0.43854073 6:0.41192666 7:0.79033476 8:0.95732027 9:0.4070462 10:0.63687128 11:0.38984579 12:0.34449488 13:0.36696628 14:0.42044035 15:0.16671173 16:0.46650767 17:0.35861745 18:0.29224923 19:0.31948626 20:0.024312463 21:0.66308105 22:0.81260288 23:0.66605252 24:0.75590163 25:0.94161129 26:0.39116773 27:0.54041129 28:0.42409259 29:0.37590113 30:0.84902817 31:0.54993391 32:0.72991025 33:0.074461915 34:0.74305803 35:0.21300904 36:0.64094484 
0.8944600688678166 1:0.16085491 2:0.7265892 3:0.17523749 4:0.55659056 5:0.41204616 6:0.87962681 7:0.4758983 8:0.17703471 9:0.21172105 10:0.61912131 11:0.27419072 12:0.21724944 13:0.5382337 14:0.46506032 15:0.3927266 16:0.65463179 17:0.44904006 18:0.2706227 19:0.051395755 20:0.49803418 21:0.46000087 22:0.13902208 23:0.69763476 24:0.94342965 25:0.44997418 26:0.41684762 27:0.69567961 28:0.64211941 29:0.040034998 30:0.94641268 31:0.55168897 32:0.53526223 33:0.23002295 34:0.59572959 35:0.43597767 36:0.78270036 
1.518691386059425 1:0.35061568 2:0.66591585 3:0.26212117 4:0.36721176 5:0.67297691 6:0.40360701 7:0.65917546 8:0.40145102 9:0.47386432 10:0.55984193 11:0.32336602 12:0.18633853 13:0.40733308 14:0.66760951 15:0.45410606 16:0.765845 17:0.66959727 18:0.33406383 19:0.32526428 20:0.55324614 21:0.59254342 22:0.62621862 23:0.69203061 24:0.53732109 25:0.93684071 26:0.29999602 27:0.39366028 28:0.16146797 29:0.63016677 30:0.16912402 31:0.43688321 32:0.51775205 33:0.54072571 34:0.54120177 35:0.85380661 36:0.7153458 
0.1456051184406729 1:0.41193599 2:0.69109857 3:0.62460816 4:0.68906856 5:0.3233467 6:0.74531823 7:0.49612346 8:0.58401006 9:0 10:0.61585259 11:0.43756345 12:0.41984105 13:0.62757832 14:0.76170158 15:0.47400376 16:0.48378181 17:0.56516898 18:0.42412663 19:0.48246965 20:0.41332561 21:0.70917571 22:0.34859499 23:0.80384994 24:0.88259798 25:0.35701063 26:0.43518811 27:0.48300269 28:0.29200923 29:0.9109531 30:0.58296156 31:0.70384216 32:0.74709284 33:0.33917022 34:0.55748618 35:0.86392039 36:0.79932594 
1.084124007838466 1:0.35929638 2:0.68902063 3:0.29996443 4:0.79587567 5:0.43146896 6:0.41312835 7:0.30809793 8:0.44717911 9:0.68144828 10:0.53052735 11:0.82021534 12:0.41574034 13:0.29480422 14:0.55093551 15:0.74362767 16:0.66630584 17:0.74533421 18:0.42992789 19:0.33991432 20:0.39907333 21:0.59513593 22:0.38782215 23:0.78123701 24:0.35214928 25:0.55720812 26:0.37510881 27:0.42941397 28:0.42087272 29:0.39657629 30:0.13992499 31:0.31928447 32:0.87852687 33:0.3207514 34:0.56354344 35:0.54846042 36:0.65582079 
0.284762737521347 1:0.25197351 2:0.61044896 3:0.48007324 4:0.28830379 5:0.58243656 6:0.82676995 7:0.51112419 8:0.60402817 9:0.55857337 10:0.63905376 11:0.42687741 12:0.20293486 13:0.49120122 14:0.59671617 15:0.19910683 16:0.37909129 17:0.45385239 18:0.60289323 19:0.35355791 20:0.42750588 21:0.82598239 22:0.37806997 23:0.68379474 24:0.2539379 25:0.6088897 26:0.63341916 27:0.78128016 28:0.25360203 29:0.38594192 30:0.15676662 31:0.51507783 32:0.85784203 33:0.42136675 34:0.78481221 35:0.12950195 36:0.76747483 
0.9129529018339129 1:0.82768786 2:0.282442 3:0.33689424 4:0.15887429 5:0.099381976 6:0.70790935 7:0.46783683 8:0.15960173 9:0.34190193 10:0.67193198 11:0.17585199 12:0.42102772 13:0.5027957 14:0.7873103 15:0.39373189 16:0 17:0.16876371 18:0.18375455 19:0.69222307 20:0.91449398 21:0.67353654 22:0.46202081 23:0.71012497 24:0.55634886 25:0.70012158 26:0.33752042 27:0.53310096 28:0.27839276 29:0.50776398 30:0.43351281 31:0.96903944 32:0.55406827 33:0.61867124 34:0.91758496 35:0.3115738 36:0.68969482 
0.6199182700711788 1:0.68166596 2:0.88263804 3:0.42534587 4:0.94520962 5:0.61184567 6:0.31705564 7:0.47688335 8:0 9:1 10:0.43351725 11:0.58872563 12:0.35320124 13:1 14:0.34493577 15:0.73809254 16:0.27504659 17:1.6823239e-16 18:0.32111955 19:0.66524202 20:0.65052652 21:0.66954541 22:0.623492 23:0.99099576 24:0.5647971 25:0.59563047 26:0.97943223 27:0.28460521 28:0.10553078 29:0.84077168 30:0.63090163 31:0.5341295 32:0.35212895 33:0.54489833 34:0.62865245 35:0.36113548 36:1 
1.619538413495777 1:0.82713497 2:0.78412658 3:0.29512173 4:0.76013386 5:0.29241729 6:0.61757302 7:0.31939128 8:0.20354255 9:0.28514591 10:0.31899908 11:0.75446481 12:0.81382006 13:0.24235308 14:0.45836571 15:0.19689661 16:0.44833395 17:0.68316752 18:0.72376955 19:0.40644968 20:0.39715964 21:0.3996689 22:0.14707601 23:0.5104652 24:0.70558918 25:0.72665209 26:0.57423085 27:0.6110065 28:0.33514732 29:0.58783531 30:0.69833159 31:0.34918156 32:0.8554399 33:0.60223949 34:0.58296919 35:0.28942013 36:0.91671133 
0.01218158701990971 1:0.54075032 2:0.54879159 3:0.6402173 4:0.5741452 5:0.55497038 6:0.80096734 7:0.37271121 8:0.70777553 9:0.57081312 10:0.78961539 11:0.6332857 12:0.19735223 13:0.52031004 14:0.10490693 15:0.52878571 16:0.67293388 17:0.55183554 18:0.41842192 19:0.51276731 20:0.67761213 21:0.54204732 22:0.45630205 23:0.91130435 24:0.59868664 25:0.65794116 26:0.34574506 27:0.12682271 28:0.65235537 29:0.19261844 30:0.68980116 31:0.41061613 32:0.29640326 33:0.66450131 34:0.58402699 35:0.51854473 36:0.75826037 
-2.284951992295914 1:0.71316904 2:0.58771217 3:0.23642899 4:0.68299001 5:0.31503165 6:0.48376006 7:0.74132413 8:0.78169584 9:0.51898313 10:0.65303165 11:0.43505794 12:0.7353828 13:0.4014895 14:0.67646658 15:0.71692073 16:0.38921508 17:0.40133604 18:0.28994176 19:0.59642011 20:0.52307963 21:0.89089984 22:0.34436852 23:2.0574816e-15 24:0.74162066 25:0.54590946 26:0.27613425 27:0.12660728 28:0.88567549 29:0.57795256 30:0.3810347 31:0.66485035 32:0.77882844 33:0.36804417 34:0.16614591 35:0.14076316 36:0.45261222 
-3.646697527383973 1:0.54659319 2:0.75701249 3:0.29220828 4:0.71598291 5:0.42018312 6:0.47524056 7:0.863006 8:0.8357287 9:0.54605895 10:0.69483465 11:0.30063596 12:0.53868121 13:0.44413877 14:0.53633064 15:1 16:0.43676415 17:0.43226138 18:0.37547699 19:0.5596413 20:0.82182765 21:0.72012401 22:0.36664265 23:0.087574691 24:0.76068217 25:0.54989356 26:0.35286033 27:0.20163414 28:1 29:0.59662145 30:0.39003238 31:0.7150889 32:0.72201449 33:0.42988062 34:0.18769635 35:0.15405515 36:0.48162943 
-1.957552450919552 1:0.51053274 2:4.427595e-16 3:0.61086249 4:0.66640109 5:0.54191154 6:0.62527072 7:0.60091776 8:0.3020297 9:0.43971163 10:0.87770766 11:0.44414115 12:0.39039692 13:0.21636362 14:0 15:0.92137676 16:0.053333368 17:0.42688534 18:0.78039891 19:0.43138933 20:0.34848741 21:0.30095321 22:0.52702951 23:0.33279973 24:0.59471405 25:0.82574695 26:0.094993867 27:0.30642086 28:0.75812483 29:0.33290645 30:0.4580366 31:0.89433944 32:1 33:0.41528141 34:0.012162219 35:0.13546184 36:0.58870578 
-5.19251444251373 1:0.40167254 2:0.53313196 3:1 4:0.50102103 5:0.55302507 6:0.31394431 7:0.0054853661 8:0.33621436 9:0.19202825 10:0.5442729 11:0.30486283 12:0.36429182 13:0.41012689 14:0.67250025 15:0.10364022 16:0.53472883 17:0.62958598 18:0.099747412 19:0.40048498 20:0.66877234 21:0.6931169 22:0.60824937 23:0.81821573 24:0.83936632 25:0.35823655 26:0.51360232 27:0.3150886 28:0.50137728 29:0.49286529 30:0.2335351 31:0.74289358 32:0.46423295 33:0.43518654 34:0.15939768 35:0.055136245 36:0.87335318 
-5.793927747189985 1:0.35279828 2:0.61111677 3:0.37668815 4:0.32272378 5:0.35928911 6:0.51997983 7:0.69264656 8:0.73398238 9:0.31216338 10:0.57066149 11:0.49445552 12:0.72118831 13:0.34872755 14:0.34139407 15:0.59863174 16:0.55568838 17:0.33911639 18:0.4060941 19:0.25169826 20:0.33514127 21:0.56615025 22:0.19841503 23:0.83278775 24:0.40615991 25:0.68385994 26:0.58334261 27:0.62041217 28:0.0074131936 29:0.41449979 30:0.411856 31:0.81649214 32:0.4333435 33:0.67343915 34:0.020257002 35:0.26890025 36:0.93456405 
-3.047749895781334 1:0.52141565 2:0.50158077 3:0.085611075 4:0.67230618 5:0.8897016 6:0.64356327 7:0.42530337 8:0.43449941 9:0.75805217 10:0.25231311 11:0.57850635 12:0.49583647 13:0.28731143 14:1 15:0.26725897 16:0.75505131 17:0.48823634 18:1 19:0.76827121 20:0.27374551 21:0.52978241 22:0.56276101 23:0.756468 24:0.74820632 25:0.45929375 26:0.2585358 27:0.52238798 28:0.44306508 29:0.20028114 30:0.45631117 31:0.79757404 32:0.65630895 33:0.5951044 34:0.049560286 35:0.057906147 36:0.97562253 
-3.539555948941588 1:0.44923186 2:0.72374457 3:0.20027412 4:0.53242135 5:0.53817505 6:0.38740632 7:0.37767947 8:0.47399899 9:0.38047901 10:0.28184545 11:0.51124585 12:0.59117162 13:0.66595727 14:0.64738238 15:0.72765946 16:0.79844165 17:0.58992702 18:0.28362468 19:0.48846889 20:0.67238277 21:0.57693207 22:0.49153441 23:0.80769753 24:0.81304634 25:0.63366753 26:0.58176988 27:0.44097474 28:0.32619512 29:0.51932967 30:0.45420399 31:0.79159391 32:0.35676169 33:0.55447626 34:0.072433487 35:0.15603113 36:0.85349578 
