svm_type c_svc
kernel_type rbf
gamma 0.09
nr_class 2
total_sv 10
rho 0.367294
label 130290101 130290102
probA -2.50317
probB 0.1941
nr_sv 4 6
SV
4.695882155944154 1:0.4700239 2:0.24765573 3:0.26914385 4:0.61520714 5:0 
9.999201036160239 1:0.4700239 2:0.24765573 3:0.26914385 4:0.61520714 5:0 
4.683677232325062 1:0.44733623 2:0.38268107 3:3.9717858e-17 4:1.6902029e-16 5:0.80899715 
9.171876749860441 1:0.44733623 2:0.38268107 3:3.9717858e-17 4:1.6902029e-16 5:0.80899715 
-4.706297313762927 1:1 2:0.3131268 3:0.96739531 4:0.16404496 5:0.72298807 
-1.724091120794395 1:0.32222155 2:0.063386083 3:0.87036937 4:0.038091436 5:0.80281842 
-0.4763343012253327 1:0.58458573 2:1 3:0.40078521 4:0.93226367 5:0.76648402 
-3.725464729999181 1:0.5053038 2:0 3:0.23115429 4:1 5:0.96349239 
-7.918449708508059 1:0.41302446 2:0.21522726 3:0.24284555 4:0.97736806 5:0.93016565 
-10 1:2.5020284e-16 2:0.58943188 3:0.81080854 4:0.36525366 5:0.48918924 
