svm_type c_svc
kernel_type rbf
gamma 0.09
nr_class 2
total_sv 24
rho -0.955539
label 130650102 130650103
probA -3.2943
probB -1.12093
nr_sv 21 3
SV
0.2256990980198903 1:0.51886094 2:0.49472371 3:0.99079847 4:0.4587335 5:0.52755201 6:0.66948426 7:0.28871417 8:0.86941892 9:0.37390614 10:0.65701753 11:0.51148987 12:0.4588666 13:0.85349494 14:0.56237572 15:0.28440186 16:0.4114759 17:0.26737091 18:0.87951744 19:0.66469175 20:0.64317197 21:0.18497382 22:0.52923816 
1.7006670645825 1:0.27194554 2:0.35193262 3:0.37997937 4:0.52619094 5:0.10878695 6:0.37991819 7:0.64214712 8:0.59521377 9:0.62078464 10:0.03076452 11:0.66400206 12:0.53289592 13:0.76577264 14:0.41553611 15:0.16449167 16:0.78256309 17:0.45146385 18:0.59920579 19:0.52671701 20:0.71287721 21:0.32622147 22:0.63110739 
0.6595524054316587 1:0.59557021 2:0.27648768 3:0.4560883 4:0.65088826 5:0.6331082 6:0.31007984 7:0.47234085 8:0.45701376 9:0.38413966 10:0.67183548 11:0.59627503 12:0.42330351 13:0.72353214 14:0.70602018 15:0.29440153 16:0.4957144 17:0.30661952 18:0.87441581 19:0.55010515 20:0.63384277 21:0.2484858 22:0.6021148 
1.929245832358946 1:0.84731406 2:0.20599164 3:0.45075426 4:0.46586925 5:0.69014156 6:0.70406926 7:0.63264906 8:0.88153571 9:0.5157584 10:0.33124402 11:0.41242391 12:0.57923323 13:0.5282464 14:0.29259637 15:0.35041377 16:0.42626289 17:0.33759671 18:0.84018081 19:0.67103356 20:0.59606516 21:0.27639318 22:0.52013379 
0.6945981663535935 1:0.60257822 2:0.85725445 3:0.57288527 4:0.50941974 5:0.39482325 6:0.25589573 7:0.60181487 8:0.73272735 9:0.47256497 10:0.36112002 11:0.31570783 12:0.29592067 13:0.69120079 14:0.3674714 15:0.36728197 16:0.74816084 17:0.36318147 18:0.82910138 19:0.50425768 20:0.69375825 21:0.22977203 22:0.55785143 
0.2275273370342114 1:0 2:0.35220537 3:0.71690613 4:0.47779855 5:0.27841732 6:0.54508442 7:0.59334326 8:0.88701355 9:0.77398032 10:0.4329401 11:0.45688027 12:0.3293097 13:0.84246206 14:0.44572735 15:0.26906624 16:0.74100184 17:0.41509333 18:0.76058424 19:0.57978159 20:0.67869741 21:0.23879424 22:0.48983076 
0.9353608633175772 1:0.5162462 2:0.58235222 3:0.4435409 4:0.56365222 5:0.5438152 6:0.28200018 7:0.44137913 8:0.75578815 9:0.48081625 10:0.37773207 11:1 12:0.39463526 13:0.73644584 14:0.45677093 15:0.62791562 16:0.45550656 17:0.52084464 18:0.17513581 19:0.91108763 20:0.70547551 21:0.76643085 22:0.11845348 
0.8928925275319494 1:0.2315366 2:0.4788003 3:0.35539547 4:0.50317115 5:0.45539838 6:0.42201549 7:6.0717932e-16 8:0.79838061 9:0.34515765 10:0.087839253 11:0.43997574 12:0.74295592 13:0.93897736 14:0.39881164 15:0.46847644 16:0.6495139 17:0.43191338 18:0.43205804 19:0.55836582 20:0.28481272 21:0.071234785 22:0.80560791 
0.8425767058803375 1:0.64859504 2:0.47414592 3:0.49319693 4:0.31722623 5:0.77535874 6:0.035618875 7:0.88230699 8:0.70302188 9:0.75236845 10:0.069219865 11:0.58236253 12:0.92960536 13:0.79047966 14:0.46773279 15:0.069506072 16:0.064163253 17:0.4696306 18:0.39006725 19:0.88204241 20:0.26669288 21:0.11545029 22:0.9490611 
1.16676516848992 1:0.76900458 2:0.47949228 3:0.5657416 4:0.59184337 5:0.70835876 6:0.28245699 7:0.83458352 8:0.70218414 9:0.054171927 10:0.42203513 11:0.24302189 12:0.34332049 13:0.53876227 14:0.52246404 15:0.51099247 16:0.54707325 17:0.38973555 18:0.28186637 19:0.53238875 20:0.25214064 21:0.19335324 22:0.93302965 
0.06236258819841708 1:0.10169754 2:0.59618074 3:1 4:0.65919518 5:0.70511007 6:0.78018951 7:1 8:0.59928495 9:5.9287965e-16 10:0 11:0.73272991 12:0.61344647 13:0.41318509 14:0.46010056 15:0.5697192 16:0.55819261 17:0.45616817 18:0.57842052 19:0.73214823 20:0.27675644 21:0.10313404 22:0.78612554 
0.1210374524391178 1:0.78252071 2:0.49578717 3:0.57349545 4:0.40951467 5:0.88813931 6:1 7:0.66046083 8:0.62080204 9:0.27666232 10:0.30508336 11:0.56871539 12:0.31584495 13:0.54546255 14:0.30574492 15:0.51861179 16:0.93884099 17:0.47309279 18:0.58822918 19:0.69123518 20:0.33016038 21:0.031662174 22:0.66016334 
2.068102682099192 1:0.59131473 2:0.70862961 3:0.64181888 4:0.40681958 5:0.13884152 6:0.82842398 7:0.82462507 8:0.55212027 9:1 10:0.68846798 11:0.94833726 12:0.33123463 13:0.75947398 14:0.40043661 15:0.35683364 16:0.61464006 17:0.48016948 18:0.51840723 19:1 20:0.31835213 21:0.020137643 22:0.74323869 
0.5346568028658168 1:0.57965887 2:0.48702586 3:0.69614029 4:0.36505252 5:0.86098808 6:0.84714812 7:0.55846328 8:0.80459923 9:0.5831973 10:0.40543029 11:0.82806802 12:0.498476 13:0.71796566 14:0.14645101 15:0.11681288 16:0.4796302 17:0.49437511 18:0.32313618 19:0.046983775 20:0.44624239 21:0.51000583 22:0.84536111 
0.08653172137575557 1:0.48465624 2:0.63279557 3:0.24585527 4:0.41682115 5:0.48272663 6:0.65556079 7:0.65524971 8:0.86853713 9:0.82079589 10:0.090392776 11:0.48009247 12:0.18882628 13:0.86588275 14:0.75780934 15:0.81076878 16:0.12280338 17:0.42352608 18:0.74335277 19:0.13427389 20:0.36312249 21:0.40983817 22:0.80062604 
1.053081554994568 1:0.59692091 2:0.1518371 3:0.60168713 4:0.58420175 5:0.37517124 6:0.23051921 7:0.63685602 8:0.76897734 9:0.69291604 10:0.37499109 11:0.7608481 12:0.30150375 13:0.62285227 14:0.50993472 15:0.64315861 16:0.19151445 17:0.39143941 18:0.85737056 19:0.28093949 20:0.42850742 21:0.3360087 22:0.70753878 
0.5647462350103406 1:0.6286605 2:0.092827782 3:0.71485341 4:0.33973122 5:0.24060106 6:0.42811632 7:0.5852899 8:0.8371765 9:0.41799083 10:0.63442951 11:0.79993033 12:0.56172472 13:0.64958006 14:0.34606761 15:0.71871281 16:0.20795323 17:0.38270575 18:0.5507437 19:0.25285301 20:0.39931694 21:0.42678925 22:0.7696051 
0.9448061144196515 1:0.25777873 2:0.73337162 3:0.38272473 4:0.38498846 5:1 6:0.44529083 7:0.25755888 8:0 9:0.57397652 10:0.93586022 11:0.74018538 12:0.80246109 13:0.83645505 14:0.66480517 15:1 16:0.31565434 17:0.48063785 18:0.70188725 19:0.029879065 20:0.37859756 21:0.6024437 22:0.80305535 
0.1575494077740442 1:0.51739788 2:0.45764962 3:0.20993462 4:0.50944167 5:0.14408335 6:0.3487432 7:0.57376337 8:0.68650508 9:0.32808742 10:0.42657584 11:0.59531832 12:0.1735412 13:0.70650095 14:0.06032107 15:1.1403045e-16 16:0.46250406 17:0.36046654 18:0.26120126 19:0 20:0.4359445 21:0.46729887 22:0.84625947 
1.449579687657003 1:0.3232874 2:0.63515085 3:0.65819687 4:8.7037088e-16 5:0 6:0.60449594 7:0.35215616 8:0.62132245 9:0.68382734 10:0.62720203 11:2.5390485e-16 12:0.7640506 13:0 14:0.54376864 15:0.4482798 16:0.40662691 17:0.41882062 18:0.088892147 19:0.73974568 20:0.25893414 21:0.66459632 22:0.83510393 
0.6926262380902121 1:0.77210516 2:0.42053446 3:0.19908577 4:0.64002651 5:0.2966449 6:0.8631025 7:0.36103216 8:0.99214554 9:0.89473999 10:0.54299104 11:0.094787963 12:0.56588084 13:0.36811915 14:0.71412987 15:0.32272354 16:0.38316864 17:0.51447207 18:0.082483947 19:0.68147516 20:0.35998335 21:0.65678972 22:0.69314253 
-9.591471320555305 1:0.54976755 2:0.44386062 3:0.46863094 4:0.43477955 5:0.37520537 6:0.44922405 7:0.55204517 8:0.77231359 9:0.43592945 10:0.47715434 11:0.57460749 12:0.4563576 13:0.75742579 14:0.4406935 15:0.30479455 16:0.58493763 17:1 18:1 19:0.79485822 20:0.24754351 21:0.74590927 22:0.94029522 
-0.009539859210007657 1:0.53437001 2:0.44870111 3:0.54797053 4:0.43137425 5:0.48430374 6:0.50095558 7:0.60273755 8:0.71798772 9:0.5606662 10:0.40264633 11:0.54742336 12:0.47225764 13:0.8706091 14:0.30734822 15:0.39749867 16:0.70370829 17:0 18:0.6804691 19:0.91803449 20:0.05321192 21:1 22:1 
-7.408954474159392 1:0.53437001 2:0.44870111 3:0.54797053 4:0.43137425 5:0.48430374 6:0.50095558 7:0.60273755 8:0.71798772 9:0.5606662 10:0.40264633 11:0.54742336 12:0.47225764 13:0.8706091 14:0.30734822 15:0.39749867 16:0.70370829 17:0 18:0.6804691 19:0.91803449 20:0.05321192 21:1 22:1 
