svm_type c_svc
kernel_type rbf
gamma 0.09
nr_class 2
total_sv 48
rho -0.198671
label 131180101 131180102
probA -4.17118
probB -0.085883
nr_sv 26 22
SV
0.7802676834671123 1:0.91696596 2:0.72187835 3:0.57901311 4:0.24337439 5:0.63167167 6:0.50925457 7:0.1241642 8:0.60223836 9:0.56301886 10:0.54491353 11:0.57331169 12:0.52190137 13:0.68879676 14:0.76806521 15:0.46155936 16:0.52488697 17:0.4796505 18:0.45507789 19:0.66020721 20:3.3859811e-16 21:0.40618962 22:0.1635572 23:0.37739918 24:0.57472116 25:0.75554651 26:0.20651689 27:0.31830648 28:0.24313672 29:0.80658001 30:0.67560786 31:0.70257854 32:0.46910998 
5.437023303708925 1:0.31984821 2:0.74805033 3:0.28383657 4:0.75354636 5:0.89377654 6:0.75390321 7:0.46198812 8:0.455704 9:0.25543061 10:0.53227448 11:0.21622816 12:0.40990284 13:0.48232168 14:0.46947873 15:1 16:0.64048308 17:0.12964132 18:0.48788458 19:0.53966719 20:0.27170163 21:0.32440081 22:0.39192268 23:0.49487659 24:0.64531529 25:0.64983106 26:0.68273795 27:0.5278824 28:0.3786931 29:0.80374849 30:0.84483016 31:0.6069628 32:0.36347196 
3.919066635320616 1:0.54363668 2:0.57723492 3:0.36676401 4:0.84715915 5:0.87356657 6:0.5178206 7:0.70773828 8:0.60594153 9:0.20153034 10:0.57156163 11:0.33454153 12:0.32060257 13:0.79966694 14:0.88828683 15:0.70778453 16:0.69872761 17:0.23846135 18:0.32845634 19:0.83760351 20:0.41662049 21:0.39156809 22:0.39280805 23:0.51003456 24:0.62945575 25:0.67632598 26:0.66972095 27:0.60556501 28:0.34128913 29:0.78388345 30:0.88345593 31:0.62196618 32:0.33362874 
0.5758092569563933 1:0.27944177 2:0.56955057 3:0.32989374 4:0.6898424 5:0.37788337 6:0.36709467 7:0.35563937 8:0.48834512 9:0.040662851 10:0.3186641 11:0.53669173 12:0.44072741 13:0.5270853 14:0.52586526 15:1.2369798e-15 16:0.61426657 17:0.24979514 18:0.37963778 19:0.9467482 20:0.45895162 21:0.42988637 22:0.68086928 23:0.45077848 24:0.63305503 25:0.50191224 26:0.48464942 27:0.62504166 28:0.30038321 29:0.78460145 30:0.9827202 31:0.62229407 32:0.34553611 
3.969429461758107 1:0.61412144 2:0.54045558 3:0.59294468 4:0.35626081 5:0.23810238 6:0.68545848 7:0.50440919 8:0.42847681 9:0.43912259 10:0.5141468 11:0.66347009 12:0.53547168 13:0.58741373 14:0.80991638 15:0.5262742 16:0.53370827 17:0.44151357 18:0.63391697 19:0.7372191 20:0.083068721 21:0.56387901 22:1.4749559e-16 23:0.42666227 24:0.65027255 25:0.57474613 26:0.26997378 27:0.31595826 28:0.41855985 29:0.67269009 30:0.97124726 31:0.58836949 32:0.38167274 
1.652410446109513 1:0.028078543 2:0.5139634 3:0.66574794 4:0.88045144 5:0.54958445 6:0.36922246 7:0.5569405 8:0.63824642 9:1 10:0.41927975 11:0.34373397 12:0.88038874 13:0.87761593 14:0.38488925 15:0.014230394 16:0.59761542 17:0.26153773 18:0.46888137 19:0.70123196 20:0.30962703 21:0.41152757 22:0.10372315 23:0.44813401 24:0.55929518 25:0.52436107 26:0.58373636 27:0.54657686 28:0.37392455 29:0.5473609 30:0.95835656 31:0.55710548 32:0.27168313 
4.172313360360016 1:0.4201656 2:0.56545019 3:0.15379907 4:0.56093913 5:0.58505821 6:0.48812899 7:0.161644 8:0.59413838 9:0.46580058 10:0.36288798 11:0.2809287 12:0.49220556 13:0.11386447 14:0.48450571 15:0.51757193 16:0.64497262 17:0.23193331 18:0.48220977 19:0.50290877 20:0.57517898 21:0.69070655 22:0.50055635 23:0.34624264 24:0.67927748 25:0.40287423 26:0.32786241 27:0.369268 28:0.59838003 29:0.45484674 30:0.48378024 31:0.149634 32:0.071891427 
0.2781511352327956 1:0.71504688 2:0.38629004 3:0.72312522 4:0.44812489 5:0.55126822 6:0.4795213 7:0.66661376 8:0.37979454 9:0.32242897 10:0.48523104 11:0.16663642 12:0.44313759 13:0.44475231 14:0.61060143 15:0.055642549 16:0.70367116 17:0.32085752 18:0.88322079 19:0.38752148 20:0.46260083 21:0.64428496 22:0.28015083 23:0.22844255 24:0.58119869 25:0.49386483 26:0.41220996 27:0.28957623 28:0.4773452 29:0.41651106 30:0.51461548 31:0.10538632 32:1.6008509e-15 
2.112449025686242 1:0.44201338 2:0.61287206 3:0.8976531 4:0.2103384 5:0.22062057 6:0.67161477 7:0.7645064 8:0.47991431 9:0.46787372 10:0.68306369 11:1 12:0.58946335 13:0.49204895 14:0.56979626 15:0.66807848 16:0.6523968 17:0.48316684 18:0 19:0 20:0.64317763 21:0 22:0.56400174 23:0.30163279 24:0.42823935 25:0.66460276 26:0.65243655 27:0.9291836 28:0.69451797 29:0.41366294 30:0.52134061 31:4.3875219e-16 32:0.21140777 
1.243201291561639 1:0.23091543 2:0.4190281 3:0.93271005 4:0.29455009 5:0.87436324 6:0.46959451 7:0.66488141 8:0.22114779 9:0.68705714 10:0.42502466 11:0.22643465 12:3.575406e-16 13:0.51034379 14:0.35866091 15:0.14356774 16:0.49825543 17:0.73715621 18:0.57324576 19:0.10963666 20:0.72102499 21:0.63759762 22:0.49607351 23:0.34124202 24:0.5568307 25:0.86731422 26:0.39631408 27:0.34108877 28:0 29:0.98741341 30:0.85393971 31:0.96701515 32:0.51836967 
0.5536694719204256 1:0.11496022 2:0.58724219 3:0.37146053 4:0.49327695 5:0.97680193 6:0.52568746 7:0.94653416 8:0.96196079 9:0.29314107 10:0.42848462 11:0.48853385 12:0.5321579 13:0.39928779 14:1 15:0.39706028 16:0.43380475 17:0.54761505 18:0.51968461 19:0.77528191 20:0.6910696 21:0.54347897 22:0.38160685 23:0.55123121 24:0.65493405 25:0.55392277 26:0.29460505 27:0.56589109 28:0.94676751 29:0.51605773 30:0.6681968 31:0.80008501 32:0.47774911 
1.116936036731152 1:0.25229809 2:0.95648915 3:0.77097434 4:0.60429662 5:0.54695117 6:0.46397585 7:0.38731381 8:0.44275609 9:0.22223544 10:0.26351243 11:0.20173916 12:0.65833235 13:0.65509659 14:0.93024242 15:0.5578019 16:0.32917857 17:0.49369228 18:0.57195294 19:0.20341589 20:0.52526081 21:0.76605606 22:0.32258245 23:0.32926714 24:0.37313485 25:0.71840674 26:0.4975324 27:0.47507948 28:0.5044722 29:0.62583953 30:0.34508926 31:0.89167178 32:0.52660167 
8.273966800972611 1:0.904926 2:0.3428424 3:0.89921016 4:0.62503475 5:0.41799575 6:0.46335265 7:0.71210033 8:0.47977212 9:0.82643002 10:0.60767877 11:0.50196218 12:0.7296623 13:0.78220683 14:0.85510033 15:0.31619039 16:0.68812269 17:0.3372528 18:0.39938292 19:0.5884698 20:0.57244712 21:0.51146454 22:0.5821386 23:0.38303122 24:0.67819333 25:0.64700359 26:0.2147515 27:0.51505303 28:0.91665554 29:0.49164402 30:0.69909298 31:0.78814209 32:0.53323764 
2.295343808515851 1:0.94800198 2:0.31138086 3:0.2649717 4:0.18238264 5:0.89340764 6:0.60784274 7:0.20026776 8:0.6919592 9:0.41105536 10:0.16374527 11:0.42096815 12:0.61330909 13:0.74244726 14:0.40537941 15:0.72906154 16:0.52113879 17:0.23105136 18:0.75302887 19:0.30151126 20:0.3087317 21:0.53228426 22:0.32248074 23:0.437971 24:0.44970578 25:0.66212922 26:0.48478594 27:0.73721761 28:0.5706982 29:0.55853218 30:0.45450518 31:0.88895071 32:0.52223682 
4.721985659975103 1:0.46523565 2:0.20767988 3:0.68049127 4:1 5:0.50924718 6:0.54819691 7:0.56562251 8:0.53964019 9:0.10223448 10:0.2433074 11:0.42719591 12:0.48511672 13:0.46513838 14:0.67600179 15:0.40753844 16:0.43401074 17:0.63960451 18:0.30171236 19:0.3372969 20:0.66547912 21:0.40716925 22:0.17373201 23:0.42022854 24:0.79481745 25:0.42047712 26:0.43590656 27:0.53818083 28:0.18136473 29:0.42236364 30:0.26657566 31:0.86474359 32:0.53021574 
2.595418398253114 1:0.64319766 2:0.59107053 3:0.89324158 4:0.4708676 5:0.41335893 6:0.69203675 7:0.28485835 8:0.62820315 9:0.48150614 10:0.75909066 11:0.27489012 12:0.35150301 13:0.055173699 14:0.50770891 15:0.68426108 16:0.42203331 17:0.18381354 18:0.16379015 19:0.86134636 20:0.41056153 21:0.55264252 22:0.17961907 23:0.59428948 24:0.37680864 25:0.63257092 26:0.60714734 27:0.37920302 28:0.20842105 29:0.1341639 30:0.39947966 31:0.65404695 32:0.41140336 
1.146884595125645 1:0.79828876 2:0.69673914 3:0.98972887 4:0.93015635 5:0.48658478 6:0.35566548 7:0.67727768 8:0.72679579 9:0.22700226 10:0.56797862 11:0.36959484 12:0.33490074 13:0.62716383 14:0.59003425 15:0.24488714 16:0.50242835 17:0.61163759 18:0.74413365 19:0.94176716 20:0.5502308 21:0.48759273 22:0.57104558 23:0.45063853 24:0.45444533 25:0.72657508 26:0.87925065 27:0.50190771 28:0.9105677 29:0.48061499 30:0.58821446 31:0.89511144 32:0.43933898 
0.9687229887135397 1:0.19985379 2:0 3:0.26721874 4:0.78702867 5:0.2966935 6:0.42670685 7:0.54628122 8:0.72379929 9:0.32065362 10:0.43025267 11:0.1833127 12:0.4533833 13:0.44228968 14:0.84259748 15:0.62834072 16:7.0732852e-16 17:0.25092301 18:0.045775283 19:0.84907842 20:0.18155864 21:0.7704978 22:0.35202524 23:0.48607364 24:0.47649899 25:0.72427922 26:0.54803455 27:0.46687275 28:0.84319466 29:0.50847536 30:0.46580821 31:0.70459908 32:0.34030339 
3.77606018810372 1:0.43401256 2:0.43399617 3:0.19554897 4:0.55816168 5:0.54875159 6:0.44533572 7:0.92039913 8:0.50732923 9:0.40541327 10:0.73794544 11:0.70254952 12:0.26559743 13:0.53937382 14:0.66599345 15:0.47333318 16:0.47177345 17:0.44192135 18:0.84224224 19:0.50060207 20:0.51198441 21:0.63110822 22:0.53052497 23:0.55994499 24:0.56462812 25:0.79044569 26:0.38650694 27:0.63224876 28:0.84144527 29:0.46063918 30:0.60520792 31:0.83832574 32:0.5616104 
2.067006389404682 1:0.58712727 2:0.53602135 3:0.56967998 4:0.40804464 5:0.91552806 6:0.35127971 7:8.7599337e-16 8:0.64907342 9:0.24301606 10:0.58879584 11:0.45992348 12:0.66176647 13:0.34612045 14:0.89179593 15:0.43361238 16:0.690009 17:0.53657901 18:0.37655982 19:0.72860134 20:0.54845023 21:0.38526374 22:0.30876681 23:0.51829189 24:0.47058731 25:0.61983269 26:0.32241848 27:0.62283546 28:0.34853438 29:0.4779388 30:0.32923892 31:0.95037484 32:0.62859511 
1.044149417878495 1:0.11446773 2:0.34741178 3:0.50380021 4:0.40563703 5:0.68982786 6:0.50339079 7:0.45778623 8:4.3252086e-16 9:0.36641625 10:0.21323119 11:0.12630372 12:0.83660764 13:0.15675631 14:0.40412766 15:0.45700285 16:0.5739814 17:0.31423679 18:0.34429958 19:0.49486151 20:0.43575749 21:0.4109202 22:0.47246382 23:0.41226256 24:0.63589644 25:0.81557286 26:0.59786063 27:0.56222361 28:0.77673906 29:0.63958925 30:0.50813293 31:0.97636384 32:0.57731986 
0.8727171540579464 1:0.23521438 2:0.59974277 3:0.30940443 4:0.54874104 5:0.91545862 6:0.29844359 7:0.35881725 8:1 9:0.84222627 10:0.8231101 11:0.37309372 12:0.48107392 13:0.77772236 14:0.20971449 15:0.38700798 16:0.60148621 17:3.7958845e-16 18:0.58388752 19:0.43156412 20:0.21170782 21:0.21816429 22:0.43367174 23:0.47361034 24:0.21419607 25:0.69429231 26:0.20082742 27:0.65481913 28:0.6022656 29:0.33085984 30:0.73804837 31:0.81028444 32:0.5569846 
1.135155570459691 1:0.76014197 2:0.80626035 3:0.69779515 4:0.57819468 5:0.66322649 6:0.70566624 7:0.9357729 8:0.56447726 9:0.33716732 10:0.33636162 11:0.36612561 12:0.4655875 13:0.39684039 14:6.0461699e-16 15:0.55925339 16:0.69295263 17:0.6224823 18:0.57821858 19:0.64593309 20:0.072075978 21:0.46004641 22:0.49430263 23:0.71878558 24:0.38549072 25:0 26:0.24570435 27:0.55391872 28:0.39281765 29:1.0313887e-15 30:0.62077427 31:0.8378517 32:0.46067715 
9.911593940944726 1:7.6117994e-17 2:0.71475184 3:0.27131149 4:0.41094223 5:0.43640602 6:0.65571463 7:0.79185432 8:0.4068971 9:0.24404775 10:0.70156205 11:0.73442835 12:0.54201269 13:0.56766546 14:0.38863763 15:0.25372535 16:0.8721422 17:0.21780369 18:0.31650984 19:0.62872845 20:0.49096715 21:0.50879264 22:0.59867245 23:0.31744239 24:0.69874138 25:0.6569919 26:0.23818037 27:0.47788233 28:0.22128303 29:0.39051163 30:0.33571914 31:0.89626056 32:0.73548871 
1.108263675811137 1:0.46472126 2:0.74661887 3:0.67713875 4:3.6036374e-16 5:0.32078105 6:0.16115454 7:0.28107435 8:0.5784499 9:0.19020601 10:0.24823417 11:0.61474782 12:0.41180369 13:0.077126928 14:0.21863438 15:0.33130434 16:0.59650886 17:0.22629212 18:0.22777092 19:0.78984016 20:0.35811025 21:0.55148906 22:0.5290308 23:0.5220381 24:0.64284396 25:0.46648359 26:0.029165724 27:0.31880611 28:1 29:0.67874569 30:0.63559729 31:0.8871845 32:0.548437 
1.300760993398426 1:0.37633777 2:0.51069582 3:0.16464441 4:0.25422236 5:0.5864796 6:0.72560269 7:0.64139307 8:0.33094403 9:0.79972887 10:0.81020343 11:0.17343156 12:0.27886283 13:0.33386442 14:0.58777207 15:0.089068018 16:0.90988988 17:0.50706488 18:0.30902797 19:0.67505634 20:0.59469509 21:0.17993811 22:0.2114165 23:0.49660939 24:0.52997279 25:1 26:0.60574651 27:0.71474272 28:0.45095035 29:0.59076273 30:0.57982719 31:0.86100709 32:0.55924177 
-1.280283278019719 1:0.0063808779 2:0.6845603 3:1 4:0.79643106 5:0.57448536 6:0.60724986 7:0.21932793 8:0.95713663 9:0.33530465 10:0.56239051 11:0.21404938 12:0.80995095 13:0.41374129 14:0.50449914 15:0.094021738 16:0.66951805 17:0.49355981 18:0.46533185 19:0.36186457 20:0.68378162 21:0.63118809 22:0.78110558 23:1 24:0.53169346 25:0.83967525 26:0.25851277 27:0.5811196 28:0.5809958 29:0.71616584 30:0.73906869 31:0.30673519 32:0.76771861 
-2.086920630621864 1:0.83708656 2:0.81095272 3:0.52183157 4:0.41291556 5:0.77717036 6:6.401173e-16 7:0.986202 8:0.43681112 9:0.53858662 10:0.27094325 11:0.39871714 12:0.49004728 13:0.91152585 14:0.38276941 15:0.71899682 16:0.4620688 17:0.43213037 18:0.37233061 19:1 20:0.41962567 21:0.5618186 22:0.43784547 23:0.59999281 24:0.74410647 25:0.75723976 26:0.52855349 27:0.65234053 28:0.43632436 29:0.8023259 30:1.5021489e-16 31:0.1219623 32:0.57468498 
-0.645615529736823 1:0.14374468 2:0.79813546 3:0.4994961 4:0.22722612 5:0.40908569 6:0.61520714 7:0.48382655 8:0.77500945 9:0.37232718 10:5.4416605e-16 11:0.6726917 12:0.3401947 13:0.56263167 14:0.9230665 15:0.28784242 16:1 17:0.3947385 18:0.63708037 19:0.22856379 20:0.31371871 21:0.68600947 22:0.42432061 23:0.67781842 24:0.63290685 25:0.38930818 26:0.91788441 27:0.080184385 28:0.57161838 29:0.8785643 30:0.4548828 31:0.69544315 32:0.7908029 
-5.499487278334523 1:0.56061262 2:0.7560907 3:0.48561403 4:0.61429864 5:0.46587449 6:0.34343532 7:0.52931786 8:0.7361871 9:0.56340706 10:0.32090795 11:0.42538482 12:0.3214834 13:0.32957914 14:0.70778745 15:0.46043736 16:0.66992772 17:0.30004758 18:0.45866406 19:0.37157282 20:0.30772671 21:0.5100624 22:0.39735553 23:0.24126063 24:0.8636024 25:0.78058839 26:0.48375481 27:0.67693615 28:0.50687164 29:0.2332973 30:0.80730373 31:0.4918454 32:0.97277349 
-10 1:0.52275914 2:0.46649662 3:0.55949599 4:0.24397039 5:0.82803583 6:0.77479786 7:0.62398505 8:0.49216723 9:0.45662025 10:0.43551955 11:0.28736234 12:0.62377506 13:0.65355122 14:0.87031245 15:0.32167047 16:0.55652547 17:0.28889102 18:0.2601721 19:0.78053528 20:0.56842965 21:0.47313192 22:0.6307714 23:0.4623962 24:0.64760524 25:0.53835261 26:0.54444766 27:0.4348864 28:0.33622175 29:0.41243687 30:0.51751143 31:0.44482696 32:0.75468004 
-0.3537788428629006 1:0.46250761 2:0.58771443 3:0 4:0.58774811 5:0.64205778 6:0.63054895 7:0.37443867 8:0.72779971 9:0.17546189 10:0.59818453 11:0.41749328 12:0.28495052 13:0.32480267 14:0.47557557 15:0.38453835 16:0.72767293 17:1 18:0.25691372 19:0.6820547 20:0.19895992 21:0.69564629 22:0.43546107 23:0.54915124 24:0.37361866 25:0.93631017 26:0.29670903 27:0.58472389 28:0.62277329 29:0.57080889 30:0.60010874 31:0.30330443 32:0.79959273 
-3.194151120190758 1:0.53353304 2:0.58338767 3:0.60027051 4:0.42740735 5:0.28727812 6:1 7:0.13517806 8:0.28540134 9:0.43804428 10:0.3311224 11:0.38524425 12:0.55238271 13:0.52203023 14:0.80226433 15:0.57690555 16:0.38977614 17:0.225869 18:0.74484837 19:0.68821192 20:0.37136286 21:0.4108445 22:0.73574406 23:0.74129945 24:0.51744592 25:0.84891474 26:0.38812804 27:0.66794622 28:0.59015638 29:0.63586664 30:0.68887764 31:0.33939847 32:0.81190741 
-6.59395076494395 1:0.45083067 2:0.22667897 3:0.78409004 4:0.76826131 5:0.69670683 6:0.54153824 7:0.92804456 8:0.48753861 9:0.15915999 10:0.76164019 11:0.58009905 12:0.67955893 13:0.18957803 14:0.72481662 15:0.38679343 16:0.61979324 17:0.29832295 18:0.54510307 19:0.31659764 20:0.21546525 21:0.23799501 22:0.24714868 23:0.5706234 24:0.50782883 25:0.6809091 26:0.6087482 27:0.31500813 28:0.32682371 29:0.38239709 30:0.50718886 31:0.68220472 32:0.96623909 
-0.4107229709696006 1:0.75226754 2:0.56307882 3:0.55528516 4:0.86430621 5:0.50727969 6:0.61037815 7:0.6906718 8:0.71537954 9:0.50190914 10:0.15584651 11:0.34514377 12:0.29664356 13:0.028860962 14:0.7675851 15:0.16348977 16:0.62901157 17:0.15246601 18:0.59784913 19:0.77075648 20:0.28346062 21:0.38751987 22:0.52927452 23:0.20094965 24:0.3230055 25:0.074162267 26:0.30342773 27:0.95902228 28:0.40421507 29:1 30:0.41688532 31:0.6646539 32:0.92665482 
-4.817470322536447 1:0.042875692 2:0.82662785 3:0.30058348 4:0.6037007 5:0.56539685 6:0.71955681 7:0.66849178 8:0.44973692 9:0.50136012 10:0.83846498 11:0.31649715 12:1 13:0.55017656 14:0.25776556 15:0.47924024 16:0.39403209 17:0.65011394 18:0.18122765 19:0.83243197 20:0.42643017 21:0.61251444 22:0.32982424 23:0.19222566 24:0.61079985 25:0.22288686 26:0.37434396 27:0.42426637 28:0.66121775 29:0.93578422 30:0.52249879 31:0.5985586 32:0.85183531 
-2.121937083368126 1:0.53710705 2:0.67338187 3:0.58427376 4:0.66041839 5:0.64380634 6:0.58114141 7:0.32468057 8:0.62828201 9:0.04308616 10:0.47280917 11:0.39858279 12:0.51467746 13:0.7771275 14:0.36362743 15:0.60467124 16:0.80996358 17:0.35467362 18:0.25262231 19:0.28038442 20:0.33033311 21:0.62008381 22:0.27196959 23:0 24:0 25:0.74075067 26:0.44305354 27:0.42177582 28:0.58296591 29:0.61104518 30:0.670165 31:0.62137783 32:0.92602879 
-4.124372585799877 1:0.64558852 2:0.23811415 3:0.41242567 4:0.71815616 5:0.43611482 6:0.5488925 7:0.57392085 8:0.72335428 9:0 10:0.50900906 11:0.51248246 12:0.36605793 13:0.88475227 14:0.17518429 15:0.36033571 16:0.60457015 17:0.52092165 18:0.30744734 19:0.19110611 20:0.23757 21:0.55237061 22:0.23430873 23:0.25142184 24:0.61845171 25:0.82841426 26:0.37299815 27:0.58054417 28:0.6746031 29:0.56773394 30:0.78554618 31:0.50673711 32:0.89739233 
-7.226201456548456 1:0.22435664 2:0.50037527 3:0.51116222 4:0.71958637 5:0.57182825 6:0.53154367 7:0.61643702 8:0.57045507 9:0.54558468 10:0.30526456 11:0.77191967 12:0.0091805682 13:0.55579907 14:0.36806583 15:0.47308326 16:0.72197556 17:0.16471317 18:0.59194541 19:0.88803995 20:0.59075963 21:0.32563919 22:0.25557664 23:0.63161546 24:0.63936228 25:0.59439683 26:0.24855292 27:0.21078964 28:0.50172776 29:0.86581105 30:0.22330064 31:0.33326498 32:0.65143937 
-0.2670561880017133 1:0.45278674 2:0.24582423 3:0.70825821 4:0.73216552 5:0.76804137 6:0.46507528 7:0.33557916 8:0.29571885 9:0.55827796 10:0.21087162 11:0.69927973 12:0.57645923 13:0.53624672 14:0.16835904 15:0.50815558 16:0.52156949 17:0.55626285 18:0.80430979 19:0.81559592 20:0.46988297 21:0.30867168 22:0.16493016 23:0.6421482 24:0.51104182 25:0.70526969 26:0.49283943 27:0.50599611 28:0.47342372 29:0.76667923 30:0.13082197 31:0.23533908 32:0.63805211 
-2.714001977742134 1:0.014800072 2:0.30248481 3:0.15273742 4:0.13493477 5:0.23784508 6:0.26229987 7:0.42411509 8:0.65173721 9:0.40269506 10:0.23960137 11:0.28630024 12:0.28000268 13:1 14:0.69055301 15:0.64910918 16:0.60986513 17:0.76989084 18:0.8166222 19:0.73857546 20:0.41347945 21:0.5050965 22:0.62757158 23:0.40656474 24:0.42748737 25:0.2704199 26:0.46488184 27:0.76219279 28:0.45854139 29:0.17699549 30:0.90755451 31:0.49447939 32:0.82570249 
-0.6857607499750776 1:0.64977175 2:0.5484941 3:0.73637742 4:0.40661848 5:0.51325184 6:0.60846341 7:0.36341757 8:0.75833994 9:0.50614059 10:0.45438066 11:0.17322516 12:0.54253584 13:0.63398618 14:0.78355247 15:0.74003053 16:0.97395062 17:0.38411191 18:0.42708877 19:0.73834944 20:0.75907785 21:0.11312392 22:0.30829597 23:0.35473099 24:0.36666313 25:0.59490222 26:0.34527206 27:0 28:0.836905 29:0.65840191 30:0.802405 31:0.61866987 32:0.82424134 
-0.7665249203821811 1:0.4021444 2:0.51066321 3:0.8131392 4:0.6394974 5:0.58337468 6:0.35112724 7:0.44104466 8:0.89290255 9:0.26285058 10:0.54051477 11:0.26657683 12:0.71663892 13:0.50162148 14:0.77327436 15:0.57954633 16:0.99181092 17:0.28013507 18:0.43049926 19:0.42170584 20:0.50656056 21:0.43020993 22:0.49321648 23:0.64903486 24:0.92999327 25:0.30769992 26:0.47223821 27:0.38718086 28:0.22642955 29:0.48974672 30:0.59245193 31:0.55742413 32:0.85356939 
-1.760829315555616 1:0.80095464 2:0.79470938 3:0.38820457 4:0.35714504 5:8.2867001e-16 6:0.3850024 7:0.86515182 8:0.85120964 9:0.52548116 10:0.83590382 11:0 12:0.51906061 13:0.83346963 14:0.6567784 15:0.58157182 16:0.32217661 17:0.24399672 18:0.42726752 19:0.12591726 20:0.79737985 21:0.43917343 22:0.018982546 23:0.69887173 24:0.71510464 25:0.30009589 26:0.42332995 27:0.56829536 28:0.3712402 29:0.84192765 30:0.47650406 31:0.71150619 32:0.90667599 
-5.797066684098614 1:0.98286903 2:0.56200194 3:0.37923273 4:0.85044575 5:0.41808674 6:0.45009726 7:0.54204172 8:0.11350846 9:0.51156884 10:0.53830576 11:0.30871463 12:0.49408355 13:0.56860298 14:0.40449721 15:0.57880753 16:0.82673275 17:0.12612963 18:0.38749158 19:0.71507907 20:0.75374919 21:0.72907043 22:0.6372655 23:0.39720538 24:0.46476197 25:0.58176565 26:0.46432859 27:0.21904133 28:0.53265661 29:0.3420268 30:0.90273798 31:0.64133441 32:0.83003312 
-0.1615905917862002 1:0.095700681 2:0.48948148 3:0.876396 4:0.60149127 5:0.37869808 6:0.55569786 7:0.54220265 8:0.18283172 9:0.34817514 10:0.38428009 11:0.29437912 12:0.28303552 13:0.40449417 14:0.40115055 15:0.79269272 16:0.5963617 17:0.23381226 18:0.52897787 19:0.60927624 20:0.54612851 21:0.49277335 22:0.36101934 23:0.37823293 24:0.40694204 25:0.3901237 26:0.37381759 27:0.55365795 28:0.72881526 29:0.71279854 30:0.74954194 31:0.55418336 32:0.85190958 
-3.73546949212897 1:0.29841518 2:0.48070711 3:0.51071882 4:0.61558044 5:0.75928557 6:0.45748615 7:0.4599759 8:0.25163671 9:0.48531523 10:0.93945575 11:0.58035922 12:0.36996648 13:0.31774861 14:0.72840011 15:0.50255948 16:0.7473951 17:0.41003653 18:0.33936131 19:0.28265843 20:0.16022688 21:0.74891418 22:0.14336628 23:0.77831262 24:0.60276294 25:0.20337845 26:0.64661199 27:0.64819545 28:0.81152904 29:0.73688626 30:0.76312369 31:0.52019298 32:0.77919102 
-2.785564906824066 1:0.39071751 2:0.18471992 3:0.12202843 4:0.61188591 5:0.43554422 6:0.3094137 7:0.25534794 8:0.62321049 9:0.73887873 10:0.67144608 11:0.67244989 12:0.81966037 13:0.22133975 14:0.88327777 15:0.48640308 16:0.72770023 17:0.4366816 18:0.63260925 19:0.64084351 20:0.77006149 21:0.60897857 22:0.27816075 23:0.32992995 24:0.34733865 25:0.50720674 26:0.43684581 27:0.61783898 28:0.46795776 29:0.87154388 30:0.5103507 31:0.67912036 32:0.91642493 
