svm_type c_svc
kernel_type rbf
gamma 0.09
nr_class 2
total_sv 18
rho 0.52474
label 130300102 130300103
probA -3.43982
probB 0.240206
nr_sv 6 12
SV
6.922934569104324 1:0.46097988 2:0.44140583 3:0.57716197 4:0.036696773 5:0.26356015 6:0.036702175 7:0.26961944 8:0.32693279 9:0.96906173 10:0 11:0.060921457 12:0.78059298 13:0 14:0.37180576 15:0.80738515 16:0.32183734 17:0.5468899 18:1 19:0.71984488 20:0.60721678 
0.8402616246009007 1:0.47653249 2:0.61769342 3:0.61265028 4:0.44603673 5:0.4506599 6:0.543199 7:0.53155464 8:0.45046118 9:0.52025086 10:0.45859239 11:0.39643386 12:0.53306741 13:0.64102614 14:0.61554152 15:0.40463635 16:0 17:0.36886707 18:9.4726754e-16 19:0.76036894 20:0.92406291 
10 1:0.47653249 2:0.61769342 3:0.61265028 4:0.44603673 5:0.4506599 6:0.543199 7:0.53155464 8:0.45046118 9:0.52025086 10:0.45859239 11:0.39643386 12:0.53306741 13:0.64102614 14:0.61554152 15:0.40463635 16:0 17:0.36886707 18:9.4726754e-16 19:0.76036894 20:0.92406291 
0.0116210458495174 1:0.55291408 2:0.62149668 3:0.64361948 4:0.41565889 5:0.52582556 6:0.57225788 7:0.50714236 8:0.4588421 9:0.56633544 10:0.41594377 11:0.38188052 12:0.53181058 13:0.67699385 14:0.26624295 15:0.43044773 16:0.97563857 17:0.94304353 18:0.29546818 19:0.80575442 20:1 
10 1:0.55291408 2:0.62149668 3:0.64361948 4:0.41565889 5:0.52582556 6:0.57225788 7:0.50714236 8:0.4588421 9:0.56633544 10:0.41594377 11:0.38188052 12:0.53181058 13:0.67699385 14:0.26624295 15:0.43044773 16:0.97563857 17:0.94304353 18:0.29546818 19:0.80575442 20:1 
7.504913316944011 1:0.48858577 2:0.63136381 3:0.63234645 4:0.38904893 5:0.50480735 6:0.54292947 7:0.48021841 8:0.52814144 9:0.46490112 10:0.45090029 11:0.29754904 12:0.39358181 13:0.7386567 14:0.61439049 15:0.35655424 16:0.73040819 17:0.074787565 18:0.96262664 19:0.86216891 20:0.93613386 
-0.2844214435477687 1:0.52971822 2:0.62430763 3:0.6155988 4:0.43015984 5:0.49365202 6:0.52906841 7:0.52639002 8:0.45624769 9:0.54345739 10:0.43382475 11:0.35021421 12:0.51452398 13:0.68806493 14:0.47007009 15:0.44707188 16:0.66592586 17:0.41092643 18:0.34865829 19:1 20:0 
-2.820667936645911 1:0.48041111 2:0.58926994 3:0.55607694 4:0.4803209 5:0.46043587 6:0.52309912 7:0.49775925 8:0.49736336 9:0.57400662 10:0.4631035 11:0.34750006 12:0.53090352 13:0.63933092 14:0.43071634 15:0.49779686 16:1 17:1.1787324e-16 18:0.15643518 19:0 20:0.42642725 
-5.828012142900493 1:0.59776276 2:0.34481251 3:0.38426128 4:0.62841004 5:0.22384703 6:0.28646255 7:0.68613935 8:1 9:0.68270034 10:0.24273075 11:0.25632593 12:0.20633689 13:0.73131853 14:0.72947776 15:0.46486697 16:0.54093456 17:0.90130407 18:0.4030773 19:0.71755582 20:0.50032061 
-3.442947363194892 1:0.5494597 2:0.61037141 3:1 4:0.53376263 5:0.77789533 6:0.36925179 7:0.70265144 8:0.65494537 9:0.35770926 10:0.34655625 11:0.24065608 12:0.54422051 13:0.75119025 14:0.25889838 15:0.65761358 16:0.36533502 17:0.68918025 18:0.54486775 19:0.49278805 20:0.50820827 
-3.905555004785473 1:0.77654636 2:0.60384446 3:0.97054547 4:0.30905774 5:0.46455783 6:1 7:0.71654755 8:0.26964319 9:1 10:0.54718584 11:0.20088425 12:0.15203041 13:0.73839992 14:0.69454348 15:1 16:0.40769619 17:0.56693447 18:0.51871765 19:0.54948825 20:0.57401145 
-1.410132476881239 1:0.30544016 2:0.59630895 3:3.9004343e-16 4:0.53230363 5:0.50127131 6:0.73415035 7:0.77962661 8:0.1262487 9:0.36902866 10:0.065412141 11:0.093240045 12:0.65779346 13:0.84396118 14:0.80834424 15:0.48159698 16:0.63690495 17:0.9593057 18:0.63955688 19:0.51542091 20:0.51953053 
-2.335004406178571 1:1 2:0.52664483 3:0.43724626 4:0.17673633 5:0.80722499 6:0.60945833 7:0.078654818 8:0.57966363 9:0.63541192 10:0.17060584 11:0.37458736 12:0.29413691 13:0.50781 14:0.35429534 15:0.10937711 16:0.19113606 17:0.6295557 18:0.66557527 19:0.44749388 20:0.32473224 
-2.483124131910925 1:0.23695575 2:0.30064583 3:0.90085775 4:1 5:0.33008337 6:0.4671568 7:0.61725545 8:0.53010625 9:0.35003215 10:0.31472951 11:0.67871898 12:0.55873626 13:0.48175794 14:0.49683455 15:0.34169498 16:0.46978685 17:0.65054017 18:0.80478793 19:0.6703403 20:0.41779587 
-5.635204064401766 1:0.0980298 2:0.6834839 3:0.65823895 4:0.12115298 5:0.23741579 6:0.2744002 7:0 8:3.0831298e-16 9:0.64429432 10:0.44683549 11:0.51564246 12:0.57198757 13:0.97433811 14:0.19673385 15:0.54276443 16:0.31442246 17:0.54893863 18:0.71479177 19:0.47821543 20:0.38095239 
-2.06435686631689 1:0.68867254 2:0.70370781 3:0.64321685 4:0.33857056 5:0.32876968 6:0.43832278 7:0.75951642 8:0.49118793 9:0.57123846 10:0.64018112 11:0.29455948 12:1 13:0.9387424 14:0.76576811 15:0.45984915 16:0.47126168 17:0.74093026 18:0.75802904 19:0.55101895 20:0.47171372 
-4.127984006931489 1:0.49214283 2:0.77846259 3:0.44428682 4:0.11596418 5:0.51447105 6:0.73302883 7:0.65616798 8:0.50324708 9:0.16280952 10:0.81092918 11:0.29419523 12:0.36600611 13:0.17169453 14:0.59538847 15:0.33691341 16:0.42335817 17:0.63794905 18:0.4542799 19:0.5261659 20:0.3813706 
-0.9423207128033333 1:0.042270698 2:0.86840338 3:0.67763025 4:0.74247569 5:0.7002784 6:0.48952657 7:0.48249009 8:0.62616724 9:0.54916251 10:0.58351636 11:0.13439363 12:0.48502979 13:0.77587467 14:8.412439e-16 15:0.83421844 16:0.1556944 17:0.5848887 18:0.74971819 19:0.63827014 20:0.48833093 
