svm_type c_svc
kernel_type rbf
gamma 0.09
nr_class 2
total_sv 33
rho -0.295496
label 130180101 130180102
probA -3.8718
probB -0.151906
nr_sv 14 19
SV
3.385290325819866 1:0.36031708 2:0.37130046 3:0.4647854 4:0.45459265 5:0.49923763 6:0.16603489 7:0.39376014 8:0.2819685 9:0.78841156 10:0.19133222 11:0.53073055 12:0.14557134 13:0.55058575 14:0.40786013 15:0.52416122 16:0.27831203 17:0.79367566 18:7.4436578e-16 19:0.35088354 20:0.024133252 21:0.27926338 22:0.61371815 23:0.60665011 24:0.42569882 25:0.85007977 26:0.59352553 
0.8172120322500412 1:0.66448069 2:0.67906231 3:0.49484462 4:0.66548151 5:0.57732403 6:0.62519258 7:0.83226055 8:1 9:0.86889237 10:0.43761468 11:0.57942134 12:0.41228849 13:0.32251987 14:0.51884252 15:0.4678458 16:0.41951826 17:0.24446547 18:0.60599333 19:0.69884109 20:0.22791661 21:0.50763667 22:0.83401465 23:0.71121061 24:0.19147113 25:0.40840769 26:0.21235467 
3.592469555998363 1:0.60175765 2:0.791942 3:0.54469025 4:0.68469244 5:0.47100869 6:0.22649354 7:0.63636744 8:0.45594504 9:0.88360995 10:0.77278298 11:0.23750822 12:0.40199447 13:0.75159818 14:0.37722126 15:0.37273154 16:0.39094782 17:0 18:0.69383979 19:0.33662856 20:0.39180279 21:0.71231729 22:0.81366456 23:0.77144891 24:0.19918796 25:0.31422988 26:0.21277903 
4.478125843569583 1:0.41937467 2:0.055361226 3:0.063305616 4:0.46977383 5:0.48209894 6:0.43273893 7:0.48433852 8:0.37247667 9:0.46252951 10:0.30209315 11:0.54547244 12:0.21393836 13:0.57522482 14:0.6605171 15:0.53832442 16:6.35777e-16 17:0.30346552 18:0.8267253 19:0.2584939 20:0.50389153 21:0.12751286 22:0.77566046 23:0.65787232 24:0.11430855 25:0.21112034 26:0.25776684 
1.214964206945778 1:0.59727174 2:0.91733462 3:0.48513123 4:0.11827518 5:0.38140675 6:0.56123173 7:0.57706159 8:0.69334525 9:0.3395305 10:0.70924443 11:0.4977468 12:0.53479141 13:0.62450927 14:0.40570983 15:0.4874182 16:0.47462314 17:0.59457868 18:0.34969395 19:0.5681569 20:0.25653425 21:0.62781745 22:0.81622678 23:0.78360629 24:0.090325192 25:0.40965882 26:0.3286868 
7.076914096742766 1:0.92357057 2:0.59207851 3:0.24480069 4:0.30581042 5:0.32458118 6:0.22390418 7:0.55860174 8:0.30537435 9:0.43873093 10:0.49480233 11:0.49661726 12:0.33189529 13:0.79877353 14:0.48171633 15:0.52801192 16:0.34929731 17:0.14921457 18:0.41960344 19:0.60789323 20:0.032295018 21:0.23039915 22:0.62473798 23:0.65488589 24:0.148821 25:0.38239613 26:0.29205376 
1.82990114363292 1:0.79940778 2:0.31429157 3:0.29105499 4:0.70318562 5:0.08624462 6:0 7:0.37833667 8:0.20980395 9:0.57253397 10:0.58972412 11:0.45981157 12:0.38170767 13:0.43049264 14:0.71269077 15:0.56425333 16:0.47627071 17:0.9548946 18:0.77061921 19:0.2953895 20:0.72517937 21:1 22:0.426736 23:0.60708427 24:0.25019726 25:0.86673284 26:0.01827402 
1.527565432640436 1:0.51779085 2:0.58464748 3:0.21132255 4:0.47969028 5:0.91581219 6:0.63409942 7:0.49601948 8:0.98372555 9:0.56948948 10:0.25780442 11:0.86352342 12:0.20414987 13:0.52488524 14:0.51267594 15:0.42566261 16:0.73914564 17:0.63346428 18:0.49815583 19:0.40848851 20:0.56297457 21:0.91444474 22:0.54374272 23:0.33130196 24:0.18975201 25:1 26:0.079310171 
4.327866302617497 1:0.51346666 2:0.64768195 3:0.43402255 4:0.70322132 5:0.42844349 6:0.44403151 7:0.62281847 8:0.59068471 9:0.52571326 10:0.66478401 11:0.58279407 12:0.47980615 13:0.22682901 14:0.66973001 15:0.50597042 16:0.37464315 17:0.48218721 18:0.41990218 19:0.67021793 20:0.49172628 21:2.8901725e-16 22:0.20152564 23:0.19474824 24:0.17899723 25:0.77636886 26:0.028073752 
0.9059715677167466 1:0 2:0.86249059 3:0.62509978 4:0.36873218 5:0.51861459 6:0.23867652 7:0.42186779 8:0.64822811 9:0.35552621 10:0.65802974 11:0.26413754 12:0.11861131 13:0.18874246 14:0.60658991 15:0.39903471 16:0.24489431 17:0.22081845 18:0.70216268 19:0.65134054 20:0.93050075 21:0.23397963 22:0.47772405 23:0.26136249 24:0.2836211 25:0.73715997 26:0.079681568 
4.933205346839677 1:0.61390132 2:0 3:0.58363348 4:0.49846843 5:0.62914979 6:0.53104901 7:0.92268425 8:0.59799951 9:0.5174917 10:0.61664891 11:0.76560837 12:0.50661963 13:0.42007187 14:0.22610125 15:0.67090946 16:0.1167324 17:0.2907635 18:0.66307676 19:0.38602453 20:0.5237748 21:0.53299898 22:0.42783049 23:0.46769434 24:0.68545657 25:0.83508611 26:0.77232325 
10 1:0.60340494 2:0.69023085 3:0.18856511 4:0.4576827 5:0.38509312 6:0.53610462 7:0.62357354 8:0.68479407 9:0.48215455 10:0.61355436 11:0.54726583 12:0.48023647 13:0.71943671 14:0.84357822 15:0.25442934 16:0.46142286 17:0.33036152 18:0.55727136 19:0.30864805 20:0.49926427 21:0.45925674 22:0.40536785 23:0.69490832 24:0.95361388 25:0.57480329 26:0.65562332 
8.566505310757156 1:0.39820743 2:0.84169459 3:0.48805058 4:0.44330871 5:0.47808453 6:0.80824661 7:1 8:0.050597709 9:0.50637126 10:0.60042322 11:0.4823131 12:0.71808589 13:0.32597417 14:0.32590455 15:0.54005671 16:0.12367081 17:1 18:0.33004281 19:0.63140059 20:0.34915432 21:0.54384488 22:0.41738242 23:0.61868495 24:0.38696283 25:0.7532385 26:0.60030448 
8.82079419956157 1:0.61140883 2:0.89256424 3:0.1390688 4:0.71426511 5:0.48465744 6:0.36059389 7:1.202333e-15 8:0.75132114 9:0.24596363 10:0.32926559 11:0.94355714 12:0.59643018 13:0.36723247 14:8.0361806e-16 15:0.65457863 16:0.23117222 17:0.39977017 18:0.61300838 19:0.64689845 20:0.68009526 21:0.24299766 22:0.74293393 23:0.74515629 24:0.539235 25:0.65448833 26:0.67482913 
-2.359742950290564 1:0.33936432 2:0.86516827 3:0.30751729 4:0.8281042 5:0.50891525 6:0.26217085 7:0.76384586 8:0.50771946 9:0.73631775 10:0.3687205 11:0.79359889 12:0.19473366 13:0.73933762 14:0.56158257 15:0.46959355 16:0.1054637 17:0.29692575 18:0.64891154 19:0.36709681 20:0.23811971 21:0.38994995 22:0.56466866 23:0.42973852 24:0.14376113 25:0.9350183 26:0.9555313 
-9.273071421978196 1:0.78600073 2:0.62730807 3:0.27785963 4:0.46386254 5:0.64919394 6:0.53405154 7:0.52544993 8:0.20474125 9:0.21868986 10:0.41488141 11:0.48078406 12:0.69669718 13:0.1928817 14:0.36108321 15:0.3186034 16:0.31566626 17:0.15810768 18:0.41517496 19:0.24137297 20:0.46029422 21:0.43058273 22:0.8109836 23:0.23336318 24:0.26824859 25:0.76282877 26:0.74614173 
-2.046582734936264 1:0.61686474 2:0.11613218 3:0.14493629 4:0 5:0.47250935 6:0.65800786 7:0.52236003 8:0.89209074 9:0.87063426 10:0.37793338 11:0.22299932 12:0.36564225 13:0.2383616 14:0.52878672 15:0.51342207 16:0.46480736 17:0.57713246 18:0.384213 19:0.74489796 20:0.60553837 21:0.33149597 22:0.77637887 23:0.51380306 24:0.32569721 25:0.50959492 26:0.80991459 
-2.415597274164511 1:0.68016732 2:0.92162955 3:0.031061763 4:0.13692737 5:0.4728488 6:0.40197396 7:0.81323135 8:0.53874975 9:0.80216855 10:0.68952894 11:0.76605952 12:0.12860651 13:0.74893022 14:0.68464011 15:0.667413 16:0.32832509 17:0.18348898 18:0.60568458 19:0.4738054 20:0.51503843 21:0.5727362 22:0.55923426 23:0.53716147 24:0.21851125 25:0.98345864 26:0.93215144 
-4.040059694634024 1:0.70380223 2:0.44263932 3:0.44848803 4:0.24402465 5:0.11708331 6:0.85874188 7:0.41592109 8:0.4491148 9:0.49850991 10:1 11:0.97483319 12:0.20833413 13:0.61250395 14:0.55595011 15:0.81346583 16:0.31193367 17:0.28911692 18:0.69743103 19:0.74848515 20:0.48775241 21:0.45764196 22:0.43507662 23:0.6007036 24:0.071513228 25:0.75253409 26:0.97796953 
-0.7121935913887671 1:0.41417798 2:0.56119692 3:0.45091629 4:0.6569255 5:0.23184152 6:0.92810726 7:0.24097119 8:0.59680772 9:0.64464498 10:0.37073514 11:0.24063694 12:0.71157759 13:1 14:0.27889991 15:0.23711883 16:0.41331527 17:0.29593274 18:0.74893051 19:0.52854532 20:0.56281817 21:0.4665255 22:0.3696039 23:0.55534005 24:0.14134057 25:0.79007524 26:0.87089151 
-1.98737585189293 1:0.5035795 2:0.30876788 3:0.12500632 4:0.52705979 5:0.69785339 6:0.49188879 7:0.36788976 8:0.67578757 9:0.74403566 10:0.51668501 11:0.59031695 12:0.58154881 13:0.70468819 14:0.79870641 15:0.41784632 16:0.36846316 17:0.58312482 18:0.42593268 19:0.37411878 20:0.28342855 21:0.33648854 22:0.38641328 23:0.76136255 24:2.033716e-16 25:0.82013768 26:0.96276242 
-0.5983254819256381 1:0.65279025 2:0.84636164 3:0.1780747 4:0.38558587 5:0.31755534 6:0.65719056 7:0.41974357 8:0.61068445 9:0.80081069 10:0.9657287 11:0.91546917 12:0.5181663 13:0.50868934 14:0.65992522 15:0.33910218 16:0.16519096 17:0.87973815 18:0.37529027 19:0 20:1 21:0.39615777 22:0.59635377 23:0.31583849 24:0.17767802 25:0.024569938 26:0.63748688 
-9.574541346503675 1:0.54478556 2:0.6463151 3:0.16523999 4:0.58794278 5:0.25454062 6:0.19109456 7:0.67538929 8:0.68278754 9:0.41062441 10:0.46409509 11:0.32134247 12:0.3223305 13:0.37667581 14:0.35610929 15:0.33268175 16:0.61003965 17:0.81575614 18:0.8832224 19:0.25950789 20:0.43926939 21:0.18143155 22:0.64049935 23:0.52162057 24:0.3405194 25:0.68989372 26:0.73928624 
-1.85519392332501 1:0.3837595 2:0.40172797 3:0.087119706 4:0.57822174 5:0.30146489 6:0.68062091 7:0.67291641 8:0.44462597 9:0.51198208 10:0.96791697 11:0.2108877 12:0.40907449 13:0.64954317 14:0.43736923 15:0.33293644 16:0.24526219 17:0.71904755 18:0.91523552 19:0.8007223 20:0.19897997 21:0.44433504 22:0.57134455 23:0.13537465 24:0.33737594 25:0.44951952 26:0.71015286 
-1.885430275819254 1:0.15531248 2:0.72792697 3:0.40163919 4:0.39705956 5:0.016528267 6:0.55221647 7:0.48411825 8:0.50518793 9:0.65028453 10:0.21960761 11:0.67623436 12:0.5068199 13:0.40135452 14:0.6436367 15:0.6831643 16:0.49253836 17:0.50668466 18:0.45329559 19:0.47740427 20:0.21417938 21:0.59695941 22:0.49605343 23:0 24:0.33492327 25:0.44499135 26:0.61811447 
-2.494804195097677 1:0.46168551 2:0.33535817 3:0.42844069 4:0.68206942 5:0.28060731 6:0.12417698 7:0.60844195 8:0.4395557 9:0.78163904 10:0.50884229 11:0.54752374 12:1 13:0.26395127 14:0.5968715 15:0.43232059 16:0.40987363 17:0.084348366 18:0.20302154 19:0.48459622 20:0.42538762 21:0.60440367 22:0.25557768 23:0.51713955 24:0.17889921 25:0.42902192 26:0.7728048 
-1.982683483580991 1:0.47227463 2:0.69782621 3:0.33418489 4:0.62401748 5:1 6:0.63313013 7:0.25844115 8:0 9:0.82296681 10:0.57503802 11:0.46645361 12:0.16146794 13:0.91297203 14:0.62427539 15:0.35669693 16:0.21611579 17:0.506414 18:0.5429585 19:0.35687077 20:0.52739173 21:0.56280285 22:0.52145731 23:0.11427672 24:0.35721588 25:0.36691475 26:0.70607454 
-4.320362347162596 1:0.73147929 2:0.64837366 3:0.10416787 4:0.71690345 5:0.62651932 6:0.11929049 7:0.43347514 8:0.63602549 9:0.70852745 10:0.82923615 11:0.20051424 12:0.73097444 13:0.60925674 14:0.63988769 15:0.68784791 16:0.25295541 17:0.39820501 18:0.16086458 19:0.88528907 20:0.63546163 21:0.52353823 22:0.65624934 23:0.21457945 24:0.30399349 25:0.38378105 26:0.60833824 
-5.352198804968017 1:0.63475293 2:0.72180372 3:0.36702827 4:0.83529902 5:0.39714107 6:0.41439411 7:0.64532632 8:0.28429618 9:0.92175853 10:0.55541211 11:0.87887454 12:0.22401842 13:0 14:0.58384711 15:0.59731168 16:0.59866816 17:0.41898796 18:0.52753341 19:0.41161674 20:0.52038419 21:0.23244189 22:0.31277072 23:0.88699079 24:0.37819001 25:0 26:0.81175143 
-5.66483097288463 1:0.85569245 2:0.84446049 3:0.6408565 4:0.66294992 5:0.32275257 6:0.52512103 7:0.4748652 8:0.40080807 9:0.33951277 10:0.23960914 11:0.70945358 12:0.55259609 13:0.88636917 14:0.56853253 15:0.37640172 16:0.51286769 17:0.63158572 18:0.63907427 19:0.84598213 20:0.55809891 21:0.40642968 22:0.71799117 23:0.44024947 24:0.35281992 25:0.44634879 26:0.75161916 
-1.867984283072347 1:0.39749095 2:1 3:0 4:0.47681034 5:0.46256277 6:0.67173773 7:0.66765332 8:0.46728319 9:0.3537738 10:0.15948687 11:0.27569258 12:0.25014874 13:0.53184384 14:0.39238024 15:0.34277174 16:0.37542626 17:0.31398138 18:0.40756509 19:0.6130603 20:0.30802503 21:0.66130799 22:5.4192501e-16 23:0.54038233 24:0.2308175 25:0.22362946 26:0.79306269 
-2.084624273294321 1:0.35975266 2:0.27237532 3:0.17991576 4:0.48098052 5:0.33888161 6:0.057272609 7:0.87150449 8:0.45824534 9:0.25621372 10:0 11:0.71946728 12:0.50109214 13:0.98343176 14:0.70280403 15:0.52577686 16:0.41986841 17:0.44239444 18:0.35758322 19:0.856758 20:0.98152947 21:0.5742979 22:0.44634578 23:0.55443603 24:0.13090594 25:0.26939198 26:0.71947581 
-0.9611824581729831 1:1 2:0.58586973 3:0.52794313 4:0.75664461 5:0.29976732 6:0.74185914 7:0.54254824 8:0.83192933 9:0 10:0.35682836 11:0.26201326 12:0 13:0.44077337 14:0.83282512 15:0.61605537 16:0.037594274 17:0.60602415 18:0.12601107 19:0.43582341 20:0.50829488 21:0.53462976 22:0.44201949 23:0.31343624 24:0.20999032 25:0.44364971 26:0.78420717 
